/*
Copyright (C) 2024, Advanced Micro Devices, Inc. All rights reserved.
SPDX-License-Identifier: MIT
*/

cfloat weightAppOut1_data [1000] = {
{-2.42316e-05, 4.10712e-05},
{1.47605e-05, 6.64723e-05},
{3.48361e-06, -1.21354e-05},
{-3.24771e-05, 6.05779e-06},
{1.38823e-05, -5.20988e-05},
{-1.6998e-05, -6.79865e-05},
{-1.07065e-05, 1.49962e-05},
{-5.01343e-05, 4.79915e-05},
{-3.43865e-05, 4.10061e-06},
{-4.24196e-05, -9.04817e-05},
{-7.2356e-05, -0.000112111},
{-9.67358e-05, -4.07319e-05},
{-2.79369e-05, 5.80214e-07},
{2.16215e-05, 9.78296e-06},
{2.13432e-05, -5.29527e-06},
{4.52105e-05, -6.21728e-05},
{-1.55157e-05, -7.77156e-05},
{-5.63023e-05, -6.48e-05},
{-5.92895e-05, 3.80455e-05},
{-2.35776e-05, 4.28429e-05},
{-1.88127e-05, 1.50074e-05},
{-7.31717e-06, -5.57811e-05},
{2.6928e-05, 1.52276e-05},
{-1.11668e-05, 2.90119e-06},
{1.01108e-05, 1.88952e-05},
{5.38612e-05, 3.56608e-05},
{8.46409e-05, 2.56607e-05},
{-6.83099e-05, 7.32858e-06},
{-5.68089e-05, 3.18535e-05},
{-2.06367e-05, -3.36333e-05},
{7.60546e-05, 2.18698e-06},
{4.6863e-05, 3.96278e-07},
{-2.87083e-05, -9.36678e-06},
{-1.19274e-05, -4.23968e-05},
{-2.64817e-05, -1.55597e-05},
{-1.58981e-05, -1.62155e-05},
{5.94207e-05, 1.05356e-05},
{7.42939e-06, -2.75462e-05},
{-2.2915e-05, 3.01381e-05},
{-5.06039e-05, 1.19112e-05},
{-7.39899e-05, -5.16432e-05},
{-7.17442e-05, -1.08504e-05},
{8.82708e-06, -1.92337e-05},
{-5.80191e-06, -4.26334e-05},
{1.25591e-05, -1.91394e-05},
{-1.06943e-05, -1.1886e-06},
{-1.30991e-05, 1.65887e-05},
{-1.45676e-05, -5.84603e-05},
{-5.244e-05, -2.93327e-05},
{-4.41121e-05, 5.83357e-06},
{2.87686e-05, -1.03635e-05},
{1.57347e-05, 4.46914e-05},
{-1.03521e-05, -2.48528e-05},
{1.74944e-05, 2.07955e-05},
{-7.5714e-05, -1.71186e-05},
{-3.90711e-05, 6.21826e-05},
{-2.96293e-05, 7.25477e-05},
{-3.38093e-05, 3.70801e-05},
{-1.05402e-06, -1.73612e-05},
{-6.49325e-05, 3.30084e-05},
{1.88247e-05, 6.37514e-06},
{8.96684e-05, -1.79682e-05},
{-1.58581e-05, -5.31625e-05},
{4.42727e-06, -3.59648e-05},
{7.90308e-05, -3.49445e-05},
{-5.36744e-06, -5.84915e-05},
{3.60087e-05, -2.73092e-05},
{-3.42203e-07, 3.32969e-05},
{-1.64309e-05, -4.52716e-06},
{-2.11616e-05, -2.54903e-05},
{-3.81665e-05, -2.4531e-06},
{-3.96967e-05, 3.25846e-07},
{4.74728e-05, 2.49005e-05},
{-4.25228e-05, -4.15533e-05},
{1.96878e-05, -1.84164e-05},
{-3.35651e-05, 2.84666e-05},
{1.109e-05, 4.05491e-05},
{-5.15814e-05, 2.18127e-05},
{-0.000116076, -4.59272e-05},
{-1.8884e-05, -6.03932e-05},
{-3.84601e-05, -0.000119667},
{-3.42807e-05, -4.40015e-06},
{-4.92187e-05, -3.37402e-05},
{-2.76049e-05, 5.08069e-05},
{9.57865e-07, 3.8672e-05},
{-4.16478e-05, -7.29773e-06},
{-2.93343e-05, -2.68536e-05},
{3.27884e-05, -6.93465e-05},
{7.38249e-05, -6.11802e-05},
{7.12078e-05, -8.12761e-05},
{2.67522e-05, -6.15146e-05},
{-3.3807e-06, -1.41328e-07},
{-5.41636e-05, -4.60097e-05},
{-2.42688e-05, 6.72229e-06},
{-1.57091e-05, -4.63882e-05},
{3.14652e-05, -4.88271e-05},
{2.39722e-06, 4.49363e-07},
{-3.16654e-05, 4.12661e-05},
{-4.58732e-05, 3.59018e-05},
{-4.82984e-05, 3.79077e-06},
{-3.19749e-05, 8.99471e-06},
{-4.04932e-05, 8.47802e-05},
{-3.96605e-05, 1.05619e-05},
{-3.33835e-05, -1.51114e-05},
{3.67835e-05, -2.87429e-06},
{2.49291e-05, -4.0445e-06},
{4.20811e-05, 2.41857e-05},
{1.75065e-05, -2.91647e-05},
{5.71324e-05, 8.10483e-06},
{0.000103865, -1.49519e-05},
{2.82922e-05, 4.0083e-05},
{-6.71123e-06, 1.10302e-05},
{7.82579e-06, 7.63917e-05},
{-3.07094e-05, 9.86864e-05},
{3.84022e-05, 0.000108716},
{1.57156e-05, 7.79936e-05},
{5.97648e-05, 3.30438e-05},
{4.99423e-05, -0.000100043},
{2.06616e-05, -5.47976e-05},
{-3.23342e-05, -3.86462e-05},
{-4.62442e-05, -1.51286e-05},
{-6.97346e-05, -2.3159e-05},
{-2.06085e-05, -2.06023e-05},
{1.55161e-05, -1.44901e-05},
{4.5161e-06, 3.09448e-05},
{5.0161e-06, 3.23968e-05},
{1.13524e-05, 2.73496e-05},
{3.52355e-05, -1.9481e-05},
{8.23318e-06, -5.15701e-05},
{-1.76955e-05, 2.92663e-05},
{-2.24937e-05, 4.29288e-05},
{-1.72528e-05, 1.17867e-05},
{-2.14903e-06, 4.14174e-05},
{-1.53603e-05, 3.46901e-05},
{2.51541e-05, 4.62644e-05},
{5.67473e-05, -2.18721e-05},
{-3.60757e-05, -9.01064e-05},
{-0.000126372, -6.70499e-05},
{-2.16266e-05, -3.44652e-05},
{1.52266e-05, 5.1026e-05},
{5.52697e-05, 2.76091e-05},
{-2.6027e-05, 8.10344e-06},
{-4.29656e-05, 1.50707e-05},
{-8.41916e-06, 1.55531e-07},
{2.29203e-05, 9.71835e-07},
{2.59723e-06, -1.0082e-05},
{1.49576e-05, 5.57071e-06},
{5.66511e-05, -2.14339e-05},
{2.34414e-05, 2.77692e-05},
{5.04409e-05, 3.93862e-05},
{-1.80467e-05, 2.44064e-05},
{2.69259e-05, 6.69505e-05},
{-4.13251e-05, -1.80143e-05},
{-3.14391e-05, -9.26969e-06},
{-6.36424e-05, -8.31182e-06},
{9.401e-06, 2.32304e-05},
{3.51304e-05, -2.75181e-05},
{-3.65776e-05, -1.49101e-05},
{-6.6618e-05, 4.20753e-05},
{-4.26192e-05, 1.24075e-06},
{6.44425e-05, -2.30185e-05},
{7.02884e-05, -3.28105e-05},
{9.90515e-05, 3.48729e-05},
{4.02631e-05, 3.30949e-05},
{-3.60165e-05, -1.34419e-06},
{-4.99538e-05, 3.26814e-05},
{9.01875e-06, -4.46357e-05},
{3.16934e-05, 2.10097e-05},
{0.000100185, 1.26453e-05},
{6.17339e-05, -1.42027e-06},
{2.28938e-05, -1.72602e-05},
{6.02733e-05, 1.35787e-06},
{0.000108823, 3.86138e-06},
{4.4279e-05, -1.93533e-05},
{-8.09701e-05, -3.87611e-06},
{-9.9577e-06, -1.64167e-05},
{5.36004e-05, -8.34045e-05},
{5.98037e-05, -7.98743e-05},
{-5.50501e-05, -6.53954e-05},
{3.47123e-05, -6.27569e-05},
{5.25003e-05, -2.38575e-05},
{1.73545e-05, 2.56707e-05},
{2.00905e-05, 6.13511e-05},
{-6.29677e-05, 7.89408e-05},
{-6.96112e-05, 1.13582e-05},
{-3.77812e-05, 1.14428e-05},
{-2.55986e-06, 2.29065e-05},
{1.87409e-05, -2.38162e-05},
{-5.79481e-06, -2.99774e-05},
{2.42761e-05, -2.07648e-05},
{-4.78496e-05, -5.92805e-05},
{-1.99303e-06, 2.85553e-05},
{-6.73643e-06, 1.01405e-05},
{5.95406e-05, 3.71895e-05},
{4.57397e-05, -1.4452e-05},
{7.83902e-05, -4.14811e-05},
{7.26352e-05, 2.85311e-06},
{-1.87024e-05, 4.32279e-05},
{8.72253e-06, 2.11639e-05},
{8.5647e-05, 1.89398e-05},
{6.67181e-05, -3.28822e-05},
{7.56687e-05, 3.19444e-07},
{4.85617e-05, 1.85069e-05},
{-1.1781e-05, 5.58139e-05},
{2.56031e-05, 3.87109e-05},
{5.41213e-05, 2.26975e-05},
{9.91984e-05, 5.74975e-05},
{1.80015e-05, -2.06633e-05},
{-3.12015e-05, -4.2174e-05},
{-4.13614e-05, -5.05976e-06},
{-4.20071e-05, 7.97086e-05},
{9.57353e-06, 3.40026e-05},
{1.52129e-05, -3.01274e-05},
{-3.63998e-05, -3.31684e-05},
{-1.22683e-05, -4.09293e-06},
{6.70878e-06, 3.51655e-05},
{2.90221e-05, 3.65449e-05},
{2.57862e-05, 2.17112e-05},
{-9.65083e-06, 2.917e-05},
{-4.95126e-05, 8.09561e-05},
{3.02627e-05, 8.72495e-06},
{1.71543e-05, 4.3721e-05},
{1.85308e-05, 5.76698e-05},
{1.97212e-05, 4.43016e-05},
{3.58438e-05, 0.000101445},
{2.80974e-05, 2.31774e-05},
{-1.16201e-05, -1.37673e-06},
{-2.06707e-05, 2.0511e-05},
{2.4392e-05, 1.43908e-05},
{-1.43721e-05, -7.40169e-06},
{-2.27406e-05, 5.58584e-06},
{-2.89023e-05, -7.38644e-06},
{-4.98025e-07, -1.15429e-05},
{7.61445e-05, 4.71603e-05},
{-4.28408e-07, 7.25377e-05},
{-4.29298e-05, 3.5267e-05},
{-1.80366e-05, 8.2581e-05},
{-2.3334e-06, 3.85381e-05},
{3.46067e-05, 6.42798e-05},
{3.24906e-05, -1.70817e-05},
{3.72514e-05, 2.33397e-05},
{7.0245e-06, 1.15874e-05},
{1.57731e-05, -2.97534e-05},
{2.96017e-05, 1.64341e-05},
{1.64544e-05, 4.23106e-05},
{3.36473e-05, 7.92206e-07},
{-3.54327e-05, -6.19721e-05},
{-3.49423e-05, 5.10266e-05},
{-1.0377e-05, 2.36866e-05},
{6.01539e-05, 2.662e-05},
{-1.65413e-05, 8.75662e-05},
{-3.49419e-05, -5.15254e-07},
{1.23068e-05, 1.28462e-05},
{-4.14206e-07, 2.23913e-05},
{4.70374e-05, 2.86008e-05},
{7.90223e-05, 2.56221e-05},
{2.98177e-05, -4.25221e-05},
{1.16313e-05, 1.48297e-05},
{4.86034e-06, -2.08141e-05},
{-1.43503e-05, -2.63673e-05},
{-1.83117e-05, -3.42342e-05},
{-2.48433e-05, -2.80876e-05},
{4.09079e-05, 2.38771e-05},
{0.000108546, 7.90699e-06},
{3.191e-05, 3.48424e-05},
{-1.67114e-05, -6.9396e-05},
{-6.76238e-05, -8.29754e-05},
{-7.56701e-05, 1.24389e-05},
{-1.7049e-05, -3.77503e-05},
{-4.2934e-07, -7.98612e-05},
{-2.66801e-06, -8.53534e-05},
{7.20145e-07, -1.50145e-05},
{-3.57332e-05, -3.40384e-05},
{-2.3454e-05, -2.88889e-05},
{-2.65455e-05, -6.15628e-05},
{-7.99798e-05, -4.89431e-05},
{-5.64405e-06, 1.09321e-05},
{8.95977e-05, 8.51229e-07},
{6.30802e-05, 2.62306e-05},
{4.86674e-06, 4.29216e-05},
{-5.32987e-05, -6.24778e-06},
{-3.08151e-06, -7.42765e-05},
{-8.34791e-06, -2.41015e-05},
{-2.51422e-05, 3.73973e-05},
{2.34318e-05, -4.02584e-05},
{1.89376e-05, -4.60197e-05},
{9.4776e-06, 4.10414e-05},
{3.61812e-05, -2.27292e-05},
{-1.58753e-05, 1.08064e-05},
{4.18533e-05, -8.91695e-05},
{-1.26929e-05, -0.000104138},
{4.56732e-05, -2.8584e-05},
{2.55904e-06, 6.00822e-05},
{-6.34929e-07, -3.34583e-05},
{6.79917e-05, 4.95574e-05},
{3.23516e-05, 4.36176e-05},
{-6.41514e-05, 3.24568e-05},
{-3.61682e-05, 3.22117e-05},
{-9.32078e-05, 1.44122e-06},
{1.41447e-05, 8.2776e-06},
{3.12957e-05, 3.06277e-05},
{-4.97652e-05, -1.15661e-05},
{-2.19325e-05, -4.01826e-05},
{-1.67671e-05, -1.32504e-06},
{5.19654e-05, 0.000108457},
{5.16952e-05, 0.000119353},
{4.43112e-05, 2.67192e-05},
{7.11352e-05, -6.45404e-05},
{-2.15549e-05, -5.70894e-05},
{1.50038e-05, 1.7085e-05},
{7.62288e-06, 7.80399e-05},
{1.50823e-05, -9.36532e-06},
{-3.04952e-05, -7.45172e-05},
{-2.87041e-05, -3.5884e-05},
{-8.26387e-05, -4.14632e-05},
{-1.27646e-05, -2.78607e-05},
{-3.4753e-05, -3.01255e-05},
{-2.52924e-05, -4.31369e-05},
{5.804e-06, 4.44204e-05},
{3.199e-05, 3.46643e-05},
{1.53347e-05, 1.16413e-05},
{1.83634e-06, -6.48048e-05},
{-2.34861e-05, 3.08268e-05},
{-1.70094e-05, 4.40299e-05},
{2.75783e-05, 9.59623e-06},
{-7.22636e-06, 2.28891e-05},
{3.27383e-05, 1.01964e-05},
{9.52173e-06, 5.13671e-06},
{-1.18611e-05, 2.34766e-05},
{1.48774e-05, 5.35888e-05},
{1.59806e-05, -3.694e-05},
{7.35212e-05, 4.0984e-07},
{-6.71204e-06, -3.98203e-05},
{1.86986e-05, -1.03086e-06},
{-1.60872e-05, 1.10921e-06},
{-3.27816e-05, 2.98102e-05},
{2.81276e-05, -5.37562e-05},
{1.83715e-05, -7.41769e-05},
{2.85646e-05, -6.18933e-05},
{1.90142e-05, -2.91816e-05},
{0.00010241, 6.27657e-05},
{5.26025e-05, 4.65999e-06},
{6.5763e-06, -9.71626e-06},
{1.34618e-05, 4.4118e-05},
{-6.59712e-05, 1.63394e-05},
{3.60315e-05, -4.58569e-05},
{3.88644e-05, -3.35709e-05},
{0.000133897, 1.13067e-05},
{9.11632e-05, -4.34869e-06},
{2.16663e-06, 2.49245e-05},
{7.10557e-05, 3.86112e-05},
{-5.9891e-06, 4.59999e-05},
{6.46212e-05, 2.86312e-05},
{5.51442e-05, -4.21817e-05},
{-2.32877e-05, -1.93762e-05},
{-7.44782e-05, -5.6833e-05},
{-9.02347e-05, 2.49755e-05},
{-4.27633e-05, -3.34241e-05},
{-2.50322e-05, -4.50849e-05},
{-1.60461e-05, -9.23481e-05},
{3.78557e-05, -2.72708e-05},
{4.45677e-05, 2.78638e-05},
{7.57976e-05, -3.63764e-05},
{4.75454e-05, -4.00865e-06},
{1.02045e-05, 6.77654e-06},
{-1.58991e-05, -5.80084e-05},
{2.68066e-05, 8.21264e-06},
{-6.92109e-05, 1.75885e-05},
{-8.80523e-05, -2.22952e-05},
{-0.000105039, -5.24784e-05},
{-2.6979e-05, -3.86662e-06},
{5.90679e-05, 7.5229e-05},
{-2.69328e-05, 6.34489e-05},
{-3.79754e-05, 7.38481e-06},
{-1.33098e-05, -6.57863e-06},
{-2.94223e-05, -1.33137e-05},
{1.0489e-06, -3.29779e-05},
{-3.22328e-05, -5.17824e-05},
{-2.26712e-05, 2.04826e-05},
{-4.05458e-05, 1.16806e-05},
{-2.7561e-05, 1.13117e-05},
{-3.55603e-05, 2.38568e-05},
{4.59249e-05, 7.4119e-05},
{5.19552e-05, -3.40105e-05},
{3.58366e-05, -7.55207e-05},
{-2.52902e-05, -1.04276e-05},
{2.89035e-05, -6.46058e-06},
{5.85204e-05, 1.22464e-05},
{4.27049e-05, -3.35344e-05},
{1.15162e-05, -2.49548e-06},
{-5.59875e-05, 5.61154e-05},
{-3.70194e-05, 2.06348e-05},
{-5.29329e-06, 2.47244e-05},
{5.25429e-05, -5.54128e-05},
{4.51307e-06, 2.08721e-05},
{-2.0111e-05, 1.82479e-05},
{5.94277e-06, 3.19312e-05},
{3.68067e-05, 7.43053e-05},
{2.08581e-06, 4.18653e-05},
{-2.30585e-05, 7.32485e-07},
{-1.33871e-05, -4.49424e-05},
{-3.82587e-06, 3.43053e-06},
{3.5204e-07, 1.67319e-05},
{1.07507e-05, 0.000101703},
{3.55142e-05, 4.05826e-05},
{1.24986e-05, -2.91886e-05},
{-6.94418e-05, -4.86481e-05},
{-7.04643e-05, 1.86728e-05},
{-3.45358e-05, 1.73341e-05},
{1.09806e-05, 5.89916e-05},
{3.09262e-05, 7.87451e-06},
{2.60596e-06, -1.60233e-05},
{5.26761e-05, 1.50561e-05},
{6.50291e-05, 3.8767e-05},
{2.81828e-05, -3.66254e-05},
{-3.80165e-05, 8.31473e-05},
{-7.72125e-05, -1.47935e-05},
{-5.20389e-05, 2.87523e-06},
{-3.29234e-05, -6.38705e-05},
{-2.56677e-05, -4.89801e-05},
{-1.42106e-05, -7.07567e-05},
{-4.90155e-05, -2.06098e-05},
{1.70183e-05, 5.84606e-05},
{-2.65578e-06, 1.00117e-06},
{-4.39584e-07, -2.04882e-05},
{-1.24257e-05, 4.0137e-05},
{-5.29948e-05, 2.8312e-05},
{-2.66506e-05, 4.05223e-05},
{-5.86116e-05, 1.70933e-05},
{1.744e-05, -1.18157e-05},
{3.03267e-05, -5.24567e-07},
{-9.45316e-06, 5.40165e-05},
{-3.23287e-05, 4.68465e-05},
{-2.06197e-05, 1.09202e-05},
{-2.38637e-05, -6.6323e-05},
{5.18467e-06, -1.55683e-05},
{4.35279e-05, -1.47161e-05},
{7.4731e-05, -1.52872e-05},
{8.36723e-06, 1.89696e-05},
{-1.19542e-05, 1.92841e-05},
{-6.37572e-06, -2.82138e-05},
{1.95352e-05, 7.74837e-06},
{2.25013e-05, -8.10443e-05},
{-4.48199e-06, -1.68836e-05},
{-6.21506e-05, -3.65567e-06},
{-4.84148e-05, -3.95812e-06},
{-2.02203e-05, -1.41622e-05},
{3.78741e-05, -2.43082e-05},
{3.68466e-05, 3.24962e-05},
{-9.12731e-06, -2.89571e-05},
{2.76201e-05, 3.12726e-06},
{-7.46137e-05, -7.98297e-05},
{-7.90348e-05, -9.26644e-05},
{-2.41813e-05, -8.32545e-05},
{6.00703e-06, 1.68756e-06},
{-1.66227e-05, 3.91593e-05},
{5.0284e-05, -2.10396e-05},
{1.58701e-05, -2.27068e-05},
{-4.24632e-05, 8.32812e-06},
{1.79419e-05, 7.05669e-05},
{-5.00814e-05, 4.47083e-05},
{-1.54658e-05, -4.8209e-05},
{6.95675e-06, -7.05596e-05},
{-6.08732e-05, 2.75609e-05},
{-8.47115e-05, -2.5444e-05},
{-5.72344e-05, -4.19716e-05},
{-2.24123e-05, -5.25289e-05},
{-2.33477e-05, -2.71988e-05},
{2.99535e-05, -4.19053e-05},
{4.77429e-05, 4.25146e-05},
{2.47037e-05, 0.000142414},
{-2.27357e-05, 2.84377e-05},
{-3.79296e-05, -5.25799e-05},
{-4.07543e-05, -1.78169e-05},
{4.44334e-05, -1.49601e-05},
{4.36747e-05, 1.75465e-05},
{-6.98489e-06, -7.42334e-06},
{-6.30994e-06, 3.75067e-06},
{-0.000111682, -1.91219e-05},
{-0.000115514, -9.67633e-06},
{-1.64749e-05, -2.50002e-07},
{-5.93485e-07, 4.60746e-05},
{6.47642e-06, 1.86623e-05},
{7.57719e-05, -5.88082e-05},
{3.15374e-05, 8.44244e-06},
{3.14226e-05, 2.90424e-05},
{3.54601e-05, 4.47943e-06},
{-5.51878e-06, 5.14454e-05},
{9.55479e-07, -9.05987e-05},
{-3.38515e-05, -3.61373e-05},
{-5.45834e-05, 1.4127e-07},
{2.19415e-05, -3.22843e-06},
{1.91061e-05, -4.80347e-05},
{2.17021e-05, 5.43264e-06},
{2.36476e-05, 6.81495e-06},
{3.32741e-05, -3.09348e-05},
{-1.23749e-05, -6.89558e-05},
{1.55715e-05, -2.41819e-05},
{-1.02986e-05, -3.22331e-05},
{-8.27538e-05, -3.25707e-06},
{-7.41559e-05, -2.28685e-05},
{-7.8724e-05, 6.13113e-05},
{6.76036e-05, 7.11447e-05},
{5.43197e-05, 3.22954e-06},
{-8.0901e-05, -1.61262e-05},
{-4.75701e-05, -1.79007e-05},
{-5.22835e-05, 8.33208e-06},
{4.10487e-05, -8.28737e-06},
{3.10735e-05, 2.04889e-05},
{8.14876e-05, 4.08938e-06},
{9.76946e-06, -1.19652e-05},
{1.04673e-05, 4.98242e-05},
{-9.40403e-06, 4.36753e-05},
{-3.48231e-05, 1.05208e-05},
{-8.36079e-05, -1.74325e-05},
{1.53091e-05, 3.22236e-05},
{2.39853e-05, 3.5296e-06},
{9.9875e-06, -4.09794e-06},
{-2.21014e-05, -2.81832e-05},
{5.12996e-06, 6.01145e-06},
{3.55348e-05, 6.31816e-05},
{3.14573e-05, 4.21082e-05},
{4.55936e-05, 3.64723e-05},
{4.5856e-07, 3.17238e-06},
{6.55036e-05, -3.66761e-05},
{4.75672e-05, -3.6167e-05},
{0.00010756, -3.50193e-05},
{8.60232e-05, -1.05407e-05},
{-2.33994e-05, 3.47345e-05},
{-1.51439e-05, 1.33056e-05},
{1.00076e-05, 7.35247e-05},
{3.90317e-06, -2.56988e-05},
{4.0411e-05, -2.38803e-05},
{-3.43484e-05, -5.16681e-05},
{6.47223e-05, 1.99557e-05},
{4.99897e-05, -3.6289e-06},
{-5.12514e-05, -7.07458e-05},
{-9.89437e-06, 4.97573e-05},
{6.37595e-06, 3.46163e-05},
{-6.13224e-06, 3.882e-05},
{2.21481e-05, 8.67271e-06},
{-6.28574e-05, -1.2168e-05},
{-1.77643e-05, -1.22045e-05},
{-1.02036e-05, 6.08446e-05},
{0.000143138, 2.7159e-05},
{3.48918e-05, 2.13785e-05},
{3.53146e-05, -1.64649e-05},
{-2.88757e-06, -5.05316e-05},
{1.58974e-05, 6.12647e-06},
{2.38763e-05, 2.55015e-05},
{-5.39814e-05, -4.62111e-07},
{-0.000110793, 2.78796e-05},
{-3.10741e-05, -1.69497e-05},
{3.79048e-06, 5.86166e-06},
{7.96774e-05, 2.90006e-05},
{1.25049e-05, -3.97258e-05},
{-2.01357e-05, -2.1124e-05},
{-4.47248e-05, 1.70721e-05},
{-5.34628e-05, 5.21326e-05},
{-6.59877e-06, 4.23789e-05},
{7.42536e-05, 1.95883e-05},
{4.52317e-05, 4.37166e-06},
{-9.57546e-05, -6.98292e-05},
{-5.53774e-05, -0.000121531},
{3.14233e-05, -2.45196e-05},
{5.1647e-05, 2.05972e-06},
{3.82925e-05, -1.65169e-05},
{2.83933e-05, 2.13617e-05},
{-1.94382e-05, 3.63777e-05},
{-4.45355e-05, 1.61843e-05},
{-5.9389e-05, -3.3537e-05},
{-9.31788e-07, 2.80367e-05},
{3.24051e-05, 3.23551e-05},
{4.89435e-05, 0.000106433},
{-2.85612e-05, -5.68514e-06},
{-2.5172e-05, -2.67102e-05},
{-4.4984e-05, -3.05067e-05},
{-1.78325e-05, 2.51567e-05},
{-2.77255e-06, -0.000118717},
{1.63284e-06, -5.91793e-05},
{3.49723e-06, 2.46365e-05},
{-2.62258e-05, -4.02215e-07},
{-3.33764e-05, 1.11247e-05},
{-5.93171e-06, -5.62251e-06},
{-4.11099e-05, -5.5111e-06},
{2.22742e-05, -7.07642e-06},
{6.85498e-05, 2.68256e-05},
{5.73816e-05, 2.60641e-05},
{2.67988e-07, 3.38856e-05},
{4.41144e-06, -4.56796e-06},
{6.62636e-07, 4.90006e-05},
{-3.50159e-05, -7.68141e-05},
{3.24263e-06, 8.67201e-06},
{-1.78331e-05, 0.000100309},
{-6.11402e-05, 5.16418e-05},
{-4.45514e-05, 2.01173e-05},
{-4.10876e-06, -5.31921e-05},
{1.26379e-05, 6.04535e-05},
{-2.66505e-05, 1.78399e-05},
{-6.51872e-05, 5.13112e-06},
{-5.47359e-05, 1.16903e-05},
{2.48779e-05, -8.5033e-06},
{4.19994e-05, 5.15466e-05},
{2.49259e-05, 3.07388e-05},
{6.48982e-05, 3.8945e-05},
{6.94916e-05, 5.22168e-05},
{6.83403e-05, 5.82979e-05},
{3.31723e-05, 1.13552e-05},
{2.65306e-05, -3.49421e-06},
{-5.35937e-05, 4.53833e-05},
{-0.00010177, 2.35678e-05},
{-7.7674e-05, -4.46092e-05},
{-2.09191e-05, -4.75511e-05},
{8.88016e-07, -6.87407e-05},
{7.75389e-05, 3.00197e-05},
{3.75006e-05, 1.79646e-05},
{1.20474e-05, -5.49306e-05},
{4.3677e-06, -1.84606e-05},
{-2.83606e-05, -4.83885e-05},
{2.60994e-05, 1.24299e-05},
{-3.3658e-06, -3.60159e-05},
{1.98355e-05, 2.17049e-05},
{-1.98494e-05, 3.85727e-05},
{2.37454e-05, -2.62629e-05},
{-2.59839e-07, -1.0251e-05},
{9.87677e-05, 6.64021e-05},
{2.58845e-05, 3.3824e-05},
{-8.44048e-05, 6.37083e-06},
{-3.71151e-05, 1.53186e-05},
{2.22839e-05, 8.82082e-05},
{-6.41614e-05, 6.83381e-05},
{-9.52501e-05, 1.35854e-05},
{-2.78763e-05, -4.92807e-05},
{-2.004e-05, -3.13803e-05},
{-6.28377e-05, 4.92497e-05},
{-6.45719e-05, 3.89914e-05},
{-7.36895e-05, 7.45198e-06},
{3.4275e-06, -3.27243e-05},
{-4.06797e-05, 4.27908e-06},
{1.32243e-05, 8.06809e-05},
{2.58442e-07, 5.32843e-05},
{6.43777e-05, 2.47522e-05},
{-4.37943e-06, -1.53851e-05},
{5.23881e-05, -8.372e-05},
{-1.18342e-06, 1.86397e-05},
{-5.93436e-05, -1.43234e-05},
{-5.61257e-05, -2.39745e-05},
{-1.09741e-05, -4.16627e-05},
{1.28058e-05, 4.55033e-06},
{4.8177e-05, 4.29285e-05},
{2.03181e-05, 6.73381e-06},
{-7.01332e-05, -3.12015e-05},
{-9.52368e-05, -3.35069e-05},
{2.99494e-05, -2.65441e-05},
{2.35885e-05, 3.94379e-05},
{6.98818e-06, -1.32004e-05},
{2.73659e-05, 1.66078e-05},
{4.96004e-05, 1.33545e-05},
{2.12607e-05, 7.97294e-06},
{5.47823e-05, 9.26305e-06},
{5.0577e-05, 7.38091e-06},
{6.46746e-05, -3.51785e-05},
{-3.37516e-05, -6.27898e-06},
{7.30436e-06, -2.08565e-05},
{6.81961e-06, -4.24974e-05},
{4.79175e-05, -1.07978e-05},
{-2.59197e-05, -6.64634e-05},
{-2.18954e-06, -1.4144e-05},
{-1.26727e-05, -1.96078e-05},
{7.1325e-06, -7.86487e-06},
{-2.31403e-05, 4.26883e-06},
{3.71685e-05, -3.9863e-05},
{7.48341e-06, 5.51226e-05},
{2.27825e-05, 2.70861e-05},
{1.54064e-05, -7.50604e-05},
{-1.45321e-05, -1.59389e-05},
{6.55953e-05, -6.37984e-05},
{-3.69108e-05, -4.5368e-05},
{-9.19611e-06, 2.77944e-05},
{-4.5903e-05, 2.41057e-05},
{-5.05089e-05, -4.34634e-05},
{-1.6439e-05, -6.45547e-05},
{2.9013e-05, -7.66381e-05},
{-5.0278e-05, -2.82428e-05},
{-2.87787e-05, -7.10158e-05},
{-1.23536e-05, 2.84666e-05},
{3.92597e-05, -1.31774e-05},
{9.12352e-05, 2.87278e-06},
{7.6654e-05, 2.91154e-05},
{-1.47432e-05, -9.22213e-06},
{3.45095e-05, -3.894e-05},
{2.1835e-05, -1.79339e-05},
{2.29836e-05, -7.86068e-05},
{5.43839e-05, -3.60059e-05},
{6.46496e-05, 1.0495e-05},
{4.0767e-05, 7.03848e-05},
{-3.19421e-05, 2.04175e-05},
{4.12069e-05, 3.58087e-05},
{7.58735e-05, -2.67839e-05},
{2.2287e-05, 2.85753e-06},
{2.58088e-05, -4.53254e-05},
{1.80164e-05, 6.36468e-05},
{3.58039e-05, 2.77556e-05},
{8.87248e-06, 6.18668e-05},
{-1.49328e-05, -2.9976e-05},
{6.22364e-05, -4.07248e-05},
{8.00955e-06, 4.59148e-06},
{-5.45196e-05, 1.06729e-05},
{-7.21863e-05, -4.83123e-05},
{-4.36788e-05, -2.61957e-05},
{-5.21031e-05, 3.85084e-05},
{-1.45211e-05, 7.69876e-05},
{3.50557e-05, 1.38099e-05},
{1.7585e-05, 5.64486e-06},
{4.96174e-05, 3.87762e-05},
{0.000137875, 8.09983e-05},
{5.5535e-05, 4.83341e-05},
{3.82881e-05, 3.97596e-05},
{-7.83941e-06, 7.07037e-06},
{3.11211e-05, 9.52699e-05},
{-2.89608e-05, -4.58306e-05},
{-5.69642e-05, -4.84432e-05},
{-4.58178e-05, -1.92185e-05},
{1.33121e-05, -4.40991e-05},
{6.61002e-05, -4.84792e-05},
{-7.12695e-06, -3.56114e-05},
{-3.60464e-05, 2.12955e-05},
{-4.12404e-05, 8.15373e-07},
{2.30519e-05, 2.48789e-05},
{-1.44949e-05, 9.17865e-06},
{4.77064e-06, 2.53844e-05},
{3.24107e-05, -2.3403e-05},
{9.0352e-05, -4.2381e-05},
{4.88578e-05, -5.85737e-05},
{4.94136e-06, 2.75063e-05},
{4.72137e-05, 7.27858e-05},
{5.38013e-05, 3.97778e-05},
{-2.16323e-05, 2.97476e-05},
{-2.88256e-05, -1.51456e-05},
{-1.12703e-05, 2.66579e-05},
{-8.39634e-06, 3.86043e-05},
{-8.66875e-06, -1.80124e-05},
{-7.02001e-05, 3.62684e-05},
{1.30595e-05, 1.38772e-05},
{-1.98511e-05, 5.18543e-06},
{6.95791e-06, 1.23014e-05},
{-3.3122e-05, -3.16033e-06},
{-3.95812e-06, -4.71378e-05},
{3.54717e-05, 3.57837e-05},
{2.24615e-05, 3.61621e-05},
{3.66821e-05, -3.91412e-06},
{-2.93712e-05, -1.15857e-05},
{1.75403e-06, 4.18397e-07},
{-6.36152e-06, -4.86337e-06},
{1.51461e-05, -8.31052e-05},
{6.38963e-05, -3.20814e-05},
{3.10154e-05, -2.85471e-05},
{1.25421e-05, -1.59538e-05},
{-1.07483e-05, 3.20837e-05},
{-3.04757e-05, 2.82717e-05},
{1.43193e-05, 4.80383e-05},
{-2.95748e-05, 2.87943e-05},
{7.07099e-05, -2.09308e-05},
{3.10523e-05, 1.01412e-05},
{4.21085e-05, 4.86929e-05},
{7.57037e-06, 2.40594e-05},
{-5.59326e-05, 3.19828e-05},
{1.59201e-05, -1.55852e-05},
{-1.47272e-05, -2.91246e-05},
{4.33072e-05, -1.65432e-05},
{-5.17347e-05, -1.89202e-05},
{-7.66099e-05, -2.41433e-05},
{-4.3098e-05, -3.22884e-05},
{1.67038e-05, -8.47018e-05},
{7.44051e-05, -6.38178e-05},
{1.08724e-05, 4.23645e-05},
{2.26097e-05, -2.19895e-05},
{-3.85763e-05, 2.9098e-05},
{-2.28831e-05, 1.35696e-05},
{-4.09549e-07, -4.84637e-06},
{2.86442e-05, -9.16515e-06},
{-2.57411e-05, -2.26875e-05},
{-5.32481e-05, -3.20377e-05},
{-8.22158e-05, -1.06125e-05},
{-5.95626e-05, -3.73024e-05},
{1.98965e-05, 1.15587e-05},
{0.000126288, 3.86302e-05},
{5.48518e-05, 1.99747e-05},
{6.77444e-06, -4.1764e-05},
{-6.36112e-05, -3.13513e-05},
{6.27029e-05, -1.36537e-05},
{3.01369e-05, 2.21563e-05},
{1.59755e-05, -6.31676e-06},
{3.26327e-05, 6.42384e-05},
{-3.236e-06, 3.44147e-06},
{3.0435e-05, 4.64612e-05},
{-1.99559e-05, 7.31685e-05},
{9.06619e-06, 5.35636e-05},
{-7.33908e-05, 3.48149e-05},
{-6.28841e-05, 3.16475e-06},
{-4.82582e-05, -1.14657e-06},
{5.448e-05, -1.55458e-05},
{1.6414e-06, -8.68214e-06},
{2.13685e-05, -3.1933e-05},
{-4.17198e-05, -2.6921e-05},
{-3.81665e-05, -5.62242e-05},
{3.0429e-05, 5.53099e-05},
{4.1771e-05, -2.33157e-06},
{-2.28859e-05, -4.95132e-05},
{-2.87679e-05, 4.78897e-05},
{-4.06173e-06, 8.40149e-05},
{-3.60197e-05, 1.55461e-05},
{-1.17428e-05, 1.72848e-05},
{1.91483e-05, -6.36482e-05},
{-6.14626e-05, -4.05868e-05},
{-3.62725e-05, -6.69062e-06},
{-7.06163e-05, 2.37108e-05},
{-5.02667e-05, 3.08128e-05},
{1.02222e-05, 4.19114e-05},
{4.07519e-05, 6.59213e-06},
{-4.10923e-05, -1.41538e-06},
{-8.1535e-06, -3.58403e-05},
{-3.00448e-05, -2.53827e-05},
{-9.08284e-06, -4.3879e-05},
{3.82238e-06, -4.61872e-05},
{3.27337e-06, 4.63239e-05},
{-3.6786e-05, 1.88757e-05},
{-1.86268e-05, -4.13303e-05},
{1.47443e-05, 5.34405e-05},
{8.89264e-05, 8.68277e-05},
{1.98912e-05, 8.00069e-05},
{1.82129e-05, 4.81895e-05},
{-4.35219e-05, -2.69164e-05},
{-6.85265e-05, -6.00453e-05},
{-1.54786e-05, 5.14285e-05},
{-6.83474e-06, 1.20339e-05},
{-1.72929e-05, -2.2176e-06},
{3.49826e-05, -0.000108155},
{3.03488e-05, -1.11874e-05},
{2.4013e-05, -5.26714e-05},
{-4.31887e-05, -2.33768e-06},
{-1.85454e-05, -2.95732e-05},
{-1.84574e-05, -3.81942e-05},
{-6.56303e-06, 1.59534e-05},
{-3.67011e-06, -3.27835e-05},
{-1.93329e-05, -1.66309e-05},
{-1.09585e-05, -3.11674e-05},
{-1.83893e-05, -5.92014e-05},
{5.04646e-05, -4.55865e-05},
{0.000140697, 5.38521e-05},
{5.98796e-05, 0.000104174},
{-3.50813e-05, 6.35892e-05},
{2.01231e-05, 2.21943e-05},
{4.46283e-05, -2.32485e-05},
{5.72284e-05, -2.64568e-05},
{4.24242e-05, 2.72969e-05},
{-4.79828e-05, 5.20137e-05},
{-9.16997e-05, -4.29609e-05},
{-2.11359e-05, -5.48002e-06},
{-2.13262e-05, 2.65033e-05},
{-1.25612e-05, 7.08129e-05},
{-3.18137e-05, -8.90787e-06},
{-1.49789e-05, -6.24586e-05},
{6.21756e-05, -7.19284e-05},
{9.23873e-05, -3.91249e-06},
{2.29594e-05, -2.63499e-05},
{-9.66073e-06, -2.17927e-05},
{2.29516e-05, 1.36688e-05},
{-1.62563e-05, 4.66011e-05},
{-6.305e-05, -1.04412e-05},
{-5.81822e-05, 1.17756e-05},
{-4.63231e-05, -7.26676e-05},
{-6.5119e-05, 2.22141e-05},
{-1.30985e-05, -3.37358e-05},
{-3.1103e-05, -5.52251e-06},
{6.09345e-05, -6.01192e-06},
{-6.17487e-06, 9.45758e-07},
{-5.38654e-05, 2.3524e-05},
{-0.000102755, -3.1715e-05},
{-4.5415e-05, -2.16335e-05},
{9.49016e-06, -1.8937e-05},
{-2.02414e-05, 4.6357e-05},
{-2.68512e-06, 2.70647e-05},
{3.61195e-05, 5.76116e-05},
{2.21436e-05, 7.96723e-06},
{3.77425e-05, 6.37616e-05},
{-2.6943e-05, 8.79671e-05},
{-2.28937e-05, 7.3624e-05},
{-5.69178e-05, 2.60095e-05},
{2.63285e-06, 2.85567e-05},
{-4.39507e-05, 7.02089e-05},
{-7.32269e-05, -1.61605e-05},
{2.08764e-05, 2.05328e-06},
{1.34888e-05, -3.5735e-05},
{4.98131e-05, 2.71169e-05},
{-6.46e-06, 1.28007e-05},
{1.96041e-05, 5.09964e-05},
{1.9866e-05, 6.91443e-05},
{4.5432e-05, 4.96299e-05},
{2.43506e-05, 1.46101e-06},
{-4.78684e-05, -5.55218e-05},
{-6.99514e-05, -6.7334e-05},
{5.46409e-05, 5.15764e-05},
{9.96189e-05, -1.49466e-05},
{-1.19439e-06, 3.97814e-05},
{6.76245e-06, -7.14964e-05},
{1.5636e-05, -6.82897e-05},
{2.9023e-05, 4.09056e-05},
{4.98931e-05, 4.21904e-05},
{2.32785e-05, -2.29245e-06},
{3.63778e-05, -8.85711e-06},
{-1.78904e-05, -5.12528e-05},
{-1.22124e-05, -4.76425e-05},
{-2.27196e-06, -3.51255e-05},
{2.42947e-05, -4.08338e-06},
{-2.52499e-05, 9.21427e-07},
{1.16035e-05, -1.81053e-05},
{-1.86587e-05, 3.78618e-06},
{6.11842e-05, 5.93255e-05},
{7.82252e-05, -5.26981e-05},
{3.81856e-05, 2.80302e-05},
{2.97009e-05, 3.95207e-06},
{3.72624e-05, 1.89275e-05},
{-4.42588e-06, 5.56433e-05},
{2.66004e-05, 1.02657e-05},
{2.98105e-05, -2.21049e-06},
{9.80404e-05, -2.15477e-05},
{-3.35951e-06, 3.78198e-06},
{1.6433e-05, 3.67562e-05},
{4.40138e-05, 2.05475e-05},
{2.8468e-05, -6.31018e-06},
{-4.96185e-06, 3.99671e-05},
{-3.29064e-05, -5.24488e-05},
{3.05515e-05, -3.82143e-05},
{-3.13716e-06, -3.82743e-05},
{-3.98606e-07, -4.59137e-05},
{4.44753e-05, -3.48403e-05},
{3.55775e-05, -5.39341e-05},
{-3.56063e-05, -0.000122949},
{3.69167e-05, -2.07603e-06},
{5.11645e-07, 6.43386e-05},
{4.75019e-05, 7.42567e-06},
{3.3054e-05, -1.57827e-05},
{2.73578e-05, -5.34765e-05},
{5.71925e-06, 1.75047e-05},
{-5.49914e-05, -3.45972e-05},
{-4.09464e-05, 1.97348e-05},
{-1.84594e-05, -8.09614e-05},
{1.95378e-05, -1.10366e-05},
{-3.40877e-05, -3.79118e-05},
{6.22917e-05, -9.39443e-05},
{3.3297e-05, -2.40798e-05},
{1.80725e-05, -3.70042e-05},
{7.17361e-05, 5.9142e-05},
{-3.28796e-05, 1.07627e-05},
{-5.00304e-05, 3.85486e-05},
{-4.4941e-05, -1.1849e-05},
{-6.06104e-05, 1.39057e-05},
{1.96975e-06, 5.50402e-05},
{2.9651e-05, 2.10264e-05},
{5.48521e-05, 1.04149e-05},
{0.000100192, 1.92563e-05},
{-8.47754e-06, 3.50398e-06},
{7.21472e-06, -2.26684e-05},
{6.94204e-05, 2.80108e-05},
{2.9458e-05, 2.8969e-05},
{5.09315e-05, -5.89318e-06},
{-8.68784e-06, -2.92162e-06},
{-9.54731e-05, -2.00551e-05},
{-6.72447e-05, 5.9607e-06},
{-3.18212e-05, -3.23034e-05},
{-5.7932e-06, 2.92095e-05},
{-4.2407e-05, -3.69964e-05},
{-4.56239e-05, -1.72472e-05},
{-5.46593e-06, -2.31822e-05},
{3.41318e-05, 1.27144e-05},
{3.31341e-06, 1.15548e-05},
{-1.83695e-05, -1.23472e-05},
{-3.18941e-05, 6.0437e-06},
{9.4655e-06, -9.1661e-05},
{7.98726e-05, -5.00833e-05},
{0.00012567, -7.0582e-06},
{-4.25919e-05, 6.63246e-05},
{-4.15355e-05, 0.000110347},
{-1.99653e-05, 1.70995e-05},
{3.33129e-05, 4.13554e-05},
{1.37573e-05, 4.7415e-05},
{-2.58056e-05, 3.5694e-05},
{-1.66451e-05, -2.70444e-05},
{-3.12593e-05, 5.07338e-07},
{3.42268e-05, -3.36794e-05},
{5.446e-05, 5.10493e-06},
{-1.09591e-05, 9.04877e-05},
{-6.87885e-05, 3.97116e-05},
{2.02791e-05, -3.88466e-05},
{-5.17722e-06, -2.85951e-06},
{3.41239e-05, -4.72758e-05},
{4.50595e-05, -2.65941e-05},
{-1.2835e-05, -2.38348e-06},
{-4.33282e-05, -2.01962e-05}
};