/*
Copyright (C) 2024, Advanced Micro Devices, Inc. All rights reserved.
SPDX-License-Identifier: MIT
*/

cfloat weightAppOut2_data [1000] = {
{-4.34205e-05, -3.60638e-05},
{-8.16583e-05, -2.14945e-05},
{9.61864e-06, 3.85643e-06},
{-6.27984e-05, 6.14583e-05},
{-2.62496e-05, 3.29434e-05},
{-1.99554e-05, 2.40875e-05},
{3.63342e-05, 3.91226e-05},
{-5.94975e-06, -3.60137e-05},
{4.31885e-05, -3.24426e-05},
{9.657e-06, -9.21451e-06},
{1.00082e-05, -6.18023e-05},
{7.69629e-05, -4.98865e-05},
{4.54777e-05, -9.28615e-05},
{-6.36945e-05, -2.51313e-05},
{-5.73957e-06, -5.06226e-05},
{-9.28983e-06, -6.23667e-05},
{-1.98217e-05, -4.48994e-05},
{6.94969e-05, -3.53486e-05},
{2.68328e-05, -6.57025e-05},
{-1.3259e-05, 1.14036e-05},
{-4.57398e-05, -2.44193e-06},
{2.07894e-05, 1.52522e-05},
{4.77312e-05, 2.27962e-05},
{1.18642e-05, 3.30349e-05},
{-4.2061e-05, 5.92093e-05},
{-1.99757e-05, 2.71052e-05},
{-8.59331e-06, 1.63924e-06},
{-6.24771e-05, -1.91038e-06},
{-4.9443e-05, -5.00586e-05},
{-5.50249e-06, -1.68704e-05},
{-2.87904e-05, -1.69415e-05},
{-2.08444e-05, 6.97607e-06},
{-5.56789e-05, 5.26063e-05},
{-2.82502e-05, -2.90524e-05},
{-2.46472e-05, 1.20886e-05},
{5.19357e-05, 8.60495e-06},
{-8.48551e-06, 1.48669e-05},
{-7.09271e-05, -3.19188e-05},
{-3.20254e-05, 8.0475e-05},
{3.21523e-05, 3.05609e-05},
{5.6081e-05, 3.01558e-05},
{2.95309e-05, 5.53404e-05},
{-2.06595e-05, 8.37632e-06},
{-1.493e-05, -6.88713e-07},
{5.30728e-05, 3.00099e-05},
{4.04338e-05, 2.69751e-05},
{-4.18443e-06, 2.24871e-05},
{-1.91217e-05, -3.69513e-05},
{7.63452e-06, -5.73625e-06},
{3.43162e-05, -2.12468e-05},
{-5.47884e-05, -1.8429e-05},
{4.00794e-05, 2.30215e-05},
{2.84011e-05, -5.5541e-05},
{1.57185e-05, -4.41092e-05},
{1.184e-05, 8.35804e-06},
{2.99104e-05, 6.81533e-05},
{6.50802e-05, 2.99239e-05},
{-5.60773e-07, 2.46353e-05},
{4.98257e-05, 1.12261e-05},
{5.58129e-05, 4.02108e-05},
{-7.99343e-06, 4.36376e-05},
{2.59909e-05, 7.92108e-05},
{-4.29666e-06, -2.5101e-05},
{-3.83947e-05, -3.84264e-06},
{-2.21246e-05, 2.81823e-05},
{2.01599e-05, -8.98819e-06},
{9.11998e-06, 5.33899e-05},
{-2.11392e-05, -2.37803e-05},
{6.14207e-06, 2.56364e-05},
{2.16952e-05, -5.31126e-05},
{8.00169e-06, -5.31224e-05},
{9.01567e-06, 4.83269e-05},
{-1.32225e-05, 7.77382e-05},
{-2.681e-05, 2.71089e-05},
{1.60983e-05, -5.08167e-05},
{1.39838e-06, -5.95839e-05},
{-1.00192e-05, 8.29995e-06},
{-2.7847e-05, 9.03597e-05},
{-4.57007e-05, 1.93949e-05},
{-6.34638e-06, 1.77107e-05},
{-7.63783e-06, 2.65473e-06},
{-1.45622e-05, 1.97077e-05},
{-4.95475e-05, -1.87224e-05},
{-6.5513e-05, -6.27293e-05},
{-2.6673e-05, 5.42806e-05},
{-1.71844e-05, -1.43243e-05},
{1.65582e-05, 9.68343e-07},
{-5.0293e-05, 1.83519e-05},
{-4.88467e-05, 1.05075e-05},
{-6.18155e-05, -9.91707e-06},
{2.00244e-05, -8.54663e-05},
{6.91281e-05, -3.09006e-05},
{-5.18747e-07, 6.08081e-05},
{-2.37008e-05, 0.000114516},
{-5.19591e-05, 1.63157e-05},
{-3.30406e-05, -1.42986e-05},
{2.22293e-05, 3.07444e-05},
{1.15818e-05, 9.08389e-05},
{6.49015e-06, 8.37838e-05},
{-4.36884e-05, -2.65404e-05},
{-4.242e-06, -2.46643e-05},
{7.69693e-05, 4.86412e-06},
{1.24291e-05, -1.45943e-05},
{-4.00282e-06, -1.85263e-06},
{-6.09036e-05, 4.32224e-05},
{4.90426e-05, 3.55432e-05},
{-1.42455e-05, -4.81342e-05},
{7.07509e-05, -4.3751e-05},
{3.43472e-06, -9.32137e-06},
{2.2909e-05, -3.22528e-05},
{-4.78464e-06, -1.15598e-05},
{-1.46776e-06, 2.35084e-05},
{-6.53112e-05, 9.02271e-06},
{-4.215e-05, 4.51091e-05},
{-9.46922e-06, 7.3024e-05},
{-4.01866e-06, 6.69195e-05},
{-5.8312e-05, -1.50274e-05},
{6.00703e-08, -3.08544e-05},
{1.90721e-05, 4.60733e-05},
{-3.91062e-06, 6.64392e-05},
{-3.37869e-05, 3.38926e-05},
{-2.85544e-05, 8.35909e-06},
{6.48451e-05, -1.93287e-05},
{-3.79606e-05, -1.74968e-05},
{-3.24261e-05, -3.05874e-05},
{2.46661e-05, -6.71828e-05},
{-1.96221e-05, -5.71604e-05},
{-7.31503e-05, 4.81843e-06},
{-5.3168e-05, 3.25614e-07},
{-1.89081e-05, -2.16954e-05},
{4.49638e-05, -5.83497e-06},
{7.16306e-05, -6.48781e-05},
{-2.6505e-05, -2.99143e-05},
{-5.70072e-05, 7.81218e-05},
{-3.38574e-05, -1.31406e-05},
{-7.77218e-06, 3.23437e-06},
{6.14207e-06, -3.7452e-06},
{2.07215e-05, 1.73139e-05},
{-8.91252e-06, -5.39008e-05},
{-9.2097e-06, -6.34973e-05},
{-2.6122e-05, -6.64773e-05},
{1.61651e-05, 2.81042e-05},
{1.559e-05, 4.26499e-05},
{5.62993e-05, 3.11743e-06},
{6.11212e-05, -1.27661e-05},
{6.05287e-05, -1.7762e-05},
{-7.67645e-05, -5.37635e-05},
{-0.000111214, 3.2078e-05},
{-5.77498e-05, 5.69357e-05},
{-6.15814e-06, -1.21756e-05},
{6.69779e-05, -6.83098e-05},
{7.48655e-05, 9.41218e-06},
{0.000103387, 2.49913e-05},
{6.67148e-05, 4.24903e-05},
{-4.05554e-05, -1.20674e-05},
{-4.72255e-05, -6.44462e-05},
{-7.41985e-05, -2.86649e-05},
{2.69961e-05, 4.08305e-05},
{4.02587e-05, 3.53761e-05},
{6.80832e-06, -2.44139e-05},
{2.25515e-05, -3.49976e-05},
{6.69582e-06, 3.46435e-05},
{6.06151e-06, 1.74612e-05},
{-3.35611e-05, -4.60655e-05},
{4.56744e-06, -5.13458e-05},
{3.38763e-05, -6.73165e-05},
{9.42369e-05, -1.05572e-05},
{2.76112e-05, -9.60182e-06},
{2.94496e-06, -4.09311e-05},
{1.73855e-05, -2.02617e-05},
{-4.60795e-05, -1.02823e-05},
{5.62491e-05, 7.73333e-05},
{9.5726e-06, 2.32044e-05},
{2.68559e-05, -6.79214e-06},
{-1.51133e-05, -3.54096e-05},
{-1.38785e-05, -1.96229e-05},
{1.60483e-05, 4.48967e-05},
{2.39797e-05, 7.51398e-05},
{6.05054e-06, 8.42979e-05},
{-6.7432e-05, 5.89348e-05},
{2.25566e-06, 3.23097e-05},
{2.45275e-06, 1.49148e-05},
{1.69658e-06, -5.10704e-05},
{-1.48672e-05, 1.69629e-05},
{-7.69752e-05, -2.35065e-05},
{3.2684e-05, -3.13763e-06},
{5.51771e-05, -1.69156e-05},
{4.39794e-05, -2.7369e-05},
{-1.28092e-05, -1.95041e-05},
{-3.82696e-05, 6.01572e-05},
{-2.1647e-05, -1.18901e-05},
{5.843e-05, 3.86655e-05},
{6.11942e-05, 6.84987e-05},
{4.02764e-05, -2.725e-05},
{2.49748e-05, -6.3722e-05},
{5.00861e-05, -6.6517e-05},
{1.49207e-05, -3.20268e-05},
{-6.96694e-05, -4.79876e-06},
{-6.36205e-05, 1.55895e-05},
{-1.90027e-05, 1.75922e-05},
{-4.68036e-06, 1.04174e-05},
{5.59737e-05, 5.22996e-06},
{-2.30924e-05, -9.79367e-06},
{-2.09307e-05, 1.81467e-05},
{9.97202e-06, 3.63961e-06},
{-3.19133e-05, -3.94755e-05},
{2.11683e-05, 9.21017e-05},
{3.47118e-05, 0.00011529},
{3.92066e-05, -6.2912e-06},
{-4.66877e-05, 1.85589e-05},
{3.06312e-05, 6.44149e-06},
{1.85613e-06, 9.17958e-06},
{-1.07146e-05, 2.2534e-05},
{6.18264e-05, -3.35788e-06},
{9.01427e-06, -3.01546e-05},
{9.59961e-07, 4.26918e-05},
{4.42331e-05, 2.5193e-05},
{1.72525e-05, -1.32826e-05},
{-8.17566e-05, -5.13881e-06},
{-5.49359e-05, -2.48111e-05},
{7.43777e-07, 3.37384e-05},
{-1.39094e-05, 6.03159e-06},
{-3.46506e-05, -3.43425e-08},
{-3.95708e-05, -4.04972e-05},
{-2.1504e-05, -3.01403e-05},
{-2.73264e-05, -4.07037e-05},
{8.68086e-06, -2.83119e-05},
{-7.08012e-05, -9.25419e-06},
{-1.30348e-05, -4.92152e-05},
{1.93818e-05, 3.15835e-06},
{-3.09502e-05, 3.57025e-05},
{2.38901e-05, 3.66843e-05},
{2.85934e-05, -3.56472e-05},
{-6.02391e-05, -2.07755e-05},
{-1.508e-05, 2.80621e-05},
{-3.85377e-05, 1.79783e-05},
{-1.34724e-05, -3.33972e-06},
{-1.71971e-05, -2.86676e-05},
{-4.26146e-05, -1.30828e-06},
{-1.0284e-05, -6.45055e-05},
{3.5113e-05, -4.8137e-05},
{3.75713e-06, -4.38661e-05},
{-2.60964e-05, 3.12654e-05},
{-1.39046e-05, -9.58232e-06},
{2.00514e-05, 2.07925e-05},
{2.12502e-05, -5.96873e-05},
{4.86727e-05, -1.89107e-05},
{1.4363e-05, 4.70396e-05},
{-3.25786e-05, -2.42871e-05},
{-3.76543e-05, -3.78257e-05},
{-4.6622e-06, -4.81774e-05},
{9.93023e-06, 5.06476e-06},
{-5.11227e-05, -3.2341e-05},
{1.76595e-05, -4.8604e-05},
{6.79702e-06, -3.10694e-05},
{4.80197e-05, 4.35984e-05},
{5.2242e-05, 5.03354e-05},
{-2.63507e-05, -1.01402e-05},
{-4.25702e-06, 2.45038e-05},
{1.68871e-05, -5.77743e-05},
{7.82446e-05, 5.94579e-05},
{-8.47934e-06, 7.95428e-05},
{-3.5903e-05, -7.28719e-06},
{-2.83993e-05, -5.35449e-05},
{-2.8268e-05, -3.59374e-07},
{-7.34124e-05, -1.64312e-05},
{-2.99807e-05, 2.15447e-05},
{4.13549e-05, -4.40117e-05},
{1.33042e-05, -5.71832e-06},
{3.0875e-05, 2.77094e-05},
{-1.62464e-05, 1.36789e-05},
{5.56691e-05, 6.7387e-05},
{-1.79419e-05, 2.46169e-05},
{-2.34391e-06, 1.90896e-05},
{-2.38814e-05, -4.75913e-05},
{-3.82178e-05, -2.41427e-05},
{-2.56618e-05, -6.05038e-05},
{-2.92025e-05, -1.36776e-05},
{-3.36226e-05, 1.46187e-05},
{3.03225e-05, 3.10452e-05},
{1.04179e-05, -1.7965e-05},
{3.19395e-05, -3.08821e-05},
{6.31746e-05, -5.76733e-06},
{5.8529e-06, -2.28963e-05},
{8.34127e-06, -3.62014e-05},
{4.31164e-05, -4.03734e-05},
{5.23975e-05, 6.6407e-05},
{4.64097e-05, 0.000116832},
{1.69427e-05, 3.79985e-05},
{3.25717e-05, -4.62033e-05},
{5.64137e-06, -6.2582e-05},
{-6.02582e-05, -6.14332e-06},
{-3.14501e-05, 4.12375e-06},
{-6.82584e-06, -4.25888e-05},
{-1.59399e-05, 2.81465e-05},
{-5.69453e-05, 6.06125e-05},
{-1.35363e-05, 2.97828e-05},
{3.14368e-06, -5.56e-05},
{4.67072e-05, 7.706e-06},
{9.27404e-05, -2.80977e-05},
{2.94033e-05, 4.9754e-05},
{-4.61685e-05, 3.20272e-05},
{3.49444e-06, -6.09019e-05},
{-3.47907e-07, -3.6703e-05},
{-1.96975e-06, 1.08103e-05},
{-5.97348e-05, 5.60912e-06},
{-1.61329e-05, 1.90068e-05},
{-4.77827e-06, -2.01963e-05},
{-3.76503e-05, -4.95859e-05},
{1.39966e-05, 1.62609e-06},
{6.31905e-05, -2.16489e-05},
{-5.23683e-06, 1.62115e-05},
{-5.31753e-05, 3.81764e-05},
{-2.74235e-05, -1.66898e-05},
{-9.76957e-06, -2.78968e-05},
{4.76371e-06, -3.92941e-05},
{8.92659e-05, -9.00892e-06},
{-2.06791e-05, -3.7984e-05},
{6.79155e-06, 2.68919e-07},
{-9.34163e-05, 4.7558e-05},
{-2.30078e-05, 3.78487e-05},
{-3.43182e-05, 5.02393e-05},
{-3.89245e-05, -3.71062e-05},
{-2.62039e-05, 6.43171e-06},
{9.62475e-06, 1.18522e-05},
{1.25355e-05, 4.10925e-05},
{-5.05915e-05, 5.06442e-05},
{-9.21218e-06, 7.33428e-06},
{-1.53789e-05, -4.47568e-05},
{-4.72646e-06, -1.53484e-05},
{2.72684e-05, 2.40287e-05},
{4.24918e-05, 8.81538e-06},
{3.74548e-05, -1.0632e-05},
{-1.46829e-05, -5.19387e-05},
{-3.18419e-06, -5.73341e-05},
{-1.48909e-05, 7.10902e-06},
{3.70936e-05, 1.17356e-05},
{-2.29173e-05, 0.000100678},
{-1.84681e-06, 3.18618e-05},
{-6.67362e-06, 5.88965e-05},
{-2.03839e-05, 3.85188e-05},
{-1.90735e-06, 3.70708e-05},
{8.41205e-06, 1.42376e-07},
{1.71337e-05, 2.56322e-05},
{8.22806e-05, 7.90285e-06},
{7.43227e-05, 1.61717e-05},
{5.41407e-05, -1.90184e-05},
{-1.15323e-05, -3.09721e-05},
{2.93124e-05, 2.55175e-05},
{3.90062e-05, 8.36886e-06},
{-6.7794e-05, -1.1666e-05},
{3.0431e-06, -9.76911e-06},
{-4.07984e-05, 1.03649e-05},
{-8.33278e-06, 5.39704e-05},
{-1.1428e-05, 2.77476e-05},
{1.33852e-05, -1.22832e-05},
{6.64952e-05, 3.54414e-05},
{4.36292e-05, 3.67718e-06},
{3.63661e-05, -2.12608e-05},
{-1.54689e-05, -8.69521e-06},
{-5.5423e-06, 1.61696e-05},
{3.4492e-05, 3.68643e-05},
{3.84888e-05, -6.76264e-05},
{2.71779e-05, -4.44039e-05},
{-2.04137e-05, 4.20238e-05},
{-6.65896e-07, -4.61406e-06},
{-9.78215e-06, -2.02187e-05},
{2.26561e-05, -3.8476e-05},
{9.34952e-06, -5.90524e-05},
{-3.90371e-05, -5.6451e-05},
{-1.55177e-05, 1.98489e-05},
{1.12299e-05, 2.64758e-05},
{1.01635e-05, -2.57434e-05},
{-1.12187e-05, -8.04065e-05},
{-9.04431e-06, 2.87332e-05},
{-1.61526e-06, -1.09221e-05},
{1.16641e-05, -2.85357e-05},
{2.69818e-05, 5.27396e-06},
{4.51971e-06, 4.71366e-05},
{1.74283e-05, 1.65035e-05},
{-4.93275e-06, 2.54206e-05},
{1.34939e-05, -4.0526e-05},
{6.35548e-05, 1.08866e-05},
{0.000101582, 9.84734e-06},
{9.37018e-05, -1.39286e-05},
{-7.50087e-06, -6.57544e-05},
{-9.07081e-05, 1.8917e-05},
{-4.75321e-05, 1.02117e-05},
{1.63524e-05, 1.06867e-05},
{-6.82194e-07, -2.71702e-05},
{-2.7461e-05, 1.60608e-05},
{2.12156e-05, -6.55802e-06},
{8.61573e-05, -4.20901e-05},
{-3.42419e-05, -8.44949e-05},
{-3.60364e-05, -3.96068e-05},
{2.61336e-05, 5.30295e-06},
{-2.04921e-05, 3.54997e-05},
{-5.96046e-06, -2.60128e-05},
{-2.86628e-05, 3.98476e-05},
{-1.15787e-05, 3.10438e-05},
{-3.94895e-05, 2.44717e-05},
{6.58981e-05, 3.04634e-05},
{6.47362e-06, -3.79479e-06},
{-3.00398e-06, 4.88991e-06},
{-5.13573e-05, 2.67059e-05},
{-0.000106763, -1.89446e-05},
{9.06619e-06, 2.90135e-05},
{1.13099e-05, -9.88762e-06},
{-2.92086e-06, -4.33185e-05},
{-1.33386e-05, -1.70365e-05},
{-2.10435e-06, 4.99017e-05},
{4.11966e-05, 7.14138e-06},
{0.000124242, 4.76695e-05},
{1.56176e-05, 6.98047e-05},
{-2.72481e-05, 0.000113776},
{-5.42875e-05, 6.77722e-05},
{6.455e-06, 6.44388e-05},
{2.08725e-05, 2.89331e-05},
{3.65346e-05, -5.12794e-05},
{4.71878e-05, 4.27536e-05},
{5.96675e-06, -2.31622e-05},
{1.71585e-05, -4.91566e-05},
{-3.30692e-05, -3.19141e-05},
{4.5775e-05, 5.79585e-06},
{-2.74249e-05, 7.38191e-05},
{2.0918e-05, -3.68734e-05},
{9.99802e-05, -7.50483e-06},
{9.43915e-05, -4.7568e-05},
{4.35933e-05, -4.74995e-05},
{-1.45595e-06, 6.31229e-05},
{6.25837e-06, 3.31625e-05},
{3.77173e-05, 1.16655e-05},
{2.58829e-05, 4.8533e-05},
{4.50811e-05, -1.35845e-05},
{-2.50032e-05, -1.25183e-05},
{-6.19364e-05, -3.53912e-05},
{-3.91575e-06, -4.07617e-06},
{-3.11015e-05, 1.65063e-05},
{1.44597e-05, 0.000108619},
{3.33935e-05, 3.19241e-05},
{-3.90474e-06, -3.81453e-05},
{-1.29237e-05, -3.71038e-05},
{-5.76966e-06, -4.95368e-05},
{1.72469e-06, -6.421e-05},
{2.52017e-05, -3.07455e-05},
{-4.69098e-05, 6.35013e-05},
{-5.28189e-05, 2.06383e-05},
{-2.72916e-05, 5.044e-05},
{-1.87638e-06, -8.92964e-06},
{7.76298e-06, -1.60289e-05},
{7.0556e-05, 8.08237e-06},
{-1.12092e-05, -1.19188e-05},
{-1.50644e-05, -1.38071e-06},
{6.36838e-06, 2.38981e-05},
{2.70254e-05, 4.32724e-05},
{-4.70888e-06, -2.68931e-06},
{2.38472e-05, 1.20648e-05},
{2.27263e-05, -3.8171e-05},
{1.94316e-05, 4.34844e-05},
{-6.58433e-05, 2.07264e-05},
{-2.44172e-05, 1.60453e-05},
{-4.69352e-06, 5.51587e-06},
{-3.47121e-05, -3.97782e-05},
{-3.00604e-05, -8.0958e-05},
{-8.46363e-05, 2.17548e-06},
{-1.53919e-05, 2.72891e-05},
{3.76954e-05, -2.82427e-05},
{4.00745e-05, 3.55489e-07},
{-1.59559e-05, -4.28655e-05},
{-5.34195e-05, -4.41339e-05},
{-4.90992e-05, -1.70521e-05},
{8.18755e-06, -2.55096e-05},
{-8.31514e-05, -9.88035e-05},
{-5.50556e-05, -8.90577e-06},
{1.2019e-06, 1.61564e-05},
{7.33673e-06, 6.10104e-05},
{3.53269e-05, 7.86127e-05},
{7.55256e-06, 1.49832e-05},
{1.40858e-05, -2.16746e-05},
{-7.36001e-06, -2.83397e-05},
{-1.72965e-05, -3.83975e-05},
{-8.5382e-05, -2.77406e-05},
{-2.86514e-05, -2.39469e-05},
{3.36724e-05, -8.85769e-06},
{-4.1509e-05, -1.22578e-05},
{6.88713e-07, -2.57031e-05},
{-2.31029e-05, -4.36205e-06},
{4.14429e-05, 5.3769e-05},
{-1.20422e-05, 1.35383e-05},
{3.0848e-05, -2.57959e-05},
{-1.29694e-05, 1.7565e-05},
{2.9753e-05, -5.83089e-06},
{-2.40946e-05, 1.39624e-05},
{-5.22196e-05, -2.96134e-05},
{4.7917e-05, -2.49889e-05},
{6.43554e-05, 4.31136e-05},
{2.73925e-07, 7.97554e-05},
{1.02166e-05, 6.30956e-05},
{8.1812e-06, 3.33092e-05},
{2.21422e-06, -1.57609e-05},
{2.4091e-06, 1.23546e-05},
{-3.7089e-05, -2.81318e-05},
{-2.15096e-05, 1.94181e-07},
{7.40812e-05, -3.34339e-06},
{5.82517e-05, -1.19038e-05},
{7.31361e-05, 1.33419e-05},
{-1.11248e-05, -8.39354e-07},
{-0.000123665, 1.44838e-05},
{-3.01385e-05, 4.03135e-05},
{3.20561e-06, -1.88104e-05},
{8.04989e-06, -3.07939e-05},
{-1.91954e-05, -6.81123e-06},
{-4.22029e-06, 3.93917e-05},
{5.81779e-05, -2.13296e-05},
{5.90495e-05, -4.40269e-05},
{-2.67308e-05, -5.06006e-05},
{-5.49635e-05, 3.01842e-06},
{2.15662e-05, -2.79394e-05},
{4.04071e-05, 4.38448e-05},
{9.19732e-05, 4.59377e-05},
{4.87473e-05, 6.7498e-05},
{2.69992e-05, 3.37032e-05},
{-8.40086e-05, 2.95967e-05},
{-1.91793e-05, 7.18355e-05},
{-5.2416e-05, 2.10647e-05},
{-3.76713e-05, -3.01751e-05},
{-7.51072e-05, -6.72318e-05},
{-1.30096e-05, -3.01504e-05},
{6.4045e-05, -3.70445e-05},
{-6.23598e-05, 2.19703e-05},
{-1.8619e-05, 3.30417e-05},
{0.000114346, 3.77771e-05},
{5.79169e-05, -2.23969e-05},
{4.80777e-05, -6.68819e-06},
{2.1751e-05, 8.43859e-05},
{-8.41497e-06, 2.05493e-05},
{-5.54093e-05, 5.66362e-05},
{-3.44291e-05, 7.34996e-05},
{-2.64519e-05, -1.40524e-05},
{6.04321e-05, -1.9638e-05},
{1.30718e-05, 8.31322e-06},
{4.78902e-05, 1.84416e-05},
{6.02379e-06, 2.23246e-05},
{-1.33887e-05, 4.85837e-05},
{-8.95793e-06, 4.77681e-05},
{-2.56579e-05, 1.92269e-05},
{-1.88965e-05, 4.20522e-05},
{-7.10197e-06, -7.06268e-06},
{-1.25624e-05, -9.42913e-05},
{-3.60416e-05, -5.29714e-05},
{4.08811e-05, -5.32364e-05},
{1.63423e-05, 5.74431e-05},
{-5.10828e-05, 5.46208e-05},
{-3.17488e-05, 4.3015e-05},
{3.33191e-05, 6.52516e-05},
{1.00512e-05, -7.6975e-06},
{7.4111e-05, 3.18746e-05},
{1.62809e-05, 3.28207e-05},
{-5.99416e-05, 7.42418e-05},
{-6.04242e-06, 4.06899e-05},
{-7.91508e-06, -6.15965e-06},
{-5.06397e-05, -2.71028e-05},
{-4.85242e-06, 7.91089e-06},
{6.00026e-05, 8.33243e-07},
{4.96403e-05, -2.14442e-05},
{-1.77661e-05, -5.23461e-05},
{-1.52029e-05, -2.19567e-05},
{2.34197e-05, 3.18885e-06},
{5.51863e-05, 2.87395e-05},
{3.06708e-05, -7.77463e-05},
{4.14769e-05, -8.39344e-05},
{-6.15164e-05, -1.24895e-05},
{-1.33363e-05, 2.52174e-05},
{3.36042e-05, 2.35001e-05},
{1.77878e-05, 2.70451e-05},
{6.22147e-05, 1.02604e-05},
{7.39231e-05, -3.5311e-05},
{5.6081e-05, 1.58309e-05},
{8.61883e-05, 2.86952e-05},
{-1.47207e-05, -6.07281e-06},
{-4.17179e-05, -3.80857e-05},
{-6.96059e-06, -4.24498e-05},
{-4.15358e-05, -1.96911e-05},
{-5.36779e-05, 1.48684e-05},
{-2.67639e-05, 5.26127e-05},
{-5.67379e-06, 4.46182e-05},
{-5.80421e-05, 4.87426e-05},
{-4.01966e-05, 3.72217e-05},
{-1.75717e-06, -3.04283e-05},
{5.27045e-05, 8.90883e-06},
{-2.12213e-05, -1.73076e-05},
{-2.08925e-05, -2.57129e-05},
{7.59074e-06, 2.25892e-06},
{-2.02536e-05, 4.86828e-05},
{-1.95282e-05, -8.00469e-05},
{5.36069e-05, -3.47679e-05},
{-8.29028e-06, -4.63836e-05},
{3.43309e-06, 7.81601e-06},
{-7.09567e-05, 6.57921e-06},
{-4.85578e-05, -4.22482e-05},
{-9.93778e-05, -4.68668e-05},
{-8.16889e-05, 4.19193e-05},
{-1.47363e-05, 4.65091e-05},
{-2.04224e-05, 5.92676e-05},
{-2.84093e-05, 2.13699e-05},
{-3.23794e-05, -6.13674e-05},
{-2.94908e-05, -5.65292e-05},
{-9.22421e-05, -0.000100305},
{-2.19165e-05, -3.02077e-05},
{-9.58035e-05, 5.57371e-05},
{-2.19904e-05, -9.47546e-05},
{-3.51979e-05, -2.71839e-05},
{4.65976e-05, 4.58132e-05},
{7.1672e-05, 3.24789e-05},
{-1.72895e-05, 3.95334e-05},
{-4.37381e-05, -2.34645e-05},
{4.16685e-06, -5.98956e-05},
{2.55165e-05, 2.20637e-05},
{4.56166e-05, 4.65126e-05},
{-3.93274e-06, 1.37268e-05},
{-2.83056e-05, -1.21873e-05},
{-9.89973e-06, -6.05911e-05},
{-6.42872e-05, 1.64736e-05},
{3.24804e-05, 4.48362e-05},
{-3.88461e-05, 4.25312e-06},
{2.26189e-05, -2.9795e-05},
{2.20456e-06, 4.27185e-05},
{2.95022e-05, 0.000146892},
{-4.91989e-05, 6.40174e-05},
{8.35396e-07, -5.17609e-05},
{7.16525e-06, -3.25018e-05},
{-2.73373e-05, -6.65731e-05},
{-8.84226e-05, -2.11241e-05},
{-2.03128e-05, 2.53064e-05},
{1.56187e-05, 1.02295e-05},
{1.78623e-05, 2.63767e-05},
{-1.63703e-06, 2.67109e-05},
{1.61736e-05, 1.81696e-05},
{5.35818e-05, -3.78783e-05},
{6.25583e-05, 0.000100319},
{1.04439e-05, 4.9246e-05},
{-3.28701e-05, 4.91847e-05},
{-2.92627e-05, -4.31466e-05},
{-1.4782e-05, -5.55942e-05},
{2.92052e-05, -1.09434e-05},
{3.28985e-05, -6.90001e-05},
{-1.41358e-05, -6.16988e-05},
{4.43975e-05, 1.2794e-07},
{-5.98584e-06, 7.44985e-05},
{4.5996e-06, 6.99351e-05},
{-3.88497e-05, 2.03931e-05},
{-3.50522e-05, -1.60425e-05},
{-7.00136e-05, 1.66092e-05},
{1.20385e-05, -1.33344e-05},
{4.40893e-05, -7.8528e-06},
{2.86401e-05, 1.13872e-05},
{4.23728e-06, -3.90578e-05},
{-1.07767e-05, -7.22525e-05},
{7.11218e-05, -7.24657e-05},
{5.09256e-05, 2.33988e-05},
{3.07735e-05, 6.1672e-05},
{1.47931e-05, 6.83956e-05},
{-3.84016e-05, -5.71396e-05},
{-9.48608e-05, -8.86428e-05},
{-1.83155e-05, -6.64168e-05},
{5.03048e-05, -2.24661e-05},
{4.90698e-05, -2.15698e-05},
{5.19762e-05, -6.53649e-06},
{7.53556e-06, -4.60732e-05},
{-2.61213e-05, 3.07159e-05},
{-4.79437e-05, -5.01517e-07},
{-9.89691e-05, -1.75484e-06},
{-5.62235e-05, -6.88405e-06},
{-7.29427e-05, -3.08328e-05},
{6.67642e-08, -6.45109e-05},
{1.30248e-05, -3.65896e-05},
{4.72041e-05, -9.78184e-05},
{3.9204e-05, -1.0228e-05},
{-3.70591e-05, 3.80399e-06},
{-1.05288e-05, -2.13378e-05},
{-4.45209e-05, -1.66078e-05},
{-4.67754e-05, -4.54281e-05},
{8.03682e-05, -1.23179e-05},
{5.79442e-05, 4.49729e-05},
{-8.8616e-06, 7.66568e-05},
{-1.32071e-05, -1.21581e-05},
{-1.25647e-05, 1.73732e-05},
{-1.14325e-05, -4.93537e-05},
{1.31812e-05, -4.80353e-06},
{-1.68543e-05, -7.46241e-05},
{-2.57047e-05, -7.17863e-06},
{8.23115e-06, -2.18888e-05},
{3.22262e-05, 3.99742e-05},
{7.31067e-05, -2.96906e-06},
{-3.45272e-05, 3.75257e-05},
{-1.66864e-05, 6.12117e-05},
{-5.04116e-05, 5.97015e-05},
{-2.99424e-05, 3.89072e-06},
{4.35261e-05, -1.65682e-05},
{8.67207e-05, -4.32061e-05},
{-3.8738e-05, 3.58885e-06},
{-2.81442e-05, -3.44663e-05},
{1.97557e-06, 3.47983e-06},
{-9.63744e-07, -3.5679e-06},
{6.11495e-05, -1.5856e-05},
{5.858e-05, 1.18809e-05},
{3.3265e-05, -3.46676e-05},
{-5.62565e-06, -1.1382e-05},
{-1.19676e-05, -2.25306e-05},
{3.04302e-05, 6.48201e-06},
{6.04286e-05, 9.44361e-07},
{3.98336e-05, -3.60694e-05},
{3.28124e-05, 9.57178e-06},
{0.000103508, -1.5521e-05},
{1.10264e-05, -1.80592e-05},
{-9.18822e-05, 3.13079e-05},
{-0.000102796, 1.39622e-05},
{-3.8453e-05, 5.28316e-05},
{-3.74713e-05, 7.09086e-06},
{-5.07445e-05, -1.60199e-06},
{5.84498e-06, -6.78876e-06},
{7.71205e-06, 4.08655e-05},
{9.77656e-06, -6.35707e-05},
{2.76745e-05, -7.33044e-06},
{1.28925e-05, -1.4645e-06},
{3.93023e-05, -4.23309e-06},
{2.14742e-05, 4.53093e-05},
{-6.51883e-05, 4.94804e-05},
{-6.61751e-05, 6.05284e-05},
{-0.000150489, -3.99485e-05},
{-3.47425e-05, -1.28684e-05},
{7.72955e-05, -1.09251e-05},
{-2.03844e-05, 1.41654e-06},
{-9.06875e-07, 3.13981e-05},
{-5.28146e-05, 9.1762e-06},
{5.62618e-05, -5.0309e-05},
{6.96471e-05, -4.83873e-05},
{2.78107e-05, 3.0925e-05},
{-5.0246e-05, 4.22953e-05},
{-3.71244e-05, -4.65064e-05},
{-4.29684e-05, -3.69193e-05},
{-9.02591e-05, -1.91072e-05},
{-2.61064e-05, -1.63502e-05},
{6.94656e-05, 1.07978e-05},
{-8.65079e-05, -4.77993e-05},
{-4.27943e-07, 5.87665e-07},
{4.97303e-06, -1.28882e-05},
{-1.90048e-05, -5.7416e-07},
{-4.51416e-05, -3.80622e-05},
{3.67709e-05, -1.91168e-05},
{3.07962e-05, 3.20473e-05},
{-2.62491e-05, -1.71583e-05},
{-2.71356e-05, 1.2242e-05},
{4.65689e-05, 1.83841e-05},
{-3.32401e-06, 2.33131e-05},
{2.28388e-05, 6.79791e-05},
{1.26197e-05, 2.32727e-05},
{1.8979e-05, -1.12453e-05},
{-4.3645e-05, -9.20531e-06},
{-6.33325e-05, -1.32199e-05},
{-0.000103247, -9.95141e-06},
{-3.4445e-05, -2.27765e-05},
{-2.07565e-05, 4.21407e-05},
{-4.54009e-05, 1.67218e-05},
{-1.24065e-05, 1.20458e-05},
{1.07572e-05, 1.12748e-06},
{8.44823e-06, -7.9624e-06},
{4.46315e-05, -1.78058e-05},
{2.60342e-05, -5.13853e-05},
{2.28143e-05, -2.6189e-05},
{4.33482e-05, -3.75067e-05},
{-1.99303e-07, 2.80899e-06},
{9.4675e-05, -3.0501e-05},
{5.56041e-05, -5.08858e-05},
{6.53054e-05, -1.49459e-05},
{1.71255e-05, -7.61379e-05},
{7.05933e-05, 1.18524e-05},
{5.43653e-05, -3.86814e-05},
{7.20599e-06, -8.98342e-06},
{-2.19969e-05, 4.14904e-07},
{5.62044e-05, -8.18388e-06},
{-8.45676e-06, 8.9885e-05},
{3.48293e-05, 4.35845e-05},
{3.22572e-05, 5.42053e-06},
{-3.45171e-06, 2.57688e-05},
{-2.58491e-05, 3.856e-05},
{-4.42312e-05, 4.96041e-05},
{-5.87932e-05, 3.04861e-05},
{7.53902e-05, 7.25233e-06},
{-7.61868e-06, -1.71789e-05},
{1.88705e-05, -6.41728e-05},
{-1.50958e-05, 4.39899e-06},
{-1.40453e-05, 1.27808e-05},
{-5.52388e-05, 2.29899e-05},
{-5.90202e-06, -1.73722e-05},
{-4.32311e-05, 3.70992e-06},
{-2.70715e-05, 3.65863e-05},
{-7.905e-05, 4.0242e-05},
{6.2173e-05, -5.04049e-06},
{-2.01843e-05, -2.98813e-05},
{-2.69068e-05, 1.51767e-05},
{-2.03811e-05, 4.39934e-06},
{1.04308e-05, 1.98742e-05},
{-2.57319e-05, 5.47923e-05},
{-1.03148e-05, 0.00011421},
{-4.82728e-06, 5.19266e-05},
{1.30305e-05, -2.361e-05},
{-8.1386e-06, -3.88317e-05},
{-9.495e-05, -1.0734e-05},
{-0.000109995, 2.32499e-05},
{-1.73079e-05, 7.23741e-05},
{7.43914e-05, 2.83075e-05},
{7.63248e-06, -2.341e-05},
{1.1611e-06, -7.94033e-05},
{-4.95045e-06, -3.24539e-05},
{9.02582e-05, 2.7649e-05},
{-3.70387e-06, 2.60783e-05},
{4.10299e-05, -1.55768e-05},
{-1.15321e-05, -1.47219e-05},
{4.11342e-06, -3.56312e-05},
{3.16247e-05, -4.88584e-05},
{-4.00063e-05, 2.1338e-05},
{1.31717e-05, -6.22835e-05},
{-4.39479e-05, -5.44474e-06},
{4.12425e-06, 3.01225e-05},
{1.41177e-05, 7.28497e-05},
{-3.07153e-05, -1.94104e-05},
{2.37697e-05, -3.93889e-05},
{1.91686e-05, -0.000145769},
{-1.66418e-05, -1.7705e-06},
{-3.85793e-05, -9.36503e-06},
{-1.52712e-05, -7.4665e-05},
{-5.55615e-05, -6.63542e-05},
{-1.88102e-05, 1.9321e-05},
{-1.37025e-05, -7.90466e-06},
{6.16296e-05, 3.47579e-05},
{2.06194e-05, -1.85058e-05},
{6.45546e-05, -4.02561e-05},
{-3.82162e-05, 1.43247e-05},
{-6.13678e-05, 1.82004e-06},
{-6.63347e-05, 1.58385e-05},
{-5.66361e-07, -6.84988e-06},
{-6.18602e-05, -4.54637e-06},
{-6.39178e-05, 5.20633e-06},
{-5.84978e-05, 1.54425e-05},
{4.16143e-05, -2.16933e-05},
{2.32891e-05, 1.83564e-05},
{3.93717e-05, -1.487e-06},
{-5.46238e-05, 5.17291e-05},
{-4.82963e-05, 1.13517e-05},
{1.05837e-05, 5.32505e-05},
{1.45324e-05, -7.83382e-06},
{-4.89885e-05, -3.02142e-05},
{-3.78859e-05, -3.7295e-05},
{-2.25643e-05, -1.89815e-05},
{3.59266e-05, -3.34071e-05},
{-1.61813e-05, -7.04706e-05},
{-5.64013e-05, 6.79633e-07},
{-3.84351e-05, 7.49622e-06},
{-2.34139e-05, -5.47455e-06},
{5.34626e-05, -1.37568e-06},
{2.91553e-05, -5.42838e-05},
{0.000103228, -3.59789e-05},
{4.00222e-05, -4.90514e-05},
{-4.05691e-05, -5.45399e-05},
{-7.65938e-05, -3.26361e-05},
{4.60577e-06, 8.18616e-05},
{-3.35549e-05, 0.000124509},
{3.28192e-05, 7.3191e-05},
{-5.77554e-06, 5.18664e-05},
{3.02405e-05, 4.45169e-05},
{-3.15998e-05, 7.34103e-06},
{3.67104e-06, -9.04768e-05},
{-6.75709e-06, -1.09586e-05},
{-3.14564e-05, -4.52212e-05},
{-6.09225e-06, 2.00704e-05},
{-3.98159e-05, -4.55212e-05},
{-3.88359e-05, -0.000100133},
{-7.34287e-05, -4.30006e-05},
{-5.20777e-05, -1.47556e-05},
{4.84008e-05, 4.09333e-05},
{3.95929e-05, 4.88255e-05},
{-2.65789e-05, 1.44457e-05},
{-6.2515e-08, 2.14846e-05},
{-2.60682e-05, 7.4369e-06},
{6.27493e-05, -2.79564e-05},
{4.56176e-05, 3.39574e-05},
{8.97539e-06, -4.94923e-05},
{3.24728e-05, -3.03939e-05},
{-4.01108e-05, -8.46974e-06},
{3.49956e-05, -4.36821e-05},
{3.81616e-05, -9.2308e-06},
{1.43494e-05, -2.97066e-05},
{4.31808e-06, 3.3651e-05},
{-8.39978e-05, 1.48986e-05},
{-3.71651e-05, -7.0571e-07},
{-4.52122e-06, -5.8671e-06},
{-4.13027e-05, -7.61289e-05},
{-3.13576e-06, -3.38997e-05},
{-4.22816e-05, 3.08687e-06},
{-3.15448e-05, 4.66499e-06},
{-3.68021e-05, -3.23763e-06},
{-3.58965e-05, -3.57663e-05},
{-7.73584e-05, -4.573e-05},
{-4.80697e-05, -6.27347e-05},
{4.34779e-05, -1.58735e-05},
{4.55682e-05, 1.23308e-05},
{6.08006e-05, -5.53455e-05},
{5.91576e-06, -8.08545e-06},
{-4.97344e-05, -3.46013e-05},
{3.06335e-05, -4.62565e-05},
{3.14449e-05, 8.55245e-07},
{4.33352e-05, 1.60637e-05},
{3.9544e-05, 3.00515e-05},
{3.00867e-05, 2.75576e-05},
{3.86585e-05, -5.44067e-05},
{2.95311e-05, -5.23707e-05},
{1.8395e-05, -3.97267e-05},
{9.24526e-05, -1.95298e-05},
{5.83546e-05, -3.09412e-05},
{4.93895e-05, -8.89641e-05},
{2.00311e-05, -4.68665e-05},
{1.31147e-05, 1.7602e-06},
{-1.80141e-06, -2.75007e-05},
{7.47351e-05, 2.5489e-05},
{6.84624e-05, 2.00253e-05},
{-2.00537e-06, 1.91268e-05},
{-4.14313e-05, 8.6592e-05},
{8.75606e-06, 5.22232e-05},
{9.55223e-05, -4.45214e-05},
{1.6104e-05, 1.78395e-06},
{-9.49048e-05, 3.73267e-05},
{-6.832e-05, 7.38406e-05},
{7.01868e-06, 4.42059e-05},
{7.8402e-05, -1.38538e-05},
{1.52581e-05, -6.57509e-05},
{-5.2014e-05, -9.93983e-06},
{8.89995e-07, 3.98858e-05},
{-3.42513e-05, 4.97174e-05},
{-4.00331e-05, 6.27873e-05},
{-4.01604e-05, 2.47275e-05},
{-7.25812e-05, 3.95714e-05},
{-5.80343e-05, 6.1444e-06},
{-0.000104634, 1.87024e-05},
{-7.57016e-05, 6.29944e-05},
{2.71027e-06, 8.85451e-05},
{6.63982e-05, -8.7393e-07},
{1.4911e-05, -3.36817e-05},
{7.10413e-06, 4.40122e-05},
{1.44078e-05, 1.2129e-05},
{3.55181e-05, 6.07382e-05},
{3.84753e-06, 1.81918e-05},
{4.78199e-05, -6.7484e-05},
{-3.32434e-05, 4.94765e-06},
{-2.52612e-05, -4.23084e-05},
{1.41375e-05, 1.71631e-05},
{4.38979e-06, -2.82922e-05},
{2.1606e-05, -3.9537e-05},
{6.70126e-05, -1.4507e-05},
{5.14269e-05, 3.73721e-05},
{9.46783e-06, -4.08897e-06},
{3.64612e-05, -6.27951e-05},
{7.03933e-05, -4.18973e-05},
{5.20679e-06, 1.24009e-05},
{5.08246e-06, -2.7502e-05},
{3.04891e-05, -4.97722e-06},
{6.57543e-05, -4.58569e-05},
{1.55574e-05, -2.60875e-06},
{2.49106e-05, -3.99601e-06},
{3.26615e-05, -4.11599e-05},
{-3.37674e-05, -7.38824e-06},
{6.08945e-06, -3.16465e-05},
{4.65284e-05, -1.13632e-05},
{-5.61079e-05, -4.3771e-05},
{9.14233e-06, 4.03081e-05},
{1.95496e-05, 1.43684e-05},
{2.34503e-05, 5.58635e-05},
{-1.22862e-05, 4.34891e-05},
{-4.97256e-06, 3.72797e-05},
{-6.13667e-05, -2.40075e-05},
{1.8856e-05, -2.99207e-05},
{-1.67398e-05, -6.57162e-05},
{7.53615e-06, 8.64826e-06},
{-9.1934e-05, 5.30292e-05},
{-4.85426e-05, -2.95972e-05},
{-7.10436e-06, 9.32236e-06},
{-2.0205e-05, -3.12408e-05},
{5.9341e-05, 2.98186e-06},
{-3.6609e-05, -5.40128e-05},
{-6.12852e-05, -1.47766e-05},
{1.35042e-05, 4.97914e-06},
{3.68087e-05, 3.92038e-05},
{-1.00948e-05, 6.69693e-05},
{9.23802e-06, 4.08245e-06},
{-2.9942e-06, 2.406e-05},
{5.17257e-06, 3.01935e-05},
{-2.18694e-05, 2.30502e-07},
{-1.69472e-05, 8.0246e-05},
{9.44023e-06, 2.30088e-05},
{1.09873e-05, 3.46649e-05}
};