/*
Copyright (C) 2024, Advanced Micro Devices, Inc. All rights reserved.
SPDX-License-Identifier: MIT
*/

cfloat weightAppOut0_data [1000] = {
{-0.000362745, 8.30758e-05},
{-9.83226e-05, 4.29219e-05},
{0.000114633, -2.3769e-05},
{0.000136566, 3.5733e-05},
{2.7206e-05, 8.52463e-06},
{-2.46535e-05, -8.7173e-06},
{-9.16924e-05, 4.57815e-06},
{-6.64803e-05, -3.92314e-05},
{4.01155e-05, -2.85371e-05},
{0.000267747, -6.67792e-05},
{0.000327125, -5.35747e-05},
{-0.000101091, -1.37006e-05},
{-0.000588813, -1.83193e-05},
{-0.000589472, -2.32433e-05},
{-0.000210659, -4.65247e-05},
{-1.88352e-05, -2.71082e-05},
{-0.000112582, 4.93901e-05},
{-0.000319129, 3.42409e-05},
{-0.000243072, 1.224e-05},
{3.69991e-06, 1.9816e-05},
{0.000142183, 1.84819e-05},
{-0.000102798, 5.45057e-06},
{-0.000218587, 6.50436e-05},
{-3.91188e-05, 3.21037e-05},
{0.00013141, -3.55301e-05},
{0.000186994, -7.0594e-05},
{3.39649e-05, -1.69642e-05},
{-7.55442e-05, 1.27982e-05},
{-9.1643e-05, 3.02531e-05},
{9.52149e-06, -1.11819e-05},
{-4.5254e-05, 1.55e-05},
{4.21844e-05, 5.1164e-05},
{6.2482e-06, 8.97677e-05},
{4.52114e-05, -4.05509e-06},
{3.77074e-05, -3.71137e-05},
{2.69939e-05, -0.000102689},
{-5.83706e-07, -9.57416e-05},
{-4.28227e-05, 3.06685e-05},
{-8.75094e-06, 4.4927e-05},
{-4.14625e-06, -1.54122e-06},
{-5.77476e-05, 1.82512e-05},
{-4.7667e-05, 1.38491e-06},
{-4.35142e-05, 1.6641e-05},
{3.15793e-05, 2.7894e-05},
{8.18965e-05, 5.09695e-05},
{4.29153e-05, 7.8975e-05},
{-7.01053e-06, 8.1802e-05},
{-5.41974e-05, -1.82749e-05},
{3.49372e-05, 4.3199e-05},
{4.2484e-05, -4.95403e-05},
{3.76353e-05, -5.31571e-05},
{-2.33402e-05, -3.52738e-07},
{3.12639e-06, 5.76496e-05},
{3.26034e-05, 1.96821e-05},
{2.10779e-05, -7.89994e-06},
{4.4168e-07, -9.54334e-05},
{-7.14515e-05, 3.78699e-06},
{-4.72611e-05, 2.46391e-05},
{3.94017e-05, -3.03204e-06},
{-5.44242e-07, 8.80186e-05},
{4.24447e-05, 9.91113e-05},
{-2.16649e-06, 4.47801e-05},
{-1.58884e-06, 7.83706e-05},
{-5.90057e-05, -7.29121e-06},
{-0.000102436, 5.32018e-06},
{-7.30392e-05, 1.24287e-05},
{3.10362e-05, -5.13425e-05},
{2.74755e-05, 7.71525e-06},
{-1.96983e-05, -3.5802e-05},
{-9.2797e-05, -3.16017e-05},
{2.51923e-07, 3.57273e-05},
{4.70947e-06, 7.04358e-05},
{-3.18924e-05, 5.04405e-05},
{-4.63747e-05, 5.85699e-05},
{-0.000119369, 7.84616e-06},
{-2.49567e-05, -1.47102e-06},
{2.05514e-06, 3.98746e-06},
{5.25721e-05, -7.73033e-06},
{3.71051e-05, -2.3982e-05},
{-5.84673e-05, 2.95357e-05},
{3.66059e-05, -2.88917e-05},
{-1.27184e-05, -3.00336e-05},
{-5.9352e-06, -9.30799e-06},
{-0.000104184, -2.92591e-05},
{1.49333e-05, -3.82327e-05},
{-2.84286e-06, -5.07126e-05},
{-4.07442e-05, -2.53895e-05},
{-2.35752e-05, -7.46979e-06},
{3.64636e-06, -3.93926e-05},
{1.06639e-05, 2.63951e-05},
{3.74174e-05, 3.60589e-05},
{8.12858e-06, -1.12021e-05},
{1.86572e-05, -4.86872e-05},
{-2.34117e-05, -6.594e-05},
{-6.53855e-05, 1.70937e-05},
{-2.42777e-05, 8.31034e-06},
{-3.20133e-05, 3.82959e-05},
{-5.10737e-05, 4.32471e-06},
{-3.54894e-05, 1.80901e-05},
{5.31256e-05, -9.34719e-06},
{8.03499e-07, -1.21606e-05},
{-6.07364e-05, -8.60961e-06},
{-4.58579e-05, 4.32131e-05},
{-1.75314e-05, 4.22151e-06},
{3.26469e-05, 1.65408e-05},
{8.74395e-06, -2.81819e-05},
{1.86325e-05, -3.3982e-05},
{-4.67931e-06, 4.71738e-06},
{-1.58278e-05, 4.96502e-05},
{-3.09898e-05, -1.72665e-05},
{-7.26833e-06, -5.21764e-05},
{-4.51232e-05, -5.30374e-05},
{4.01051e-06, -6.90669e-06},
{4.25846e-05, 4.05286e-05},
{7.47843e-05, 2.23218e-05},
{8.61457e-05, -4.13443e-05},
{3.80687e-05, -2.85851e-05},
{2.06878e-05, -3.38501e-05},
{-8.85461e-06, -2.60061e-05},
{-1.45767e-05, -1.60339e-05},
{-1.8184e-05, 2.38046e-05},
{-5.90819e-06, 5.27955e-05},
{3.26404e-05, 4.18262e-05},
{1.08294e-05, 1.61509e-05},
{1.21882e-05, 3.91921e-05},
{2.59271e-05, 4.09944e-05},
{1.95799e-05, 1.82612e-05},
{-4.10558e-05, 5.44988e-05},
{-3.94834e-06, 6.49524e-05},
{-6.97682e-05, 7.15128e-06},
{-1.80751e-05, -9.24231e-05},
{-1.13662e-05, -6.24424e-05},
{6.98627e-05, -5.47108e-05},
{5.35706e-05, -6.10991e-05},
{6.30482e-06, -4.71447e-06},
{7.40888e-05, -5.39675e-05},
{7.42821e-05, 7.91589e-05},
{-1.8104e-05, 2.94233e-05},
{-2.51543e-05, 4.0091e-05},
{2.38019e-05, 1.05388e-05},
{4.54854e-05, -2.39866e-05},
{5.06162e-05, 2.33119e-05},
{-6.09704e-05, 3.221e-05},
{-3.83568e-05, 1.68902e-05},
{-4.95908e-05, -1.08478e-05},
{3.93655e-05, -9.72953e-06},
{4.99757e-05, 3.55085e-05},
{-3.98117e-05, -1.63116e-05},
{-6.05044e-05, 2.08891e-05},
{-7.37561e-05, 2.81094e-05},
{-1.50493e-05, 1.35803e-05},
{2.01607e-05, 2.19981e-05},
{3.61213e-06, 5.09375e-05},
{-3.22798e-05, 6.16527e-05},
{-3.9232e-07, 0.000111922},
{2.69841e-05, 1.52687e-05},
{1.62866e-05, -2.06386e-05},
{-5.93859e-05, 1.44937e-05},
{-2.30684e-05, -1.47159e-05},
{2.54958e-05, 1.46824e-05},
{2.56225e-05, 4.91333e-05},
{-2.87065e-05, 3.03838e-05},
{-4.84963e-06, 6.8245e-06},
{-6.555e-05, -6.06044e-05},
{-3.31621e-06, -7.74224e-05},
{-2.57655e-05, -0.000105408},
{4.12565e-05, 2.0296e-05},
{1.50538e-05, 3.71978e-05},
{4.10592e-05, 1.92717e-05},
{-1.04574e-05, 6.71018e-06},
{2.26544e-06, -2.12067e-05},
{2.80645e-05, 1.26894e-05},
{-2.40809e-05, 5.27559e-06},
{5.19333e-05, -1.26897e-05},
{-4.42841e-06, -2.40973e-05},
{-3.09121e-05, -7.34985e-06},
{1.30206e-05, 4.39059e-05},
{3.81157e-05, -7.5338e-06},
{-5.09061e-05, 5.25957e-05},
{-6.30915e-05, 2.10577e-05},
{4.33252e-05, -1.46475e-05},
{4.15791e-05, -9.58954e-06},
{-1.43381e-05, -1.76395e-05},
{4.04188e-06, 2.15846e-05},
{-1.31811e-05, -3.88896e-05},
{-8.47329e-06, 1.37016e-05},
{1.22113e-05, -3.45821e-05},
{8.17399e-06, 4.18603e-05},
{-2.51468e-05, 5.47084e-05},
{-3.16693e-05, 3.60603e-05},
{-4.60343e-05, -6.1888e-05},
{-1.02445e-08, 6.6316e-06},
{5.14733e-05, 1.35775e-05},
{4.13805e-05, 1.73572e-05},
{-5.98037e-05, 4.20915e-05},
{1.63475e-05, -8.31438e-06},
{-9.52566e-05, 6.32986e-05},
{3.94366e-05, 4.72139e-05},
{3.01228e-05, 1.59016e-05},
{-2.53655e-05, -1.57803e-05},
{-6.82138e-05, -5.21306e-05},
{-9.57712e-05, 2.2532e-05},
{-4.76416e-05, -5.6049e-05},
{-6.46664e-06, -7.57711e-05},
{-3.36647e-05, -4.97409e-05},
{-1.09631e-05, -1.73697e-05},
{5.03417e-05, 3.99214e-05},
{-2.16309e-05, 4.86081e-06},
{-7.92622e-05, -3.16862e-05},
{-7.13675e-05, -0.000100898},
{-0.000119788, -4.42202e-05},
{-4.98941e-05, -3.25482e-05},
{-5.21515e-05, -3.19754e-05},
{-1.48865e-05, -2.99115e-05},
{5.98024e-05, -1.40919e-05},
{-8.73755e-06, 1.96099e-05},
{2.29066e-05, 1.73112e-05},
{-4.34427e-06, -3.69875e-05},
{-1.90163e-06, -3.44883e-05},
{8.42888e-06, 9.79458e-05},
{4.17273e-05, 5.51395e-05},
{1.92714e-05, -4.23146e-06},
{2.19001e-06, 1.39929e-05},
{-2.43629e-05, 3.41526e-05},
{9.56026e-06, -5.09858e-06},
{2.73009e-05, -3.2715e-05},
{4.591e-05, -5.9725e-05},
{7.40613e-05, -2.56682e-05},
{6.15894e-05, 7.82169e-05},
{3.80537e-05, -1.03934e-05},
{1.68686e-06, -1.21497e-05},
{1.36957e-06, -3.67423e-05},
{3.90867e-05, -6.56908e-05},
{2.3121e-05, -6.63835e-06},
{3.41156e-05, -2.30127e-05},
{9.02952e-06, -4.07582e-06},
{-2.45625e-06, -2.18279e-08},
{3.45936e-05, -1.01514e-05},
{-3.10579e-05, -5.72512e-05},
{4.38447e-05, -1.99091e-05},
{9.68273e-06, 2.24984e-05},
{-6.46897e-06, -4.69266e-05},
{-3.80247e-06, -6.09912e-05},
{2.83456e-05, -1.01102e-05},
{8.47108e-05, -3.31918e-05},
{9.57586e-06, 5.31718e-05},
{2.52482e-06, -8.87716e-05},
{-7.70623e-06, -1.64692e-05},
{-4.14266e-05, -4.87778e-05},
{1.80653e-06, -1.12206e-05},
{3.81512e-05, 5.32356e-05},
{6.95977e-06, 0.00010774},
{-6.07314e-05, 1.96265e-05},
{-2.43377e-05, -1.14292e-05},
{-3.67088e-05, -4.66779e-06},
{-3.34347e-05, -9.54396e-06},
{3.8499e-05, 4.59952e-05},
{1.94569e-05, 6.71239e-05},
{2.14204e-05, 5.79283e-07},
{-1.85909e-05, -1.51054e-05},
{4.48816e-06, -2.92821e-05},
{2.38189e-05, -3.28352e-05},
{-4.96276e-05, 6.96579e-05},
{-2.46949e-05, 5.64905e-05},
{-2.79942e-05, 2.19805e-05},
{6.90836e-05, 1.60758e-05},
{-2.4725e-05, -5.50644e-07},
{-3.77295e-05, 2.55788e-05},
{-2.56312e-05, 8.20621e-05},
{-2.35864e-05, -5.7095e-05},
{4.29121e-05, -5.15667e-05},
{2.3169e-06, 5.43881e-06},
{6.22128e-05, -8.65303e-06},
{7.47773e-05, 3.09588e-05},
{2.18374e-05, 5.39295e-05},
{-2.25153e-05, -2.23308e-05},
{-1.84192e-05, -5.96144e-05},
{-2.08421e-05, -7.26571e-06},
{7.99866e-06, 1.81387e-05},
{3.00133e-05, -4.29087e-05},
{2.14307e-05, -6.37118e-05},
{3.13522e-05, -5.21834e-05},
{5.14921e-05, 3.3037e-05},
{0.000100454, 4.42329e-05},
{-1.03953e-05, -3.33059e-05},
{-5.29676e-05, -3.55567e-05},
{-2.0758e-06, 4.39351e-07},
{-3.57005e-05, 5.87335e-05},
{9.10414e-06, 6.59241e-05},
{1.55172e-05, -7.79983e-06},
{6.94764e-05, 1.14318e-05},
{4.26269e-05, -1.42201e-05},
{-5.93415e-06, 1.18269e-05},
{-6.44983e-05, -1.7894e-05},
{-0.000110304, -5.41596e-06},
{-0.000100078, 8.68805e-06},
{-8.98459e-05, -1.73182e-05},
{1.39949e-05, -4.6961e-05},
{1.12568e-05, -2.44231e-05},
{4.36994e-05, 4.43941e-05},
{-2.78752e-05, 9.32767e-05},
{-7.20778e-05, 3.01094e-05},
{-6.2038e-05, 2.43004e-05},
{-1.32701e-05, -4.80074e-06},
{6.38217e-05, -3.80329e-05},
{0.000101234, -1.53509e-05},
{1.40864e-05, -2.28848e-05},
{2.01537e-05, -5.37783e-05},
{-2.20559e-05, 3.6096e-05},
{8.3379e-06, -2.47958e-05},
{9.31402e-05, -2.27587e-05},
{6.93067e-06, -3.48797e-05},
{1.18632e-05, -3.86153e-05},
{-6.23192e-05, -2.39071e-06},
{-6.78455e-05, -5.78917e-05},
{-5.78165e-06, -3.27651e-05},
{6.02463e-05, -6.50296e-06},
{2.85029e-05, -7.0245e-07},
{2.96608e-05, 6.85519e-05},
{4.40144e-05, -2.22696e-05},
{-8.03345e-05, -4.80588e-05},
{-5.37963e-05, -4.65906e-05},
{-5.45799e-06, -2.41219e-05},
{3.90834e-05, 2.20415e-05},
{3.38024e-06, 1.47733e-05},
{1.96395e-05, 3.49756e-05},
{-3.89423e-05, -3.41719e-05},
{1.74553e-06, 1.73117e-05},
{5.57417e-06, 3.68872e-05},
{4.36953e-05, 0.000162872},
{-2.22246e-05, 5.27095e-05},
{2.69301e-05, -1.02923e-05},
{-3.63418e-05, -3.30848e-05},
{1.56651e-06, 1.311e-05},
{7.22305e-05, 1.3306e-05},
{3.7499e-05, 5.7407e-05},
{3.34466e-05, 2.42558e-05},
{5.58828e-06, -4.85862e-05},
{5.91971e-05, -1.43154e-05},
{3.58262e-05, -5.36875e-05},
{-3.76201e-05, -9.55939e-06},
{-2.72776e-05, 3.98797e-05},
{-6.45112e-05, 2.92843e-06},
{-3.10624e-05, 1.49818e-05},
{3.27652e-05, -2.90088e-05},
{4.25063e-05, -3.57605e-05},
{2.09815e-05, 4.03454e-05},
{-1.06639e-05, -1.47295e-05},
{-4.95093e-05, -1.17816e-05},
{-8.57182e-05, 1.02744e-05},
{-5.54122e-05, -1.28896e-05},
{1.40481e-05, 3.7508e-05},
{-7.8259e-06, 3.34803e-05},
{-5.60527e-05, 2.85152e-05},
{-5.03715e-05, 2.22831e-05},
{-6.03264e-07, 6.9272e-05},
{2.67457e-05, 2.06429e-05},
{1.2042e-06, -3.55476e-05},
{6.93346e-06, -4.42211e-05},
{3.90271e-06, 9.9701e-07},
{6.34992e-05, -1.47907e-05},
{4.76143e-05, -2.42963e-05},
{4.26802e-05, -2.03154e-05},
{-5.51401e-05, 5.32344e-05},
{-6.91996e-06, -3.15339e-05},
{9.57743e-06, -3.45794e-06},
{-2.48135e-05, 1.68354e-05},
{-2.61563e-05, 8.76712e-06},
{-5.33247e-05, 3.36154e-05},
{-1.4546e-05, 6.6997e-06},
{4.28708e-05, -6.19671e-05},
{-1.20042e-05, -1.63235e-05},
{-2.3368e-05, 4.462e-05},
{1.69489e-05, 2.36373e-05},
{-4.01288e-05, -2.46083e-05},
{-3.68501e-06, -8.66083e-06},
{-2.48597e-05, -3.97022e-05},
{-3.76875e-05, -2.27573e-05},
{-6.06107e-05, -1.7027e-05},
{-4.84382e-05, 1.23957e-05},
{-5.67578e-05, 4.45405e-06},
{-6.12767e-05, 1.38746e-05},
{-4.47643e-05, -1.06128e-05},
{9.09809e-06, 3.51795e-05},
{4.04082e-05, 5.29315e-05},
{-1.22319e-05, -3.05679e-05},
{1.81287e-05, 4.24846e-06},
{-5.46449e-05, -2.24309e-06},
{1.09097e-05, -1.1059e-05},
{-4.56645e-05, -3.88829e-05},
{6.71669e-05, 4.83741e-06},
{-4.79331e-05, 2.94717e-06},
{3.91295e-05, -3.55348e-05},
{8.2828e-05, 2.29827e-05},
{7.33213e-06, -2.51876e-05},
{2.08947e-05, -7.26315e-06},
{1.88541e-05, 8.90612e-06},
{1.44064e-07, 2.0091e-05},
{8.7525e-05, 2.85893e-05},
{4.08457e-05, 8.73592e-06},
{2.82831e-05, -2.0868e-06},
{9.71498e-06, -1.57172e-05},
{-1.32464e-05, 2.84379e-06},
{-6.19448e-05, 2.85147e-05},
{-8.71728e-05, -0.000100065},
{-3.62375e-05, -6.5301e-05},
{1.87811e-05, 1.80452e-05},
{0.000113563, 6.33035e-05},
{5.08153e-07, -9.44536e-07},
{-6.77432e-05, -6.81087e-05},
{-0.000123564, -5.29119e-05},
{1.28623e-05, -5.32491e-05},
{-2.13983e-05, -4.63682e-07},
{-1.32627e-05, -4.2924e-05},
{2.7133e-05, -4.10605e-05},
{2.70084e-05, -3.55893e-05},
{7.14343e-05, -7.18711e-05},
{1.81205e-05, 9.14326e-06},
{-1.57161e-08, 4.04476e-05},
{6.22519e-05, 3.10874e-05},
{1.18566e-05, -2.67192e-05},
{2.34988e-05, 1.37682e-05},
{-9.1875e-06, 5.25219e-06},
{5.51762e-06, 3.24042e-05},
{1.87097e-05, -8.38763e-05},
{4.13895e-05, -5.33729e-06},
{5.11932e-05, -9.01578e-06},
{5.23366e-05, -1.45978e-05},
{6.61194e-05, -2.32649e-05},
{8.17643e-06, -2.57979e-05},
{2.47518e-05, -1.10684e-05},
{4.00549e-05, -6.6275e-05},
{-4.69526e-06, -3.12734e-05},
{-1.15652e-05, 1.53019e-05},
{-2.75671e-05, -3.97696e-05},
{-5.33961e-05, -3.47397e-05},
{-2.03939e-05, -4.69546e-05},
{-2.87959e-05, -2.58174e-05},
{-9.2769e-06, 7.07052e-05},
{2.64641e-05, 0.000102858},
{4.32833e-05, 2.21194e-05},
{4.14803e-05, 1.45962e-05},
{6.10354e-05, -6.51926e-09},
{2.19314e-05, 3.51897e-05},
{-2.29684e-05, 4.86351e-05},
{1.31528e-05, 8.95426e-05},
{2.32026e-05, 2.74137e-05},
{-1.031e-05, -1.08567e-05},
{4.45195e-06, -2.97031e-05},
{-4.45575e-05, 2.7982e-05},
{-4.87338e-06, 2.75613e-06},
{3.56882e-05, -3.42382e-05},
{2.86615e-06, -4.09342e-05},
{-6.80797e-05, -2.49946e-05},
{-4.85042e-05, 4.49696e-05},
{-2.5034e-05, -1.25838e-05},
{6.62904e-05, -3.8974e-05},
{4.5686e-06, -4.59438e-05},
{2.50349e-05, 2.05759e-05},
{2.91993e-05, 7.44697e-06},
{1.8985e-06, 5.73742e-05},
{-4.04678e-05, 4.41293e-05},
{-6.57421e-05, -1.97368e-05},
{5.31331e-05, 5.69053e-05},
{4.10757e-05, 4.01502e-05},
{1.85812e-05, -2.49995e-05},
{-2.56786e-05, -4.25138e-05},
{-4.70888e-06, 3.26673e-06},
{3.28471e-05, -3.36799e-05},
{-2.36698e-05, 1.27018e-05},
{-9.09623e-06, 1.57255e-05},
{-2.99039e-06, -1.61165e-06},
{3.52082e-05, 3.57649e-05},
{6.05804e-05, 6.45617e-05},
{4.69782e-06, -5.21587e-06},
{-3.3224e-05, 2.55927e-05},
{-1.60416e-05, -3.56797e-05},
{4.37989e-05, -2.43448e-06},
{-1.28308e-05, -1.76425e-05},
{-1.91972e-05, -2.2634e-05},
{-3.54249e-05, 3.94764e-05},
{-5.23506e-05, 3.43211e-05},
{3.72678e-05, -2.185e-06},
{3.57507e-05, 3.52134e-05},
{8.90857e-06, -8.5183e-06},
{-4.94916e-05, -2.6683e-05},
{-4.67738e-05, 4.35546e-05},
{-9.40692e-05, 7.7365e-06},
{-2.88268e-05, 2.26218e-05},
{3.11348e-05, -3.68163e-06},
{-2.06264e-05, -5.11556e-05},
{-2.46305e-05, -5.48359e-05},
{-6.97206e-05, -6.38525e-05},
{-2.89225e-05, -1.19018e-05},
{-1.14962e-05, 1.50807e-05},
{-3.19964e-05, 1.7339e-05},
{3.74604e-05, 1.02124e-05},
{3.26203e-05, 9.83942e-06},
{1.63006e-05, -4.64229e-05},
{-2.32465e-05, -6.72438e-06},
{1.26823e-05, -4.4398e-05},
{4.90574e-05, -3.5668e-05},
{-3.46992e-05, -2.09318e-05},
{-2.40589e-05, -1.56342e-05},
{4.05591e-06, 5.20456e-05},
{1.95485e-06, 3.63733e-05},
{4.17562e-05, 4.275e-05},
{-2.21124e-05, -1.83494e-06},
{4.36306e-05, -2.83313e-05},
{4.45649e-05, -3.59665e-05},
{3.35493e-05, -2.3815e-05},
{-2.34088e-06, -4.25801e-05},
{-2.685e-05, 5.2141e-05},
{-3.51355e-05, -1.14054e-05},
{-4.01304e-05, -3.58083e-05},
{-5.57979e-07, -6.18959e-05},
{2.3797e-06, -3.04836e-05},
{2.10831e-05, -5.83895e-05},
{1.0731e-05, 2.09743e-05},
{-4.25987e-06, 6.985e-05},
{2.05829e-05, 7.01996e-06},
{-2.85775e-05, -5.91984e-06},
{-1.42631e-05, -5.70461e-05},
{-3.66592e-05, -0.000105388},
{3.38793e-05, -3.19742e-05},
{2.77011e-05, 5.57657e-05},
{3.81623e-05, 3.93288e-05},
{3.35189e-05, -3.37206e-05},
{2.06261e-05, -3.69879e-05},
{8.85956e-05, 2.9525e-05},
{1.7526e-05, 3.01048e-05},
{2.17272e-05, 3.65195e-05},
{-1.37435e-05, 5.14251e-05},
{4.84427e-06, 8.1697e-05},
{6.10971e-06, 9.56096e-06},
{3.31458e-05, 2.22684e-05},
{5.49838e-06, -5.92044e-05},
{8.82032e-06, -1.22667e-05},
{5.78497e-06, -5.41809e-05},
{-7.3183e-06, -2.42449e-05},
{6.53052e-06, -5.82234e-06},
{-5.3001e-06, 1.65733e-05},
{3.50409e-05, 3.40971e-05},
{1.51694e-05, 2.10097e-05},
{3.17732e-05, 1.83618e-05},
{5.38842e-05, 1.75941e-05},
{3.97704e-05, 0.000102934},
{-2.69955e-06, 5.61075e-05},
{1.56811e-06, 1.16163e-05},
{3.91754e-05, 2.97377e-05},
{3.80388e-05, 6.33756e-05},
{3.60159e-05, 3.40192e-05},
{2.98112e-05, 1.25461e-05},
{8.22847e-05, -4.17634e-05},
{5.99299e-05, 2.53636e-05},
{6.41283e-05, -2.0565e-05},
{1.50474e-05, 1.93194e-05},
{6.73698e-05, -1.80921e-06},
{9.33639e-05, -6.73436e-05},
{3.28862e-05, -6.46167e-05},
{2.33607e-05, -2.014e-05},
{4.07935e-05, 1.7321e-05},
{7.02615e-05, 3.83099e-05},
{3.10611e-05, 5.78173e-05},
{5.00492e-05, 2.05734e-05},
{6.72827e-05, 1.32746e-05},
{3.95684e-05, -4.87235e-05},
{4.0849e-06, 8.19017e-06},
{4.03775e-06, -1.03991e-05},
{-1.02557e-05, -1.50843e-05},
{-3.92063e-05, 1.61526e-05},
{3.14944e-05, -6.99469e-05},
{1.63279e-05, -4.3818e-05},
{-3.06376e-05, -3.59921e-05},
{-2.12807e-06, -2.13095e-05},
{-4.39381e-06, -4.64293e-06},
{5.94677e-05, 2.61974e-05},
{-4.05943e-05, -2.80712e-06},
{-4.54015e-05, 1.54231e-05},
{3.80992e-06, 4.84774e-05},
{2.67156e-05, -1.00646e-05},
{-4.71997e-05, -9.53372e-06},
{3.74697e-05, -3.39916e-05},
{-8.73604e-06, 2.08775e-05},
{-8.36793e-06, -2.16853e-06},
{4.40007e-05, -4.54967e-05},
{-6.42071e-06, -2.85979e-05},
{7.747e-05, -2.19343e-05},
{7.58619e-05, -1.67335e-06},
{2.3894e-05, 1.69575e-05},
{2.5752e-05, -4.25147e-05},
{-9.80025e-06, -3.87884e-06},
{-1.45636e-05, 3.14367e-05},
{-4.1038e-06, 1.65057e-05},
{-4.73177e-05, 1.62462e-05},
{-6.82147e-05, -6.84306e-05},
{-3.3183e-05, -4.97717e-05},
{4.44776e-05, -3.53239e-05},
{-3.10685e-05, 2.94836e-05},
{3.20717e-05, 3.03668e-05},
{3.0224e-05, -3.80557e-05},
{8.45966e-05, -0.000104364},
{8.80477e-05, -6.81821e-05},
{5.69629e-05, -4.38858e-05},
{-5.06737e-05, -2.52232e-05},
{-7.84248e-05, -8.99155e-05},
{-3.67705e-05, -8.64937e-05},
{-5.62308e-05, 1.35596e-05},
{2.45802e-05, 8.52614e-06},
{-5.13601e-06, -5.35324e-06},
{2.47656e-05, -9.90788e-06},
{-2.13379e-05, -8.44989e-06},
{7.79843e-06, 2.04686e-05},
{-4.22371e-05, 3.62113e-05},
{-2.05871e-05, -3.58457e-05},
{-9.69716e-06, 2.17294e-05},
{-4.60356e-05, 1.00017e-05},
{-8.64415e-05, 3.78641e-05},
{-6.02942e-05, -1.10751e-05},
{-3.84182e-06, -3.99537e-06},
{4.70926e-06, 1.63961e-05},
{5.4401e-05, 5.12983e-05},
{-4.79781e-05, 3.25401e-05},
{-1.30804e-05, -3.74876e-05},
{4.26724e-05, 2.99884e-05},
{5.65774e-05, -2.21917e-06},
{2.24471e-05, -1.47275e-05},
{7.78274e-05, -1.64644e-05},
{0.000106838, 2.35443e-05},
{9.42132e-06, 6.40108e-05},
{1.49005e-05, 1.17365e-05},
{-5.37318e-05, -4.65513e-06},
{3.33251e-05, -7.78469e-07},
{2.18186e-05, -3.74689e-05},
{6.17972e-05, -3.34803e-05},
{2.80441e-05, -3.89271e-05},
{-1.23496e-05, -2.98842e-05},
{-4.97873e-05, 6.09428e-05},
{-7.46432e-06, 2.77378e-05},
{-3.61972e-05, 3.32191e-05},
{-2.33783e-05, 7.06938e-06},
{-2.63897e-05, 1.6673e-05},
{-3.72663e-05, -4.08926e-05},
{-1.45802e-05, -2.57688e-05},
{4.02564e-05, 2.27058e-05},
{2.45551e-05, 2.44611e-05},
{-1.21874e-05, 2.10896e-05},
{-3.41389e-05, 5.95232e-06},
{-8.97632e-05, -6.04338e-05},
{-6.47571e-05, -1.39638e-05},
{-8.21071e-05, -4.23093e-05},
{-1.82681e-05, 7.25753e-05},
{4.39701e-06, 6.77085e-05},
{4.99209e-05, -5.1111e-06},
{4.06895e-06, -2.73422e-05},
{2.11593e-05, -2.82062e-05},
{2.61911e-06, 6.57047e-05},
{3.6328e-06, 3.66584e-05},
{7.42285e-05, 2.6535e-05},
{6.29264e-05, -2.49024e-06},
{-2.06726e-05, -7.27945e-07},
{-1.82884e-05, -5.01191e-06},
{1.60924e-05, 2.42889e-05},
{-1.5146e-05, -7.59354e-06},
{2.44332e-05, -6.86108e-05},
{1.56246e-05, 1.68071e-05},
{1.4175e-05, 1.49151e-06},
{-1.62836e-05, -3.55241e-06},
{3.90883e-05, -4.5092e-05},
{-3.59141e-06, 1.77114e-05},
{2.78626e-05, 3.10992e-05},
{5.56652e-06, 5.62228e-05},
{-1.70444e-05, 4.335e-05},
{-5.14197e-05, -4.83352e-05},
{-3.72973e-05, -1.80289e-05},
{4.4726e-05, 6.31076e-06},
{5.71687e-06, 5.71343e-06},
{-2.52331e-05, 3.59743e-05},
{-1.5428e-05, -2.85014e-05},
{-3.00966e-05, -2.11155e-05},
{-1.25983e-05, -4.14979e-05},
{-1.62543e-05, -2.74465e-05},
{-1.00684e-05, -3.73933e-05},
{4.31421e-05, 1.01328e-05},
{3.20936e-05, 2.82106e-05},
{3.67293e-06, -4.15468e-05},
{-1.88174e-05, -5.31035e-05},
{-2.40575e-05, -5.70233e-05},
{-1.36222e-05, 3.53201e-05},
{-3.81817e-05, 5.60826e-05},
{2.53637e-06, 9.59309e-06},
{-3.62792e-05, -2.01262e-05},
{-1.36415e-05, 9.14896e-06},
{7.08038e-06, -9.80939e-06},
{-3.48396e-06, 8.02577e-05},
{-1.36943e-05, 6.64615e-07},
{2.3849e-05, 1.61453e-05},
{-2.43369e-05, -1.4512e-05},
{-0.00010869, -1.21281e-06},
{-0.000100586, -4.83287e-05},
{-6.68438e-05, 7.46862e-06},
{1.0337e-05, 1.64715e-05},
{3.41629e-05, -6.56631e-05},
{1.01997e-06, -6.15511e-06},
{-1.74772e-05, -3.28943e-05},
{-9.49297e-06, -7.22508e-06},
{4.20534e-05, 3.28773e-05},
{2.05997e-05, -3.51892e-05},
{-5.47653e-06, -6.62976e-05},
{1.12108e-06, -1.41102e-05},
{-4.95156e-05, 6.53988e-05},
{4.09457e-05, 4.0675e-05},
{-4.81542e-05, -4.07412e-05},
{-3.78131e-05, -5.77011e-05},
{-4.48141e-06, -3.9544e-06},
{4.14765e-05, 1.72346e-05},
{4.37133e-05, 5.83311e-06},
{-8.00733e-05, -5.56489e-05},
{-2.1311e-05, -1.31924e-05},
{7.83242e-07, -3.97568e-05},
{3.17096e-05, -4.13654e-05},
{2.72209e-05, -3.41066e-05},
{1.051e-05, -2.93659e-05},
{3.54286e-05, -9.29716e-06},
{3.95416e-05, 9.50391e-06},
{-5.69262e-05, -7.79715e-06},
{-4.21167e-05, -5.75506e-05},
{8.88463e-05, -3.76339e-05},
{4.98841e-05, -1.89403e-05},
{-6.53206e-06, -5.78826e-05},
{-1.70522e-05, -6.18719e-05},
{1.0605e-05, 1.35705e-05},
{4.22338e-05, 9.60124e-06},
{8.15692e-05, 4.47145e-05},
{1.1737e-05, 2.52668e-05},
{1.57231e-05, -2.9336e-05},
{-2.39089e-05, -2.55667e-05},
{3.48534e-05, -1.62548e-05},
{-1.11146e-05, -4.81824e-05},
{-2.03536e-05, -5.92497e-05},
{1.13882e-05, -3.40739e-05},
{-1.88935e-05, -3.63216e-05},
{-5.51734e-05, -5.30086e-06},
{-2.99141e-06, -1.28314e-05},
{-4.54216e-05, -3.14586e-06},
{1.2914e-05, -1.49081e-05},
{3.00936e-05, 3.22121e-07},
{7.91508e-05, -1.13875e-05},
{3.73963e-05, 8.2422e-07},
{3.66508e-05, 1.09466e-05},
{-3.34419e-05, -4.81028e-06},
{7.56292e-07, -1.04168e-05},
{-7.80937e-06, 9.56282e-06},
{-2.41743e-05, -4.44008e-05},
{-4.18772e-05, -3.26973e-06},
{4.68775e-06, -1.3489e-06},
{-1.39045e-05, 2.47913e-05},
{-5.21055e-05, 3.17087e-05},
{-8.04532e-05, 3.5633e-05},
{-9.70409e-05, -7.63102e-06},
{-3.16609e-05, -3.2234e-05},
{8.83313e-06, -3.55946e-06},
{2.30848e-05, 3.3181e-05},
{9.53346e-05, 1.80192e-05},
{1.04025e-05, -1.05952e-05},
{6.11739e-06, -2.13757e-05},
{4.73997e-06, -8.55653e-06},
{9.72394e-06, -3.02118e-05},
{0.000100221, 1.31542e-05},
{8.20868e-06, -4.84579e-06},
{-1.9311e-06, 5.56244e-06},
{-2.15187e-05, -9.68721e-06},
{-1.8701e-05, -1.28928e-05},
{-4.41743e-05, 4.99676e-05},
{-4.06126e-05, -5.77251e-05},
{-0.000124844, -4.39752e-05},
{-4.07961e-05, 5.75744e-06},
{1.78738e-06, -2.0687e-06},
{6.31505e-05, 4.71203e-06},
{8.94576e-06, -8.48162e-05},
{9.04012e-06, -2.97872e-05},
{4.79715e-05, 2.30978e-05},
{-8.08609e-06, -2.39233e-06},
{4.32702e-05, -5.84167e-05},
{-5.16656e-05, -7.37987e-05},
{-1.06548e-05, 1.34686e-05},
{-2.1702e-05, 3.34438e-06},
{-3.53566e-05, 2.07613e-05},
{9.07906e-05, 3.03397e-05},
{1.68179e-06, 4.87992e-05},
{2.46558e-05, 4.42213e-05},
{-3.4356e-05, 1.88265e-05},
{6.86594e-06, -3.34799e-05},
{-2.6544e-05, -7.12171e-06},
{-3.11532e-05, -2.59401e-05},
{-4.48141e-05, 1.2856e-05},
{-1.67291e-05, 2.83854e-05},
{-2.70237e-05, 7.65713e-06},
{-7.46755e-05, 3.1124e-05},
{2.89909e-06, -2.79575e-05},
{-3.73553e-06, -1.72315e-05},
{6.13001e-05, -1.75205e-06},
{6.84105e-05, 3.11176e-05},
{-2.60317e-05, -6.20323e-05},
{-3.56341e-05, -1.23963e-05},
{1.91457e-06, 5.88642e-06},
{-9.47574e-06, 4.34516e-05},
{1.55647e-06, 1.69647e-05},
{-2.21599e-05, -3.00564e-05},
{-1.55009e-05, -6.1053e-05},
{3.30473e-05, -5.38469e-05},
{-1.7846e-05, 1.49525e-05},
{2.09064e-05, -1.19968e-05},
{1.54101e-05, -1.44958e-05},
{-7.45072e-05, 5.73066e-06},
{3.02156e-05, -3.63986e-05},
{-2.71805e-05, 3.85434e-05},
{2.69836e-05, -2.10111e-05},
{-2.47053e-05, -3.88089e-05},
{-0.000139424, 6.32741e-06},
{-0.00010616, 4.14391e-05},
{-1.85512e-05, 1.12492e-06},
{-6.40709e-06, 8.55728e-06},
{8.92417e-06, 2.56484e-05},
{9.94341e-05, 7.45277e-05},
{5.35904e-05, 1.51602e-05},
{1.29356e-05, 2.82302e-05},
{-1.83308e-06, 2.46516e-05},
{7.59767e-06, 3.30876e-06},
{-1.87429e-07, -2.56699e-05},
{1.1747e-05, -8.95477e-05},
{8.10742e-06, -7.79019e-05},
{1.50672e-05, -1.13301e-05},
{6.24019e-05, 1.26341e-05},
{3.90849e-05, 1.61596e-05},
{1.08139e-05, -3.44444e-05},
{-4.00133e-05, -1.60726e-05},
{-8.17478e-05, -2.24814e-05},
{-9.28426e-05, -2.59834e-05},
{-0.000115769, -7.5568e-05},
{-6.01365e-05, -3.50334e-05},
{-3.05527e-05, -2.84825e-05},
{-2.92315e-05, 4.97263e-05},
{1.08939e-05, 2.77046e-05},
{1.35694e-06, 1.29419e-06},
{-5.02076e-06, -5.41154e-05},
{-2.78651e-05, 8.0755e-06},
{-7.27493e-05, 2.73925e-05},
{-4.82828e-05, 3.08956e-05},
{-1.37648e-05, 2.50201e-05},
{-1.39361e-05, 1.0916e-05},
{-3.191e-06, -4.25092e-05},
{-0.000105868, -3.31012e-05},
{-6.04831e-05, -6.28845e-05},
{2.66798e-05, 1.84993e-05},
{7.8883e-06, -1.81585e-06},
{3.68527e-05, 4.08171e-05},
{4.90254e-06, -2.62561e-05},
{-1.84095e-05, 4.1537e-06},
{-5.60097e-06, 1.98148e-05},
{-3.80836e-05, 1.10567e-05},
{3.20263e-05, 6.21304e-05},
{3.1475e-05, 7.00001e-05},
{2.86857e-05, 9.08785e-05},
{2.24896e-05, 8.0619e-05},
{1.01123e-05, 7.79331e-06},
{-3.70499e-05, 0.000105523},
{-8.02977e-05, 6.91954e-05},
{1.0428e-05, 2.20067e-05},
{2.13282e-05, -3.97777e-05},
{-3.97628e-06, 2.26358e-06},
{2.38223e-05, 3.28775e-05},
{-8.68086e-06, 7.48346e-05},
{-1.38041e-05, 4.88944e-05},
{1.49645e-05, 3.8866e-05},
{2.19038e-05, -2.84985e-06},
{9.73232e-06, -4.31165e-05},
{-2.46894e-05, 6.78003e-06},
{7.59214e-06, -1.40802e-05},
{-4.73101e-05, 5.15091e-06},
{-6.21174e-05, -2.18865e-05},
{-2.05338e-05, -6.34417e-06},
{-1.30432e-05, 2.74368e-05},
{4.42611e-06, 1.07847e-05},
{2.06735e-05, -7.89366e-06},
{5.37727e-05, 2.61283e-06},
{2.51061e-06, -3.26238e-05},
{-4.77405e-05, -2.12118e-05},
{-1.83051e-05, -5.33462e-06},
{-2.31005e-05, -3.57442e-06},
{-1.017e-05, -2.07033e-05},
{-1.39968e-05, -1.81608e-06},
{-1.06003e-05, -1.92798e-05},
{-2.66749e-05, -1.4442e-05},
{0.000111317, 2.4261e-05},
{2.47154e-05, 1.28206e-05},
{-4.18425e-05, 2.62633e-07},
{-1.45077e-05, -9.62988e-06},
{-2.18488e-06, 2.92324e-05},
{1.40527e-05, 5.44768e-05},
{-1.90921e-06, 7.95368e-05},
{-5.2195e-05, 9.45944e-05},
{-3.9205e-05, 6.76587e-05},
{-9.99961e-06, 2.78647e-05},
{-4.53833e-06, 2.4233e-05},
{2.23005e-05, 1.70991e-06},
{-1.82875e-05, -5.42784e-05},
{-2.10917e-05, -6.31423e-05},
{-3.20673e-05, -8.79765e-05},
{1.83601e-05, -1.80546e-05},
{1.691e-05, 0.000106834},
{-4.19337e-05, 5.63357e-05},
{-6.34864e-05, 8.73972e-05},
{-5.07878e-05, -9.78401e-06},
{-1.31167e-05, -2.70121e-05},
{4.62029e-06, 2.41306e-05},
{2.50572e-05, 3.87989e-05},
{-1.06272e-05, -5.43892e-06},
{6.49877e-06, -3.60236e-06},
{2.78791e-06, -2.58023e-05},
{-3.6295e-05, 7.13393e-06},
{-4.5632e-05, 5.72531e-06},
{-3.14079e-05, -7.04853e-05},
{-2.0789e-05, -2.75858e-06},
{-2.997e-05, -1.33021e-05},
{5.55553e-05, 1.38674e-05},
{7.78208e-05, 6.1118e-06},
{3.12601e-05, -1.80723e-06},
{2.30037e-05, 2.84864e-05},
{-7.13384e-05, 5.22481e-05},
{-3.65595e-05, 4.32674e-05},
{-7.55973e-05, 9.23406e-07},
{-2.7654e-05, 2.75318e-05},
{7.33529e-05, 4.53931e-05},
{5.52321e-06, 7.85582e-05},
{1.06227e-05, 3.0722e-05},
{2.75124e-06, -1.82658e-05},
{1.10301e-05, 2.72691e-05},
{1.92137e-05, 7.44546e-06},
{-1.62795e-05, 1.42574e-05},
{2.8573e-05, 8.22153e-05},
{5.4189e-06, 2.61075e-05},
{-4.91999e-05, 2.33478e-05},
{-4.20115e-05, -1.62385e-05},
{-5.92591e-05, -1.97571e-05},
{7.17072e-06, -3.61451e-05},
{3.55393e-05, 8.56258e-06},
{2.88002e-05, 1.29845e-05},
{-1.73654e-05, -3.07849e-05},
{-1.46786e-05, 5.51711e-05},
{-2.21799e-05, 2.12402e-05},
{-3.80902e-05, 2.38679e-05},
{-3.71551e-05, 3.63905e-05},
{1.62027e-05, -1.2503e-05},
{1.34376e-05, -3.72531e-05},
{4.72115e-05, -2.50358e-05},
{5.03687e-05, -7.99261e-06},
{-8.6294e-06, -1.31037e-06},
{2.68328e-05, -4.49084e-06},
{-2.69059e-05, -2.04323e-05},
{3.97181e-05, 5.98463e-05},
{5.35492e-05, 1.98833e-05},
{9.24366e-05, 2.31126e-05},
{7.89275e-05, 4.94649e-06},
{-3.11062e-05, -1.82914e-05},
{-2.75807e-05, -5.96881e-05},
{-1.5999e-05, 1.14753e-05},
{-1.33684e-05, -1.60877e-05},
{1.83219e-05, -4.1388e-05},
{5.17147e-05, 7.0767e-05},
{9.72133e-05, 2.12797e-05},
{6.32498e-05, 7.53733e-05},
{-2.4545e-06, 2.38591e-05},
{-1.22543e-05, 5.0768e-05},
{-3.59218e-05, 2.75932e-05},
{-4.30278e-05, -2.5156e-05},
{1.91224e-05, 2.327e-05},
{-1.08751e-05, 7.5181e-06},
{1.71186e-05, 4.42812e-05},
{-6.90459e-05, 0.000177915},
{1.60907e-05, 0.000100045},
{5.71704e-05, -0.000115968},
{0.00018073, -0.000688512},
{0.000209311, -0.00104935},
{0.000117199, -0.000732346},
{5.39888e-06, -0.000166111},
{-6.45018e-05, 0.000152352},
{-2.24144e-05, 3.05683e-05},
{-2.10549e-05, -8.01986e-05},
{-3.45374e-05, -3.51601e-05},
{-2.51273e-05, 5.0788e-05},
{-7.21347e-05, 3.90271e-05},
{-5.46915e-05, 3.65656e-05},
{-2.6904e-05, -4.21368e-05},
{-2.03729e-05, -2.68461e-05},
{-2.31285e-05, 1.07395e-05},
{1.47978e-05, -6.84033e-05},
{6.63013e-05, 3.26212e-05},
{4.47785e-05, -2.91925e-05},
{-2.20321e-05, 8.55536e-06}
};