/*
Copyright (C) 2024, Advanced Micro Devices, Inc. All rights reserved.
SPDX-License-Identifier: MIT
*/

cfloat weightAppOut3_data [1000] = {
{1.61821e-05, 4.47594e-06},
{9.76771e-06, 7.42851e-05},
{-7.15405e-05, 1.13037e-05},
{3.11481e-06, -2.63447e-05},
{2.14685e-05, 2.7013e-05},
{7.70689e-05, -1.57023e-05},
{6.20389e-06, 5.30735e-05},
{1.45487e-05, -3.41861e-05},
{5.08083e-06, 6.18829e-05},
{5.39899e-06, 2.8045e-06},
{-5.84032e-06, -3.51475e-05},
{-2.41459e-05, -6.75953e-05},
{7.57421e-06, -7.4039e-05},
{1.27498e-05, -2.71725e-05},
{5.54614e-05, -4.59896e-05},
{8.56915e-05, -7.45468e-05},
{-2.78379e-05, -5.93357e-05},
{-6.9468e-05, 1.55694e-05},
{-7.9073e-05, 7.52686e-06},
{7.2954e-05, -3.21204e-05},
{0.000120677, -5.8054e-05},
{0.000123278, -4.51049e-05},
{3.85336e-05, -5.09319e-05},
{2.81312e-05, 2.18242e-05},
{4.61551e-05, -5.56343e-06},
{8.37073e-06, -6.17139e-06},
{-4.19957e-06, -8.20251e-06},
{1.26534e-05, 2.58496e-05},
{1.00727e-05, -5.87581e-05},
{4.89677e-05, 6.98679e-05},
{5.07484e-05, -3.95933e-05},
{9.54221e-06, -3.95312e-05},
{-3.48827e-05, 1.28068e-05},
{1.94265e-05, -5.16505e-05},
{2.58686e-05, 3.07652e-05},
{4.86616e-08, 4.53438e-07},
{-3.69018e-05, 2.8067e-05},
{2.2246e-05, 3.64485e-05},
{-1.10359e-05, -5.24949e-05},
{6.2597e-05, -2.43376e-05},
{2.87753e-05, 2.77164e-05},
{3.27374e-05, -2.45305e-05},
{2.82889e-06, 6.64243e-06},
{-2.07569e-05, 2.16656e-05},
{7.37628e-05, 3.46305e-05},
{2.65818e-05, 4.00436e-05},
{-9.47737e-06, -6.5245e-06},
{4.51298e-05, -2.97719e-05},
{2.91432e-05, -4.60227e-05},
{2.00402e-05, -4.12199e-05},
{-2.15648e-05, 2.17303e-05},
{-4.30061e-05, 3.05284e-05},
{-3.12658e-05, 2.26882e-06},
{-1.95363e-05, 4.08513e-05},
{-2.13231e-05, 2.36969e-06},
{-1.4417e-05, 1.56754e-05},
{-4.80117e-05, -1.58435e-05},
{-2.56859e-06, -2.3474e-05},
{-2.80873e-05, -3.78476e-05},
{-6.08358e-05, -7.85294e-05},
{-0.000122916, -5.16266e-05},
{-0.000103608, -4.39878e-05},
{1.07446e-06, 1.11596e-06},
{4.53871e-05, 5.89376e-05},
{2.13785e-05, 5.42225e-05},
{-4.75408e-05, 7.42518e-05},
{-6.2676e-05, -1.54313e-05},
{9.32487e-07, 2.27694e-05},
{1.80043e-05, 2.59089e-05},
{2.66073e-06, 4.16932e-05},
{-1.96719e-05, 6.52391e-06},
{-9.33837e-06, 4.21308e-05},
{2.46435e-05, 3.27725e-05},
{3.57092e-06, 1.57866e-05},
{-4.22322e-05, 6.53949e-05},
{-2.56193e-05, 3.08842e-05},
{9.73139e-06, 2.95343e-05},
{6.25734e-05, 1.86499e-05},
{-7.01323e-05, -1.2056e-05},
{-7.87875e-05, -1.51258e-05},
{2.3712e-05, -3.79879e-05},
{7.94296e-06, 1.13519e-05},
{1.30748e-05, -2.56296e-05},
{-6.18558e-05, 7.06292e-07},
{1.32855e-05, -4.23449e-06},
{-1.49359e-05, 3.60625e-05},
{0.000122485, 8.63915e-05},
{8.31996e-05, 4.02968e-05},
{1.08298e-05, -1.97673e-07},
{2.44457e-05, -1.15153e-06},
{-1.46317e-05, 8.42617e-06},
{6.99413e-05, 2.28256e-05},
{2.81258e-05, 1.53503e-05},
{7.95861e-05, -4.42378e-07},
{0.000106659, 6.10096e-05},
{3.34819e-05, 5.89228e-05},
{1.62644e-05, -7.30066e-05},
{-3.20841e-05, -7.80869e-05},
{-4.14918e-05, 3.9197e-07},
{-5.89318e-05, -1.43963e-05},
{-1.41526e-05, -4.60019e-05},
{-8.15839e-06, 5.1982e-05},
{-3.49111e-05, -7.77211e-05},
{-4.21421e-05, 6.18037e-06},
{-7.35058e-06, -8.50152e-06},
{3.48857e-05, -1.31067e-05},
{1.49201e-05, -4.22864e-06},
{-6.83693e-05, 3.82241e-05},
{-2.95755e-05, -3.71121e-05},
{-5.62659e-05, 2.79168e-05},
{-3.75935e-05, -4.91e-05},
{-7.6578e-06, 1.99834e-05},
{4.11513e-05, 5.46486e-05},
{-5.08851e-06, -1.04678e-05},
{2.15692e-05, -1.88533e-05},
{3.73241e-05, -7.04415e-05},
{-3.86755e-06, 1.33852e-05},
{4.77361e-05, 2.65037e-06},
{4.11179e-06, -4.77619e-05},
{4.772e-05, -3.22881e-05},
{-1.81434e-05, 1.67024e-06},
{-3.20645e-05, -4.63348e-05},
{-3.17781e-05, -8.23463e-05},
{-3.1329e-05, -6.36892e-05},
{-8.2638e-06, -4.76504e-05},
{3.39372e-05, 4.18425e-05},
{2.65111e-05, -1.52012e-05},
{-4.55995e-05, -8.44931e-06},
{-1.36736e-05, -3.58332e-05},
{-2.58077e-05, -4.19426e-05},
{-8.81415e-06, -8.21007e-06},
{1.1276e-05, -1.88928e-05},
{3.49284e-05, -5.87308e-05},
{3.72151e-05, 1.16445e-05},
{1.00914e-05, 5.34384e-05},
{2.86172e-05, 2.84435e-05},
{-4.08795e-05, -1.54087e-06},
{1.64832e-05, 1.80356e-05},
{3.70209e-05, 8.43815e-05},
{-3.44821e-05, -6.37672e-05},
{-3.27886e-05, -9.20808e-05},
{1.25293e-05, -3.31257e-05},
{-1.50114e-05, 3.12123e-05},
{-3.22727e-06, 8.99727e-06},
{-5.16354e-05, -2.5971e-05},
{2.07727e-05, -4.82331e-05},
{-7.63126e-06, -4.03153e-05},
{1.58285e-05, 2.67259e-05},
{2.73071e-05, -9.25869e-06},
{3.60636e-05, 3.16952e-05},
{-3.64105e-05, 2.2552e-06},
{1.27055e-05, 8.01776e-06},
{-4.1879e-05, 4.8283e-05},
{4.61525e-05, -1.38624e-05},
{7.13603e-06, -3.26117e-06},
{1.35846e-05, -1.49786e-05},
{-6.4968e-05, -5.32012e-05},
{-4.7319e-05, -2.80296e-05},
{-9.25355e-05, -2.2299e-05},
{-8.35278e-05, -3.93465e-05},
{-7.48341e-05, 2.70209e-05},
{-6.44149e-05, 1.93745e-05},
{8.54651e-06, 3.14637e-05},
{2.09897e-05, 9.16852e-06},
{1.35079e-05, -3.71337e-05},
{-2.26777e-07, -5.74893e-05},
{8.50548e-06, -1.85636e-05},
{-8.82079e-06, 6.83833e-05},
{-4.53839e-05, 7.76632e-05},
{6.25526e-05, -5.51126e-05},
{1.31967e-05, -4.66167e-05},
{2.50521e-05, -2.62416e-05},
{8.9989e-06, -3.03909e-05},
{1.81396e-05, -7.52476e-05},
{-1.53253e-05, -4.05712e-05},
{-1.33837e-05, 5.58355e-05},
{6.44206e-05, 5.10078e-05},
{7.77354e-05, 2.7304e-06},
{-8.21694e-06, -2.58163e-05},
{-1.25347e-05, -2.95634e-05},
{-9.07655e-06, -2.01036e-05},
{1.25004e-05, 3.31433e-05},
{-4.61231e-05, -1.26096e-05},
{6.40998e-05, 7.29691e-07},
{1.82406e-05, -5.86722e-06},
{-3.1272e-05, 5.40937e-05},
{-0.000112475, -2.35224e-05},
{-3.23078e-05, -1.81779e-05},
{-3.91109e-05, -6.24475e-05},
{-4.37826e-05, -2.06631e-05},
{-6.0682e-05, 1.62842e-05},
{-0.00010261, 3.86909e-05},
{-7.36313e-05, 7.57703e-05},
{-3.47009e-05, -6.77432e-06},
{1.51391e-05, -8.53371e-06},
{2.58647e-05, -3.2103e-05},
{-4.68589e-05, -1.90903e-05},
{1.15291e-05, 4.79897e-05},
{4.12364e-05, 4.27588e-05},
{0.000102824, 2.89801e-05},
{6.75875e-05, -2.33495e-05},
{3.93385e-05, 5.15464e-06},
{-3.43602e-05, -5.76833e-05},
{5.88479e-05, -1.3341e-05},
{4.0636e-05, -1.12111e-05},
{-2.20903e-05, -3.80139e-05},
{-2.28477e-06, -8.71229e-05},
{1.66509e-05, -5.53607e-05},
{-2.3486e-05, 5.15603e-06},
{-1.3315e-05, -2.23413e-06},
{-2.22278e-05, 3.68071e-05},
{-8.2734e-06, -3.58543e-05},
{-2.02855e-05, 8.79245e-05},
{-5.36507e-05, 5.49625e-05},
{4.60608e-05, 1.45724e-05},
{-8.30914e-07, 3.36268e-05},
{-5.22805e-05, 3.77535e-05},
{-4.8209e-05, -2.15349e-05},
{-3.29399e-05, -2.08858e-05},
{-1.68195e-05, 2.61246e-05},
{3.23196e-05, -4.97556e-05},
{-2.17549e-05, 1.84015e-05},
{-5.85261e-05, -7.52439e-06},
{-6.48635e-05, 6.21495e-06},
{-2.97052e-05, -2.55133e-05},
{8.62032e-06, -1.83178e-05},
{-1.64933e-05, 2.13895e-05},
{1.35282e-05, -5.21766e-05},
{1.00426e-05, -7.48864e-05},
{3.35294e-06, 2.47145e-05},
{5.74202e-05, -4.39759e-05},
{3.13704e-05, -1.56151e-05},
{2.07117e-05, -1.47079e-06},
{3.45233e-05, 2.00731e-05},
{-2.49053e-05, 4.12302e-05},
{3.48856e-05, 2.40264e-05},
{-6.90646e-06, -2.25025e-05},
{-9.5163e-05, 3.39395e-05},
{4.4862e-05, 4.13549e-05},
{6.25068e-05, -8.24407e-06},
{4.32306e-05, -1.20418e-05},
{-7.8075e-05, 3.98697e-05},
{-5.68148e-05, 2.71336e-05},
{-4.87142e-05, 0.000104716},
{-9.56748e-06, 4.39656e-05},
{-1.74034e-05, -2.96207e-06},
{-0.000100286, 6.98259e-07},
{-5.51918e-05, 1.9859e-05},
{-2.83984e-05, 4.02071e-05},
{-1.74576e-06, -2.84759e-05},
{2.16598e-05, 2.27327e-05},
{-2.50814e-05, -2.21226e-05},
{-6.49467e-05, -1.34541e-06},
{-3.08498e-05, 7.13872e-05},
{1.35377e-05, 2.40488e-05},
{5.10267e-05, -1.25451e-05},
{3.71668e-05, 4.13175e-05},
{7.77147e-05, -1.64406e-05},
{6.3125e-05, 1.74928e-05},
{3.60406e-05, -2.28146e-05},
{3.89447e-05, -4.37011e-05},
{2.00439e-05, 6.43823e-06},
{-1.12639e-05, 3.51619e-05},
{-3.65529e-05, 8.93082e-05},
{3.80165e-05, 6.33926e-05},
{2.77614e-05, -1.14943e-05},
{5.48853e-05, -2.54318e-06},
{-1.23249e-06, 6.84629e-05},
{-9.98646e-06, 2.69581e-05},
{-6.85066e-05, 2.99756e-05},
{-1.41928e-05, 7.16074e-05},
{-1.1357e-05, -9.76189e-06},
{4.00678e-05, -6.14489e-05},
{-2.78046e-05, 1.16858e-06},
{-3.14624e-05, -1.61593e-05},
{-3.64466e-05, 8.54349e-06},
{1.93789e-05, 4.89668e-05},
{1.54695e-05, -2.63471e-06},
{-2.07559e-05, -7.9368e-05},
{-3.67342e-05, -2.11897e-05},
{-6.74166e-05, 1.42127e-05},
{3.12813e-05, 2.49282e-05},
{4.92117e-05, 1.15919e-05},
{2.02503e-05, 4.98793e-06},
{-1.64813e-05, -4.84698e-05},
{-3.23851e-05, -9.03676e-05},
{2.79916e-05, 2.18388e-05},
{7.87885e-05, 3.16794e-05},
{3.76591e-05, -6.66631e-05},
{-5.82368e-05, -8.95937e-05},
{-6.60565e-05, -2.92632e-05},
{-3.38875e-05, -3.25334e-06},
{-8.69844e-06, 8.32276e-06},
{7.89342e-06, 4.81684e-05},
{-5.37966e-05, 4.87323e-05},
{1.36194e-05, 6.2623e-06},
{6.65338e-05, -3.75083e-06},
{-2.22429e-05, 2.01323e-05},
{-3.27625e-05, 1.94899e-05},
{3.48457e-05, 2.57918e-06},
{1.04781e-05, -4.60756e-05},
{5.43612e-05, -5.59058e-05},
{-1.77184e-05, 8.95862e-06},
{-4.47026e-05, -7.00576e-06},
{3.28587e-05, 6.34224e-05},
{5.82014e-05, 1.85475e-05},
{4.54923e-05, -3.55307e-05},
{-1.23223e-05, 2.90348e-05},
{-4.50127e-05, -8.9813e-05},
{-4.54057e-05, -5.50951e-05},
{-5.70883e-05, -1.50646e-05},
{-1.57569e-05, -6.40615e-05},
{-9.95079e-05, 1.03356e-05},
{1.38502e-05, 2.97707e-05},
{5.32744e-05, -3.89906e-05},
{-2.90745e-05, -5.02187e-05},
{-5.62756e-05, -2.04665e-05},
{-6.65133e-06, 5.78843e-05},
{3.18416e-05, -7.79633e-06},
{3.56251e-05, -3.85121e-05},
{6.83556e-05, -2.24032e-05},
{7.74353e-05, 5.14832e-06},
{5.79651e-05, 4.831e-05},
{8.66922e-06, -1.30509e-05},
{-4.631e-05, -3.93204e-05},
{-9.1246e-05, -2.19966e-05},
{-2.75824e-05, 8.64703e-05},
{4.78053e-05, -4.11819e-07},
{1.4505e-05, 6.42317e-05},
{-5.00847e-05, 4.96715e-06},
{3.30918e-05, -7.96374e-06},
{2.30216e-05, -2.09683e-05},
{7.03405e-06, -2.0228e-05},
{3.32887e-05, 7.01117e-06},
{-1.61245e-05, 8.64661e-05},
{-3.12873e-05, -2.0517e-06},
{-1.37947e-05, -1.62781e-05},
{7.61447e-05, 2.4521e-05},
{9.60988e-05, 4.52244e-05},
{7.74721e-05, 0.000148793},
{-3.45078e-06, 2.14891e-05},
{-2.78507e-05, 3.3464e-05},
{-6.96501e-05, -2.07056e-05},
{-4.91042e-05, 3.12837e-05},
{-3.26883e-06, -2.7721e-05},
{-8.44011e-09, -6.05802e-06},
{-5.64115e-05, -3.24345e-06},
{-2.32785e-05, -2.98516e-05},
{-3.02624e-05, 2.72557e-06},
{1.66889e-05, 7.27444e-06},
{5.27825e-05, 3.65325e-05},
{5.1562e-05, 1.13472e-05},
{1.48311e-05, 7.59633e-06},
{-2.16532e-07, -3.4636e-05},
{-4.15347e-05, -6.31018e-06},
{1.2322e-05, -2.8118e-05},
{5.74503e-05, 7.46041e-05},
{9.61302e-05, 3.9394e-05},
{2.20666e-05, 5.45066e-05},
{-4.73985e-07, -2.79285e-05},
{3.3139e-05, 1.80705e-05},
{4.70469e-06, -1.347e-05},
{-1.25835e-05, -2.96233e-05},
{2.56366e-05, -3.15768e-05},
{5.34609e-05, 4.42334e-05},
{-1.3319e-05, 6.28801e-05},
{6.31461e-05, 5.65343e-05},
{6.35738e-05, -1.7955e-05},
{2.81775e-05, -5.04083e-05},
{2.42761e-06, -4.40711e-05},
{-3.99871e-06, 1.28921e-05},
{-3.12298e-05, -1.03379e-05},
{3.44854e-05, -5.21424e-05},
{8.85916e-05, -2.48486e-05},
{4.76001e-05, 8.98702e-05},
{-1.2643e-05, 1.3067e-05},
{-1.63825e-05, 6.20328e-05},
{-1.54744e-05, 4.7416e-06},
{3.60883e-05, -2.63372e-05},
{4.59153e-05, 2.02057e-05},
{-1.07197e-05, -2.80806e-05},
{1.09059e-05, -1.12872e-05},
{-2.19251e-06, -9.27693e-05},
{2.84519e-07, 9.49248e-05},
{1.2063e-05, -1.23224e-05},
{8.55648e-05, 7.99308e-06},
{3.16663e-06, -7.05881e-05},
{-4.70561e-05, -1.74051e-05},
{-4.16228e-05, 2.84965e-05},
{4.26557e-06, -5.58039e-05},
{-5.48731e-05, -2.78214e-05},
{-2.50423e-05, -1.6281e-05},
{5.31229e-05, 1.89917e-05},
{2.87856e-05, -6.60191e-07},
{7.58953e-05, -1.16897e-05},
{-1.47766e-05, -1.0134e-05},
{-4.51574e-05, -1.06983e-05},
{-3.57697e-05, -1.75936e-05},
{-2.81709e-05, -4.96826e-06},
{1.65931e-05, 2.74786e-05},
{-3.84583e-05, 7.65229e-05},
{-1.44116e-05, -7.87072e-06},
{-5.62287e-05, -2.39986e-05},
{-5.98648e-05, 5.07804e-07},
{3.63961e-05, -1.32287e-05},
{4.50374e-05, 7.45584e-05},
{1.76707e-05, 6.73463e-05},
{5.8914e-05, -5.03296e-05},
{-5.52124e-05, -4.36215e-05},
{2.15415e-05, 3.12284e-06},
{-1.72197e-05, -1.24559e-05},
{1.98414e-05, 5.18908e-05},
{5.31778e-05, -1.70707e-05},
{5.17152e-05, 4.8102e-05},
{-3.10126e-05, 1.91788e-05},
{-1.42073e-05, -1.33064e-05},
{-4.12397e-05, -4.13416e-05},
{1.2181e-05, -3.71295e-05},
{5.26663e-06, 3.79144e-05},
{-1.0184e-06, 4.51067e-05},
{4.74665e-05, 7.47594e-05},
{6.20054e-05, -4.63915e-06},
{-7.32315e-05, 2.95241e-05},
{-3.53628e-05, 7.73362e-05},
{-4.07621e-05, 5.84899e-05},
{-5.83648e-06, 1.44949e-05},
{-4.09202e-05, -1.78822e-05},
{-4.11799e-05, 4.76046e-06},
{2.05494e-05, -4.41773e-05},
{6.28142e-05, -0.000100259},
{3.1112e-05, -1.02106e-05},
{-1.63787e-05, 5.02946e-05},
{4.59533e-05, -1.00583e-07},
{2.68631e-05, 7.47435e-05},
{3.32855e-06, 3.98801e-05},
{-6.15763e-05, -2.26492e-05},
{-6.99682e-05, 5.67907e-05},
{-6.99377e-06, -1.65152e-05},
{3.05567e-06, -6.88955e-06},
{-1.92765e-05, 3.19909e-05},
{-3.46266e-05, 1.94282e-05},
{6.86762e-05, 5.15026e-05},
{5.88605e-05, -1.43884e-05},
{-8.62381e-06, -1.38989e-05},
{-3.33029e-05, -1.34523e-05},
{-2.13913e-06, -7.67255e-05},
{-3.0443e-05, -1.16965e-05},
{-1.34338e-05, 3.80866e-05},
{-5.45483e-05, 5.39971e-05},
{-0.000128498, 3.95855e-05},
{-1.65837e-05, 2.81987e-06},
{3.90699e-05, -5.10252e-05},
{4.66083e-05, -6.42708e-05},
{-2.59349e-05, 5.61087e-06},
{2.6578e-05, -4.16175e-05},
{-3.22573e-05, -8.60486e-05},
{2.17501e-05, -6.44056e-06},
{2.9066e-05, 2.88524e-06},
{-1.83019e-05, 5.0294e-05},
{3.32045e-05, -5.19904e-05},
{3.49013e-06, -2.06982e-05},
{-9.21171e-06, -1.51488e-05},
{1.44716e-05, 5.18019e-05},
{-4.64013e-05, 3.26685e-06},
{-1.60581e-05, -6.5176e-05},
{-4.904e-06, -2.31818e-05},
{2.84233e-05, 2.42041e-05},
{3.03376e-05, 5.8577e-05},
{1.19179e-05, 6.95137e-05},
{-3.61103e-05, 3.46903e-05},
{-2.18035e-05, -2.28487e-05},
{-1.49739e-05, -1.1212e-05},
{2.14459e-05, -2.89225e-05},
{1.06636e-06, -4.9553e-05},
{5.19042e-05, 2.92762e-05},
{4.42678e-05, -1.25542e-06},
{-6.05486e-05, -8.88342e-06},
{-2.70567e-05, 2.38932e-05},
{9.14489e-06, -1.70109e-05},
{6.52741e-05, 5.84056e-06},
{1.7544e-05, 1.94432e-05},
{5.78183e-06, 5.07938e-05},
{-2.82179e-06, -3.67401e-05},
{-5.70877e-06, -7.82437e-05},
{-4.94006e-05, -5.90561e-05},
{7.70984e-06, -1.47035e-05},
{1.6515e-05, 7.7216e-06},
{6.67337e-05, 3.91409e-05},
{9.37947e-06, -9.67543e-05},
{-5.83089e-05, -5.785e-05},
{-4.42261e-05, -1.61957e-05},
{-2.3568e-05, -1.08441e-05},
{5.30654e-05, 2.5539e-05},
{-2.01096e-06, -4.43295e-05},
{4.24141e-05, -1.55914e-05},
{3.3766e-05, -5.98109e-05},
{5.42621e-05, 5.04416e-05},
{2.73294e-05, 7.06484e-05},
{-1.77911e-05, 5.21253e-05},
{4.52967e-05, -7.58679e-06},
{9.21412e-05, -8.184e-07},
{2.99902e-05, 2.99111e-05},
{1.86036e-05, -4.4218e-06},
{4.15936e-05, -2.36812e-06},
{1.62061e-05, 1.76777e-05},
{-3.23937e-06, 4.18845e-06},
{-1.67187e-05, 2.14491e-05},
{-7.26471e-05, 4.59527e-05},
{-3.44112e-05, 6.65502e-05},
{-2.76424e-05, 4.00448e-05},
{3.09036e-06, -3.2867e-05},
{7.83274e-05, -3.29572e-05},
{3.83013e-05, -1.0198e-05},
{-9.6955e-06, -1.55098e-05},
{-1.92809e-05, -4.33096e-05},
{5.73297e-05, 5.15517e-05},
{9.62244e-05, 3.83583e-05},
{0.000119089, 2.63483e-05},
{6.11395e-05, 1.49617e-05},
{-4.21472e-05, 1.98893e-05},
{-4.80949e-05, 2.69823e-05},
{2.58195e-05, 2.46893e-05},
{7.27748e-05, -1.01558e-05},
{9.3017e-05, -8.51899e-05},
{2.00197e-05, -3.7182e-05},
{6.5323e-06, -1.21063e-05},
{5.88875e-06, 4.18844e-05},
{-4.586e-05, 6.22054e-05},
{2.11073e-05, -5.83933e-06},
{-4.14541e-05, 4.86071e-05},
{-3.22935e-05, -2.9753e-05},
{9.38564e-06, 1.91715e-05},
{1.41561e-05, 1.81471e-05},
{4.34425e-05, 1.37999e-05},
{-2.48189e-05, 7.43815e-05},
{1.5025e-05, 3.00082e-07},
{3.575e-06, -7.93207e-06},
{6.10359e-05, 3.15706e-05},
{5.12562e-05, -3.25362e-05},
{3.19649e-05, -6.67213e-05},
{-1.82344e-05, -2.66158e-05},
{-1.06397e-05, -4.33624e-06},
{6.43497e-06, 9.28063e-07},
{6.3594e-05, -1.25228e-05},
{5.6365e-05, -3.30894e-05},
{3.89074e-05, -3.48175e-06},
{8.42707e-06, -1.93447e-05},
{5.0846e-05, 3.70198e-05},
{7.4273e-07, -3.54595e-05},
{-3.35558e-05, -3.24387e-05},
{-2.58279e-06, -2.8593e-05},
{2.02074e-06, 2.44926e-05},
{-3.84795e-05, -5.29375e-06},
{3.22193e-05, -3.86722e-05},
{-7.04842e-05, -7.02342e-05},
{-7.56929e-05, -9.52114e-06},
{-4.38909e-06, -1.67945e-05},
{5.08706e-07, 3.69799e-05},
{-9.87679e-06, 1.77423e-05},
{9.91975e-06, -8.45524e-06},
{1.12457e-05, 5.1253e-06},
{-2.41972e-05, -4.45819e-05},
{3.90944e-05, -2.80882e-05},
{-2.62549e-05, 4.65009e-05},
{-0.000102475, -5.63543e-06},
{3.64581e-05, 4.16983e-05},
{4.63158e-06, -8.46549e-06},
{4.27646e-05, 8.95109e-05},
{1.48835e-05, 5.13991e-05},
{1.49282e-05, 4.90962e-05},
{4.20082e-05, 5.087e-05},
{4.04706e-06, 2.79874e-05},
{-1.58888e-05, -2.51627e-05},
{-1.79799e-05, -2.04281e-05},
{-6.95465e-05, -5.96335e-05},
{-1.11107e-05, -6.11632e-05},
{-2.00083e-05, -3.51838e-05},
{-4.77911e-05, 2.93166e-05},
{-0.000114779, -5.55231e-05},
{8.97502e-06, -8.72465e-05},
{2.5749e-05, 1.78103e-05},
{6.39853e-05, 6.21394e-05},
{-5.83695e-06, 6.51946e-05},
{-2.99583e-05, -4.23902e-05},
{2.73637e-05, -5.67925e-05},
{0.000121239, 2.00913e-05},
{4.82067e-05, 7.96886e-06},
{-6.93509e-06, 3.09595e-06},
{-5.49676e-05, -4.03076e-06},
{-5.36624e-05, 1.13569e-05},
{1.61133e-05, 2.93421e-05},
{-7.85827e-06, 9.49739e-06},
{5.05771e-05, 1.81703e-05},
{8.86563e-05, 1.39705e-05},
{7.97274e-05, 1.34853e-05},
{-2.13163e-05, 6.56964e-06},
{-3.84491e-05, -3.26606e-05},
{8.75478e-06, 4.01555e-05},
{-5.64356e-05, 3.37994e-05},
{-6.21043e-05, -3.92618e-05},
{-9.01993e-05, 2.30378e-05},
{2.36882e-06, -1.12962e-05},
{-3.22362e-05, 2.80935e-05},
{-8.73907e-06, -3.03563e-05},
{-1.21668e-05, -8.01798e-05},
{-8.03685e-06, -2.29081e-05},
{-5.64342e-05, -1.14974e-05},
{3.92944e-05, 2.0626e-05},
{-2.56351e-05, 2.46242e-06},
{-2.60947e-05, 9.7712e-06},
{1.3768e-05, -5.71692e-06},
{2.04192e-06, 3.97714e-05},
{-2.44342e-05, -4.12815e-06},
{-4.6995e-05, -9.30729e-06},
{-7.6181e-06, -1.53793e-05},
{2.33366e-05, -1.78541e-05},
{-2.8281e-05, 1.76603e-05},
{-5.14445e-05, -5.91694e-05},
{-1.65352e-05, 3.38695e-05},
{-9.83651e-06, -5.82943e-05},
{-6.88306e-08, -1.22142e-05},
{-5.05769e-05, -7.48568e-06},
{-1.34283e-05, 5.85886e-05},
{6.97828e-06, 5.26832e-05},
{5.94181e-05, -2.49153e-05},
{-9.2811e-06, -4.29981e-05},
{8.22614e-06, -2.87265e-05},
{-3.96346e-05, 6.91647e-06},
{-3.18561e-05, -2.53064e-05},
{-7.60511e-05, -1.36704e-05},
{4.17088e-05, 1.98331e-05},
{1.73114e-05, 3.59444e-05},
{5.303e-05, 7.24513e-05},
{0.000117354, 5.35645e-05},
{2.96342e-05, 3.85649e-06},
{7.99629e-05, -3.75905e-06},
{3.36815e-05, -4.7253e-06},
{-2.82283e-05, -2.89234e-05},
{4.00743e-05, 2.24361e-05},
{4.95939e-05, 2.24975e-05},
{1.62611e-05, 8.06861e-05},
{5.83241e-06, 6.08721e-05},
{3.53089e-05, 2.51443e-05},
{3.35311e-05, -1.17833e-05},
{9.25773e-05, 5.34322e-05},
{7.15954e-07, 1.39437e-05},
{4.92926e-06, 1.60593e-05},
{-2.42442e-05, -3.16224e-05},
{3.91316e-05, 1.21528e-05},
{6.69214e-05, 6.82939e-06},
{5.61704e-06, 9.77584e-05},
{-3.80699e-05, -3.92075e-06},
{-9.41803e-05, -3.10102e-05},
{-3.77847e-05, -9.80257e-05},
{-2.25808e-05, -0.00012987},
{6.29358e-05, 1.75795e-05},
{-1.02578e-05, 4.31901e-05},
{-2.81236e-06, 1.68367e-05},
{-0.000111714, -1.05811e-05},
{-0.000105953, -1.871e-05},
{-1.99839e-05, 4.72376e-05},
{-9.73814e-06, 3.41192e-05},
{-5.09014e-06, 3.87268e-05},
{1.83999e-05, 2.00807e-05},
{3.62638e-05, 3.77512e-06},
{-3.64054e-05, -4.14958e-05},
{-6.2732e-05, -1.63338e-05},
{-9.02549e-05, -6.35907e-06},
{-2.04563e-05, 5.61526e-05},
{1.85086e-05, 5.24102e-05},
{-3.0512e-05, 3.25327e-05},
{-7.23866e-05, 3.87665e-05},
{-3.54284e-05, 1.48652e-05},
{-4.58836e-05, -6.69807e-06},
{3.69943e-05, 2.20283e-05},
{-1.61268e-05, 9.70624e-06},
{0.000121655, 2.53661e-05},
{-1.03755e-06, 6.70372e-06},
{3.98931e-05, 3.20853e-05},
{1.34183e-05, 8.29936e-06},
{9.22382e-06, 2.7481e-05},
{3.48955e-06, -3.20515e-05},
{4.74895e-05, -2.07541e-05},
{5.88888e-05, -1.72767e-05},
{6.46015e-05, -6.44586e-05},
{1.09363e-05, -4.14146e-05},
{3.95189e-05, -1.90168e-05},
{-2.57988e-05, -2.53874e-05},
{-4.71273e-05, -9.29576e-06},
{-6.51597e-06, -2.08623e-05},
{-1.56674e-05, 5.35045e-07},
{6.30387e-05, 2.15666e-05},
{-1.80595e-05, 0.000104475},
{-5.13059e-05, 4.16079e-05},
{6.25523e-06, 3.28824e-05},
{2.89585e-05, -4.47198e-06},
{7.77061e-06, -1.32167e-05},
{-3.20866e-05, -2.86272e-05},
{-4.87536e-05, 6.27595e-06},
{1.26578e-05, -1.04365e-05},
{8.00408e-06, 3.08923e-05},
{-8.59362e-05, -1.56953e-05},
{-2.39054e-05, 1.47268e-05},
{-3.84833e-05, -4.39243e-05},
{7.14407e-06, -3.93227e-05},
{5.07523e-05, 3.90917e-05},
{1.79521e-05, -3.66298e-05},
{-3.21891e-06, -3.75247e-05},
{2.61774e-05, -6.8586e-05},
{-1.17299e-05, 9.54641e-06},
{-2.12819e-05, 7.09947e-05},
{-7.72711e-05, 5.98134e-05},
{-8.04281e-05, 2.7483e-05},
{-2.55145e-05, -5.88677e-05},
{2.42838e-05, -4.30756e-05},
{2.36986e-05, -1.54088e-05},
{-1.11322e-05, 4.40079e-06},
{-6.24452e-06, 1.75561e-05},
{3.63356e-06, 1.27456e-05},
{7.13078e-05, -1.29533e-05},
{6.02056e-05, -9.11966e-05},
{3.70429e-05, -1.89433e-05},
{-5.00113e-05, 5.08093e-05},
{3.51702e-06, 9.38309e-05},
{-4.87855e-05, 3.60323e-05},
{-4.01419e-05, -5.23175e-05},
{-2.78426e-05, -2.74848e-05},
{-2.76974e-05, -1.32711e-06},
{4.5062e-05, -1.28726e-05},
{3.85039e-05, 2.01224e-05},
{5.33818e-05, -3.27212e-05},
{5.59289e-05, 3.36282e-05},
{5.59823e-05, 4.11063e-06},
{-1.01046e-05, -1.03288e-05},
{3.3658e-05, -2.95276e-06},
{-6.49669e-05, 4.50369e-05},
{-8.03201e-05, 5.52693e-06},
{-0.000115253, -4.10117e-05},
{-8.89784e-05, -6.04079e-06},
{-3.74098e-05, -1.57743e-05},
{5.14055e-06, 6.52694e-06},
{-2.73637e-05, -3.60678e-05},
{-9.62016e-05, -7.61595e-06},
{-1.6177e-05, 1.8487e-05},
{1.36559e-05, 3.46628e-05},
{3.51528e-05, -1.82118e-05},
{1.59722e-06, -2.91455e-05},
{-7.95262e-05, -1.08592e-06},
{-2.29236e-05, 1.93294e-05},
{-4.48877e-05, -2.08127e-05},
{6.18666e-06, -3.97374e-05},
{-9.07877e-06, -2.95406e-05},
{6.02999e-05, 2.00626e-05},
{-4.48288e-05, 8.42624e-05},
{-5.81921e-05, 7.66502e-05},
{-3.82483e-05, 4.57623e-05},
{5.28013e-06, 4.74071e-06},
{6.50032e-05, -2.16269e-05},
{3.99068e-05, 4.42563e-05},
{4.15993e-05, 8.68274e-05},
{6.03276e-05, 5.56069e-05},
{2.34938e-06, -5.91541e-05},
{-7.13915e-05, -6.44184e-05},
{-3.12896e-05, -6.6387e-05},
{-6.18175e-05, -1.59785e-05},
{4.69467e-05, 9.98331e-06},
{-1.99729e-05, -7.60612e-05},
{-4.44431e-05, -1.27106e-05},
{1.57541e-05, 3.0394e-05},
{-8.97527e-06, 6.12342e-05},
{4.89611e-05, 2.56996e-05},
{8.79791e-06, 2.66948e-05},
{3.84534e-05, 2.7637e-07},
{1.58366e-06, 5.88133e-05},
{3.18899e-05, 3.50527e-05},
{2.86691e-05, 1.80011e-05},
{3.56901e-05, 3.458e-06},
{-4.60906e-05, -2.63955e-05},
{-4.6109e-05, 1.58059e-05},
{-2.47093e-05, 1.75871e-05},
{-5.61937e-06, -2.57959e-05},
{-1.23264e-05, -2.65569e-05},
{-1.76202e-05, 6.75851e-05},
{-0.000103038, 1.84765e-05},
{-6.996e-05, -4.96336e-05},
{1.0447e-05, -6.65845e-05},
{-3.06676e-05, -8.93428e-05},
{-1.05391e-05, -7.34595e-05},
{4.62409e-05, -5.0989e-05},
{8.80233e-05, -6.74007e-05},
{-1.95066e-06, -6.58234e-05},
{-4.69889e-05, 1.16127e-06},
{-1.77918e-06, -4.12401e-07},
{-2.32388e-06, -7.25599e-06},
{2.03089e-05, -3.95265e-05},
{-8.85664e-06, -5.59818e-05},
{0.000107879, 7.1695e-06},
{3.91289e-05, 1.83658e-05},
{4.29926e-05, 3.26068e-05},
{4.29945e-05, -5.25619e-05},
{3.61103e-06, -9.65655e-05},
{8.24096e-05, 1.6554e-05},
{1.61103e-05, -6.05686e-06},
{5.38658e-05, 2.53925e-06},
{9.60962e-06, 9.06223e-06},
{-2.40137e-05, -4.09982e-05},
{5.28479e-06, 1.02255e-05},
{8.77471e-05, 8.45575e-05},
{-3.24608e-05, 2.03005e-05},
{-4.97752e-05, -3.72031e-06},
{-2.8596e-05, -7.17866e-05},
{-6.62531e-05, -3.78701e-05},
{-1.83213e-05, -9.35493e-06},
{5.72973e-05, -4.55766e-06},
{4.55267e-05, 1.40744e-05},
{7.17561e-06, -1.16758e-05},
{1.68446e-05, 3.7333e-05},
{-5.89459e-05, 7.87692e-06},
{-7.26834e-05, 1.05379e-06},
{-0.000108757, -1.04662e-05},
{-6.20761e-05, -2.76718e-05},
{-7.66877e-05, 3.66017e-05},
{-2.67164e-05, -4.25898e-05},
{-3.07178e-05, -4.96118e-05},
{-3.68971e-05, -2.41237e-05},
{-8.9578e-05, 2.29494e-05},
{-4.44676e-05, 7.23246e-05},
{6.13061e-06, -5.59026e-07},
{6.47283e-05, -3.4963e-05},
{6.06203e-05, 4.60846e-05},
{-5.73881e-06, 1.89012e-05},
{-1.23485e-05, -3.80715e-05},
{-7.15144e-05, 1.10356e-05},
{-1.93415e-05, 4.99134e-05},
{1.81155e-05, 0.000102754},
{4.69727e-05, 4.69596e-05},
{1.36346e-05, -2.53047e-05},
{-5.19933e-05, -1.65716e-05},
{-7.69107e-05, 4.32555e-05},
{6.49365e-06, 5.80745e-05},
{4.877e-05, 5.56972e-05},
{-2.36779e-05, 4.86046e-06},
{-1.48369e-05, -3.5202e-05},
{-4.53613e-05, -2.26831e-05},
{-1.18825e-05, 3.38971e-05},
{2.99085e-05, 3.16508e-05},
{6.90559e-05, 3.77037e-05},
{8.47763e-05, 6.57095e-06},
{6.14414e-05, 2.41786e-05},
{1.38192e-05, 4.00444e-05},
{9.02497e-05, 3.12245e-05},
{5.4436e-05, 4.04597e-05},
{4.2642e-05, -6.70075e-06},
{-3.31688e-05, -0.000130862},
{3.39344e-05, -2.97984e-05},
{-2.00933e-06, -2.78275e-05},
{-2.21422e-06, 3.44971e-05},
{-1.12175e-05, 2.41995e-05},
{9.99402e-06, 1.35455e-05},
{-6.40778e-05, 5.50787e-06},
{-4.58537e-05, -6.78694e-05},
{-3.2072e-05, -6.04502e-05},
{2.90377e-05, -3.39921e-06},
{4.94542e-05, -6.95465e-06},
{-3.0848e-05, 3.17855e-05},
{3.38769e-05, 4.39018e-05},
{-1.8317e-05, 7.09613e-05},
{-5.09433e-07, 4.63286e-06},
{-2.35578e-06, -4.28604e-05},
{-8.14488e-06, -7.04371e-06},
{3.17558e-05, -5.59809e-05},
{5.22088e-06, -1.42091e-05},
{1.33091e-05, 8.00431e-05},
{5.24637e-06, 2.29899e-05},
{-1.68583e-05, -7.05579e-05},
{4.08944e-06, -2.52137e-05},
{-7.03261e-05, -3.58443e-05},
{-4.79156e-05, 9.35337e-06},
{-5.81325e-05, 3.71458e-06},
{-5.90366e-05, 3.02168e-06},
{1.05356e-05, 1.26663e-05},
{2.13562e-05, -3.95042e-05},
{-5.16343e-06, 1.42492e-06},
{8.1535e-06, -2.15801e-05},
{4.71566e-05, -2.52833e-05},
{5.47929e-05, -1.87389e-05},
{6.40091e-05, 2.30314e-05},
{4.30599e-05, 8.42649e-06},
{1.83042e-05, -2.86945e-05},
{-1.47354e-05, -5.95296e-05},
{-1.32369e-05, -4.09782e-08},
{-4.35617e-05, 1.0751e-05},
{-1.07707e-05, -5.88368e-05},
{3.0038e-05, 1.63922e-06},
{1.72992e-05, -1.5921e-06},
{1.97882e-05, -1.8e-05},
{-1.54856e-06, -9.0315e-06},
{-2.76822e-05, 2.48988e-05},
{6.56315e-05, -7.55151e-06},
{4.57196e-05, 5.79748e-06},
{-4.17674e-05, 2.07612e-05},
{-3.00256e-05, -2.07683e-05},
{3.1502e-07, 5.01442e-05},
{-4.4529e-05, 1.26024e-05},
{1.98034e-06, -1.54364e-05},
{-1.80964e-05, -2.14421e-05},
{-5.02721e-05, 2.22553e-05},
{-5.30216e-05, 1.6815e-06},
{-4.53799e-05, -4.64483e-05},
{-1.66601e-05, -4.11663e-05},
{-1.71212e-05, -2.20586e-05},
{4.48863e-06, 6.65075e-06},
{2.12987e-05, -3.4383e-05},
{6.45137e-05, 6.16575e-05},
{-8.96747e-06, 6.88529e-05},
{3.83136e-05, 8.15728e-05},
{-2.83476e-05, 2.28654e-05},
{2.94761e-05, -2.49678e-05},
{6.64894e-05, 4.39479e-05},
{5.3357e-05, 2.09463e-05},
{-2.90447e-05, 3.47313e-06},
{-6.18724e-06, -7.92674e-05},
{-2.21517e-05, -4.17128e-05},
{0.000116499, -5.58922e-06},
{4.73838e-05, -8.08295e-06},
{9.22079e-06, -8.50484e-06},
{2.78172e-05, 1.45598e-05},
{8.01398e-05, -3.37542e-05},
{5.77811e-05, -3.48634e-05},
{3.2441e-05, -8.92237e-05},
{-9.22042e-05, -1.26871e-05},
{-4.11215e-05, 6.70119e-05},
{-2.17732e-05, -1.03756e-05},
{1.46845e-05, -0.000130594},
{-1.8334e-05, -5.01428e-05},
{4.36208e-06, -7.61347e-06},
{-5.91069e-05, -2.23131e-05},
{3.73253e-05, -6.28433e-06},
{4.56999e-05, 5.02355e-05},
{6.9604e-05, 5.56844e-05},
{3.88506e-05, 2.72356e-05},
{4.45808e-05, 5.16762e-05},
{7.73015e-06, 2.43705e-05},
{1.79707e-05, 4.6592e-05},
{3.77147e-05, 7.36349e-05},
{7.2517e-05, -3.82657e-05},
{-1.33435e-05, -5.54022e-05},
{2.18656e-05, -3.11919e-05},
{-6.39372e-05, 5.40586e-05},
{2.05764e-05, -1.5818e-05},
{-5.83223e-05, -3.25235e-05},
{-2.69139e-05, 8.45152e-06},
{-1.99901e-05, -3.83968e-05},
{-2.52186e-05, -5.51534e-05},
{6.08438e-05, -7.49307e-05},
{-4.84147e-05, 3.41656e-05},
{-1.27782e-05, 1.90481e-05},
{-1.7314e-05, 1.70092e-05},
{-6.12361e-05, 5.9342e-05},
{4.85178e-06, 2.97581e-06},
{0.000115216, -0.000102003},
{4.47936e-05, 4.60213e-06},
{2.16516e-05, -6.14074e-05},
{2.88473e-05, -1.36592e-05},
{-4.89352e-05, 8.76165e-06},
{1.22566e-05, -5.66795e-05},
{-2.28093e-05, -2.76355e-05},
{-1.93148e-05, -2.56859e-05},
{-4.25521e-05, -3.85935e-05},
{-4.92065e-05, -4.32771e-05},
{-6.93107e-05, 1.21139e-05},
{-1.68823e-05, 4.71016e-05},
{-2.93223e-05, 7.73859e-06},
{-5.25397e-05, -1.45868e-06},
{3.04607e-05, 6.03939e-06},
{7.52712e-05, -1.39046e-06},
{1.53929e-05, 6.00359e-05},
{-6.04889e-05, 7.38131e-07},
{-7.12983e-05, -5.87148e-05},
{-3.02063e-05, -3.64977e-05},
{6.35457e-05, -3.31919e-05},
{1.32513e-05, 2.42641e-05},
{-2.52494e-05, 5.20571e-05},
{1.43921e-05, 1.27272e-05},
{3.56417e-06, -2.0117e-05},
{5.44074e-05, 9.70205e-07},
{-2.43289e-05, -3.29418e-05},
{9.11555e-06, -4.03863e-05},
{2.61106e-05, -3.63316e-05},
{-5.30691e-06, -2.0178e-05},
{-9.81655e-05, 3.33758e-05},
{-8.78891e-05, 3.80038e-05},
{-1.15181e-05, 8.53832e-05},
{7.40634e-07, -5.44828e-05},
{-3.4287e-05, -1.11059e-05},
{1.95603e-05, -7.96723e-06},
{-3.58416e-05, 1.25761e-05},
{-3.5353e-05, 1.88043e-05},
{7.13672e-06, 1.29266e-05},
{-3.75719e-06, -3.27856e-05}
};