-5.706446245e-06 8.281087503e-06 
-1.947957207e-05 -8.279515896e-06 
-1.395121217e-06 -8.268747479e-06 
1.873413566e-06 -3.325496800e-05 
-5.511741620e-06 1.488460111e-05 
-1.265481114e-05 -9.205541573e-06 
8.449773304e-06 1.230218913e-05 
-1.789710950e-05 1.333426917e-05 
-2.201064490e-06 -1.483617234e-05 
9.204959497e-06 1.068908023e-05 
2.337037586e-06 -1.641712151e-05 
-7.255643141e-06 1.265207538e-05 
3.314926289e-07 5.699694157e-06 
1.864740625e-06 -9.906943887e-06 
1.240486745e-05 1.329102088e-05 
8.604663890e-06 2.512708306e-06 
-8.272123523e-06 2.386048436e-06 
-7.314723916e-06 1.562439138e-06 
-1.982552931e-06 1.056375913e-05 
-1.186947338e-05 -5.390844308e-06 
1.301616430e-05 7.666298188e-06 
1.057310146e-05 -1.403916394e-05 
-5.044363206e-06 -3.436347470e-06 
3.611407010e-06 1.122610411e-05 
-4.716101103e-06 1.556298230e-05 
1.372268889e-05 1.428427640e-05 
-6.083660992e-06 3.472043318e-06 
-5.924375728e-06 6.313872291e-06 
2.114917152e-06 1.424900256e-05 
2.391781891e-06 7.822061889e-06 
7.648253813e-06 9.350624168e-06 
-1.435214654e-05 -9.334180504e-07 
-4.755333066e-06 5.424721166e-06 
-4.079891369e-06 8.847971912e-06 
5.854992196e-06 -1.014792360e-06 
2.234708518e-06 -5.841837265e-06 
4.484318197e-07 3.354391083e-06 
1.490849536e-05 2.009177115e-05 
-6.806338206e-06 -3.437045962e-06 
-1.064743265e-05 -3.626162652e-06 
1.016887836e-05 -1.484539825e-05 
-3.163295332e-06 5.947542377e-06 
-1.531036105e-06 -1.147884177e-06 
1.201120904e-05 -1.375231659e-05 
5.153066013e-06 4.699802957e-06 
-2.622778993e-06 1.124775736e-05 
-2.226943616e-05 4.862609785e-06 
-5.238689482e-09 -4.424771760e-06 
-6.228132406e-06 -2.217100700e-05 
-4.671775969e-06 9.775860235e-06 
-1.084234100e-05 1.889304258e-05 
1.527019776e-05 -5.653360859e-06 
8.110015187e-06 -2.419110388e-07 
5.415582564e-06 -1.761771273e-06 
-2.224184573e-05 4.986242857e-06 
-5.490204785e-06 -4.879140761e-06 
-9.943614714e-07 6.846617907e-06 
-5.105917808e-06 1.344073098e-06 
2.372427844e-06 2.046918962e-05 
2.895016223e-06 -1.348322257e-06 
8.908333257e-06 2.859506640e-05 
-1.687847544e-06 4.686415195e-06 
-2.190051600e-05 9.484181646e-06 
-1.009763218e-05 8.123053703e-06 
9.714683983e-06 -8.814444300e-06 
-3.193214070e-06 -1.275393879e-05 
1.320592128e-05 -1.721712761e-05 
-1.464679372e-05 1.102779061e-05 
-2.009444870e-05 -4.104920663e-06 
-1.210439950e-05 1.289334614e-05 
3.239780199e-06 -5.633686669e-06 
-4.099914804e-06 -3.747642040e-06 
-8.014030755e-07 1.613050699e-06 
-4.124245606e-06 -1.928943675e-05 
-9.601935744e-06 2.675224096e-06 
-3.487220965e-06 -4.439847544e-06 
-2.219690941e-05 -8.202390745e-06 
-2.570857760e-05 4.273606464e-07 
2.887099981e-07 1.472246367e-06 
4.811823601e-06 3.118475433e-06 
-1.944368705e-05 -1.801014150e-05 
1.731445082e-06 1.702026202e-05 
3.231863957e-06 -5.281501217e-06 
1.605617581e-05 8.867529687e-06 
-4.224886652e-06 -6.182235666e-07 
7.514609024e-08 -1.637102105e-05 
-5.828565918e-06 9.019451682e-06 
1.053442247e-05 -2.350192517e-06 
-5.004898412e-06 -4.680710845e-06 
1.165812137e-05 5.350739229e-06 
1.120124944e-05 -1.392827835e-05 
-4.677334800e-06 5.517300451e-06 
2.902554115e-06 -2.100302663e-05 
-1.075837645e-05 -6.810645573e-06 
-3.837747499e-06 -1.986970892e-05 
-5.842768587e-06 -1.092324965e-06 
1.107819844e-05 1.406762749e-06 
-6.501286407e-07 -4.533794709e-07 
-4.128203727e-06 -7.148446457e-06 
1.175561920e-06 -2.796237823e-06 
1.724052709e-05 -1.280952711e-05 
-1.249156776e-05 2.364115790e-05 
2.634827979e-06 5.328736734e-06 
-1.948227873e-05 -5.032576155e-06 
3.807886969e-06 1.192657510e-05 
-5.137233529e-06 1.499662176e-06 
2.010291792e-05 1.940134098e-05 
-9.416602552e-06 -5.564914318e-06 
6.462913007e-06 6.143789506e-06 
-2.342625521e-06 -3.874301910e-07 
-1.360909664e-05 -7.296621334e-06 
3.913417459e-06 -3.172492143e-06 
1.993580372e-05 -2.840883099e-06 
5.607958883e-06 7.313094102e-06 
1.982897811e-05 -6.523361662e-06 
1.649954356e-06 8.368748240e-06 
9.077135473e-06 1.201115083e-06 
-5.411857273e-06 -9.795185179e-07 
-1.083710231e-06 1.179931132e-06 
6.054811820e-06 3.331457265e-06 
1.370732207e-06 2.924905857e-06 
6.635556929e-06 -9.422859875e-06 
1.366564538e-05 1.208059984e-05 
-1.484877430e-06 8.625094779e-06 
3.797467798e-07 6.191781722e-06 
1.021387288e-05 1.292451634e-05 
-8.987262845e-08 4.553876352e-07 
1.027242979e-05 -8.624832844e-06 
2.283792128e-05 -4.106375854e-06 
-2.325192327e-06 -2.884946298e-06 
1.053919550e-05 -1.115957275e-05 
9.665673133e-07 -1.479755156e-06 
3.902678145e-06 -2.320378553e-05 
1.872831490e-06 1.587133738e-06 
-5.993817467e-06 8.224043995e-06 
8.432951290e-06 1.905567478e-05 
-1.662108116e-05 6.546382792e-06 
-2.316576865e-05 3.109642421e-06 
-2.929009497e-06 8.415663615e-07 
-1.328624785e-05 -1.175736543e-05 
3.935128916e-07 -7.764319889e-07 
1.447042450e-06 1.055837492e-05 
1.768424409e-05 2.464125282e-05 
6.484013284e-06 -2.017593943e-06 
1.324445475e-05 -9.205425158e-06 
4.781992175e-06 -2.816668712e-06 
-4.975008778e-06 -9.917537682e-06 
1.213606447e-05 -7.825787179e-06 
6.176065654e-06 4.040135536e-06 
3.091705730e-05 5.447305739e-06 
2.272194251e-06 -3.805616871e-06 
6.501970347e-06 -1.868931577e-06 
9.654555470e-06 4.758883733e-06 
-2.020678949e-06 -1.460663043e-06 
1.437298488e-05 -8.411821909e-06 
-7.826602086e-06 -3.254303010e-06 
-3.702938557e-06 -2.276152372e-06 
-2.327188849e-05 1.522150706e-05 
-1.980981324e-06 2.422253601e-05 
-1.794780837e-05 5.594920367e-07 
-5.204346962e-07 1.980806701e-07 
6.538059097e-06 1.050153514e-05 
-2.237208537e-05 -1.225736924e-05 
2.002110705e-06 5.141599104e-06 
-2.272031270e-05 8.368515410e-06 
-1.207977766e-05 5.799811333e-06 
7.455819286e-07 -3.953289706e-06 
-2.674059942e-06 1.419259934e-05 
-1.799082384e-06 -6.928661605e-06 
-3.492750693e-06 -7.678812835e-06 
1.314564724e-05 -4.082452506e-06 
-1.297390554e-05 -7.914612070e-06 
-1.663656440e-05 -5.678448360e-07 
-6.693153409e-06 -2.075656084e-06 
-3.815745004e-06 2.201809548e-05 
1.619398245e-05 1.697073458e-06 
1.389405224e-05 -3.614462912e-06 
1.260568388e-05 3.371387720e-06 
1.628010068e-05 -5.932524800e-07 
-1.549662556e-06 -6.441958249e-06 
-3.225461114e-06 5.718786269e-06 
-3.562541679e-06 3.728899173e-06 
2.247150405e-06 -2.042559208e-05 
2.752465662e-06 1.226781751e-05 
-8.698320016e-06 4.136469215e-06 
-1.145119313e-06 2.392276656e-06 
1.311261440e-05 7.863447536e-06 
-1.014617737e-06 -3.683380783e-06 
-2.176966518e-06 -1.112424070e-05 
4.641828127e-06 -9.523704648e-06 
-2.075103112e-08 -5.098947440e-06 
-1.066131517e-06 1.631642226e-05 
1.890992280e-06 2.531800419e-06 
8.496834198e-06 1.181347761e-05 
8.969742339e-06 -6.769463653e-06 
1.010106644e-05 -6.732938346e-06 
2.900065738e-06 5.577647244e-06 
1.218286343e-07 -2.200168092e-05 
7.964263204e-06 -9.082374163e-06 
2.024043351e-05 5.950569175e-06 
-1.402501948e-05 -1.510832226e-05 
-3.021908924e-06 1.044827513e-08 
4.481698852e-07 2.570974175e-06 
-3.072433174e-06 3.404158633e-06 
1.943489769e-05 1.270067878e-05 
-6.823393051e-06 1.111149322e-05 
7.861061022e-06 -1.304797479e-06 
-3.329478204e-08 -3.015738912e-07 
-3.008649219e-05 -3.285676939e-06 
4.240951966e-06 -1.093855826e-05 
4.486646503e-07 -5.173264071e-06 
1.936801709e-06 2.159620635e-05 
-2.038927050e-06 3.449094947e-06 
2.104923624e-05 -6.439920980e-06 
1.625437289e-05 -1.136609353e-05 
-2.110155765e-05 -2.279231558e-05 
1.335237175e-05 -5.105714081e-06 
-1.693487866e-05 -4.120985977e-06 
-3.629422281e-06 -7.450580597e-08 
-1.054446329e-05 2.533372026e-06 
3.269989975e-06 -3.376626410e-07 
-1.031294232e-05 -1.942546805e-05 
1.006963430e-06 -1.547203283e-06 
1.252570655e-06 1.261883881e-06 
2.297747415e-06 1.678167609e-05 
4.409404937e-06 7.250346243e-07 
9.334937204e-06 -3.879133146e-06 
1.044711098e-06 2.723012585e-06 
2.490769839e-05 1.678476110e-06 
-1.438549953e-05 5.915469956e-06 
1.069362042e-06 -1.243641600e-05 
-2.824584953e-06 -1.924679964e-06 
5.722307833e-06 -1.992727630e-05 
1.397565939e-07 5.313195288e-07 
-1.947546843e-05 9.484821931e-06 
4.586239811e-06 2.455490176e-06 
-1.397507731e-05 1.608277671e-06 
-4.078377970e-06 -1.228472684e-06 
-4.962777894e-06 8.715200238e-06 
3.176508471e-06 -4.428206012e-06 
2.934495569e-06 1.286574116e-05 
-3.527391527e-06 -6.980670150e-06 
7.753536920e-06 6.246787962e-06 
5.316105671e-07 1.236803655e-05 
-8.872826584e-06 1.258670818e-05 
-1.380098547e-05 3.975670552e-06 
1.374311978e-06 -1.130567398e-05 
1.065497054e-05 -7.844122592e-06 
-3.786990419e-06 -2.686172957e-05 
8.972478099e-06 1.280802826e-05 
-1.498847269e-06 -3.842927981e-06 
-1.206985326e-05 1.943059033e-05 
-6.750633474e-06 4.242028808e-06 
-1.003080979e-05 -1.148640877e-06 
-3.638386261e-06 1.593143679e-07 
6.893591490e-06 -4.069937859e-06 
3.249733709e-06 -4.717207048e-06 
7.891561836e-06 7.216702215e-06 
-1.540814992e-05 -1.008441905e-05 
-1.927802805e-05 -7.691720384e-06 
-7.502036169e-06 -1.137726940e-06 
-7.392693078e-06 2.246699296e-05 
1.033139415e-05 2.798216883e-06 
1.081702794e-05 5.773326848e-06 
-1.161574619e-05 -1.129425073e-05 
4.734494723e-06 -6.119546015e-06 
6.112735718e-06 9.389186744e-06 
2.423083060e-06 -6.770453183e-06 
2.355445758e-06 -1.478570630e-05 
-2.019514795e-05 5.397188943e-06 
-8.138595149e-07 -2.474896610e-05 
-1.660187263e-05 6.064714398e-06 
1.248667832e-05 8.861126844e-06 
-1.560052624e-05 4.193338100e-06 
-1.535966294e-05 5.316018360e-06 
1.949956641e-06 -1.590888132e-05 
-4.840665497e-06 -1.303665340e-05 
1.405575313e-05 1.057807822e-06 
-1.165102003e-05 -6.165937521e-06 
-7.167516742e-06 1.068925485e-05 
2.369662980e-06 2.610919182e-06 
-8.274335414e-06 3.886641935e-06 
2.321990905e-06 -3.589724656e-06 
-8.620205335e-06 6.334397767e-06 
5.426350981e-06 8.808856364e-06 
-2.349726856e-06 5.953712389e-06 
1.745147165e-05 1.839420293e-06 
1.498352503e-06 -3.702065442e-06 
-1.713400707e-06 -9.945753845e-06 
-2.862769179e-06 -1.927040284e-05 
-7.663096767e-06 -2.842862159e-07 
1.469155541e-05 -1.935171895e-06 
8.555449313e-06 1.288368367e-06 
-1.652148785e-05 2.503860742e-06 
-6.788992323e-06 1.331471140e-05 
-9.087380022e-06 1.104359399e-05 
-6.297254004e-06 -2.549495548e-08 
-1.194118522e-05 -1.415854786e-05 
-1.973123290e-06 -1.068197889e-05 
6.850867067e-06 -1.558286021e-05 
-7.976195775e-07 -7.862574421e-06 
1.492016600e-05 -1.976033673e-06 
3.281282261e-06 2.918939572e-06 
-1.136842184e-05 9.923125617e-06 
-1.648091711e-06 3.525434295e-06 
2.904038411e-06 2.252345439e-06 
9.504350601e-06 -6.925314665e-06 
1.059490023e-05 -8.611532394e-06 
5.568610504e-06 6.940041203e-06 
8.664326742e-06 1.353630796e-05 
3.979075700e-07 4.876055755e-06 
1.679873094e-07 1.412245911e-05 
2.925225999e-06 9.299546946e-06 
2.986576874e-06 -2.376292832e-05 
1.266307663e-05 4.337634891e-07 
1.646234887e-05 2.101366408e-05 
-1.446463284e-05 -3.716908395e-06 
-1.610114123e-05 -8.035684004e-06 
2.799148206e-06 -2.097411198e-06 
4.703470040e-06 -1.295958646e-05 
5.299807526e-07 -1.281677396e-05 
5.630339729e-06 1.984357368e-05 
-1.984255505e-06 -5.391630111e-06 
-9.219162166e-06 1.247292676e-05 
2.311891876e-06 5.424313713e-06 
1.038351911e-06 2.822733950e-05 
-5.884619895e-06 -6.428614142e-06 
-4.148983862e-06 -3.613356967e-06 
3.114691935e-06 9.095121641e-06 
5.676993169e-07 -1.955137122e-06 
1.965835690e-05 -3.059860319e-06 
-1.359157613e-05 -1.776730642e-06 
5.617970601e-06 9.991344996e-07 
1.531210728e-06 -3.265566193e-06 
1.469755080e-05 -8.863338735e-06 
1.817825250e-05 1.308065839e-05 
1.243062434e-05 1.728348434e-05 
-1.699518180e-07 -3.563473001e-07 
1.403025817e-05 -1.439190237e-05 
8.502451237e-06 2.742893412e-05 
-3.523018677e-07 -6.062327884e-08 
-7.246329915e-06 2.038769890e-05 
1.187316957e-05 7.772119716e-06 
-3.613531590e-06 1.811305992e-06 
-1.946697012e-06 8.008501027e-06 
4.110566806e-06 -3.411085345e-06 
-5.354653695e-06 -8.062983397e-06 
5.547357432e-06 -8.917413652e-08 
-1.579034142e-05 1.351960236e-06 
-9.054376278e-05 3.729126183e-05 
-8.746609092e-05 1.095188782e-05 
-1.888663974e-05 1.311989035e-05 
-9.142211638e-06 -4.588975571e-06 
5.347421393e-06 -1.568673179e-05 
-1.506152330e-06 -2.450280590e-06 
3.680004738e-06 1.663384319e-05 
-1.863227226e-06 1.227576286e-05 
4.053581506e-06 2.633605618e-05 
-6.171525456e-06 -2.253960702e-06 
-1.600093674e-05 2.070696792e-05 
6.372458301e-06 3.265362466e-06 
7.245806046e-06 -1.020581112e-05 
8.529430488e-06 -8.542148862e-06 
1.120707020e-05 -1.118014916e-05 
-1.705018803e-06 1.443567453e-05 
-3.388384357e-06 2.074474469e-05 
-2.258957829e-05 1.560430974e-05 
1.306133345e-05 7.053313311e-07 
2.569053322e-06 1.639535185e-06 
4.310801160e-06 -2.387794666e-05 
1.172107295e-05 -2.335174941e-06 
3.454450052e-06 1.609825995e-05 
8.630682714e-06 -8.896604413e-06 
-7.520895451e-06 6.383052096e-06 
8.933871868e-06 -7.330236258e-06 
-3.567780368e-06 -9.566050721e-06 
-1.427593088e-05 -9.077601135e-06 
-1.120334491e-05 4.150089808e-06 
9.797309758e-06 -1.424457878e-06 
-6.157119060e-06 4.758301657e-06 
9.445764590e-06 1.441367203e-06 
-9.042123565e-06 -1.634034561e-05 
-6.209884305e-06 -9.509356460e-06 
-8.835049812e-06 -9.412062354e-06 
1.530433656e-05 9.785464499e-06 
8.715491276e-06 1.690932550e-06 
-1.336482819e-05 1.040514326e-05 
1.678895205e-05 -7.223949069e-06 
-4.260160495e-06 -5.908077583e-07 
-1.749343937e-06 -2.175860573e-06 
-1.825951040e-05 -3.233901225e-06 
-1.286051702e-05 -6.174668670e-07 
1.019143383e-05 -5.388399586e-06 
-8.802278899e-06 -7.896800525e-06 
-6.517395377e-06 8.587667253e-06 
-6.556161679e-06 3.367400495e-06 
1.104240073e-05 7.478520274e-06 
1.844484359e-06 -2.369564027e-05 
9.525101632e-06 -1.245926251e-05 
1.128950680e-05 -1.960928785e-06 
1.835636795e-06 -1.375330612e-06 
-6.598653272e-06 3.010034561e-06 
5.271402188e-06 -3.987515811e-06 
1.628650352e-06 -9.657582268e-06 
2.038187813e-05 9.791110642e-06 
-1.044089731e-05 1.251767389e-05 
-7.125985576e-06 -2.252403647e-06 
7.516471669e-06 6.104935892e-06 
-8.798087947e-08 -6.449990906e-06 
-6.169313565e-06 -9.129580576e-06 
1.346613863e-05 4.289075150e-06 
-1.483643427e-05 -1.551164314e-05 
-8.043454727e-06 8.409493603e-06 
-9.745650459e-06 1.977791544e-05 
7.078197086e-06 2.209795639e-06 
2.230750397e-06 1.563521801e-05 
-2.477492671e-06 -6.204863894e-06 
7.175724022e-06 3.027147613e-06 
-8.047791198e-07 1.193615026e-05 
-5.184090696e-06 -1.609063474e-05 
3.196590114e-06 8.959381375e-06 
-1.877316390e-05 -8.057570085e-06 
-1.252863876e-05 1.002295176e-05 
-5.982816219e-06 2.501779818e-06 
4.594534403e-06 1.624226570e-06 
-4.507892299e-06 -1.745182090e-05 
-4.041125067e-06 -1.382740447e-05 
-5.311914720e-06 -7.344380720e-06 
1.706153853e-06 8.069677278e-06 
8.664326742e-06 -1.167575829e-05 
-6.611400750e-06 1.667620381e-06 
-2.599653089e-05 6.942194887e-06 
-1.486844849e-05 -2.103811130e-05 
1.308770152e-06 -9.545183275e-06 
-4.937435733e-06 9.380659321e-06 
2.094777301e-06 6.457732525e-06 
1.743761823e-05 1.728185453e-06 
-1.676467946e-05 -5.814858014e-06 
-1.106326818e-05 -2.340530045e-07 
-4.184897989e-06 -5.332694855e-06 
4.754110705e-06 -1.027272083e-05 
1.551699825e-06 2.780603245e-05 
5.055684596e-06 2.089713234e-06 
-8.186092600e-06 1.465145033e-06 
-4.629546311e-06 -3.116729204e-06 
1.282687299e-05 -9.502226021e-06 
-1.364108175e-05 -7.079972420e-06 
8.842966054e-06 1.368462108e-06 
-8.915667422e-06 1.718121348e-05 
-5.927213351e-06 1.624779543e-06 
-2.377404599e-06 1.412309939e-05 
1.555998460e-05 -4.001194611e-07 
1.766537025e-05 4.589208402e-06 
1.303094905e-06 -7.232418284e-06 
1.436605817e-05 -7.347873179e-06 
8.557632100e-06 -1.617474481e-06 
-8.720671758e-07 -2.920627594e-06 
-1.161848195e-05 -2.565560862e-06 
-7.073336747e-06 1.118076034e-05 
9.068695363e-06 4.498637281e-06 
8.505536243e-06 -5.481910193e-06 
1.478689956e-05 -1.891062129e-05 
2.852579928e-05 1.840389450e-05 
-7.471709978e-06 1.520679507e-05 
-4.724483006e-06 -1.580541721e-05 
6.289046723e-06 -1.579447417e-05 
-3.235240001e-06 4.934656317e-06 
6.409827620e-06 -7.466005627e-07 
8.528761100e-06 2.606189810e-06 
-1.225202868e-05 -1.218060788e-05 
5.066802260e-06 2.032204065e-06 
2.048705937e-06 2.053965000e-05 
-2.565473551e-06 1.256112591e-05 
5.182955647e-06 -1.802924089e-05 
-5.168840289e-06 -2.178811701e-05 
8.771894500e-07 -1.125736162e-06 
2.083950676e-06 -3.459805157e-06 
-5.769077688e-06 -1.043449447e-05 
9.234354366e-07 -4.366680514e-06 
-8.803588571e-06 8.513568901e-06 
-1.237913966e-05 -3.641209332e-06 
-3.018416464e-06 -3.189808922e-06 
9.518582374e-06 8.152332157e-06 
-6.347720046e-06 -1.452046854e-05 
-7.903669029e-06 -2.080181730e-06 
-1.224875450e-05 2.386164851e-06 
-2.454733476e-06 8.228817023e-07 
-4.046945833e-06 9.369920008e-06 
-2.784421667e-06 6.535265129e-06 
6.635265891e-06 -1.049751882e-05 
-1.219892874e-05 -9.685056284e-06 
1.474380406e-05 -1.218006946e-05 
1.835514558e-05 -1.515843906e-06 
3.835622920e-06 9.210431017e-06 
2.349232091e-06 1.479871571e-06 
4.976478522e-06 -1.514397445e-05 
1.056178007e-05 -4.068599083e-06 
-4.437053576e-06 -1.295621041e-05 
8.440663805e-06 7.025388186e-06 
4.934845492e-06 -2.411101013e-05 
4.255038220e-06 1.416064333e-05 
-4.245433956e-06 1.122051617e-05 
8.045579307e-06 2.063461579e-07 
1.309931395e-05 -1.389929093e-05 
9.022274753e-06 1.757056452e-06 
-4.470581189e-06 -2.579356078e-06 
-6.440735888e-06 -1.737552520e-05 
-1.562270336e-05 1.309328945e-05 
2.428045264e-06 -6.336020306e-06 
-1.439533662e-06 6.399583071e-06 
-4.452129360e-06 3.546243533e-06 
1.442007488e-05 1.445104135e-05 
1.003552461e-05 -1.282920130e-05 
5.971291102e-06 -7.326772902e-06 
1.866399543e-05 6.443588063e-08 
4.068017006e-06 1.861419878e-05 
-5.439869710e-06 4.623900168e-06 
-1.242943108e-05 -4.035653546e-06 
4.092697054e-06 -1.872066059e-05 
7.899594493e-06 9.362585843e-06 
1.052883454e-05 1.051614527e-05 
-1.239881385e-06 -2.188782673e-06 
2.120301360e-05 -7.764319889e-06 
-4.125322448e-06 -1.375139982e-05 
-5.231238902e-06 9.036128176e-06 
-1.020685886e-05 -1.430901466e-05 
-1.242427970e-05 -5.197594874e-06 
1.006608363e-05 -5.056906957e-06 
-1.175946090e-05 -1.052857260e-05 
7.583847037e-06 8.596049156e-06 
1.288187923e-05 9.193783626e-06 
-1.046806574e-06 7.303471648e-06 
3.657769412e-07 -6.172922440e-06 
1.125430572e-05 3.636116162e-06 
-7.802736945e-07 4.162371624e-06 
-1.028296538e-06 1.143279951e-05 
8.088536561e-07 -1.235632226e-05 
5.449110176e-07 -4.062312655e-07 
3.531691618e-06 1.019472256e-05 
-4.387111403e-06 -2.663786290e-06 
1.899010385e-06 -1.071370207e-06 
1.949883881e-06 -2.862565452e-06 
2.774171298e-05 -1.616851659e-05 
4.590838216e-06 -7.784765330e-06 
-7.678056136e-06 6.047077477e-06 
-4.260102287e-06 1.207980677e-05 
-2.161046723e-06 -9.004987078e-06 
5.588342901e-06 -5.993962986e-06 
7.498951163e-06 -1.965279807e-06 
1.596273796e-05 6.354821380e-06 
7.744529285e-07 4.738569260e-06 
-5.553069059e-06 -9.477807907e-06 
3.675813787e-06 4.109810106e-06 
8.844450349e-06 1.139490632e-05 
1.825770596e-06 1.244392479e-05 
-6.989430403e-06 1.061480725e-05 
5.242109182e-06 7.024325896e-06 
-1.055316534e-05 3.814115189e-05 
6.292539183e-06 -7.163689588e-06 
6.798887625e-06 -3.462002496e-06 
1.400422479e-05 1.561309909e-05 
3.262655810e-06 1.418590546e-05 
-4.779562005e-06 1.144295675e-05 
1.560951932e-05 -9.761541151e-06 
-9.388822946e-06 7.663911674e-06 
-1.274474198e-05 1.808613888e-06 
-9.936047718e-06 3.961438779e-06 
-8.317118045e-06 1.094338950e-05 
2.512824722e-06 -4.468020052e-07 
9.504146874e-06 -7.625931175e-07 
6.050511729e-06 -1.651351340e-06 
1.723493915e-05 3.916095011e-06 
-1.206679735e-05 1.562963007e-05 
1.202756539e-05 -6.525951903e-07 
1.586880535e-05 3.685650881e-06 
1.984171104e-05 9.773357306e-06 
-9.545590729e-06 4.713016097e-06 
-4.010857083e-06 -1.052951848e-05 
-2.053310163e-05 -6.218731869e-06 
-3.051856766e-06 -3.433000529e-06 
-4.945992259e-06 -5.578331184e-07 
1.532110036e-05 -9.781273548e-06 
1.112517930e-05 1.000589691e-07 
4.084431566e-06 1.707521733e-06 
9.971729014e-06 -5.542213330e-06 
1.233641524e-05 -4.775763955e-06 
-4.641391570e-06 -9.368406609e-06 
-1.618894748e-05 3.752880730e-06 
7.602706319e-06 -5.069770850e-06 
-2.506203600e-06 -8.169154171e-06 
-1.436074672e-05 2.431392204e-06 
5.570531357e-06 -2.519343980e-06 
8.029484889e-06 5.395035259e-06 
-1.276243711e-05 3.873312380e-06 
1.083116513e-05 2.521649003e-05 
-8.916365914e-06 -2.384709660e-06 
4.150235327e-06 -1.045179670e-05 
-7.579918019e-06 -2.879765816e-06 
-1.129932934e-05 9.074195987e-06 
2.408507862e-05 -1.953041647e-05 
-1.229968620e-05 -3.182736691e-06 
1.111457823e-05 -2.074375516e-06 
-1.851470734e-05 2.402241807e-05 
3.868772183e-07 1.717678970e-06 
-5.153779057e-06 1.119705848e-05 
2.656658762e-05 1.839367906e-05 
1.209846232e-07 -8.139002603e-06 
5.560075806e-06 6.514368579e-06 
-7.270602509e-06 9.367358871e-07 
-3.020628355e-06 -2.313114237e-05 
1.941903611e-05 -7.907685358e-06 
-1.990702003e-06 -8.907343727e-06 
-2.226236393e-05 -8.043425623e-06 
7.834169082e-07 -8.078292012e-06 
1.184031134e-05 5.738074833e-07 
2.654269338e-08 -6.265749107e-06 
-7.871800335e-06 1.566339051e-05 
5.793466698e-06 5.695852451e-06 
8.603034075e-06 9.746872820e-06 
-2.223998308e-06 -1.548032742e-07 
-5.511043128e-06 -1.005618833e-05 
-9.562354535e-07 -4.837580491e-06 
8.812989108e-06 1.296377741e-05 
1.691165380e-06 7.546070265e-06 
-1.359730959e-07 6.453599781e-06 
-3.304696293e-06 3.177672625e-06 
-6.343820132e-06 -5.118752597e-06 
6.725313142e-07 -1.553446054e-05 
-2.067361493e-06 2.495013177e-06 
-1.145366696e-05 1.330181840e-05 
-5.369773135e-06 -6.461283192e-06 
5.329289706e-06 -5.267502274e-06 
7.912691217e-06 -4.204281140e-06 
-1.232547220e-07 -8.983304724e-06 
-7.237540558e-07 -1.373048872e-05 
1.910002902e-05 -7.403024938e-06 
1.007324317e-05 -5.974841770e-06 
1.253600931e-05 1.952701132e-05 
1.792552939e-05 -1.902226359e-07 
8.382776286e-07 -3.147404641e-06 
-6.910704542e-06 7.985800039e-06 
1.859676559e-06 2.218649024e-05 
-7.970782463e-06 2.516375389e-06 
-2.179207513e-06 8.906878065e-06 
1.326858182e-06 1.757405698e-06 
-2.953791409e-06 6.522051990e-06 
8.774222806e-07 5.233247066e-06 
1.237927063e-05 7.138587534e-07 
-1.936743502e-06 -2.212426625e-05 
-1.203804277e-05 -8.031740435e-06 
-2.731423592e-06 1.644228178e-06 
7.762573659e-06 -2.507120371e-06 
-8.357164916e-06 -1.647631871e-05 
9.625189705e-06 -3.529887181e-06 
7.224734873e-07 1.573649934e-05 
-6.164598744e-06 8.468807209e-06 
-6.053625839e-06 -1.086323755e-05 
5.832407624e-08 1.100020017e-05 
1.737070852e-05 -2.142041922e-07 
4.045316018e-06 1.761526801e-05 
-4.299043212e-06 -1.039751805e-05 
-1.396285370e-06 1.796631841e-05 
-7.232767530e-06 -4.658941180e-06 
-9.685987607e-06 3.895605914e-06 
4.118890502e-06 3.178138286e-07 
1.369102392e-05 3.050778469e-05 
3.310386091e-06 1.465596142e-06 
1.877796603e-05 -5.943002179e-07 
9.990413673e-06 1.382359187e-05 
1.382816117e-05 -2.657761797e-06 
-1.217378303e-05 2.004497219e-06 
1.080121729e-05 -1.129902375e-05 
-3.193505108e-06 4.363624612e-06 
1.205474837e-05 1.434350270e-05 
-1.072828309e-05 -1.039908966e-06 
-3.033870598e-06 8.881790563e-06 
-6.668618880e-06 -3.762543201e-06 
1.968524884e-06 -6.391142961e-06 
-1.816917938e-05 1.508044079e-06 
-3.339810064e-07 -2.506436431e-06 
-3.936293069e-06 8.478527889e-07 
-5.007539585e-06 2.245767973e-06 
-1.021934440e-05 -9.913113900e-06 
5.997775588e-06 -2.607118222e-05 
7.653958164e-06 -1.179898391e-05 
-1.172703924e-05 -4.757603165e-07 
-1.204351429e-05 1.578562660e-06 
4.526693374e-06 -3.948516678e-07 
1.011416316e-06 -6.867019692e-06 
-5.716225132e-06 -5.795503967e-06 
-9.497074643e-06 1.599011011e-05 
-1.695888932e-05 7.218448445e-06 
1.357286237e-05 1.153196717e-05 
1.618248643e-05 -1.277492265e-05 
1.382641494e-05 -3.186985850e-06 
-1.963676186e-05 -1.400976907e-05 
8.585979231e-06 -6.276124623e-06 
9.127237718e-06 -1.246089232e-05 
-6.190442946e-06 8.055067156e-07 
-3.394059604e-06 5.989277270e-06 
-9.067240171e-06 -3.949156962e-06 
1.879583579e-06 1.089432044e-05 
7.356284186e-06 2.212007530e-06 
8.727249224e-06 1.263691229e-05 
2.303707879e-05 -4.861736670e-06 
8.848728612e-07 2.628599759e-06 
-1.376261935e-05 -1.873634756e-05 
5.612120731e-06 -7.853668649e-06 
4.753965186e-06 -7.157272194e-06 
5.096255336e-06 -5.553476512e-06 
-2.374243923e-05 1.121095556e-05 
-6.212794688e-06 -1.107912976e-05 
1.747073838e-06 -1.061812509e-05 
-1.565928687e-05 -7.911003195e-06 
7.262220606e-06 -7.527531125e-06 
2.666376531e-06 1.139770029e-05 
1.094245818e-05 -2.015725477e-05 
9.293318726e-06 -2.562373993e-06 
-8.930684999e-06 7.809430826e-06 
3.652123269e-06 -1.378078014e-05 
-1.271755900e-05 -5.223409971e-07 
7.539056242e-06 1.094467007e-05 
3.972789273e-06 -1.438360778e-05 
-5.689100362e-06 8.267757948e-06 
8.129980415e-06 -1.368706580e-05 
8.774921298e-06 -5.266279913e-06 
-1.104836701e-05 1.491489820e-05 
7.404014468e-07 3.043271136e-06 
-4.781701136e-06 -9.784533177e-06 
7.206108421e-07 -1.250354399e-05 
4.905785318e-06 5.190609954e-06 
-6.329937605e-06 -1.615262590e-07 
3.149732947e-06 -6.054353435e-06 
1.555887866e-05 3.011373337e-06 
-6.062618922e-06 -6.458722055e-07 
-9.090319509e-06 1.720612636e-05 
-1.376257569e-05 -1.128272561e-05 
-1.486705150e-05 8.817296475e-06 
1.559505472e-05 1.231348142e-05 
-1.768174116e-06 -1.378117304e-06 
-2.281740308e-06 8.923074347e-06 
-2.010085154e-05 1.085735857e-05 
-5.380832590e-06 -7.341819583e-06 
-5.297595635e-06 4.849069228e-06 
-7.052614819e-06 -4.659392289e-06 
-2.526037861e-06 -9.656767361e-06 
1.576165960e-05 5.307025276e-06 
-3.855035175e-06 1.753505785e-07 
3.093898704e-05 -2.553686500e-06 
-2.091226634e-05 -6.108661182e-06 
1.003168290e-05 6.020927685e-06 
1.107808203e-05 7.788577932e-06 
-8.885399438e-06 2.173124813e-06 
2.182205208e-06 -6.250862498e-06 
5.783222150e-06 -6.386107998e-06 
-4.404864740e-06 -5.965237506e-06 
-7.286667824e-06 -1.034367597e-05 
1.223461004e-05 8.891453035e-06 
-9.982613847e-08 8.809613064e-06 
-5.465000868e-06 -3.917026334e-06 
-1.870939741e-06 5.105568562e-06 
-3.515859134e-06 1.027924009e-05 
1.118460204e-07 -1.558772055e-05 
1.398689346e-05 -5.383626558e-06 
8.671660908e-06 -1.611991320e-05 
-4.338566214e-06 -5.930603947e-06 
9.518698789e-06 2.755550668e-06 
5.145644536e-06 -1.228181645e-07 
-7.370719686e-06 -6.308953743e-06 
-1.174191129e-05 -1.292792149e-07 
9.908515494e-06 -1.689565761e-05 
-2.564828901e-05 -6.718328223e-06 
-1.092313323e-05 8.714618161e-06 
1.681002323e-05 -9.878742276e-06 
-1.143462578e-05 4.511661245e-06 
-5.534355296e-06 1.084583346e-05 
-1.899624476e-05 8.195522241e-06 
-1.630603219e-05 -8.582494047e-06 
7.371912943e-06 -1.068081474e-06 
1.695385436e-05 -1.035514288e-05 
-1.526466804e-06 5.832873285e-06 
-9.922703612e-06 7.658964023e-06 
-9.383074939e-06 -1.200527186e-05 
-4.364206688e-06 4.623201676e-06 
-1.446292299e-05 -3.551191185e-06 
-2.207420766e-05 1.233915100e-05 
1.412013080e-05 1.457764301e-05 
3.339024261e-06 2.831852180e-05 
1.275667455e-05 2.255989239e-05 
-1.285599137e-05 1.525465632e-05 
-9.833602235e-06 9.957700968e-06 
1.933914245e-05 1.966371201e-05 
-1.060403883e-05 2.666434739e-06 
8.095172234e-06 2.088519977e-06 
2.732488792e-05 -1.329259248e-05 
9.475043043e-06 -3.212684533e-06 
-1.149222953e-05 7.262802683e-06 
-1.085826079e-05 3.911525710e-06 
1.107895514e-05 -5.966285244e-06 
1.589505700e-05 -9.890005458e-06 
3.735767677e-06 -9.608891560e-06 
-1.326523488e-06 -4.939473001e-06 
-5.830646842e-06 7.917813491e-06 
9.106006473e-07 1.036420872e-05 
1.115887426e-05 1.816112490e-05 
-3.561843187e-06 9.647483239e-06 
1.169988536e-06 3.901644959e-06 
9.035575204e-07 -1.125968993e-05 
1.094088657e-05 -4.639383405e-06 
4.120200174e-06 -3.316556104e-06 
2.021687396e-05 7.429509424e-06 
-3.045570338e-06 9.534996934e-06 
1.681561116e-06 2.532853978e-05 
-1.207785681e-05 -2.275034785e-05 
1.655949745e-06 4.556495696e-07 
-1.349400554e-05 1.162065018e-05 
-8.655944839e-06 -4.952424206e-06 
1.098791836e-05 1.564710692e-05 
-9.054550901e-06 9.417708497e-06 
-2.466840670e-06 3.894761903e-06 
8.412869647e-06 3.717366781e-06 
-2.730533015e-05 7.024165825e-06 
6.308429874e-06 -1.249660272e-06 
-1.394707942e-05 -1.071079168e-06 
-3.179615305e-06 1.502825762e-05 
-3.027613275e-06 -4.129076842e-06 
1.118431101e-06 -2.616539859e-06 
-2.200715244e-06 -1.870794222e-07 
1.008815889e-05 3.356084926e-05 
8.479953976e-06 -4.639499821e-06 
2.417666838e-05 -4.263594747e-06 
-1.905311365e-06 3.972156264e-06 
-6.483693141e-06 4.717265256e-06 
1.042267832e-05 -1.897627953e-06 
2.169294748e-05 1.662661089e-05 
9.507639334e-07 -1.410371624e-05 
2.630811650e-06 -1.950905425e-05 
-4.458415788e-06 -6.304413546e-06 
-3.832974471e-08 1.395830623e-05 
3.367174941e-06 -1.828730456e-05 
-1.130980672e-05 -1.294891990e-05 
9.446870536e-06 -7.278984413e-06 
1.513282768e-06 -6.826536264e-06 
2.175758709e-06 -2.004686394e-05 
1.434615115e-06 2.283602953e-05 
-9.550713003e-06 6.999965990e-06 
-2.028478775e-05 1.577561488e-05 
-1.052799053e-05 -1.061358489e-06 
1.517473720e-06 5.026231520e-06 
-2.420449164e-06 -7.126160199e-06 
-4.792411346e-06 -8.390838047e-06 
7.205817383e-06 7.913622539e-06 
-1.431879355e-06 1.259784403e-05 
-1.941947266e-05 3.832101356e-06 
-6.849179044e-06 2.904154826e-06 
2.999353455e-06 -1.031917054e-05 
-4.713539965e-06 1.484295353e-08 
3.742927220e-06 9.230192518e-06 
8.348491974e-06 7.841619663e-06 
-3.246706910e-06 -3.237393685e-06 
-1.606049773e-05 -2.860964742e-06 
3.058230504e-07 8.261529729e-06 
-1.767644426e-05 -1.052231528e-05 
-5.422043614e-08 7.838709280e-06 
-1.304631587e-05 -1.109470031e-05 
2.922432031e-06 3.406195901e-06 
1.268743654e-05 -3.425273462e-06 
2.374119140e-05 1.695763785e-06 
-2.989312634e-06 1.073733438e-05 
-2.338283230e-05 3.222434316e-06 
-4.777364666e-06 7.621871191e-06 
5.679321475e-06 -2.083834261e-07 
-8.170638466e-06 1.230434282e-05 
3.426277544e-06 3.864406608e-06 
-1.076230546e-06 -1.993420301e-05 
1.605041325e-05 -5.069945473e-06 
1.210416667e-05 1.183691347e-05 
-6.130663678e-06 -7.193913916e-06 
1.171021722e-05 -1.371098915e-05 
-5.843146937e-06 -9.026611224e-06 
-2.611153468e-05 3.630426363e-06 
7.014023140e-07 6.012021913e-06 
3.996770829e-06 -1.003424404e-05 
1.308842911e-06 -3.454042599e-06 
-1.781509491e-05 -1.408983371e-05 
5.594571121e-06 -7.225025911e-06 
-9.504379705e-06 -1.274055103e-05 
-6.971968105e-06 7.596157957e-06 
6.494519766e-07 -3.710156307e-06 
1.098948997e-05 6.391957868e-06 
6.921894965e-06 5.089677870e-07 
-1.298919960e-05 1.212756615e-05 
-1.696812978e-05 1.899199560e-06 
1.469859853e-05 5.865120329e-06 
1.482205698e-05 -5.530193448e-06 
-1.603527926e-05 5.282228813e-06 
-4.594126949e-06 -1.119320223e-05 
8.055823855e-06 -3.041699529e-06 
-1.638324466e-05 5.816487828e-06 
6.690621376e-06 2.840233719e-06 
-6.969068636e-06 9.432027582e-06 
-7.806229405e-07 -4.843546776e-06 
1.055095345e-05 1.185690053e-07 
-7.061986253e-06 3.841094440e-06 
1.180294203e-05 -3.764929716e-06 
1.130826422e-05 -1.983367838e-06 
1.478742342e-05 -2.661618055e-06 
1.084926771e-05 7.767288480e-06 
7.388414815e-06 -5.497888196e-06 
1.872709254e-05 -8.986447938e-06 
9.295530617e-06 1.209467882e-06 
1.368980156e-05 -1.317268470e-06 
-4.228786565e-06 -4.349742085e-06 
1.763668843e-05 -8.368748240e-06 
-1.207691093e-05 -9.761482943e-06 
-1.443026122e-06 -5.782814696e-06 
6.699046935e-06 1.216097735e-05 
5.604641046e-06 8.939852705e-06 
-1.041113865e-05 -5.266076187e-06 
-1.553504262e-06 4.764297046e-07 
4.808069207e-06 -1.233903458e-05 
5.268811947e-06 8.167407941e-06 
5.020643584e-06 -9.904848412e-06 
1.960853115e-05 -4.620291293e-06 
-1.346122008e-05 1.844286453e-05 
2.071195922e-05 1.274666283e-05 
1.882843208e-06 -1.226425229e-05 
8.279224858e-06 -4.507135600e-06 
8.133036317e-06 -8.594943210e-06 
8.628572687e-06 1.591048203e-05 
1.057283953e-05 3.113469575e-06 
-3.809473128e-06 -5.743582733e-06 
1.273257658e-05 -8.692513802e-06 
-1.100357622e-05 -2.233311534e-06 
5.545676686e-06 1.291191438e-05 
-1.258892007e-05 7.344322512e-06 
9.580398910e-07 1.063663512e-05 
9.729410522e-07 8.484843420e-06 
1.393328421e-05 -4.114903277e-06 
1.471169526e-06 -1.456984319e-05 
1.445109956e-05 -3.457535058e-07 
-9.339302778e-06 -8.214847185e-07 
-1.464679372e-06 -1.036406320e-05 
7.519236533e-06 -3.903769539e-06 
-7.312861271e-06 -2.179230796e-05 
1.572043402e-05 1.088040881e-05 
2.401057282e-05 3.805616871e-07 
6.405287422e-06 -1.364422496e-05 
1.108564902e-05 -1.939671347e-05 
-1.177075319e-06 1.615399378e-05 
-5.044857971e-07 -1.118995715e-05 
7.384092896e-06 -1.311325468e-05 
9.572366253e-06 -1.629479812e-06 
-6.649061106e-07 1.563085971e-05 
1.758230792e-05 -1.663225703e-06 
4.238172551e-06 7.722410373e-07 
-2.277258318e-05 8.429167792e-06 
-7.659946277e-07 -6.275076885e-06 
1.209951006e-05 -1.848824468e-06 
6.464746548e-06 2.091517672e-06 
8.523173165e-06 -1.483465894e-06 
3.657682100e-06 -2.145301551e-06 
1.116609201e-05 1.130119199e-05 
-8.927599993e-06 1.811829861e-05 
6.145433872e-06 -6.585323717e-07 
-1.718464773e-06 5.150403013e-06 
1.881620847e-05 8.952643839e-06 
-2.175976988e-05 4.648347385e-06 
-3.750843462e-06 -7.763621397e-06 
4.241126589e-06 -7.250317140e-06 
-3.199296771e-06 6.723072147e-06 
-4.649715265e-06 7.582770195e-06 
-1.171894837e-06 1.553760376e-05 
-2.141052391e-06 -7.868118701e-06 
2.264161594e-06 -1.406326191e-05 
-1.148349838e-06 -1.959566725e-05 
-5.609879736e-06 1.202125350e-05 
-9.121155017e-06 -4.070636351e-06 
-9.920098819e-06 1.044187229e-05 
-5.485140719e-06 1.162182889e-05 
3.420282155e-06 1.123006223e-05 
7.051508874e-06 1.943967072e-05 
5.312496796e-06 -1.190719195e-05 
-1.369928941e-05 4.375993740e-06 
6.149755791e-06 8.041068213e-06 
9.896568372e-06 -4.110508598e-06 
7.578637451e-06 1.923218952e-05 
-4.986854037e-06 -6.014306564e-07 
1.460604835e-06 5.467009032e-06 
-6.260961527e-06 1.792435069e-05 
-4.503730452e-06 -2.964457963e-06 
1.978548244e-05 2.665224019e-05 
-2.398155630e-07 -1.384504139e-05 
-1.611106563e-05 -1.546362182e-05 
-4.008936230e-06 1.510902075e-05 
4.774818080e-06 -4.715984687e-06 
-6.647140253e-06 -9.492621757e-06 
6.758782547e-07 2.010725439e-06 
-1.073407475e-05 1.117319334e-05 
1.010007691e-05 -3.672495950e-06 
