-3.219465725e-06 7.411741535e-06 
9.675277397e-07 2.971879439e-06 
2.976856194e-06 -1.178437378e-05 
-1.324899495e-05 4.216170055e-06 
4.627043381e-06 8.157629054e-06 
7.615075447e-06 -7.136841305e-06 
-3.857217962e-06 -2.491986379e-06 
1.098305802e-05 -8.549075574e-06 
1.040589996e-05 6.541085895e-06 
-2.413173206e-06 5.444744602e-07 
2.151587978e-06 -1.449417323e-05 
8.214497939e-06 9.100382158e-06 
-7.898430340e-06 -1.450715354e-05 
6.379559636e-08 3.946246579e-06 
-1.149676973e-05 1.279101707e-05 
-7.528578863e-07 -1.776234421e-05 
1.773471013e-06 -1.870642882e-05 
-1.509755384e-05 9.833223885e-06 
1.438838808e-05 -1.776614226e-05 
2.896646038e-06 9.931740351e-06 
3.374414518e-06 1.354547567e-05 
-1.695354149e-05 -2.272194251e-06 
-4.907778930e-07 1.423100184e-05 
9.477545973e-06 -4.018365871e-06 
5.476147635e-06 1.766951755e-06 
4.391185939e-07 6.539630704e-07 
1.021072967e-05 7.180555258e-06 
-1.024806988e-05 -4.929024726e-06 
3.335240763e-06 -5.071167834e-06 
-1.947174314e-05 5.774461897e-06 
1.563777914e-06 4.806090146e-06 
8.966540918e-06 -1.235400850e-05 
1.310405787e-05 -1.194750803e-05 
2.645479981e-06 -7.823822671e-06 
-5.217734724e-06 7.639253454e-06 
-8.310889825e-07 1.795549178e-05 
1.832621638e-05 -1.062502270e-05 
-3.232213203e-06 -3.994930012e-06 
6.344023859e-06 7.893249858e-06 
1.479773709e-05 -6.062909961e-06 
2.101511927e-05 1.057924237e-05 
6.155751180e-06 -8.111412171e-06 
1.024163794e-05 1.482520020e-06 
-1.255405368e-05 1.674226951e-06 
1.447544491e-06 -8.448841982e-08 
1.385342330e-07 -3.724941052e-06 
-1.197092934e-05 4.792294931e-06 
-6.327463780e-06 -9.835523088e-06 
-2.180092270e-05 1.700170105e-05 
6.698595826e-06 1.314585097e-05 
6.277317880e-06 -3.829103662e-06 
-6.981077604e-06 1.127150608e-05 
-1.515678014e-05 4.679779522e-06 
1.809408423e-05 -6.235379260e-06 
7.967231795e-06 -9.754148778e-07 
5.915571819e-06 5.415742635e-06 
-2.082763240e-05 1.474586315e-05 
-8.338945918e-06 7.450667908e-06 
-1.001986675e-06 2.857395884e-07 
1.006670209e-05 -2.904154826e-06 
1.439021435e-05 -3.163411748e-06 
2.014765050e-05 -8.639341104e-06 
-3.688095603e-06 -1.524086110e-05 
-7.468916010e-07 -4.019995686e-06 
-4.518529749e-06 -1.062639058e-06 
-2.131116344e-05 1.589418389e-05 
-2.798566129e-06 1.030362910e-05 
6.030895747e-06 -3.735767677e-07 
1.369352685e-05 2.162286546e-05 
-6.692513125e-06 -6.217334885e-06 
5.381007213e-06 1.062234514e-05 
1.130338933e-05 8.595976396e-06 
4.961504601e-06 -1.223615254e-05 
-9.577343008e-06 -6.052257959e-06 
1.293935929e-05 2.463860437e-05 
3.544497304e-06 -9.847572073e-07 
1.418858301e-05 1.121670357e-05 
1.684599556e-05 1.888544648e-05 
-5.211913958e-06 1.847528620e-05 
1.483666711e-05 -1.036323374e-05 
-5.176319974e-06 2.639440936e-06 
1.060919749e-05 3.530294634e-07 
1.876731403e-06 -5.607260391e-06 
-1.118169166e-06 9.719864465e-06 
-5.302630598e-06 5.812471500e-06 
1.589243766e-06 1.210905612e-05 
-5.526468158e-06 -1.085164331e-05 
5.213951226e-07 -4.289850040e-06 
-4.746951163e-06 6.993941497e-06 
-3.147288226e-06 -2.419285011e-06 
-1.237401739e-05 -7.557973731e-06 
-7.837486919e-06 -9.479699656e-06 
-6.797868991e-06 -5.491310731e-06 
6.404152373e-06 1.647771569e-05 
-4.959641956e-06 5.927227903e-06 
-3.998866305e-06 3.463705070e-06 
-1.241355494e-05 8.054892533e-06 
6.259127986e-06 5.005655112e-06 
-1.496000914e-05 -1.772135147e-05 
-1.066515688e-05 -7.477123290e-06 
1.218961552e-05 -7.135782653e-06 
-6.483809557e-06 -1.158966916e-05 
-7.906328392e-06 1.076800982e-05 
5.773967132e-06 -6.997841410e-06 
-1.886277460e-06 1.873413566e-06 
-1.488236012e-05 -1.718132989e-05 
1.027935650e-05 -1.842854545e-07 
-3.332170309e-07 3.034569090e-05 
-1.013069414e-05 -1.593594789e-05 
-1.719337888e-06 -7.033690054e-06 
1.898701885e-05 5.228677765e-06 
-1.687905751e-05 -1.234479714e-05 
4.206187441e-06 9.784125723e-07 
6.677946658e-06 -4.600369721e-06 
6.825022865e-06 3.831228241e-07 
-7.840062608e-06 -2.412125468e-06 
-2.655491699e-06 -1.485626126e-05 
8.598202839e-06 1.738080755e-07 
9.154158761e-06 -8.653441910e-07 
6.112881238e-06 -6.687710993e-06 
1.441294444e-05 -5.522626452e-06 
-2.449268504e-05 -1.198574319e-05 
-1.448650437e-05 -2.328015398e-06 
6.405272870e-06 -6.118905731e-06 
1.275533577e-06 -4.820991307e-06 
-1.464824891e-05 -1.177715603e-06 
2.850429155e-07 1.525925472e-05 
6.811227649e-06 -1.065497054e-05 
8.755261661e-06 1.394852734e-05 
5.915120710e-06 -6.919726729e-06 
-5.840382073e-06 -2.469809260e-06 
6.957605365e-06 -1.362443436e-05 
1.473206794e-06 4.370696843e-06 
-1.833413262e-05 9.391165804e-06 
1.068360871e-05 2.028408926e-05 
3.817956895e-06 -7.025810191e-07 
-1.954269828e-05 -6.569840480e-06 
3.879365977e-06 -7.342314348e-07 
-2.083984145e-05 1.390592661e-05 
-1.158122905e-05 -2.434814814e-05 
-5.366164260e-06 8.485920262e-06 
1.543620601e-05 -1.170195173e-05 
2.385856351e-05 -6.611764547e-06 
-9.045470506e-07 -1.013444853e-05 
-2.856686478e-06 -6.944406778e-06 
5.408423021e-06 1.450054697e-05 
9.847339243e-06 7.024209481e-06 
-1.603795681e-06 -1.735222759e-05 
5.645721103e-06 2.226073411e-05 
1.707556657e-05 1.170026371e-05 
-6.639456842e-06 6.835500244e-06 
-4.575937055e-06 1.454737503e-05 
7.021124475e-06 -4.552086466e-06 
1.403503120e-05 -9.870971553e-06 
-4.577799700e-06 2.262822818e-06 
1.184688881e-05 -3.756576916e-06 
-1.399182656e-05 4.462752258e-06 
-5.932757631e-06 -5.675305147e-06 
-1.249584602e-05 -4.208704922e-06 
7.887836546e-06 4.686880857e-06 
-7.821479812e-06 -5.802314263e-06 
4.482626537e-06 -1.243222505e-05 
-1.450258424e-05 2.002177644e-05 
-3.769935574e-06 1.125270501e-05 
-1.820264151e-05 -1.085991971e-05 
3.562890925e-06 1.021567732e-05 
1.360295573e-05 2.310262062e-07 
-1.390840043e-05 7.529321010e-06 
1.046957914e-05 -4.311033990e-06 
8.385621186e-06 -5.697089364e-06 
1.671304926e-05 1.548626460e-05 
-1.008040272e-06 4.231449566e-06 
-1.670268830e-06 1.294771209e-05 
-5.658017471e-06 7.985130651e-06 
-1.506647095e-05 -1.305330079e-05 
-7.823327905e-06 -2.648041118e-06 
1.190311741e-05 -7.014023140e-07 
4.917674232e-06 -1.696916297e-05 
1.735801925e-05 -2.201969619e-05 
-3.207521513e-05 -9.912182577e-06 
-8.998642443e-06 2.231533290e-05 
4.321685992e-06 7.769267540e-06 
-9.197508916e-06 -4.267378245e-06 
-4.056841135e-06 1.012251596e-05 
3.446475603e-07 3.751541954e-06 
-1.213309588e-05 1.432956196e-05 
-7.027178071e-06 3.359105904e-06 
-8.329108823e-06 1.619572868e-05 
3.077904694e-06 -2.805609256e-06 
-8.720155165e-06 1.582549885e-06 
1.464621164e-06 -2.580462024e-06 
6.580725312e-06 -1.941341907e-06 
-5.070876796e-06 1.547334250e-05 
3.255641786e-06 4.966859706e-06 
1.317774877e-05 -2.315442543e-06 
-1.625925506e-05 6.656162441e-06 
1.101312228e-05 -3.583962098e-06 
5.779147614e-06 -5.499488907e-06 
-1.106469426e-05 -1.240492566e-05 
-1.030508429e-06 4.187459126e-06 
-6.938993465e-06 -9.622715879e-06 
3.240260412e-06 8.858158253e-06 
-7.505062968e-06 8.163100574e-06 
8.702743798e-06 -1.008715481e-05 
-6.366637535e-06 -6.104819477e-06 
2.660689643e-05 1.305982005e-05 
6.093789125e-06 2.176425187e-05 
-8.699484169e-06 1.105945557e-09 
-8.597853594e-06 2.504035365e-06 
-1.542357495e-06 -2.318911720e-05 
1.100095687e-06 -1.692882506e-06 
2.259432222e-06 2.725562081e-05 
-8.839531802e-06 -8.116709068e-06 
-4.508765414e-06 2.605549525e-06 
-1.340534072e-05 -1.383887138e-06 
-1.347949728e-05 1.802679617e-05 
1.132057514e-05 -6.574286090e-06 
-6.418151315e-06 -8.252449334e-06 
3.228633432e-06 -9.350653272e-06 
-5.039153621e-06 4.273897503e-06 
2.666376531e-06 -1.524336403e-05 
-1.209322363e-06 -1.833052374e-05 
-2.005952410e-06 -1.224232255e-05 
7.668153557e-06 -4.492118023e-06 
2.955115633e-06 6.420887075e-06 
-3.542882041e-07 9.292882169e-06 
-2.949549526e-06 -1.964307739e-05 
1.630341285e-05 -2.903980203e-07 
5.586305633e-06 -1.028536644e-06 
-7.689581253e-06 4.550616723e-06 
-6.784568541e-06 9.991461411e-06 
2.098563709e-05 9.256065823e-06 
1.450709533e-06 -4.719942808e-06 
-9.376090020e-06 -1.064449407e-05 
5.235284334e-06 -2.504093572e-06 
1.340560266e-05 -6.417569239e-06 
1.985116978e-05 -4.863133654e-06 
-1.253577648e-05 -8.841161616e-06 
8.983362932e-06 1.858861651e-06 
1.437234459e-06 -7.967464626e-06 
1.478136983e-05 -7.374910638e-08 
2.127417247e-06 4.707253538e-06 
8.084047295e-06 -1.637672540e-06 
-4.160800017e-06 -2.253364073e-06 
-8.478236850e-06 2.910514013e-06 
3.929308150e-07 -9.322186088e-06 
-4.322559107e-06 1.510779839e-07 
5.133915693e-08 -2.614600817e-06 
1.611246262e-06 5.323381629e-07 
2.016109647e-06 -6.913323887e-07 
4.777597496e-06 1.245673047e-06 
-1.773826079e-05 -1.116338535e-05 
1.292279921e-05 5.592970410e-06 
4.134839401e-06 -5.889101885e-06 
-2.389773726e-06 2.325308742e-06 
-3.729190212e-06 1.301229349e-05 
-4.778848961e-07 -2.492335625e-06 
-5.304318620e-06 3.826330067e-05 
-1.488602720e-06 2.181480522e-05 
-1.480718493e-05 4.157016519e-06 
-8.890812751e-06 -9.616836905e-06 
-3.116729204e-06 8.918643289e-06 
-1.545072882e-05 -2.737950126e-06 
9.750147001e-06 3.732624464e-06 
6.446061889e-07 1.223415893e-05 
-2.715931623e-05 3.148918040e-06 
5.540496204e-07 -1.223670552e-07 
-1.192453783e-05 6.008311175e-06 
3.597815521e-06 -7.146445569e-06 
-6.553163985e-06 1.197418896e-05 
-9.139534086e-06 9.078823496e-06 
8.092261851e-06 1.636066008e-05 
-1.260387944e-05 -3.078050213e-06 
-1.291878289e-05 6.637303159e-06 
-5.665060598e-06 -2.500442497e-05 
-2.022116678e-05 -1.085631084e-06 
1.360138413e-06 -7.681126590e-06 
-1.247826731e-05 -2.886372386e-06 
5.094218068e-06 -1.595407957e-05 
-6.550806575e-06 1.341773896e-05 
-6.212794688e-06 -6.042770110e-06 
2.524520823e-06 1.786672510e-05 
-5.515787052e-06 3.608700354e-06 
-2.701039193e-06 1.497719495e-05 
-1.708476339e-05 1.029984560e-05 
1.151519245e-05 4.956382327e-07 
9.152223356e-06 1.679779962e-05 
-8.214821719e-06 1.787325891e-05 
-2.134358510e-06 2.057466190e-05 
-2.189318184e-05 8.784227248e-06 
-4.598870873e-06 9.418174159e-06 
-2.712476999e-08 6.030313671e-06 
-6.499365554e-06 3.117631422e-06 
1.961429371e-05 -1.380893809e-05 
6.124901120e-06 7.283229934e-06 
4.739849828e-07 -2.047629096e-06 
8.021190297e-06 -1.671237987e-05 
-2.646778012e-05 -1.303825411e-05 
-5.483452696e-07 4.806352081e-06 
-5.527661415e-06 -3.412260412e-06 
1.988193253e-05 -6.871676305e-06 
1.567212166e-06 2.540240530e-06 
-1.758162398e-07 -3.034336260e-06 
6.014524843e-07 7.647293387e-06 
-9.346927982e-06 1.214111398e-05 
5.100271665e-06 -8.438073564e-07 
-4.986999556e-06 -2.596119884e-06 
-1.184064604e-05 -1.805415377e-05 
2.953340299e-06 -7.646289305e-06 
1.075956970e-05 4.294182872e-06 
1.289369538e-05 2.062856220e-05 
1.703097951e-05 1.572223846e-05 
-7.534748875e-06 -2.410542220e-05 
1.982704271e-05 1.221435377e-05 
-5.220223102e-06 -7.241033018e-07 
-1.042406075e-05 -2.333545126e-07 
-7.377821021e-07 4.045665264e-06 
1.448701369e-05 7.887676475e-06 
2.465327270e-06 9.010691429e-07 
2.709646651e-06 -2.538392437e-06 
-8.343486115e-07 -1.731037628e-06 
-1.585262362e-05 2.914166544e-06 
-5.668320227e-06 7.253387594e-06 
-7.573748007e-06 -9.107752703e-07 
-4.395609722e-06 -2.058164682e-06 
3.634719178e-06 -9.477196727e-06 
-1.223990694e-06 1.092081948e-05 
4.172441550e-06 3.627865226e-06 
-2.480577677e-06 -2.633308759e-05 
-9.066250641e-06 -5.072302883e-06 
-1.596228685e-06 4.114990588e-06 
-1.713132951e-05 -1.039839117e-05 
1.460267231e-05 -5.976355169e-06 
1.435051672e-06 -2.067652531e-06 
-4.791829269e-06 -1.144302951e-05 
8.810486179e-06 1.567357685e-06 
-1.970794983e-06 2.240107278e-06 
1.377682202e-05 1.491678995e-05 
7.702736184e-06 2.647720976e-06 
-1.299417636e-05 -1.139733649e-05 
2.487679012e-06 2.107420005e-05 
-7.242284482e-06 -1.432507997e-05 
1.529906876e-05 2.056185622e-06 
9.830488125e-06 7.249007467e-06 
1.587791485e-05 1.022347715e-05 
1.251697540e-06 7.884111255e-06 
4.422443453e-06 -1.263921149e-05 
7.964728866e-06 -1.892130240e-05 
3.274937626e-06 1.027282269e-05 
5.615467671e-06 6.510701496e-06 
8.534596418e-06 -2.906133886e-06 
6.054062396e-06 2.561253496e-06 
2.882181434e-06 -9.656723705e-06 
-1.154810889e-06 1.225672895e-05 
5.958325346e-06 -1.000256452e-05 
-7.265160093e-06 1.364386117e-05 
-2.858869266e-06 -7.173512131e-06 
-1.514330506e-06 -1.008471008e-05 
2.045417204e-06 -1.486409019e-05 
4.670742783e-06 -1.267925836e-05 
-3.079493763e-05 5.619367585e-06 
-1.179880928e-05 -1.850910485e-05 
-1.612701453e-06 3.111243132e-06 
6.327463780e-06 -1.023249933e-05 
4.512025043e-06 1.137863728e-05 
6.819725968e-06 -9.536510333e-06 
-3.264867701e-06 -2.026199945e-05 
-5.909241736e-07 1.405138755e-05 
2.540793503e-06 6.155460142e-07 
-2.621556632e-06 1.771666575e-06 
1.171100303e-05 4.661385901e-06 
-4.432600690e-06 -3.702007234e-06 
-2.552187652e-07 5.376736226e-06 
-7.891794667e-06 9.556097211e-07 
3.507593647e-06 2.417771611e-06 
1.167925075e-05 -2.114078961e-05 
-4.814937711e-06 -4.620524123e-06 
9.512470569e-06 -1.556368079e-05 
4.575354978e-06 -3.479421139e-06 
-5.275360309e-06 5.924637662e-06 
1.121102832e-05 1.364332275e-05 
-3.037857823e-07 1.182401320e-05 
1.345550118e-05 1.398891618e-05 
6.448419299e-06 2.121319994e-06 
4.528454156e-06 -1.656787936e-05 
4.322915629e-06 -1.659151167e-06 
8.509276086e-06 6.303715054e-06 
-1.197634265e-05 1.150881872e-06 
7.624825230e-06 -1.264881575e-05 
1.502555097e-05 1.755010453e-05 
-1.094388426e-05 -5.769310519e-06 
-1.417892054e-05 -1.353438711e-05 
-1.408380922e-05 1.305248588e-06 
2.803291864e-06 2.684711944e-06 
5.793932360e-06 1.777436410e-05 
9.415700333e-06 2.103846055e-05 
6.621281500e-06 8.910385077e-06 
-4.680594429e-06 -1.141097164e-05 
-8.402043022e-06 1.098342182e-05 
1.078471541e-05 4.881276254e-06 
1.326960046e-06 3.152963473e-06 
2.510845661e-06 -4.635396181e-06 
1.580663957e-05 1.946085831e-06 
2.192638931e-05 1.149170566e-05 
1.183411223e-05 7.740429282e-06 
-1.139071537e-05 -2.948916517e-06 
-1.514161704e-05 -9.746872820e-06 
2.767526894e-06 -4.028850526e-06 
-1.196109224e-05 -6.136222510e-06 
-1.230277121e-05 -1.639264519e-05 
2.908112947e-06 1.851038542e-05 
3.154389560e-06 -7.068854757e-06 
2.210959792e-06 3.407418262e-06 
-6.990507245e-06 -1.551100286e-05 
2.189225052e-05 -3.304041456e-06 
2.542976290e-06 -1.263490412e-05 
-9.272363968e-06 -1.263272134e-05 
1.382722985e-05 -4.929490387e-06 
-1.101847738e-05 5.154404789e-06 
-1.857889583e-05 1.142965630e-05 
-1.222727587e-05 2.291155397e-06 
-2.983288141e-07 1.396983862e-08 
-3.836146789e-06 7.231428754e-06 
2.219603630e-06 -8.206814528e-06 
-2.014767961e-05 -1.428130781e-05 
2.378597856e-06 7.838316378e-07 
1.565495040e-06 -1.603469718e-05 
-1.458521001e-05 7.251976058e-06 
7.038179319e-06 7.415204891e-06 
-4.378729500e-06 4.907575203e-06 
-5.102498108e-06 -7.374270353e-06 
-2.271670382e-06 8.956296369e-06 
6.767222658e-07 -2.792105079e-06 
3.017834388e-06 1.008075196e-05 
2.630840754e-06 -1.546846761e-06 
1.710935612e-05 -2.368306741e-05 
-9.792856872e-06 4.776287824e-06 
-7.404480129e-06 4.904228263e-06 
1.280917786e-06 -5.607609637e-06 
-8.857547073e-06 1.086137490e-05 
-5.658089322e-06 -1.066511322e-05 
1.213862561e-06 1.086956763e-05 
-1.017306931e-05 -2.076150849e-06 
-4.465910024e-06 -1.552424510e-05 
2.762433724e-06 4.362242180e-06 
2.150247019e-05 1.045392128e-05 
1.152744517e-06 -4.990783054e-06 
-3.141678462e-05 -7.768976502e-06 
-1.380301546e-05 -1.490500654e-05 
6.272282917e-06 1.092450111e-05 
4.440196790e-06 -9.741837857e-06 
-1.071265433e-05 2.244079951e-06 
1.379556488e-05 2.111803042e-06 
-9.198207408e-06 7.371010724e-06 
7.875030860e-06 -5.912210327e-06 
2.396432683e-05 -2.646571374e-06 
4.565077688e-06 8.779927157e-06 
-1.232401701e-05 1.490465365e-06 
1.944997348e-05 9.014151146e-06 
6.971007679e-06 2.194719855e-07 
7.267961337e-06 -3.524095519e-06 
-9.959796444e-06 -2.135743853e-05 
9.905023035e-06 1.011730637e-05 
1.069856808e-06 -1.319940202e-05 
2.592598321e-06 1.002429053e-05 
-7.842492778e-06 6.848778867e-06 
-1.147750299e-05 3.433553502e-06 
8.075730875e-06 -1.064436219e-06 
-2.204033080e-07 -1.953099854e-05 
-2.266472438e-05 -9.601993952e-06 
-1.552692265e-05 -6.411719369e-07 
3.340071999e-06 9.866897017e-06 
3.899331205e-06 -1.712923404e-05 
-4.954694305e-06 -2.204316843e-06 
-3.962195478e-06 -2.065804438e-06 
-2.210878301e-05 1.360615715e-05 
1.258647535e-05 1.142732799e-05 
-2.160246368e-05 -2.189422958e-06 
1.053162850e-05 5.541602150e-06 
6.534319255e-06 1.027929829e-05 
2.263393253e-05 3.060908057e-06 
2.209213562e-06 -2.253233106e-06 
-1.286971383e-05 -1.042999793e-05 
1.014681766e-05 -8.414266631e-06 
-8.892136975e-06 1.078951755e-06 
1.331090971e-06 -4.302011803e-06 
-5.648471415e-06 -2.391752787e-06 
4.460976925e-06 1.802121551e-05 
-1.586947474e-05 1.511114533e-05 
1.876032911e-05 -1.110963058e-05 
-1.381355105e-06 1.727370545e-06 
-4.318600986e-06 -1.101510134e-05 
-2.352753654e-06 -9.956202121e-06 
-1.363130286e-05 1.039775088e-05 
6.743939593e-06 1.265946776e-05 
1.624375000e-05 5.544163287e-06 
4.043686204e-07 -2.115854295e-05 
3.496730642e-06 -9.673109162e-06 
3.635563189e-06 -5.244975910e-06 
3.544497304e-06 4.150526365e-06 
-2.536922693e-06 2.311539720e-05 
-5.546375178e-06 7.846247172e-06 
1.292230445e-05 5.883048289e-06 
8.639181033e-06 -2.893037163e-06 
3.071909305e-07 6.785892765e-06 
-2.710556146e-06 -1.255368988e-05 
-8.742383216e-06 7.560360245e-06 
1.164144487e-05 2.004252747e-05 
-7.174501661e-06 2.742875949e-06 
1.512971357e-05 -6.408605259e-06 
-8.323462680e-06 1.915884786e-05 
3.424342140e-06 -1.880078344e-05 
2.500752453e-05 2.492102794e-06 
2.911663614e-06 6.951217074e-06 
7.028516848e-06 -2.329735435e-05 
-5.836714990e-06 1.891516149e-06 
-7.165246643e-06 5.620066077e-06 
1.019725460e-05 -1.225853339e-07 
-1.498684287e-05 8.383736713e-06 
-7.575566997e-06 7.036258467e-06 
-5.739799235e-06 9.340001270e-07 
-1.294435060e-05 -6.090340321e-06 
1.568417065e-05 -8.801478543e-06 
-9.929703083e-06 -2.418877557e-06 
-2.845101335e-06 5.459936801e-06 
6.554066204e-06 6.980444596e-06 
2.031843178e-05 1.216776582e-05 
-3.594846930e-06 2.018577652e-05 
-1.360580791e-05 -4.140834790e-06 
-1.898896880e-05 6.499001756e-06 
1.053305459e-05 -1.000897100e-06 
9.517163562e-06 5.174719263e-06 
9.199255146e-06 5.654583219e-07 
-1.076259650e-06 7.127760909e-06 
-1.072348095e-05 1.015083399e-06 
6.314832717e-06 -2.817047061e-06 
-9.536743164e-06 9.040464647e-06 
7.975613698e-07 2.176838461e-05 
-1.155678183e-05 1.554553455e-05 
-7.846101653e-06 7.032300346e-06 
-1.402078851e-05 -1.454673475e-05 
-1.593953493e-05 -1.322815660e-05 
-2.484349534e-05 -8.623988833e-06 
2.713146387e-06 -1.619815885e-05 
-1.635332592e-05 -9.233181117e-06 
-2.133150701e-06 -1.058971975e-05 
3.401131835e-06 -5.940091796e-06 
1.371680992e-05 -3.091630060e-05 
-1.037144102e-05 8.736271411e-06 
-2.356286859e-05 1.990285818e-05 
-3.531298717e-06 2.486631274e-06 
9.027746273e-06 -1.666136086e-06 
-6.735092029e-06 1.369480742e-06 
1.475046156e-05 -1.514283940e-05 
1.056201290e-05 -1.407554373e-05 
-3.383844160e-06 -7.012393326e-06 
-3.066146746e-06 -3.792112693e-06 
-1.725112088e-05 -1.559377415e-05 
1.294846879e-05 -1.220894046e-05 
-1.842901111e-05 2.232205588e-06 
-4.221947165e-06 3.458335414e-06 
-4.993984476e-06 -8.274451829e-06 
-1.733511453e-06 7.048874977e-06 
5.601214070e-06 -6.624904927e-06 
1.025683014e-05 -2.207356738e-05 
1.515151234e-05 5.783513188e-07 
-6.594651495e-06 4.357716534e-06 
-4.346133210e-06 -1.645293378e-05 
2.132350346e-05 2.950895578e-06 
-1.975154737e-05 1.558673102e-05 
-3.152992576e-06 -2.403045073e-06 
4.342116881e-06 2.003286500e-05 
3.747467417e-06 -2.213334665e-05 
-1.111067832e-05 1.293270907e-05 
-7.249880582e-06 6.463145837e-06 
-1.457682811e-05 5.433670594e-06 
-1.376727596e-06 1.172051998e-05 
-4.702131264e-06 1.228554174e-05 
1.721782610e-07 1.849544788e-05 
-1.215364318e-05 2.407788998e-06 
-2.223649062e-06 -3.901630407e-06 
2.354655589e-05 -1.033587614e-05 
4.033441655e-06 -1.449428964e-06 
1.181941479e-05 2.578075510e-06 
4.298752174e-06 -1.234887168e-05 
7.265189197e-06 7.897149771e-06 
-9.381474229e-06 5.730311386e-06 
-1.170515316e-05 1.827516826e-06 
1.934546162e-06 1.524787513e-05 
-1.163558045e-05 1.608883031e-05 
1.237419201e-05 -9.048613720e-06 
1.203053398e-05 -2.701242920e-06 
-6.134214345e-06 -4.656612873e-06 
3.591965651e-06 -1.002621138e-05 
-3.895722330e-06 1.606869046e-05 
3.083841875e-06 4.720728612e-06 
-3.503984772e-06 -4.514760803e-06 
3.448323696e-06 -1.354026608e-06 
-5.659414455e-06 1.097357017e-05 
5.109905032e-06 3.793051292e-06 
4.482848453e-06 -1.802883344e-05 
1.059554052e-06 7.858790923e-06 
8.812858141e-06 1.909932325e-05 
-5.120527931e-07 2.525560558e-05 
1.144170528e-05 -2.067419700e-05 
7.218914106e-06 -1.165713184e-05 
-4.903879017e-06 -1.783033076e-05 
-1.034140587e-05 4.433823051e-06 
-8.194474503e-06 9.955314454e-06 
7.827940863e-06 -1.219275873e-06 
-5.775073078e-06 -7.015536539e-06 
-3.718305379e-06 -4.993227776e-06 
-1.632689964e-05 1.801810868e-06 
-8.978880942e-06 -2.223881893e-05 
1.688720658e-06 2.147557097e-06 
9.476789273e-06 5.782669177e-06 
-8.915376384e-07 -1.328578219e-05 
1.011911081e-06 -2.122891601e-06 
-9.249721188e-06 1.712093945e-05 
1.268833876e-05 -6.294809282e-06 
-6.912392564e-06 7.861817721e-06 
1.049600542e-06 6.382586434e-06 
-4.378380254e-06 -1.781707397e-06 
-1.316700946e-05 5.300273187e-06 
-5.305482773e-06 1.487403642e-05 
-7.197428204e-06 3.071618266e-07 
3.052482498e-06 -5.942158168e-06 
-1.435822924e-05 4.179266398e-06 
6.141548511e-06 -5.680718459e-06 
2.253253479e-05 -4.492234439e-06 
6.458838470e-06 -2.885528374e-06 
5.423979019e-06 4.986941349e-07 
1.514999894e-06 -8.011207683e-06 
-1.145200804e-05 7.061171345e-07 
1.096332562e-05 -3.063934855e-06 
-3.482535249e-06 -1.439523476e-05 
5.955458619e-06 1.117750071e-05 
-1.210521441e-05 9.794719517e-06 
-1.196691301e-06 6.666035915e-06 
1.497330231e-06 -4.745670594e-06 
2.019951353e-06 1.408811659e-05 
5.738445907e-06 1.356820576e-07 
-1.182675624e-05 -1.383322524e-05 
1.236126991e-05 -9.077659342e-06 
5.327441613e-06 -3.615336027e-06 
3.845409083e-06 9.875511751e-06 
2.609318472e-06 -6.999354810e-06 
-1.333611726e-05 1.315702684e-05 
6.650654541e-06 -1.086649718e-05 
-9.925497579e-06 1.075502951e-06 
-6.213434972e-06 -1.625611912e-05 
-1.718223939e-05 -7.742550224e-06 
-1.903594239e-06 8.059054380e-06 
-5.359761417e-06 -4.350004019e-06 
1.887558028e-06 1.656083623e-05 
-1.784763299e-06 -2.716493327e-06 
-5.025183782e-06 4.253568477e-06 
-1.405132934e-07 1.788965892e-05 
-7.375761925e-06 9.410199709e-06 
-1.986729330e-05 -4.095083568e-06 
-1.601001713e-06 -1.102639362e-05 
3.951630788e-06 6.188987754e-06 
-2.351705916e-06 -1.040782081e-06 
4.674308002e-06 1.253414666e-06 
-4.508416168e-06 -1.437449828e-05 
5.295325536e-06 6.146088708e-06 
-8.322414942e-06 -5.678855814e-06 
2.390457666e-06 -1.014814916e-05 
6.501155440e-06 4.795554560e-06 
-1.811902621e-05 -7.161637768e-06 
5.091598723e-06 5.580150173e-06 
-2.481057891e-06 -7.259892300e-06 
-1.643435098e-05 7.095979527e-06 
9.702518582e-06 -1.242494909e-05 
1.309445361e-05 1.795543358e-05 
-2.950895578e-06 6.324844435e-07 
2.751825377e-06 -1.450127456e-06 
-1.136187348e-05 -5.602720194e-06 
7.072230801e-07 7.160502719e-06 
-5.971523933e-07 -1.730497752e-05 
2.957764082e-06 -2.443825360e-05 
1.549263834e-05 -1.638827962e-05 
3.378401743e-06 -8.982664440e-06 
-9.719980881e-06 1.858186442e-05 
1.447810791e-05 -2.310946002e-06 
-1.299916403e-05 -1.471169526e-06 
-2.441389370e-06 1.143115514e-05 
-1.848471584e-05 7.139344234e-06 
-1.354904089e-05 -8.309260011e-06 
-7.477821782e-06 4.269822966e-07 
1.076015178e-05 -8.969684131e-06 
-5.409936421e-06 -3.654218744e-06 
-1.093279570e-05 9.382143617e-06 
-8.781382348e-06 -1.578946831e-05 
-1.374346903e-05 -8.378527127e-06 
-1.893666922e-05 4.018249456e-06 
-1.826672815e-06 -2.151500667e-06 
-1.525814878e-05 1.256994437e-06 
-1.240882557e-05 -1.422013156e-06 
-1.155142672e-05 -1.438008621e-05 
2.946297172e-06 1.234091178e-05 
-2.108048648e-06 1.307870843e-05 
-4.678877303e-07 1.473526936e-07 
3.348803148e-06 5.459267413e-06 
-1.331092790e-06 -3.261957318e-06 
1.482956577e-06 5.003763363e-06 
8.953153156e-06 6.109825335e-06 
-1.624791184e-05 1.780723687e-05 
1.814821735e-05 -1.075601904e-05 
-3.355380613e-06 2.898182720e-05 
3.030756488e-06 -3.271765308e-06 
-8.598202839e-06 -1.625472214e-05 
5.004785635e-06 7.009914953e-06 
-1.005465310e-05 1.084001269e-06 
4.497531336e-06 7.699767593e-06 
1.027912367e-05 -1.630256884e-05 
-8.035218343e-06 1.271534711e-05 
-2.026354196e-06 7.005583029e-06 
-6.750808097e-06 2.675689757e-06 
1.911561412e-06 1.110497396e-05 
4.004628863e-06 2.321277861e-06 
1.324780169e-05 -4.266446922e-06 
-9.219045751e-06 4.612375051e-06 
2.242566552e-06 -4.534318577e-06 
-9.729119483e-07 -9.583251085e-06 
-1.465785317e-06 1.031486318e-05 
-4.835892469e-06 -6.078927981e-06 
1.734672696e-05 -8.896808140e-06 
1.397798769e-06 1.306761988e-06 
7.326976629e-06 4.413828719e-06 
-1.062572119e-05 4.847272066e-06 
-5.272100680e-06 -3.155379090e-06 
1.507005072e-05 -4.625471774e-06 
8.548260666e-06 6.402027793e-06 
-1.789725502e-06 -1.622946002e-06 
3.997047315e-06 9.381008567e-06 
-4.929257557e-06 9.267358109e-06 
-1.182551568e-05 6.821705028e-06 
-2.159865107e-05 -6.184451195e-06 
-9.597511962e-06 -1.016561873e-05 
8.304137737e-06 -1.281441655e-06 
-3.901775926e-06 -1.660210546e-05 
8.823932149e-06 8.650880773e-06 
2.006068826e-05 -4.783738405e-06 
1.724608592e-05 -6.873568054e-06 
-7.698894478e-06 -1.797464211e-05 
1.430744305e-06 2.344467794e-05 
-9.103852790e-06 -9.873881936e-06 
-1.586938743e-05 -3.035042027e-06 
1.729978248e-05 1.156772487e-05 
-4.065281246e-06 1.199584221e-05 
-7.062219083e-06 1.926789992e-05 
-4.750414519e-06 7.734342944e-08 
-7.177004591e-08 -3.811554052e-06 
4.841596819e-06 -6.146379746e-06 
1.812179107e-05 -2.356671030e-05 
3.110777470e-06 -9.773997590e-06 
-2.785556717e-05 1.701415749e-05 
2.756387403e-06 -4.582601832e-06 
-1.136792707e-05 -3.754990757e-06 
7.357448339e-06 2.030574251e-06 
-5.681824405e-06 -8.581031580e-06 
5.473266356e-06 -3.043678589e-07 
-2.732966095e-06 -1.222113497e-06 
-7.304246537e-06 -2.608646173e-05 
1.015971065e-05 -1.033546869e-05 
1.800080645e-05 2.424736158e-05 
1.158536179e-06 -1.468649134e-05 
-3.967099474e-06 -2.244836651e-05 
1.192526543e-05 -1.421352499e-05 
9.027309716e-06 1.098209759e-05 
-2.595159458e-06 5.077086826e-06 
1.723907189e-06 9.649811545e-06 
1.717545092e-05 6.809248589e-06 
-3.698631190e-06 -7.052905858e-06 
-1.507165143e-05 1.413955761e-05 
-1.966077252e-05 -6.809001206e-06 
1.212953066e-06 2.150896762e-05 
-1.653301297e-06 1.200094994e-05 
6.155081792e-06 1.580844400e-05 
-8.991686627e-06 3.769149771e-06 
1.022245851e-05 -1.353921834e-05 
-1.105543924e-05 -1.446862007e-05 
4.953413736e-06 -1.341005554e-05 
8.708288078e-06 -3.697612556e-06 
9.513780242e-06 -7.347378414e-06 
-9.884824976e-07 -3.643217497e-07 
-9.124167264e-06 4.625529982e-06 
2.010114258e-06 9.597031749e-06 
-1.666002208e-05 7.476483006e-06 
-2.065207809e-06 6.507150829e-06 
1.166714355e-05 -5.743379006e-06 
-6.700167432e-06 -1.383147901e-05 
8.367933333e-07 -1.109513687e-05 
-5.767447874e-06 4.984147381e-06 
-3.139415639e-06 8.293696737e-06 
1.787475776e-05 1.102278475e-06 
2.222419789e-05 7.365597412e-06 
-3.918074071e-06 -3.802648280e-06 
-1.252832590e-05 6.995687727e-07 
6.618560292e-06 -1.194293145e-05 
2.590828808e-05 -5.754875019e-06 
3.966502845e-06 -3.706416464e-06 
2.437154762e-06 1.435313607e-06 
3.601075150e-06 -3.909692168e-06 
-2.267575474e-05 1.571075700e-05 
4.927918781e-06 -1.243576116e-05 
-7.213209756e-06 -1.288484782e-05 
1.160666579e-05 -2.213753760e-06 
-1.559912926e-05 1.084816176e-06 
9.888899513e-07 -1.093582250e-05 
1.767184585e-06 3.196939360e-06 
-8.000642993e-07 5.758687621e-06 
-1.574633643e-06 8.486676961e-08 
4.476518370e-06 -1.163111301e-05 
-3.037275746e-06 -1.137879735e-05 
-1.434842125e-05 4.445100785e-06 
-1.496128971e-05 7.180991815e-06 
5.694222637e-06 1.430642442e-05 
1.405228977e-05 -1.861830242e-06 
1.244142186e-05 1.397702727e-05 
7.628113963e-08 9.465147741e-06 
-1.070642611e-06 8.124537999e-06 
8.077011444e-06 -1.458727638e-05 
-9.959214367e-06 7.532507880e-07 
4.597968655e-06 -6.582726201e-06 
-7.717899280e-06 3.070948878e-06 
7.337366696e-07 -7.283524610e-06 
-5.940120900e-06 -1.348723890e-05 
-1.683869050e-05 4.036934115e-06 
-2.046627924e-05 1.888815314e-05 
1.609302126e-05 -1.616764348e-05 
3.987457603e-06 2.006860450e-05 
1.009806147e-05 8.373084711e-06 
-2.317933831e-05 5.238689482e-08 
1.679547131e-05 2.434500493e-05 
-3.061975440e-05 1.210672781e-05 
-4.290137440e-06 6.700982340e-06 
1.982261892e-06 -4.402827471e-07 
1.777545549e-06 1.334666740e-05 
-1.631211489e-06 7.392489351e-06 
1.974462066e-06 -1.814108691e-05 
-6.802263670e-06 1.014539885e-05 
6.668466085e-06 1.418811735e-06 
2.018146915e-06 2.066168236e-06 
1.257378608e-05 3.316439688e-06 
-8.128830814e-06 -2.207935904e-05 
4.516434274e-06 1.531396993e-05 
2.503802534e-05 5.568756023e-06 
-4.789988452e-06 -1.156877261e-06 
-4.017900210e-06 -7.705275493e-06 
1.374178100e-05 4.634377547e-06 
-7.992588507e-06 1.524458639e-05 
-5.608366337e-06 4.947854904e-06 
-9.443901945e-06 -3.456058039e-06 
1.914115273e-06 -1.950073056e-06 
-1.534621697e-05 -1.026503742e-05 
-1.966021955e-06 -7.715309039e-06 
1.066990080e-05 1.499376958e-05 
3.526336513e-06 -4.408429959e-07 
-1.182139385e-05 -1.310964581e-05 
-1.662643626e-06 1.666550816e-06 
-6.700167432e-06 -4.370464012e-06 
-2.641978790e-05 1.279474236e-05 
-2.289656550e-06 2.067303285e-06 
-6.647023838e-06 8.809525752e-06 
4.955531040e-06 -3.859982826e-06 
7.209717296e-06 -1.244363375e-06 
1.694605453e-05 -1.135584898e-05 
3.218767233e-06 -2.132833470e-05 
8.158123819e-06 5.065507139e-06 
4.551722668e-06 -2.383370884e-06 
-7.990282029e-06 3.704386472e-06 
-4.701432772e-06 2.596221748e-06 
-2.119292185e-05 6.417758414e-07 
-1.688211341e-06 -1.211825293e-06 
-2.706336090e-06 -3.214227036e-06 
5.050154869e-06 4.962785169e-06 
5.890935427e-06 1.099206565e-05 
-9.199138731e-07 1.078809146e-05 
-3.596862371e-06 2.372037852e-05 
6.281596143e-06 2.664699423e-06 
7.901107892e-07 3.089182428e-06 
3.423716407e-06 -9.943949408e-06 
-1.216889359e-06 1.657128450e-06 
-4.166795406e-06 7.867711247e-06 
9.252253221e-06 -9.877723642e-06 
-6.921763998e-06 -5.150592187e-06 
-3.730878234e-06 -8.552451618e-07 
-9.429757483e-06 -1.267180778e-07 
9.381008567e-06 1.371686812e-05 
-1.160590909e-05 1.990993042e-07 
-1.347210491e-05 2.224842319e-06 
5.024368875e-06 1.210311893e-06 
4.376983270e-06 7.698254194e-06 
-1.127924770e-05 -3.106542863e-07 
1.141580287e-05 -4.008063115e-06 
-1.784530468e-06 3.318651579e-06 
-2.827844582e-06 -6.266258424e-06 
7.075956091e-06 6.985937944e-07 
-9.618583135e-06 1.477598562e-05 
-4.450703273e-06 -5.249574315e-06 
-5.867683285e-06 1.801097824e-05 
-2.695375588e-05 -1.480319770e-05 
-6.775953807e-07 -8.695118595e-06 
-3.834429663e-07 7.178547094e-06 
-7.461989298e-06 -1.335225534e-06 
-7.361115422e-06 4.215864465e-06 
-1.609718311e-06 -7.847964298e-06 
1.549290027e-05 -7.394759450e-06 
-3.369677870e-06 7.802387699e-06 
1.984741539e-05 -2.060201950e-05 
-1.644389704e-05 -4.819303285e-07 
-1.182127744e-05 6.290269084e-06 
6.494577974e-06 1.961353701e-05 
-4.107278073e-06 -1.157331280e-05 
-2.018624946e-05 1.261709258e-06 
1.982977847e-05 1.167063601e-07 
-2.480034891e-05 5.624548066e-06 
-7.018214092e-06 -2.187851351e-06 
1.676598913e-05 5.185611371e-06 
1.225958113e-05 -3.875291441e-06 
-5.542999133e-06 2.858192602e-06 
6.770715117e-07 7.023336366e-06 
1.104327384e-05 1.230475027e-05 
1.287111081e-05 -3.763299901e-06 
1.289280044e-05 -3.300374374e-07 
-1.072784653e-05 -5.231471732e-06 
-2.008059528e-05 5.545443855e-06 
3.301945981e-06 5.929439794e-06 
-4.100147635e-07 1.046911348e-05 
-1.766238711e-06 7.691021892e-06 
-4.758127034e-06 2.355169272e-06 
-4.588859156e-06 8.180155419e-06 
-4.478060873e-06 1.618264287e-05 
3.516790457e-06 -6.665068213e-06 
3.665045369e-06 1.348488513e-05 
1.787417568e-05 6.295944331e-06 
-7.598719094e-06 9.298943041e-06 
2.813769970e-05 3.999331966e-06 
6.805639714e-06 -2.071932249e-05 
2.180808224e-06 3.364344593e-06 
-6.175105227e-06 -1.277658157e-05 
-4.284083843e-07 2.869812306e-05 
1.838034950e-05 1.986802090e-05 
-7.871654816e-06 2.121567377e-05 
5.847949069e-06 -7.849099347e-06 
-3.876630217e-07 7.081471267e-06 
-7.825146895e-06 1.773452095e-05 
2.382766979e-06 -1.242064172e-06 
1.451422577e-06 3.759632818e-06 
-7.156282663e-06 7.016584277e-06 
1.806824002e-06 2.755201422e-06 
-9.000985301e-06 -1.622829586e-06 
2.120004501e-05 -1.685478492e-05 
2.536992542e-05 -4.555200576e-06 
-1.408450771e-06 -9.549767128e-06 
4.553603503e-06 9.351293556e-06 
-3.800028935e-06 -2.471497282e-06 
-6.081478205e-06 1.893762965e-05 
-1.611867629e-05 -5.969821359e-06 
-2.729415428e-06 3.789318725e-06 
5.587440683e-06 6.858608685e-06 
-1.225760207e-05 -2.413663606e-05 
-9.021212463e-06 -2.237262743e-05 
-5.559515557e-06 7.271533832e-06 
2.007847070e-05 8.312752470e-06 
2.757617040e-06 8.632603567e-06 
1.461920328e-05 -3.905966878e-06 
1.229764894e-05 -6.249872968e-06 
-1.189881004e-06 -1.588807208e-05 
3.329885658e-06 -1.963508839e-05 
3.407825716e-06 -6.523681805e-06 
-7.927621482e-06 1.319857256e-05 
-1.367880031e-05 -1.234759111e-05 
-2.781557851e-05 4.838104360e-06 
4.079658538e-06 -5.318317562e-06 
1.489109127e-05 3.220338840e-06 
-2.268410753e-06 -3.542168997e-06 
-1.280807192e-05 2.958229743e-06 
1.255233656e-05 6.853195373e-06 
1.333432738e-05 -3.902823664e-06 
5.854526535e-06 1.936676563e-05 
-4.370871466e-06 7.835129509e-06 
-1.543381950e-05 1.657125540e-05 
2.523804142e-05 -4.074536264e-09 
-7.225899026e-07 -3.460954758e-07 
-6.973277777e-08 2.527667675e-05 
-1.380074536e-05 -1.258391421e-06 
-1.292780507e-05 -8.676608559e-06 
2.065334411e-05 -4.557659850e-07 
1.977314241e-06 -1.268839696e-05 
8.363043889e-06 -1.292058732e-05 
-1.868116669e-06 -2.860906534e-07 
6.997142918e-07 -2.805027179e-06 
2.216034045e-05 6.527552614e-06 
-2.278829925e-06 4.672721843e-06 
1.153693302e-05 -5.454057828e-06 
-8.450588211e-06 1.203030115e-05 
1.638982212e-06 2.281361958e-05 
