-5.890149623e-06 -7.311929949e-06 
1.517347118e-05 1.035683090e-05 
-2.411293099e-05 7.977942005e-06 
-1.171365147e-05 1.256231917e-05 
-5.667679943e-06 -7.569848094e-06 
-6.452843081e-06 -7.123206160e-06 
1.222832361e-05 1.491644070e-06 
6.099959137e-06 -1.135980710e-06 
8.743954822e-07 -1.082484960e-05 
1.676811371e-05 -6.186019164e-06 
-6.306683645e-06 -1.866006642e-06 
7.332884707e-06 7.055583410e-06 
1.111743040e-05 -1.562098623e-05 
1.772015821e-05 -5.989219062e-06 
-7.129274309e-07 8.106959285e-06 
1.148009324e-05 6.587419193e-06 
2.723478246e-06 -2.315544407e-06 
-6.861206202e-06 2.734322334e-05 
8.535789675e-06 2.283020876e-06 
8.768402040e-06 -2.456014045e-06 
1.681339927e-05 6.264890544e-06 
-1.011809218e-05 1.613239874e-06 
-8.845119737e-06 2.377433702e-06 
-8.958624676e-06 -6.180081982e-06 
6.374844816e-06 -8.782371879e-07 
7.343944162e-06 -1.878011972e-06 
-1.155849895e-05 -1.558219083e-07 
-5.109322956e-06 2.080145350e-06 
-8.589180652e-06 6.849179044e-06 
2.690416295e-06 -2.210610546e-06 
1.049169805e-05 -1.730950316e-05 
4.564644769e-06 2.628294169e-06 
-6.486312486e-06 -6.419664714e-06 
1.106195850e-05 3.856257536e-06 
1.542834798e-05 -3.311026376e-06 
-7.580732927e-06 1.005880767e-05 
9.480718290e-06 5.314097507e-06 
4.183908459e-06 5.050038453e-06 
-4.217494279e-06 -1.617299858e-06 
-2.326912363e-05 -4.694680683e-06 
3.908528015e-06 -3.424036549e-06 
-9.579118341e-06 -5.080481060e-06 
1.461879583e-05 4.597386578e-06 
-1.214590156e-06 -1.227541361e-06 
-9.282266547e-06 1.813282142e-05 
-2.007599687e-05 2.334913006e-05 
-3.651715815e-06 -8.166884072e-06 
-1.670341589e-06 -6.281770766e-06 
-5.758542102e-06 -2.045929432e-05 
1.997128129e-05 1.204351429e-05 
9.981842595e-06 -9.434414096e-06 
1.642014831e-05 -5.857909855e-06 
1.113046892e-05 8.524977602e-06 
4.923291272e-06 7.109716535e-06 
-4.449393600e-07 3.357068636e-06 
4.022251233e-06 -9.059323929e-06 
-8.954550140e-06 -9.818832041e-07 
-1.996170613e-05 -1.890893327e-05 
1.496594632e-05 3.252396709e-06 
-8.872593753e-06 1.466862159e-05 
-1.684797462e-05 4.563014954e-06 
-1.703610178e-05 2.071028575e-06 
4.516448826e-06 2.780638169e-06 
-1.000607153e-05 2.038515231e-05 
5.972106010e-07 2.500601113e-06 
-1.401710324e-05 -1.700350549e-05 
6.414833479e-06 -1.278602576e-05 
-6.357469829e-06 2.649374073e-05 
3.752182238e-06 3.498513252e-06 
1.645207522e-05 -2.800952643e-07 
-1.498032361e-05 -7.328344509e-07 
2.234126441e-06 4.807952791e-06 
-9.970273823e-06 5.897018127e-07 
7.874215953e-06 -1.098588109e-05 
6.305053830e-06 -1.284538303e-05 
-2.287933603e-05 4.879373591e-06 
-6.262620445e-06 1.207925379e-05 
6.831527571e-06 -2.190773375e-05 
-3.914930858e-06 -8.168397471e-06 
-5.921698175e-06 3.422144800e-06 
6.237649359e-06 -1.210402115e-05 
-4.849862307e-07 -1.098436769e-06 
5.631358363e-06 -2.483720891e-06 
-8.065719157e-06 -4.918547347e-07 
-7.143942639e-06 -1.946480916e-05 
7.533250027e-06 5.651905667e-06 
-1.315004192e-05 1.029705163e-05 
1.787208021e-06 5.780369975e-06 
8.831106243e-06 2.593675163e-06 
2.184446203e-06 -1.243752195e-05 
-7.470836863e-06 -6.516347639e-07 
-1.939246431e-06 -2.697459422e-06 
-2.088840120e-05 1.716660336e-06 
1.148146112e-06 -2.049177419e-05 
5.089386832e-06 1.279555727e-05 
8.977294783e-06 -2.958346158e-06 
5.048437743e-06 2.000102540e-06 
1.339521259e-05 -5.600420991e-06 
-2.727768151e-05 1.386471558e-05 
2.762244549e-07 2.037289960e-06 
1.666310709e-06 7.633148925e-06 
4.919595085e-06 -7.315538824e-06 
-6.007030606e-06 -7.841241313e-06 
-5.413254257e-06 -1.109897858e-05 
4.320463631e-06 -5.456211511e-06 
2.156087430e-05 -1.078395871e-05 
-8.051050827e-06 -1.429754775e-05 
1.036905451e-05 7.240858395e-06 
8.452916518e-06 -2.380926162e-06 
-8.266551959e-06 -3.372726496e-06 
1.005850208e-05 -1.474528108e-05 
2.289388794e-05 1.963722752e-05 
1.107604476e-05 2.004916314e-05 
5.984271411e-06 -2.816581400e-06 
8.701696061e-06 5.730456905e-06 
4.112138413e-06 -8.162111044e-06 
-5.310372217e-06 -9.385636076e-06 
-1.447368413e-05 -2.315617166e-06 
-1.485249959e-05 -4.955742043e-06 
7.883048966e-06 -2.591114026e-06 
1.628708560e-06 7.494774763e-06 
-8.919741958e-07 -4.413945135e-06 
-7.585913409e-06 1.609853643e-05 
-1.063672244e-06 -1.456227619e-05 
3.408238990e-05 1.074775355e-06 
-1.975888154e-06 3.912940883e-06 
2.992170630e-05 1.797918230e-06 
1.243210863e-05 4.154222552e-06 
1.149682794e-05 6.353118806e-06 
-1.363107003e-06 6.264250260e-06 
2.742512152e-06 4.519592039e-06 
-3.589695552e-06 -1.281712321e-05 
2.112402581e-05 -9.061332094e-07 
-1.965672709e-06 9.200826753e-06 
1.929188147e-05 -4.675239325e-07 
1.751398668e-05 2.470886102e-06 
1.343002077e-05 8.172210073e-06 
-1.269282075e-05 -2.209929517e-05 
2.624583431e-06 3.332621418e-06 
1.372012775e-06 9.889481589e-06 
-2.181058517e-05 -1.673260704e-05 
1.221650746e-05 8.202739991e-06 
1.716078259e-05 3.293796908e-06 
-8.157221600e-07 -4.702647857e-06 
1.190372859e-05 9.272887837e-06 
5.735550076e-06 1.037702896e-05 
-7.844413631e-06 -1.798442099e-05 
-4.404544597e-06 1.551036257e-05 
1.504085958e-07 -6.586895324e-06 
-8.032075129e-06 2.078845864e-05 
-3.137130989e-06 -1.575433998e-05 
1.936493209e-05 5.536712706e-06 
2.700719051e-06 1.304895704e-06 
1.484411769e-06 -5.460737157e-06 
4.001922207e-06 -1.024229277e-05 
-1.398404129e-05 -5.236943252e-07 
-6.895323168e-06 -4.241665010e-06 
-8.697330486e-06 1.857295865e-05 
8.705304936e-06 -1.723310561e-05 
6.755348295e-06 -1.354273991e-07 
-3.057299182e-06 -7.152382750e-06 
1.130267628e-05 7.366412319e-06 
-2.618529834e-06 -1.574680937e-06 
1.262861770e-05 2.019281965e-06 
-2.008059528e-05 1.631573832e-05 
1.088512363e-05 -8.576549590e-06 
1.941225491e-07 1.165433787e-05 
2.486427547e-06 2.316548489e-06 
1.254025847e-06 1.546047861e-05 
-7.418566383e-06 -1.136795618e-05 
-1.356878784e-06 -3.383029252e-07 
-9.125331417e-06 1.104187686e-05 
-9.636743926e-06 -1.507179695e-05 
-1.617847010e-05 -9.193463484e-07 
1.196144149e-05 6.479676813e-07 
-4.371977411e-07 -1.281878212e-07 
-5.317444447e-06 1.745935879e-05 
-4.043336958e-06 -1.217654062e-05 
3.689769073e-06 2.110897913e-05 
-1.121894456e-06 -1.061765579e-05 
-1.647678437e-05 2.674077405e-05 
8.394417819e-06 -2.047506860e-05 
-2.881791443e-05 1.427448296e-05 
7.583643310e-06 9.696232155e-06 
7.653376088e-06 -1.137546496e-05 
-9.883427992e-06 6.034504622e-06 
-6.372341886e-06 2.120854333e-06 
4.913192242e-06 4.068831913e-06 
1.052994048e-05 -4.890403943e-06 
-6.138769095e-06 2.528273035e-05 
8.021015674e-08 1.311616506e-05 
7.106631529e-06 1.429411350e-05 
-1.735315891e-05 -1.840805635e-05 
7.877824828e-07 7.489812560e-06 
5.287467502e-06 -2.299668267e-06 
-2.044759458e-05 -1.159263775e-06 
2.917047823e-06 -1.137750223e-05 
-2.408763976e-06 9.637384210e-06 
8.978197002e-06 -5.376816262e-06 
1.114641782e-05 5.824957043e-06 
1.328025974e-05 2.752814908e-06 
-7.790571544e-06 7.763737813e-07 
3.143431968e-06 -7.996448403e-06 
-1.448675175e-05 3.281602403e-06 
-3.144436050e-06 6.084417691e-06 
-1.864653314e-06 -1.018808689e-05 
2.039014362e-07 -6.752641639e-06 
-1.038389746e-05 -8.607865311e-06 
-8.904375136e-06 -9.075651178e-06 
-4.292407539e-06 6.258836947e-06 
1.238950063e-05 -6.173737347e-06 
-5.309084372e-07 -1.114238694e-05 
1.086527482e-05 -2.030719770e-06 
4.655448720e-06 -6.161746569e-06 
4.973888281e-06 -5.483045243e-06 
3.814930096e-07 2.554210369e-06 
9.086419595e-06 -1.304106263e-06 
5.891153705e-06 5.183523172e-06 
2.197582216e-05 4.109489964e-06 
-1.484574750e-05 -1.842755591e-05 
8.300412446e-08 4.908652045e-07 
1.672073267e-06 4.391768016e-06 
8.352537407e-06 3.284076229e-06 
-4.909350537e-06 -4.272733349e-06 
4.311179509e-06 -1.103599789e-05 
-6.339862011e-06 6.550078979e-06 
5.758774932e-06 -1.289146894e-05 
2.686647349e-07 2.681452315e-06 
2.143306483e-05 -2.404653060e-06 
-1.148844603e-05 6.610644050e-06 
8.551418432e-06 1.037225593e-05 
1.375716238e-05 2.801407391e-06 
-1.322804019e-05 1.554738265e-05 
6.799236871e-06 -5.460678949e-06 
8.754199371e-06 -7.812079275e-06 
-4.248577170e-06 -1.458909537e-05 
1.796294237e-05 2.426204446e-06 
-5.994908861e-06 1.365598291e-05 
-9.707728168e-07 -1.031992724e-05 
1.319689909e-05 -2.910659532e-06 
-5.717738532e-07 -2.306020178e-06 
2.224813215e-06 -3.151319106e-06 
-5.117690307e-06 -6.726913853e-06 
-2.726548701e-06 -9.714247426e-06 
6.395624951e-06 2.054730430e-08 
1.122197136e-05 8.371425793e-06 
7.853028364e-06 3.001186997e-07 
-6.206682883e-07 -8.435366908e-06 
-9.104638593e-06 1.115142368e-06 
-3.869776265e-06 -7.745373296e-06 
5.078953109e-06 -9.418341506e-06 
-1.044967212e-05 8.518109098e-07 
-4.356319550e-06 7.810886018e-06 
-3.086170182e-07 7.367343642e-07 
-1.084874384e-06 5.185836926e-06 
2.110062633e-05 1.658988185e-05 
-5.292211426e-06 8.647621144e-06 
-1.738750143e-05 2.333195880e-06 
1.813570270e-05 -4.550383892e-06 
-8.661867469e-06 4.465400707e-06 
8.596834959e-06 -7.926282706e-06 
-2.010073513e-05 1.322670141e-05 
-1.461297325e-05 -4.124478437e-06 
-2.550659701e-06 -1.636278466e-05 
-1.226249151e-05 6.393645890e-06 
1.223973231e-05 4.483736120e-07 
-2.445071004e-06 -3.812310752e-06 
6.651622243e-06 5.821115337e-06 
-9.602284990e-06 9.764946299e-06 
1.956208143e-05 4.898407497e-06 
1.218495890e-05 1.442017674e-05 
-5.903930287e-06 -1.457869075e-06 
-4.846850061e-06 -9.486815543e-06 
-1.512034214e-05 -1.146031718e-05 
4.648434697e-06 6.032089004e-06 
-3.468332579e-06 5.441484973e-06 
-5.028501619e-06 1.998129301e-05 
-4.453584552e-06 7.969792932e-06 
-9.709503502e-06 -3.172317520e-08 
-3.625464160e-06 5.285401130e-06 
-1.425738446e-06 -8.700531907e-06 
9.348688764e-06 -1.354725100e-05 
-9.747367585e-06 -5.896901712e-06 
-1.001410419e-05 -8.037168300e-06 
-2.875574864e-06 1.308759965e-05 
-7.039343473e-06 1.492784941e-05 
-3.583350917e-06 2.117885742e-05 
-8.780451026e-06 3.419438144e-06 
-4.668021575e-06 9.718467481e-06 
1.219523256e-06 3.009219654e-06 
-3.649620339e-06 6.429618225e-06 
-1.825066283e-05 -9.114592103e-07 
1.309317304e-05 1.191929914e-05 
3.041437594e-05 -9.071314707e-06 
-3.700202797e-06 1.618533861e-05 
-1.098692883e-05 -3.025634214e-06 
7.234048098e-07 1.578399679e-05 
5.960260751e-06 1.071413863e-06 
-6.416157703e-07 -6.649526767e-06 
-1.299777068e-05 -2.062355634e-05 
8.589340723e-07 -1.183128916e-06 
8.215516573e-06 -1.204476575e-05 
2.562184818e-06 -1.127662836e-05 
-6.114481948e-06 1.255347161e-05 
-2.208200749e-05 7.115973858e-06 
1.480372157e-05 -8.999602869e-06 
4.745699698e-06 -7.889757399e-07 
-5.412439350e-07 -4.734960385e-06 
1.564860577e-05 7.572292816e-06 
-2.355664037e-06 5.069305189e-06 
1.994485501e-07 1.234470983e-05 
-2.527180186e-06 1.269392669e-05 
-4.848989192e-06 5.278707249e-07 
-5.321926437e-07 -1.536932541e-05 
1.050822902e-05 -1.277035335e-05 
-1.229313057e-05 1.261406214e-05 
9.390641935e-07 1.879374031e-05 
2.928056347e-06 6.689801012e-06 
1.028587576e-05 -2.409738954e-06 
-3.123393981e-06 1.838197932e-06 
7.860042388e-06 -6.665941328e-07 
-7.855065633e-06 -8.859264199e-06 
8.614500985e-06 7.581518730e-06 
6.076297723e-06 7.869966794e-06 
-3.795197699e-06 1.376261935e-06 
4.355999408e-06 1.317972783e-05 
2.396584023e-06 5.275651347e-06 
1.289859938e-05 -9.649229469e-06 
-8.764909580e-07 -1.177628292e-05 
-7.674214430e-06 -1.066131517e-06 
-1.342617907e-05 -1.419021282e-05 
5.711508493e-07 2.200761810e-05 
-2.583779860e-06 1.002727367e-05 
1.248565968e-05 4.205154255e-06 
5.865003914e-07 4.926347174e-06 
9.083130863e-06 -8.263101336e-06 
-7.013091817e-06 -5.916343071e-06 
-8.430193702e-06 -1.109112054e-05 
8.267641533e-06 -2.179178409e-06 
5.853216862e-06 8.362520020e-06 
1.165317371e-06 -4.023211659e-06 
-1.358508598e-06 1.079452340e-05 
-7.164082490e-06 -5.215406418e-08 
8.386985428e-06 -2.571003279e-06 
-2.682441846e-06 8.127302863e-06 
1.209031325e-06 -8.645001799e-07 
8.441507816e-06 1.793471165e-05 
4.499452189e-07 1.310958760e-05 
1.940724906e-05 8.677932783e-06 
8.209608495e-07 -4.126399290e-06 
-2.315960592e-05 -8.984672604e-06 
-3.181921784e-06 3.045861376e-06 
-3.802997526e-06 2.176064299e-06 
-5.795038305e-06 7.598078810e-06 
-1.169771713e-05 4.728790373e-06 
1.292268280e-05 -2.349159331e-06 
-4.266737960e-06 1.700210851e-05 
-1.602886550e-05 -8.611939847e-06 
6.178335752e-06 7.914379239e-06 
-2.518121619e-06 -2.159795258e-06 
6.896560080e-06 7.423397619e-06 
-7.305992767e-06 -1.674957457e-05 
-1.311735832e-05 -2.266257070e-06 
-1.550244633e-05 1.035293099e-05 
3.254041076e-06 -1.854522270e-05 
-7.888884284e-07 -1.956179040e-05 
-9.847222827e-06 6.096845027e-06 
2.112588845e-06 2.538188710e-06 
-2.802349627e-06 1.110805897e-06 
-1.963740579e-05 6.713147741e-06 
1.955639163e-06 -2.715617302e-05 
1.639535185e-06 3.625900717e-06 
-1.715373946e-05 3.064284101e-06 
5.897949450e-06 4.614994396e-06 
-2.829416189e-06 -3.038876457e-06 
-1.217814861e-05 -4.006666131e-06 
6.130721886e-06 -3.836088581e-06 
-2.365012188e-05 1.357813017e-05 
9.970244719e-06 -1.148378942e-06 
1.073884778e-05 -2.768938430e-07 
-1.609149331e-05 -6.007641787e-06 
-9.329756722e-06 -1.431559213e-06 
1.573164627e-05 9.966315702e-07 
-8.104252629e-07 -2.325323294e-06 
-4.682107829e-06 -7.755414117e-06 
1.851003617e-07 8.857197827e-06 
-1.208722824e-05 -9.720024536e-06 
-2.434171620e-05 -8.029834135e-06 
-2.438304364e-05 1.138343941e-05 
-1.120846719e-06 1.525273547e-06 
-6.903777830e-06 2.181703167e-06 
1.310618245e-05 5.533453077e-06 
3.832392395e-07 1.617457019e-05 
9.994670108e-06 -6.886548363e-06 
2.107117325e-07 -6.084621418e-06 
2.674828283e-05 -1.295900438e-05 
-1.440022606e-05 -2.886707080e-06 
-7.635229849e-06 7.870781701e-06 
1.157779479e-06 -1.667562174e-06 
-8.377362974e-06 1.682201400e-06 
-7.788883522e-06 4.717498086e-06 
7.823109627e-08 -1.269392669e-05 
-2.437364310e-05 4.040659405e-06 
-1.571452594e-05 -1.689037890e-05 
1.291092485e-05 -4.620400432e-06 
5.324265658e-06 3.010383807e-06 
2.062530257e-06 -6.411457434e-06 
-9.112991393e-06 1.443026122e-05 
-6.080692401e-06 4.577770596e-06 
-3.055029083e-07 8.335715393e-06 
2.732005669e-06 1.411931589e-05 
-3.221066436e-06 -1.395965228e-05 
8.689239621e-07 -5.115754902e-06 
6.391928764e-06 1.599662937e-06 
1.705886098e-05 2.391403541e-06 
1.664913725e-06 8.667775546e-06 
-6.747519365e-06 -8.744202205e-06 
1.802982297e-05 5.723675713e-06 
9.151408449e-06 -1.007411629e-05 
-5.097797839e-06 1.922831871e-06 
-8.294475265e-06 7.858034223e-06 
1.485794201e-05 4.433852155e-06 
-4.323490430e-06 9.687792044e-07 
-1.606077421e-05 -1.633365173e-06 
-1.706089824e-05 -1.140768290e-05 
-1.877429895e-06 4.295434337e-07 
1.042577787e-05 -1.948123099e-06 
4.790374078e-06 -1.203239663e-06 
-5.104433512e-06 -1.451239223e-05 
1.024408266e-05 -3.663823009e-06 
-2.933084033e-06 6.839516573e-06 
1.927313861e-06 1.846670057e-05 
-8.346629329e-06 4.834320862e-06 
1.253210939e-06 -1.287576742e-05 
-2.526707249e-06 1.890887506e-05 
1.588006853e-05 -6.868554919e-06 
-9.225914255e-08 7.039285265e-06 
5.725014489e-06 -2.867280273e-06 
5.864538252e-06 3.880471922e-06 
-8.694129065e-06 -4.603411071e-06 
-1.015956514e-06 -2.674764255e-05 
-5.517475074e-06 -5.278736353e-06 
-7.373862900e-06 3.971508704e-06 
-1.099662040e-05 1.487182453e-05 
-1.581240213e-05 1.606851583e-05 
-1.471304859e-05 -1.666735625e-05 
9.623152437e-06 8.326111129e-06 
-1.657684334e-05 -2.592336386e-06 
-6.406531611e-06 -1.963780960e-06 
-4.335306585e-07 1.106812852e-05 
1.079037611e-05 1.654995140e-05 
1.659935515e-05 1.517054625e-05 
5.388101272e-06 1.087202691e-05 
-1.629267354e-05 -3.114691935e-07 
6.877045962e-06 -4.724075552e-06 
-3.461958840e-06 -1.039897325e-05 
-9.134993888e-06 1.628010068e-06 
1.165751019e-05 -1.440639608e-06 
1.151906326e-05 -8.793780580e-06 
-2.429867163e-05 3.595370799e-06 
4.398214514e-06 4.365829227e-06 
1.017545583e-05 5.699548637e-06 
-1.114321640e-05 6.621761713e-06 
7.676891983e-06 7.011112757e-07 
1.146795694e-05 -2.922257408e-06 
-3.086279321e-06 7.650465705e-06 
4.412722774e-07 1.246400643e-06 
1.994310878e-06 2.253554703e-05 
-7.887429092e-06 -6.754708011e-06 
-7.933995221e-06 1.785164932e-05 
-3.113411367e-06 -1.691252692e-05 
1.096894266e-05 -9.913899703e-06 
-5.815702025e-06 2.125511674e-05 
3.206194378e-06 1.431989949e-05 
-5.200330634e-06 5.603236787e-06 
-2.949289046e-05 -2.689812391e-06 
-2.874934580e-06 -8.506283848e-06 
-1.268650522e-05 -3.548455425e-06 
1.552645699e-06 -1.692329533e-06 
9.174516890e-06 9.666662663e-06 
9.425682947e-06 -1.325295307e-05 
-3.781227861e-06 5.295150913e-06 
-8.856848581e-06 7.486261893e-06 
-5.134614184e-06 -2.884189598e-06 
9.012903320e-06 -1.747393981e-06 
-2.604327165e-06 9.349139873e-06 
2.059154212e-06 4.039931810e-06 
-2.073007636e-06 1.894068191e-05 
1.400650945e-06 2.213928383e-06 
-1.230298949e-06 9.063514881e-06 
8.208095096e-06 -8.652801625e-06 
-2.628978109e-06 -1.585652353e-05 
5.255511496e-06 1.907272963e-05 
3.433786333e-06 -1.664843876e-05 
-2.398970537e-05 1.198344398e-05 
1.754763070e-05 -1.067842823e-05 
6.573944120e-06 -1.772155520e-05 
-6.490270607e-06 1.814379357e-05 
8.360540960e-06 1.823625644e-05 
-7.863032806e-06 -2.146407496e-06 
-4.962923413e-06 7.923459634e-06 
-2.070923802e-05 -9.084178600e-07 
-1.043663360e-06 -5.887937732e-06 
4.438916221e-06 -2.191140084e-05 
-5.172274541e-06 3.202003427e-06 
6.642279914e-06 -2.440763637e-06 
-9.024966857e-06 1.454289304e-05 
4.608824383e-06 4.239889677e-06 
5.078967661e-06 1.326319762e-05 
-1.416460145e-05 -1.201449777e-06 
-8.463393897e-06 -1.630549377e-06 
-6.033893442e-06 5.351146683e-06 
-1.248088665e-06 -1.787304063e-05 
-1.101280213e-05 -7.040915079e-06 
-9.673647583e-06 3.641969670e-06 
-1.209546463e-05 -5.643665645e-06 
5.991983926e-06 8.211733075e-06 
-1.684413292e-06 -8.823291864e-06 
-1.363005140e-05 -1.684736344e-05 
4.108587746e-06 5.092846550e-06 
-1.503981184e-05 7.251102943e-06 
-1.418247120e-05 7.919385098e-06 
8.107163012e-07 1.058506314e-05 
-1.596519724e-06 2.015969949e-05 
-6.929039955e-07 1.332821557e-05 
-9.339943063e-06 -1.634063665e-05 
2.013635822e-05 -3.000226570e-06 
2.374872565e-07 -7.526978152e-06 
-1.814356074e-05 -1.167395385e-05 
-5.998648703e-06 7.083493983e-06 
-3.652647138e-06 7.289578207e-06 
-6.453250535e-06 4.817993613e-07 
1.386087388e-05 5.522801075e-06 
-8.551985957e-06 -1.942706149e-06 
-7.827649824e-06 -5.745096132e-08 
9.661889635e-07 -8.899776731e-06 
5.705165677e-06 -9.127426893e-06 
-1.493195305e-05 -9.316136129e-07 
3.535533324e-06 -1.312256791e-05 
1.634709770e-05 9.729701560e-06 
-8.239614544e-06 1.226289896e-05 
-9.937415598e-06 6.748712622e-06 
-6.432601367e-06 -1.041183714e-05 
1.717513078e-05 -1.066108598e-05 
-1.052049993e-05 7.433773135e-06 
2.457050141e-05 1.509126741e-05 
-7.676659152e-06 -1.415604493e-05 
8.726987289e-06 -8.728151442e-06 
-9.915092960e-07 -2.140499419e-06 
1.399188477e-05 -1.273304224e-05 
-4.102359526e-06 2.200959716e-05 
-2.591055818e-06 -1.781166065e-05 
1.107371645e-05 9.150244296e-08 
8.048140444e-06 -3.356661182e-06 
-1.098145003e-05 -3.526802175e-07 
-2.432323527e-06 -7.713912055e-06 
-7.022870705e-06 -3.569148248e-06 
3.485882189e-06 2.950400813e-07 
-8.241389878e-06 1.992081525e-05 
4.049506970e-06 -1.459785562e-05 
3.686407581e-06 -4.631699994e-06 
-1.451007847e-05 3.391643986e-06 
3.934139386e-06 -1.923181117e-06 
-3.281282261e-06 2.753105946e-06 
1.655062078e-06 1.051771687e-05 
1.193955541e-05 1.347798388e-06 
6.181886420e-06 1.436997263e-05 
5.429144949e-06 -1.400499605e-05 
-8.874776540e-06 5.881694960e-06 
-3.820983693e-06 7.917638868e-06 
-7.908223779e-06 2.510467311e-06 
-3.621098585e-06 -2.374232281e-06 
-1.605326543e-05 1.107784919e-05 
2.043205313e-06 6.793998182e-07 
-1.044300734e-05 1.189194154e-05 
-1.885448000e-06 -8.055940270e-07 
6.829272024e-06 1.234124647e-05 
7.176829968e-06 -6.432761438e-06 
-2.080656122e-05 1.391978003e-05 
7.722992450e-06 1.421743946e-05 
1.214677468e-06 -3.750785254e-06 
1.271103974e-05 -8.075148799e-06 
1.105538104e-05 1.733613317e-05 
3.290042514e-06 -5.456793588e-06 
4.443834769e-06 -5.991605576e-06 
-8.045695722e-06 -1.096603228e-05 
1.139677988e-05 5.124340532e-06 
-4.107132554e-06 1.833366696e-06 
5.515757948e-07 6.426591426e-06 
-5.715992302e-08 1.213105861e-06 
1.562817488e-06 3.111315891e-06 
-3.013235983e-06 -1.337582944e-06 
2.247461816e-05 2.003856935e-06 
1.824751962e-06 2.955785021e-06 
-5.656038411e-06 5.015579518e-06 
-1.330577652e-05 -5.898138625e-06 
1.249014167e-05 -4.512257874e-07 
1.326203346e-05 -8.356757462e-06 
1.383584458e-05 8.843664546e-06 
2.300483175e-05 1.181202242e-05 
-6.169546396e-06 2.403743565e-06 
4.933506716e-06 -4.545530828e-06 
-5.932641216e-06 -9.422714356e-06 
-1.727677227e-05 -1.090811566e-06 
-1.482176594e-05 -1.240434358e-06 
-2.522487193e-06 -6.934045814e-06 
2.510321792e-06 -6.220478099e-06 
-1.907499973e-05 -1.424364746e-05 
-4.338449799e-06 6.478570867e-06 
-1.248205081e-06 8.804257959e-06 
-1.173379133e-05 -1.111940946e-06 
-1.100124791e-05 2.325337846e-06 
-7.405411452e-06 9.147981473e-06 
-1.668889308e-05 1.001532655e-05 
6.950547686e-06 -9.171490092e-07 
1.855380833e-05 5.942820280e-06 
-8.376999176e-06 1.467426773e-05 
8.316477761e-06 7.815426216e-06 
-8.672475815e-06 -1.828506356e-06 
1.067668200e-05 5.344743840e-06 
5.526468158e-06 1.122290269e-05 
-9.665964171e-06 6.700633094e-06 
-3.569752153e-06 -1.406818046e-05 
1.795799471e-05 -2.353277523e-06 
-2.970412606e-05 -1.071253791e-05 
-6.729911547e-06 2.904154826e-06 
1.146784052e-05 -5.555921234e-07 
1.959013753e-05 -2.666143700e-06 
9.907758795e-06 -1.247273758e-06 
2.809712896e-06 7.488735719e-06 
7.814727724e-06 1.036166213e-05 
7.716356777e-06 9.283830877e-07 
-1.039792551e-05 1.957274799e-05 
2.697459422e-06 1.405240619e-05 
-2.811560989e-06 1.439355401e-05 
4.688452464e-06 -1.840191544e-06 
2.496439265e-05 -1.061848889e-05 
2.293498255e-06 2.525042510e-05 
9.398208931e-06 -9.509938536e-06 
3.222732630e-06 -5.206180504e-06 
-1.037737820e-05 1.120771049e-05 
-2.564629540e-06 -8.352857549e-06 
-1.496821642e-05 1.851469278e-06 
-1.526952838e-05 1.878588228e-05 
2.172688255e-05 -1.227133907e-06 
-8.212839020e-06 3.514462151e-06 
-2.068118192e-06 2.442378900e-06 
-2.419154043e-06 -1.867536048e-05 
-6.047193892e-07 6.207497790e-06 
9.174007573e-06 -2.594548278e-06 
4.832400009e-06 1.534097828e-05 
1.714448445e-05 5.520996638e-08 
2.665962529e-05 -9.280629456e-07 
-8.651870303e-06 -1.026576501e-05 
-2.239845344e-06 -3.673107130e-06 
-6.553163985e-06 1.942284871e-05 
-9.275565390e-06 -1.116498606e-05 
-1.896434696e-06 -2.079343540e-05 
-1.400301699e-05 1.284223981e-05 
-9.118171874e-06 -3.079185262e-06 
-1.332226384e-05 3.925291821e-06 
-2.925109584e-06 3.296765499e-06 
-2.997869160e-06 -3.761655535e-06 
-2.977703116e-05 1.226144377e-06 
-6.292597391e-06 4.612011253e-07 
1.092874300e-05 1.191766933e-05 
-3.593566362e-06 6.158195902e-06 
-6.612623110e-06 9.515497368e-07 
-4.155503120e-06 -6.820046110e-07 
-6.780843250e-06 8.735631127e-06 
-9.570503607e-06 1.656556560e-05 
-9.988085367e-06 1.091830200e-06 
2.155397669e-05 1.441105269e-06 
-1.535902265e-05 -3.447348718e-06 
1.748267096e-06 3.444729373e-07 
7.206312148e-06 1.055304892e-05 
2.532062354e-06 -9.532370314e-06 
6.104353815e-06 -1.433305442e-05 
-1.739221625e-05 -2.148712520e-05 
-1.264037564e-06 -5.725421943e-06 
8.852686733e-06 -4.029454431e-06 
-8.091679774e-06 4.228772013e-06 
-2.899651008e-06 1.522549428e-05 
-1.320650335e-05 -8.942908607e-06 
9.420851711e-06 -6.234971806e-06 
-6.270711310e-06 -6.262853276e-07 
-2.132213558e-05 1.814223651e-05 
7.163762348e-06 1.362175681e-06 
5.606205377e-06 -1.491280273e-06 
1.702900045e-05 1.123431139e-05 
-1.229043119e-05 3.110617399e-06 
3.021094017e-06 -4.298519343e-06 
-7.188646123e-08 4.488683771e-06 
1.358531881e-05 -9.857641999e-06 
6.823567674e-06 -4.198838724e-06 
-1.020033233e-05 -8.040980902e-06 
-1.222686842e-05 -3.825232852e-06 
1.909054117e-05 1.805834472e-06 
-3.938330337e-07 -1.745618647e-06 
-2.812594175e-06 3.907189239e-06 
-1.360822353e-06 -1.258158591e-06 
2.122687874e-07 7.419072062e-06 
-1.868215622e-05 -2.223387128e-06 
9.087729268e-06 -1.003660145e-06 
-1.294235699e-05 9.193965525e-06 
-2.047760063e-06 6.268528523e-06 
-5.544396117e-06 1.121262903e-05 
2.024666173e-06 -1.057534246e-05 
-3.499095328e-06 1.944269752e-05 
-7.130554877e-06 1.467310358e-05 
-3.813474905e-06 -3.101304173e-06 
-8.082584827e-06 8.929055184e-07 
9.569339454e-07 1.372362021e-05 
1.345775672e-05 -4.979083315e-07 
6.107147783e-06 -8.583301678e-07 
1.136196079e-05 3.864115570e-07 
7.320544682e-06 8.234754205e-06 
3.543274943e-06 -1.678906847e-05 
3.968016244e-07 -7.979571819e-06 
4.784902558e-06 -2.954620868e-06 
1.150612661e-06 -7.094204193e-07 
-1.649081241e-06 1.743086614e-06 
-1.096411142e-05 6.506961654e-07 
-1.356936991e-05 7.632916095e-06 
4.721368896e-06 3.476132406e-06 
3.943336196e-06 -1.372650149e-05 
-9.827315807e-06 -2.792727901e-05 
-1.892994624e-05 6.062240573e-06 
-1.065531978e-05 1.332588727e-05 
-2.458458766e-06 -1.472298754e-05 
1.395080471e-05 -3.098044544e-06 
1.303950557e-05 9.336508811e-07 
7.533890312e-06 -1.168152085e-05 
1.139054075e-05 -6.141781341e-06 
-1.165317371e-07 -2.663582563e-06 
8.860486560e-06 -1.777231228e-05 
-6.429909263e-06 1.001288183e-05 
5.600704753e-07 -2.022745321e-06 
2.591987140e-07 1.061662988e-05 
-1.104085823e-05 -6.825786841e-06 
-8.304603398e-06 -3.118300810e-06 
-2.007093281e-05 1.598993549e-05 
-8.266302757e-06 -1.785578206e-06 
-1.302990131e-05 -3.132736310e-07 
-3.525725333e-06 -7.706112228e-06 
-6.437767297e-08 1.803273335e-06 
2.829474397e-06 2.464978024e-06 
-1.468230039e-06 -3.921042662e-06 
1.231738133e-05 3.727967851e-06 
5.608657375e-06 -1.547351712e-05 
2.565546311e-06 2.022611443e-05 
-7.844966603e-06 -9.458744898e-09 
-1.489816350e-05 1.567270374e-05 
3.272062168e-05 -7.773400284e-06 
-9.433926607e-06 -1.064850949e-06 
6.709888112e-06 4.924833775e-06 
8.718401659e-06 2.616794518e-06 
-5.043759302e-06 2.116066753e-05 
-1.132651232e-05 -5.704467185e-06 
-1.335558773e-05 1.123887341e-05 
-3.475812264e-06 2.459739335e-06 
-1.477413753e-05 1.377236913e-05 
1.169493771e-05 -1.676671673e-07 
5.309339031e-06 2.792367013e-06 
9.450071957e-06 1.991400495e-06 
1.238266123e-06 -1.033331500e-05 
9.496870916e-07 4.390079994e-06 
1.997558866e-05 -4.831235856e-07 
9.980110917e-06 -1.436640741e-05 
1.457719918e-05 -1.169880852e-05 
-6.350455806e-08 -1.832842827e-05 
7.651007763e-06 -2.153031528e-05 
-1.156222424e-06 -4.331872333e-06 
9.511946701e-06 9.491399396e-06 
-5.115987733e-06 8.583141607e-06 
-6.620248314e-07 -1.169939060e-05 
1.584994607e-07 9.934999980e-06 
-2.642511390e-06 1.356087159e-05 
1.227702887e-05 6.571994163e-06 
-9.280027371e-06 8.498376701e-06 
8.117669495e-06 -9.286304703e-07 
-1.401275222e-05 7.278562407e-06 
-8.948438335e-06 -7.520342479e-06 
4.585439456e-06 8.914212231e-07 
2.959248377e-06 9.020295693e-07 
-4.133791663e-06 6.735528586e-06 
7.355760317e-06 -1.774512930e-05 
1.922133379e-06 -5.581285222e-06 
-1.013732981e-05 3.703025868e-06 
-1.123221591e-05 -2.108630724e-06 
2.196000423e-06 -1.210100891e-07 
-2.680695616e-06 -7.563998224e-06 
1.626610174e-05 -1.001209603e-05 
7.987255231e-07 -1.440930646e-05 
1.618033275e-05 -1.051245636e-05 
3.911554813e-06 1.390429679e-05 
1.183926361e-05 6.980408216e-06 
6.883681635e-06 -3.145012670e-06 
2.300622873e-05 3.356835805e-07 
-3.763649147e-06 -6.689486327e-06 
-1.085293479e-05 -1.177075319e-06 
-5.794106983e-06 9.499432053e-06 
-1.919746865e-06 -1.322838943e-05 
2.252956619e-05 1.675332896e-06 
8.214788977e-06 -6.154878065e-07 
-1.082068775e-05 2.211198444e-05 
-3.023887984e-07 8.468632586e-06 
9.686918929e-06 5.587527994e-06 
1.306063496e-05 -5.822555977e-06 
1.726322807e-06 7.196915249e-06 
4.686735338e-06 5.406909622e-06 
5.315087037e-07 -1.891283318e-06 
6.116752047e-06 2.093554940e-06 
-2.963526640e-06 -1.259741839e-05 
4.730274668e-06 -2.169178333e-05 
2.647147630e-05 -5.631372915e-06 
8.908158634e-06 9.567753295e-06 
-5.095265806e-06 -3.044304322e-06 
-3.075692803e-06 -1.313492976e-05 
-1.530091686e-05 7.720896974e-06 
2.153668902e-06 1.329487714e-05 
3.140099579e-05 5.904847058e-06 
-1.578708179e-06 2.715038136e-06 
8.066126611e-06 -1.591944601e-05 
1.998915104e-05 -1.533713657e-06 
-4.361383617e-06 -1.301948214e-05 
-9.301191312e-06 1.437275205e-05 
-1.203319698e-05 1.603214332e-05 
-1.555687049e-06 1.530628651e-05 
1.681380672e-05 -3.268985893e-05 
1.744367182e-06 4.632791388e-06 
-4.062894732e-06 -1.925433753e-05 
7.232185453e-06 1.607066952e-05 
3.426452167e-06 1.568056177e-06 
3.686422133e-06 9.501643945e-06 
-1.067959238e-05 3.421329893e-06 
5.619032891e-06 3.699213266e-06 
-5.893671187e-06 -5.256442819e-06 
2.383661922e-06 8.645489288e-06 
-1.464807428e-05 1.613528002e-05 
3.379245754e-06 -1.650769264e-06 
4.774949048e-06 1.186455484e-05 
-2.259819303e-05 3.650493454e-07 
4.683301086e-06 -1.008051913e-05 
3.683497198e-06 -9.372553905e-06 
1.832621638e-05 6.899703294e-06 
1.334128319e-05 -2.477318048e-07 
8.584931493e-06 -2.123648301e-06 
-3.039371222e-06 -4.134839401e-06 
4.095723853e-06 -1.420534682e-05 
-5.338108167e-06 2.568832133e-05 
3.959692549e-06 4.720975994e-06 
-1.450115815e-05 2.469983883e-06 
1.746596536e-05 -2.562534064e-05 
1.351343235e-05 2.068071626e-05 
-3.669876605e-06 -1.461972715e-05 
6.106940418e-06 -1.592593617e-05 
-4.813104169e-06 1.478975173e-05 
-1.370385871e-05 -2.520449925e-05 
-9.879469872e-06 -1.175067155e-06 
5.350448191e-07 4.136818461e-07 
8.118804544e-07 8.957169484e-06 
1.221959246e-05 -2.918299288e-06 
-9.887968190e-06 -9.384355508e-06 
-1.608079765e-05 7.062772056e-06 
2.282686182e-07 -1.219660044e-05 
4.972738679e-06 -2.578774001e-06 
-2.335405588e-05 9.482741007e-06 
-1.696209074e-05 -7.851660484e-06 
-4.804634955e-06 -1.971580787e-06 
-1.194480865e-05 -9.027426131e-07 
1.150914613e-05 -2.438387310e-05 
-5.123089068e-06 -5.337060429e-07 
-3.269291483e-06 1.899327617e-05 
4.975998309e-06 -1.442793291e-06 
8.131784853e-06 -7.831054972e-06 
5.058114766e-06 -4.305620678e-06 
-1.055288158e-05 -1.107639400e-05 
6.948539522e-07 -6.630085409e-06 
-3.261448001e-07 -1.100223744e-05 
-9.110372048e-06 1.957244240e-05 
7.113034371e-06 2.181506716e-06 
-1.306014019e-05 -5.329900887e-06 
1.932003943e-05 -6.339163519e-06 
1.354381675e-05 6.473739631e-06 
-3.874782124e-06 -2.213986591e-06 
1.555428025e-05 -1.421582419e-05 
4.003115464e-06 -1.643784344e-06 
-3.063425538e-06 -4.444842489e-06 
1.946173143e-06 -8.055380022e-06 
3.408989869e-06 -3.640132491e-06 
1.531899034e-05 -5.335241440e-07 
-5.650683306e-06 -7.479451597e-06 
6.362621207e-06 3.279434168e-06 
-1.661072019e-06 1.554784831e-06 
6.480608135e-06 -1.544394763e-06 
-8.913804777e-06 1.224107109e-05 
-2.481654519e-06 9.469426004e-06 
1.600281394e-06 8.935807273e-06 
1.804291969e-06 5.024572602e-06 
-6.080997991e-06 2.326727554e-06 
-3.254332114e-06 -2.180959564e-05 
7.255570381e-06 -1.134126796e-05 
-1.423078356e-05 -1.094304025e-07 
6.595306331e-06 1.206196612e-05 
9.783543646e-07 1.347725629e-06 
3.056833521e-06 1.023270306e-05 
1.713726670e-05 7.224778528e-06 
1.023500226e-05 2.738495823e-06 
1.124065602e-05 -1.246406464e-05 
-7.620557881e-06 1.422245987e-05 
1.957709901e-05 2.928543836e-06 
1.798046287e-05 -2.434273483e-06 
1.302000601e-05 1.301465090e-06 
-6.918271538e-06 2.316998143e-05 
-2.062413841e-06 -8.570961654e-06 
-8.618924767e-06 4.722242011e-06 
3.792694770e-06 1.206052184e-05 
2.667715307e-05 -8.134084055e-06 
-8.148956113e-06 -7.983064279e-06 
2.116081305e-06 8.434755728e-06 
-1.234846422e-05 -1.118078944e-05 
1.226027962e-06 -6.369431503e-06 
2.012221375e-05 -1.500544022e-05 
1.334701665e-06 -6.344853318e-06 
-6.962189218e-06 2.076593228e-05 
6.602385838e-06 -1.234252704e-05 
-9.913230315e-06 2.170214429e-06 
1.471856376e-05 -9.631505236e-06 
3.026216291e-06 1.252628863e-07 
6.416277756e-06 3.990164259e-06 
7.961527444e-06 1.374364365e-05 
5.523907021e-07 -1.542922109e-05 
1.339591108e-06 -9.160459740e-06 
-1.000708289e-05 4.183850251e-06 
-1.111935126e-05 -5.640380550e-06 
-1.501606312e-05 1.139625965e-06 
-1.435953891e-06 5.949754268e-06 
6.407790352e-06 -8.770148270e-07 
1.103707473e-05 1.049635466e-05 
-5.572394002e-06 -1.436463208e-06 
1.454551239e-05 1.068052370e-05 
-4.036235623e-06 -1.383703784e-05 
-2.460496034e-06 -5.040434189e-06 
-4.013942089e-06 -3.010733053e-06 
-1.671840437e-05 -9.185518138e-06 
5.526235327e-07 4.384957720e-06 
9.235227481e-06 -1.450802665e-05 
1.473419434e-05 -2.033764031e-05 
-7.958034985e-06 1.433864236e-05 
-1.340638846e-05 -1.028383849e-07 
-6.408772606e-06 1.315120608e-05 
-9.880837752e-06 -1.931004226e-05 
-5.657842848e-06 5.950278137e-06 
1.937727211e-05 -4.511093721e-09 
-1.306226477e-05 -9.251089068e-06 
2.384174149e-05 -1.098687062e-05 
-2.455839422e-06 -3.559398465e-06 
5.497713573e-06 -3.423739690e-05 
-1.053244341e-05 -1.794181298e-05 
9.541399777e-07 6.225483958e-06 
1.277175033e-05 -1.375516877e-05 
-3.188615665e-06 1.848723332e-05 
1.302393503e-05 2.773507731e-06 
1.209846232e-06 1.907115802e-06 
5.440524546e-07 -5.152076483e-06 
-1.124484697e-06 -1.420185436e-05 
4.696194082e-06 1.663717558e-05 
9.251954907e-06 -1.190317562e-05 
5.071207852e-06 4.494795576e-07 
-3.938446753e-06 -9.125244105e-06 
-1.278938726e-06 -5.829497240e-06 
-1.173233613e-06 -1.188862370e-05 
-9.187817341e-06 9.881099686e-06 
1.441617496e-05 1.905049430e-05 
-1.516301199e-05 1.172616612e-05 
-2.754095476e-06 8.217117283e-06 
2.245220821e-05 -1.179520041e-05 
7.550319424e-06 -1.180877734e-05 
2.103974111e-06 -1.107330900e-05 
-1.430930570e-05 1.100634108e-05 
1.793119009e-05 8.588947821e-06 
-8.942559361e-06 -1.637812238e-05 
-1.420942135e-05 -5.934911314e-06 
-8.938019164e-06 -1.439303742e-05 
-2.090324415e-06 -1.405121293e-05 
-1.769760274e-05 2.300040796e-05 
-5.195397534e-06 -7.341266610e-06 
2.599321306e-06 -1.249951310e-05 
5.469832104e-06 5.964073353e-06 
8.366361726e-06 -2.078211401e-05 
-5.032634363e-06 -2.144550672e-05 
1.073331805e-05 1.596931543e-05 
-1.001212513e-05 1.937111665e-05 
-2.036779188e-05 9.995768778e-06 
-2.389118890e-06 1.237523975e-05 
1.455008169e-05 -1.814882853e-05 
-7.161288522e-07 1.688182238e-06 
1.223391155e-05 7.202877896e-06 
-4.095665645e-06 1.355267887e-05 
