2.265597914e-06 1.521710328e-05 
-1.329797396e-05 -1.086487009e-05 
-2.788437996e-06 1.236447133e-05 
2.047745511e-06 1.622596756e-06 
2.378129284e-05 3.315144568e-06 
2.731190762e-06 2.437387593e-06 
2.858316293e-06 -6.036600098e-06 
4.107831046e-06 -7.704773452e-06 
1.084909309e-05 -1.658203837e-05 
3.791501513e-07 7.633469068e-06 
-3.720051609e-07 -7.906666724e-06 
7.360111340e-06 -6.023561582e-06 
1.054705353e-05 -1.002219506e-06 
-8.837727364e-06 -1.665322270e-05 
-9.385985322e-08 -6.486254279e-06 
1.195317600e-05 -1.680356218e-05 
-9.941868484e-07 -5.488051102e-06 
-9.109848179e-06 2.009933814e-05 
-1.239008270e-06 5.836540367e-06 
5.493522622e-06 -3.970897524e-06 
1.579115633e-06 7.305527106e-06 
3.354507498e-06 5.268026143e-06 
5.544585292e-06 -7.719325367e-06 
-1.980690286e-06 6.587910320e-06 
3.691406164e-06 1.968524884e-05 
-4.767498467e-06 -1.097033964e-05 
-3.483015462e-06 -6.276299246e-06 
2.504407894e-05 -1.480506035e-05 
-2.463813871e-05 7.199298125e-06 
-4.643225111e-06 1.240766142e-05 
4.612724297e-06 1.773505937e-05 
1.325280755e-05 1.780921593e-06 
-9.206385585e-06 -7.533759344e-06 
-6.132293493e-06 1.773063559e-06 
2.307206159e-06 2.468244202e-05 
-1.034881279e-06 -5.939858966e-06 
2.730739652e-06 1.449289266e-05 
-6.351096090e-06 -5.935784429e-06 
-1.192308264e-05 -1.628679456e-06 
-5.899550160e-06 2.281944035e-06 
-7.834751159e-06 -5.312293069e-06 
-9.590352420e-06 -3.394088708e-06 
-1.147401053e-05 1.606519800e-05 
-1.420851913e-05 6.828689948e-06 
-1.070310827e-05 -8.291681297e-07 
1.002286444e-05 7.338123396e-06 
5.982423318e-06 -1.059379429e-07 
3.004272003e-06 -9.061135643e-06 
-6.671441952e-06 -1.105945557e-05 
1.468401751e-05 8.279959729e-06 
5.111854989e-06 3.423256567e-05 
1.143808913e-05 1.505424734e-05 
7.952447049e-06 -5.035893992e-06 
6.246380508e-06 -5.025183782e-06 
-8.324626833e-06 1.224555308e-05 
4.643196007e-06 -1.374437124e-05 
2.252141712e-05 4.106783308e-06 
4.686793545e-06 -1.032627188e-05 
1.195701770e-06 -1.223862637e-05 
-1.804437488e-06 -1.181557309e-05 
-8.750415873e-06 1.219799742e-06 
-1.718068961e-05 -8.220798918e-06 
1.783366315e-05 3.306711733e-06 
-5.991430953e-06 2.855500497e-06 
-5.006833817e-06 -2.231558028e-06 
-5.581379810e-06 -3.774443030e-06 
-6.992544513e-06 1.638079993e-05 
-2.268789103e-06 -6.567046512e-06 
4.291563528e-06 -1.065852121e-05 
-1.143303234e-05 -1.572238398e-05 
-1.598204835e-05 -2.697808668e-06 
7.191090845e-06 -3.685979755e-05 
-9.935174603e-06 -5.781941582e-06 
5.836773198e-06 2.111686626e-06 
1.516290649e-05 -1.703901216e-05 
6.103757187e-06 1.814565621e-06 
4.470930435e-06 1.783759217e-05 
6.600865163e-06 1.737288403e-05 
-7.503927918e-06 6.079193554e-06 
-8.886650903e-06 5.801673979e-06 
-6.254267646e-07 -1.380057074e-05 
-7.664173609e-06 -7.270420610e-06 
-6.908725481e-06 5.328853149e-06 
2.806889825e-06 -8.387956768e-06 
-6.629561540e-06 1.118762884e-05 
-1.141364919e-06 9.653507732e-06 
-1.173790224e-05 1.375825377e-05 
1.081518712e-05 8.378992788e-06 
1.917604823e-05 9.278002835e-06 
-7.223658031e-06 -1.368866651e-05 
8.975213859e-06 1.518375939e-05 
-4.238710972e-06 9.108334780e-06 
1.376878936e-05 1.581443939e-05 
5.879672244e-06 -1.010618871e-05 
-7.949245628e-06 6.514601409e-06 
1.919089118e-05 2.478482202e-06 
-4.699744750e-06 1.084804535e-05 
-1.355711720e-05 -8.595467079e-06 
-6.452843081e-06 7.693175576e-06 
-1.141382381e-05 8.459552191e-06 
-1.289346255e-05 4.801710020e-06 
-8.845701814e-06 1.332686224e-06 
1.915614121e-07 1.500855433e-05 
-1.616973896e-05 -1.429091208e-05 
5.322595825e-06 -2.553057857e-05 
2.318585757e-06 2.191972453e-05 
-9.044772014e-06 -8.135524695e-06 
-9.480441804e-06 -1.417309977e-05 
9.410519851e-06 6.675836630e-06 
-1.298403367e-05 -5.182169843e-06 
7.053182344e-06 8.536851965e-06 
5.496636732e-06 8.962932043e-06 
4.643108696e-06 5.499226972e-06 
4.344969057e-06 3.945664503e-06 
-3.266904969e-06 4.126341082e-07 
8.359260391e-06 1.113023609e-05 
-6.574089639e-06 2.573564416e-06 
-2.908942406e-06 -1.525421976e-05 
-4.958361387e-06 -2.468084858e-06 
-1.638531103e-06 3.025139449e-06 
4.654924851e-06 -6.500107702e-06 
1.409344259e-05 1.510932634e-05 
2.668850357e-06 2.067646710e-05 
2.080907871e-05 1.644797157e-05 
-1.657575194e-05 5.616806448e-06 
8.552306099e-06 -9.970972314e-06 
6.700865924e-06 -1.571173198e-05 
6.572925486e-06 -1.805872307e-05 
-2.099572157e-05 7.521884982e-07 
-2.548040356e-06 1.415901352e-06 
-1.184747089e-05 2.132292138e-06 
5.779205821e-06 -8.160714060e-06 
5.796086043e-06 4.996778443e-06 
3.171298886e-06 -1.445753151e-05 
-1.975208579e-05 9.186391253e-06 
3.791297786e-06 1.458800398e-06 
-1.577998046e-05 -3.104330972e-06 
-5.985217285e-06 -7.620255928e-06 
5.525071174e-07 -6.200512871e-06 
-7.034526789e-06 5.392619641e-06 
7.996859495e-06 2.518572728e-06 
1.012958819e-05 4.664994776e-06 
-9.032199159e-06 -1.240609708e-05 
1.218300895e-05 4.670291673e-06 
-4.684057785e-06 5.826994311e-06 
-2.182170283e-05 1.493911259e-05 
5.695794243e-06 7.838592865e-06 
6.980641047e-06 7.815324352e-06 
1.165189315e-05 -9.862633306e-07 
1.264904859e-05 1.264290768e-05 
-4.505389370e-06 -4.094210453e-06 
1.454784069e-05 -4.441128112e-06 
1.667195465e-05 8.663453627e-06 
-1.097167842e-05 -3.903463949e-06 
2.780318027e-06 -1.401749614e-05 
-4.900444765e-06 5.663954653e-06 
-3.218738129e-07 7.873168215e-06 
1.202707062e-05 3.358465619e-06 
1.028727274e-05 5.546593457e-06 
-6.368063623e-07 1.083215466e-05 
2.858592779e-06 -6.811460480e-07 
-1.277658157e-07 2.292683348e-06 
-8.076895028e-06 -2.758170012e-06 
-4.523550160e-06 2.145068720e-06 
8.111317584e-06 -7.852213457e-07 
6.448419299e-06 1.136616629e-05 
-3.914436093e-06 1.808512025e-07 
6.123736966e-07 -7.258866390e-06 
6.665191904e-06 1.026020618e-05 
3.859167919e-06 -1.085456461e-06 
5.199835869e-06 -1.500739018e-06 
-5.506590242e-06 -1.014687587e-05 
5.888054147e-06 -1.738817082e-05 
-1.990003511e-06 4.557077773e-06 
-7.203809218e-06 3.043998731e-06 
-7.291673683e-07 1.101562520e-05 
-1.523963874e-05 -1.975909254e-05 
6.747286534e-06 -2.430373570e-06 
-2.060341649e-05 -1.970527228e-05 
-5.711335689e-07 2.039669198e-05 
-6.645946996e-06 6.191679859e-06 
9.547991795e-06 -2.549728379e-06 
3.353925422e-07 -6.209462299e-06 
-9.796349332e-07 1.641557901e-05 
-1.714029349e-05 1.562014222e-05 
1.275842078e-05 -1.239753328e-05 
1.131847966e-06 1.158574742e-05 
-9.663635865e-07 4.207133316e-06 
1.410662662e-06 -5.146459443e-06 
6.087124348e-06 -1.083000097e-05 
-3.264372936e-06 -8.875704225e-06 
-1.241262362e-05 -5.945563316e-06 
-1.923821401e-06 7.414375432e-06 
9.732728358e-06 -5.950510968e-06 
-2.734959708e-06 1.660322596e-05 
-1.680530841e-05 -6.087357178e-07 
9.412076906e-06 -6.865011528e-06 
3.593377187e-07 -4.611036275e-06 
-3.618071787e-06 -1.432724821e-05 
-7.858019671e-06 2.380111255e-07 
-5.378271453e-06 3.304448910e-06 
-6.603047950e-06 1.310370862e-06 
2.333079465e-06 1.595284266e-05 
-6.506510545e-06 -6.016372936e-06 
-2.308873809e-05 -9.279581718e-06 
6.116693839e-06 1.463945955e-05 
-9.429641068e-06 -7.675960660e-06 
-4.523826647e-06 -1.405665535e-05 
1.004606020e-05 -1.826556399e-06 
2.152024535e-06 -9.075039998e-06 
6.441958249e-06 -4.895846359e-07 
1.090695150e-06 -1.942674862e-05 
-1.495709876e-05 -8.090864867e-06 
3.649212886e-06 -3.079956514e-06 
-2.391097951e-07 3.894732799e-06 
-5.563517334e-06 -6.663191016e-06 
-3.792578354e-06 -5.747773685e-06 
-3.722205292e-06 -1.412443817e-05 
-9.688141290e-06 2.392609167e-05 
7.883114449e-06 2.378306817e-06 
-9.481795132e-06 1.425296068e-05 
1.278531272e-05 -1.021899516e-05 
-2.653527190e-06 -2.260977635e-05 
7.885628293e-06 2.969522029e-06 
8.829287253e-06 5.733454600e-07 
-8.208444342e-07 8.805945981e-07 
1.701165456e-05 6.035552360e-07 
-1.437106403e-05 -1.655775122e-06 
9.474169929e-06 -6.597838365e-06 
-2.011292963e-05 5.959649570e-06 
2.219458111e-07 9.551178664e-06 
-5.562440492e-06 1.219515252e-05 
-8.035916835e-06 -7.835740689e-06 
-7.316586562e-06 2.229950042e-06 
-3.223336535e-06 -5.630310625e-06 
-5.555702955e-06 1.529580913e-05 
-1.636816887e-05 1.147447620e-05 
-1.104362309e-05 1.165916910e-05 
5.335197784e-06 -6.700982340e-06 
6.831833161e-06 -2.829969162e-06 
2.047611633e-05 -1.018808689e-05 
-7.397567970e-06 -4.909932613e-06 
2.061924897e-05 -7.872760762e-06 
1.114595216e-05 1.309248910e-05 
1.298618736e-05 9.708310245e-06 
5.459354725e-06 1.452371362e-05 
-1.050508581e-05 -8.640345186e-06 
-5.033216439e-07 7.490052667e-06 
-1.486507244e-05 -6.279646186e-06 
-2.305605449e-06 -9.820796549e-07 
3.586887033e-06 2.981978469e-06 
-8.622824680e-06 1.308874926e-05 
9.775278158e-06 4.955800250e-07 
-1.684977906e-05 4.867441021e-06 
-1.515567419e-05 3.264343832e-06 
-3.140088666e-06 -2.121319994e-06 
1.110218000e-05 -1.636019442e-05 
1.143146073e-05 -6.719958037e-06 
1.341724419e-05 6.101618055e-06 
-3.277440555e-06 3.755340003e-06 
4.297748092e-06 8.112052456e-06 
5.788031558e-06 4.695262760e-06 
-8.484174032e-06 4.819477908e-06 
2.249353565e-05 1.386229997e-06 
3.042048775e-06 -5.855516065e-06 
-1.101818634e-05 -1.733188401e-05 
8.111615898e-06 -1.613574568e-06 
-4.288856871e-06 8.525676094e-07 
5.904759746e-06 1.218972466e-05 
-1.290567161e-05 -8.373084711e-06 
-7.664028089e-06 -9.803392459e-06 
7.683862350e-06 3.664667020e-06 
1.217774116e-05 -6.610978744e-06 
-1.034990419e-05 1.420601620e-06 
-2.580636647e-06 2.034561476e-06 
-1.604756108e-05 8.875989806e-06 
-9.372888599e-06 1.114956103e-05 
1.030477870e-05 1.407903619e-05 
3.231223673e-06 5.194116966e-06 
-1.457954204e-05 7.632894267e-06 
3.368535545e-06 -1.735179103e-05 
-5.207170034e-06 6.284913979e-06 
1.969109871e-05 8.454895578e-06 
-1.709174830e-05 -8.626084309e-06 
-1.810704998e-05 -1.271093788e-05 
-9.189359844e-06 2.148794010e-05 
-1.076838817e-05 5.023503036e-06 
9.618241165e-06 2.043644781e-05 
-4.507892299e-07 4.748231731e-06 
1.649267506e-05 -3.451015800e-06 
5.754409358e-07 1.067976700e-05 
4.165223800e-06 2.471075277e-06 
1.540000085e-06 1.587934094e-06 
-3.813074727e-06 1.112869359e-05 
-1.897499897e-05 3.378896508e-06 
-3.092718543e-06 -7.639871910e-06 
3.162407666e-06 -1.491428702e-05 
5.335663445e-06 2.307788236e-06 
-1.049801358e-05 4.851201084e-06 
-1.238875848e-05 2.112681977e-05 
8.169590728e-07 3.028253559e-06 
-6.067391951e-06 -5.081237759e-06 
-2.750603016e-06 -9.307332220e-07 
7.010705303e-06 -1.037219772e-05 
8.149305359e-06 1.217145473e-05 
-1.153501216e-05 6.816117093e-06 
-1.450551645e-05 1.046323450e-05 
1.248685294e-05 1.347332727e-05 
6.686022971e-07 -1.491163857e-06 
7.786758943e-06 7.497437764e-07 
-5.549336493e-07 8.990580682e-06 
1.135812636e-05 -1.352682011e-05 
-1.691092621e-05 6.960355677e-06 
4.148692824e-06 2.931468771e-06 
-4.606321454e-06 -1.043421798e-05 
-8.134986274e-06 1.048669219e-06 
-5.066365702e-06 -6.648129784e-06 
-1.208070898e-06 1.599540701e-05 
2.336857142e-05 -1.861259807e-05 
-5.383451935e-06 -9.401468560e-06 
1.165490539e-05 -1.756707206e-05 
-9.704031982e-06 -1.516586053e-05 
4.958012141e-06 6.058602594e-06 
6.920483429e-06 1.729014912e-06 
8.125265595e-06 9.951181710e-06 
1.190110925e-05 4.151370376e-07 
-4.994944902e-06 8.148665074e-06 
1.927604899e-06 -2.905144356e-06 
-4.064437235e-06 1.726509072e-05 
1.558708027e-05 -2.490996849e-06 
-3.512250260e-06 -1.722306479e-06 
-5.034380592e-06 1.903764496e-05 
2.649900853e-05 1.644730219e-08 
-1.181632979e-05 -2.527231118e-06 
7.348338841e-06 1.752102980e-05 
1.039647032e-05 4.296191037e-06 
1.018993498e-05 -1.342361793e-05 
-5.435023922e-06 -1.100997906e-05 
6.494286936e-06 -1.368840458e-05 
5.453650374e-06 1.910608262e-06 
-6.492569810e-06 4.415021976e-06 
1.208699541e-05 -5.267793313e-06 
-1.145061105e-06 5.443580449e-06 
8.778995834e-06 -8.849136066e-06 
-2.960747224e-06 6.074551493e-06 
-1.764609624e-05 -4.102883395e-06 
3.657070920e-06 -1.348598744e-06 
-2.483197022e-06 -1.108492143e-05 
5.034380592e-07 9.161885828e-08 
5.263835192e-06 -4.407600500e-06 
-5.932000931e-06 -7.201102562e-06 
-6.455520634e-06 2.187187783e-05 
-3.219785867e-06 6.738700904e-06 
1.631431223e-05 -3.402237780e-07 
-1.339707524e-06 9.415671229e-07 
-9.053270333e-06 6.628572010e-06 
4.943256499e-06 1.942145173e-05 
-1.203193096e-05 4.195491783e-06 
-2.312683500e-05 2.912711352e-07 
-2.234117710e-05 -2.467248123e-06 
-5.643116310e-06 -2.380809747e-06 
-1.224914740e-06 -2.261076588e-07 
-4.857312888e-06 -1.147988951e-05 
-5.809881259e-06 5.711335689e-06 
-2.047687303e-06 4.039542546e-06 
-1.397507731e-05 -3.095643478e-06 
-4.696630640e-07 -2.081773710e-05 
5.294859875e-07 2.511544153e-06 
-1.018925104e-06 -7.656402886e-06 
-3.732857294e-06 -2.471439075e-06 
8.699018508e-06 1.038849587e-05 
-8.253846318e-06 7.158480003e-06 
-1.386730582e-05 2.694781870e-06 
-1.016582246e-06 -1.252526999e-06 
1.979060471e-09 -1.550657908e-05 
-1.864734804e-05 3.009336069e-06 
2.199027222e-06 1.951499144e-06 
1.920270734e-06 -5.014298949e-07 
-1.084664837e-05 -9.590410627e-06 
-2.031913027e-06 -3.959517926e-06 
-1.259990677e-05 -5.175010301e-06 
2.219085582e-05 7.851922419e-07 
2.132816007e-06 -1.444626832e-05 
-9.841271094e-06 5.859546945e-06 
5.408059224e-06 -1.237622928e-05 
-1.321511809e-05 -6.072048564e-06 
-4.733155947e-06 -3.676628694e-06 
1.933774911e-06 4.467554390e-06 
-4.102359526e-06 8.475006325e-06 
-1.592710032e-05 -3.469933290e-06 
-1.931097358e-06 -6.415008102e-06 
2.399637015e-05 7.572525647e-06 
4.692610673e-06 1.886463724e-05 
-5.987647455e-06 -1.221481944e-05 
-3.681692760e-06 -9.587674867e-06 
1.017958857e-05 1.367996447e-06 
3.810375347e-06 -5.531452189e-06 
5.916692317e-06 2.435350325e-06 
-8.587026969e-06 -1.369626261e-05 
1.469743438e-06 -4.029017873e-06 
-8.861767128e-06 1.069915015e-05 
-1.011464701e-05 5.998881534e-07 
-5.579320714e-06 -5.122041330e-06 
-1.005766899e-05 -1.610533218e-06 
-2.349144779e-06 -2.021028195e-06 
-2.484914148e-06 8.263741620e-07 
1.408392563e-06 6.527669029e-06 
-4.506946425e-06 7.249589544e-06 
2.118929842e-05 7.529975846e-06 
2.703949576e-06 -1.669305493e-05 
2.295670856e-05 1.736069680e-05 
-5.633686669e-06 7.836933946e-06 
1.046094985e-05 -1.914444147e-05 
2.986285836e-06 1.247081673e-05 
3.031454980e-07 8.334260201e-06 
2.212167601e-05 -7.260910934e-06 
2.259894973e-05 8.599781722e-06 
-1.177098602e-05 -7.613532944e-06 
-7.788243238e-06 -1.368205994e-05 
1.912994776e-06 -2.809858415e-06 
-4.601766705e-06 -9.389419574e-06 
-1.297818380e-05 2.098793630e-06 
-1.116495696e-06 -1.098439679e-05 
1.253883238e-05 4.131226888e-06 
-5.748821422e-06 -3.988243407e-06 
-1.258845441e-05 -1.270085340e-05 
1.085689291e-05 7.335969713e-06 
1.467799302e-05 1.203922147e-05 
2.218215377e-05 -5.264941137e-06 
1.133244950e-06 -8.471630281e-06 
2.061598934e-06 1.069223799e-05 
2.588531061e-06 -2.544256859e-07 
-3.008753993e-07 -5.499692634e-06 
1.814280404e-05 5.935493391e-06 
-1.044527016e-05 6.889400538e-06 
1.241557766e-05 1.345388591e-05 
-5.261797924e-06 6.245943950e-06 
1.544004044e-05 1.166267066e-05 
4.992874892e-06 -7.593480404e-07 
-1.900352072e-05 -1.161755063e-05 
8.980510756e-06 1.004885416e-05 
-2.886576112e-06 2.566142939e-06 
-3.080291208e-06 -9.947645594e-06 
-4.904199159e-06 -4.798872396e-06 
-1.564604463e-05 -9.096576832e-06 
-2.104032319e-06 1.521589002e-05 
3.054970875e-06 8.620554581e-08 
7.241527783e-06 2.695363946e-06 
2.981942089e-06 1.191523188e-05 
2.679647878e-06 1.186243026e-05 
2.145767212e-06 8.936272934e-06 
-1.274223905e-06 -1.553050242e-05 
-3.485401976e-06 1.348031219e-06 
1.402973430e-05 -3.394437954e-06 
-1.063442323e-05 -6.891903467e-06 
1.806192813e-06 6.923830369e-06 
-2.016364306e-06 1.907290425e-06 
-1.561251702e-05 -2.195814886e-06 
3.400622518e-06 -3.433856182e-05 
-1.174036879e-05 -3.111897968e-06 
-5.136447726e-06 -3.180975909e-07 
-1.159858948e-05 -2.215066343e-05 
-5.471170880e-06 -1.311040251e-06 
-2.866025170e-06 3.694323823e-06 
1.185329165e-05 5.981331924e-06 
-1.287006307e-05 3.223889507e-06 
1.454027370e-07 -1.609223546e-06 
1.441140193e-05 1.168693416e-05 
-2.776680049e-06 1.791202521e-06 
8.967355825e-06 1.059795613e-05 
8.064162103e-07 -7.711132639e-06 
9.998329915e-07 -4.037166946e-06 
7.972586900e-06 -1.283828169e-06 
2.535787644e-06 -1.226621680e-05 
-8.751987480e-06 -3.938155714e-06 
1.103782415e-05 1.848489046e-05 
1.722163870e-05 -2.479064278e-06 
-3.812019713e-06 2.288856194e-06 
2.394313924e-06 1.728837378e-05 
-3.815512173e-06 6.379268598e-07 
-1.830758993e-05 1.065258402e-05 
2.919801773e-06 -6.833579391e-07 
8.909846656e-07 -4.791480023e-06 
1.322806929e-05 8.117014659e-06 
2.578599378e-06 -4.817848094e-07 
6.063259207e-06 7.114780601e-06 
-1.197535676e-05 -5.287904060e-06 
1.951484592e-07 1.402193448e-06 
4.810048267e-06 1.746256021e-05 
2.658343874e-07 -1.308621722e-05 
-1.786951907e-05 -8.801463991e-06 
-8.639355656e-06 1.558673102e-05 
-2.037923332e-05 4.150220775e-06 
2.474605935e-06 1.314800465e-05 
-3.938330337e-06 1.283787424e-05 
2.975692041e-06 -5.039037205e-06 
8.569826605e-06 -5.849986337e-06 
-1.088163117e-06 1.098454231e-05 
-3.759458195e-06 1.073465683e-06 
3.248918802e-06 4.082801752e-06 
-7.667113096e-07 1.760473242e-05 
4.375586286e-06 7.405818906e-06 
-3.746827133e-07 -2.752523869e-06 
8.650677046e-07 -2.908986062e-06 
-1.488253474e-06 6.854243111e-07 
1.384911593e-05 1.514219912e-05 
-5.877169315e-06 8.235510904e-06 
-3.504741471e-06 1.101358794e-05 
1.182437700e-05 -7.708149496e-06 
5.016103387e-06 5.997193512e-06 
-1.164828427e-05 -8.279239410e-06 
-2.268148819e-06 -4.179673851e-06 
1.999025699e-06 9.218259947e-06 
-1.899046765e-05 -6.181653589e-07 
1.268112101e-06 -5.856854841e-06 
7.501286746e-06 -2.927146852e-06 
1.298938878e-05 -2.311426215e-06 
-2.274272265e-05 4.959118087e-06 
-1.189892646e-05 2.171145752e-07 
-5.392823368e-06 4.945613910e-06 
-1.541699748e-05 -5.890615284e-06 
1.605541911e-05 -2.935994416e-06 
8.457980584e-06 -2.251472324e-07 
-3.282591933e-06 6.393063813e-06 
-9.775976650e-07 8.329632692e-06 
2.617423888e-06 -5.090652849e-06 
1.326644269e-05 -2.277560998e-05 
-2.497108653e-07 3.139160981e-06 
1.692539081e-05 3.349254257e-06 
-9.090173990e-06 6.953909178e-06 
-8.356873877e-07 -5.330366548e-06 
5.019363016e-06 -7.392198313e-06 
-6.620539352e-06 2.433022019e-06 
-8.902046829e-06 -2.847518772e-06 
-8.598042768e-06 1.703249291e-05 
-1.009355765e-05 2.036799560e-05 
-6.471345841e-06 -4.769535735e-06 
2.724467777e-06 2.326404501e-05 
-2.379936632e-06 2.821150701e-06 
-5.577923730e-06 -8.730225090e-06 
1.022440847e-05 1.133978367e-05 
2.910819603e-06 4.037981853e-06 
3.212888259e-06 2.523192961e-05 
-1.052225707e-05 5.194146070e-06 
-1.372426050e-05 -4.967791028e-06 
1.117819920e-05 -3.563211067e-06 
6.385540473e-06 8.942442946e-07 
-4.187459126e-07 8.967588656e-06 
6.205737009e-06 -1.535558476e-05 
-1.089589205e-05 8.768111002e-07 
1.314649126e-05 2.101116115e-05 
-6.348534953e-06 1.143573900e-05 
-4.229907063e-06 7.270373317e-06 
-8.608403732e-06 1.985824201e-05 
1.044251258e-05 1.101521775e-06 
6.109243259e-06 -7.821712643e-06 
3.112712875e-06 -2.780812792e-06 
2.615939593e-06 2.113287337e-06 
9.601062629e-07 -1.344682823e-05 
8.128554327e-07 9.430266800e-06 
-3.291701432e-06 -2.207350917e-06 
8.846196579e-06 1.817592783e-05 
1.406908268e-05 5.772060831e-06 
3.978610039e-06 -4.115456250e-06 
5.324836820e-07 3.417371772e-06 
4.613160854e-06 -1.238804543e-05 
7.113907486e-06 -1.005607191e-05 
-3.956811270e-06 1.649706974e-06 
-4.616915248e-06 -8.577480912e-07 
-2.699292963e-06 -1.082633389e-05 
-1.329928637e-06 -7.410460967e-06 
-1.536243508e-05 2.609376679e-05 
-1.524807885e-05 7.673690561e-06 
-8.453673217e-06 8.761417121e-07 
-9.793060599e-06 1.078893547e-05 
-5.073146895e-06 5.443929695e-06 
5.361856893e-06 -1.236074604e-05 
1.013511792e-05 4.763860488e-07 
2.722546924e-06 4.267028999e-06 
6.911286619e-07 -6.041540473e-06 
9.905430488e-06 5.675305147e-06 
-4.554982297e-06 4.602130502e-06 
5.754409358e-07 -2.130444045e-06 
3.549561370e-06 4.632282071e-06 
-6.086600479e-06 -2.044904977e-05 
1.935102046e-05 -5.432215403e-06 
-6.953057891e-06 1.511361916e-05 
8.208073268e-06 9.357696399e-06 
-1.794012496e-05 -6.285845302e-06 
9.319861419e-06 6.229180144e-06 
-3.789318725e-06 5.465211871e-06 
-5.349837011e-06 6.817106623e-06 
-1.845306542e-06 8.102622814e-06 
-1.778927981e-06 1.694614184e-05 
2.335844329e-06 2.705084626e-06 
1.213257201e-05 -1.071422594e-05 
2.329127165e-05 -8.533534128e-06 
4.407484084e-06 5.665540812e-06 
-1.850363333e-05 -3.381777788e-06 
-1.151260221e-06 -9.260271327e-06 
-1.725398761e-05 -1.468311530e-05 
1.538085053e-05 -2.021784894e-06 
1.348456135e-05 -1.638499089e-05 
1.698348206e-05 -8.859322406e-06 
-9.180977941e-06 1.396180596e-05 
-5.383117241e-06 1.016468741e-05 
5.280948244e-06 -6.696558557e-06 
-1.175678335e-05 -5.321635399e-06 
-4.039495252e-06 -1.649023034e-06 
-9.168506949e-07 -7.351409295e-06 
-8.409842849e-06 7.795402780e-06 
2.241809852e-06 1.041599899e-05 
-4.099099897e-06 3.217021003e-06 
1.955556218e-05 1.481384970e-07 
1.420266926e-07 -6.185669918e-06 
4.850269761e-06 4.420107871e-07 
2.089334885e-06 1.130392775e-07 
1.385138603e-05 7.780035958e-06 
1.530366717e-06 -8.616829291e-06 
1.219980186e-05 -5.750131095e-06 
-2.109794877e-06 1.677281398e-05 
1.204205910e-05 4.871228157e-06 
9.767536540e-06 1.930515282e-06 
1.768267248e-05 -5.278940080e-06 
2.880068496e-05 8.790957509e-06 
-3.421417205e-06 -3.361084964e-06 
-2.178997966e-05 -2.647799556e-05 
1.552316826e-05 1.044925739e-05 
6.486363418e-06 2.845015842e-05 
-7.148300938e-06 -2.733431756e-06 
-1.369318488e-05 -4.737696145e-06 
5.918554962e-07 -1.158498344e-05 
2.044878784e-06 -5.336303730e-06 
-4.919769708e-06 2.142434823e-06 
7.029928383e-06 -2.791639417e-07 
6.121932529e-06 -1.428235555e-05 
-8.976203389e-06 -2.406479325e-06 
1.802590850e-05 -2.327840775e-06 
-2.337357728e-06 -2.111936919e-05 
-2.589804353e-07 6.954651326e-06 
-3.353561624e-06 6.172616850e-06 
-1.533848626e-05 -1.112316386e-05 
6.904825568e-06 -1.224773951e-05 
-1.113215694e-05 -1.076556509e-05 
-1.206761226e-05 -6.629619747e-06 
-8.485512808e-06 -1.837033778e-06 
-1.357603469e-05 -3.639957868e-06 
4.883040674e-07 -1.399253961e-05 
-1.124863047e-06 -3.355788067e-06 
-1.039268682e-05 -1.654523658e-06 
6.411573850e-06 -2.159574069e-05 
-1.187418820e-05 3.319080861e-06 
-1.665274613e-05 -2.604559995e-06 
5.521869753e-06 9.934883565e-06 
3.453025420e-05 -5.656533176e-06 
-1.142123074e-05 -4.251691280e-06 
-1.740419248e-05 -5.293579306e-06 
-7.237307727e-06 2.791639417e-07 
-1.330085797e-05 -2.072192729e-06 
-1.238164259e-05 -3.181921784e-06 
2.363638487e-06 5.053181667e-06 
-1.097223139e-05 -1.279829303e-05 
1.066621917e-05 3.419176210e-06 
3.909735824e-06 1.042457006e-05 
9.182724170e-06 -1.267122570e-06 
7.291091606e-06 -6.112910341e-06 
4.945322871e-07 -5.131587386e-07 
8.434057236e-06 4.712550435e-06 
1.311884262e-06 3.824988380e-05 
1.347952639e-05 9.618466720e-06 
6.085960194e-06 2.331874566e-05 
-1.724227332e-06 6.290472811e-06 
5.015870556e-06 -1.929652353e-05 
-5.182315363e-06 8.466653526e-06 
-1.509617141e-05 1.279171556e-06 
-2.882617991e-06 1.172651537e-06 
-1.837173477e-05 -3.419525456e-06 
-7.554655895e-06 4.684436135e-06 
8.880160749e-07 -9.694667824e-06 
-7.150345482e-06 -8.530914783e-06 
-7.511116564e-06 -1.464594970e-05 
-4.898145562e-06 -1.121510286e-05 
3.989685865e-06 -4.269735655e-06 
-5.362089723e-06 -2.474989742e-06 
-3.251130693e-06 -2.826564014e-06 
-1.855427399e-05 -1.419626642e-05 
-1.407577656e-06 -1.477601472e-05 
1.380743925e-06 4.775240086e-06 
1.417845488e-05 7.731607184e-06 
5.308946129e-06 4.511908628e-06 
7.961294614e-06 1.560694363e-05 
8.204253390e-06 1.211283961e-05 
-2.028196468e-05 -1.679739216e-05 
1.030901694e-05 6.787340681e-06 
-1.020060154e-05 -1.228135079e-05 
1.995067578e-06 1.744381734e-05 
2.661312465e-06 -2.998844138e-06 
7.991213351e-06 3.909917723e-06 
-6.054528058e-06 -2.623590990e-05 
-3.477616701e-06 3.536493750e-06 
1.379474998e-05 1.034641173e-05 
1.503230305e-05 4.140892997e-06 
4.206085578e-06 -3.281398676e-06 
-3.935623681e-06 -1.546356361e-05 
1.666485332e-07 2.732366556e-05 
9.776296793e-06 -4.988978617e-06 
-3.778841347e-07 3.880355507e-06 
7.060240023e-06 -2.953282092e-06 
1.490593422e-05 4.889792763e-06 
3.745881259e-06 6.863672752e-06 
2.346257679e-05 1.042654912e-05 
-1.162389526e-05 -8.746438652e-06 
4.208995961e-07 -6.052490789e-06 
1.248804620e-05 6.948132068e-06 
-1.386553049e-05 -4.804537639e-06 
-7.966416888e-06 -1.687803888e-05 
-1.662428258e-05 -1.044696546e-05 
-5.643989425e-06 9.001116268e-06 
-1.432801946e-05 -1.545372652e-05 
-1.852529385e-05 8.309725672e-07 
-4.339439329e-06 -2.434011549e-06 
-1.178868115e-05 -3.559747711e-06 
-9.856928955e-06 1.191336196e-05 
-2.802116796e-07 -4.405854270e-06 
-7.111855666e-06 1.052756852e-05 
1.869164407e-06 8.693605196e-07 
2.062355634e-06 -1.033657463e-05 
-9.250885341e-06 1.413565769e-05 
-6.095273420e-06 -1.742132008e-05 
-4.634493962e-06 -6.905465852e-06 
-8.988019545e-06 -2.173875691e-05 
-1.159321982e-05 -9.874231182e-06 
1.624967263e-05 8.447124856e-06 
1.380359754e-05 1.762894681e-05 
1.439539483e-05 1.001462806e-05 
3.716442734e-06 1.116560816e-05 
5.199690349e-06 1.055479515e-05 
-2.424669219e-06 -4.552653991e-06 
7.199647371e-06 1.627820893e-06 
-8.357805200e-06 2.355665492e-05 
6.909991498e-06 1.544156112e-05 
-1.533850445e-05 9.969313396e-06 
4.065455869e-06 -6.756861694e-06 
5.877285730e-06 -5.416339263e-06 
-2.757820766e-06 -1.433711441e-05 
-1.435750164e-06 8.196511772e-06 
7.384223863e-06 -8.732604329e-08 
-4.463377991e-06 8.747854736e-06 
-8.679227903e-06 7.810711395e-06 
1.389440149e-05 2.805609256e-08 
-4.503970558e-06 9.336945368e-06 
1.516018528e-07 2.084928565e-05 
-1.107167918e-05 4.668429028e-06 
1.456732571e-05 3.333261702e-06 
-1.525040716e-06 4.130008165e-06 
-7.369206287e-06 2.943037543e-06 
-3.439374268e-06 1.076958142e-06 
-1.316017006e-05 1.718153362e-05 
-3.019522410e-06 -2.048560418e-06 
3.408000339e-06 1.050566789e-05 
-3.865687177e-06 3.362190910e-06 
1.805485226e-06 2.544140443e-06 
9.063980542e-06 -5.875830539e-06 
-2.082076389e-05 -1.517037163e-05 
-1.097668428e-05 -1.570407767e-05 
4.359171726e-06 2.997694537e-07 
-9.191688150e-06 4.614877980e-06 
-5.154870450e-06 7.038936019e-06 
7.152615581e-06 -6.398862752e-06 
1.749052899e-05 -1.230220005e-05 
3.613065928e-06 -3.987937816e-06 
-1.036212780e-06 2.719578333e-06 
-1.004082151e-08 2.021061300e-05 
2.397340722e-06 1.986627467e-06 
-4.310044460e-06 -1.381611219e-05 
2.107585897e-05 -5.246722139e-06 
-1.239901758e-05 -5.050911568e-06 
-1.374981366e-06 -5.159410648e-06 
-7.074995665e-06 1.350406092e-05 
1.177508966e-05 5.358131602e-06 
-2.864981070e-06 8.627590432e-06 
7.402384654e-06 6.064656191e-06 
9.224138921e-06 -2.431333996e-07 
-4.294692189e-06 7.108610589e-07 
-1.767213689e-06 2.085702727e-05 
-9.875977412e-06 3.290137101e-06 
-7.309834473e-06 -2.391694579e-06 
-4.956636985e-06 -2.471206244e-06 
-1.504312968e-05 8.597897249e-06 
6.722984836e-08 -3.991008271e-06 
3.026099876e-05 3.008317435e-06 
-9.155017324e-06 -5.878158845e-06 
1.119158696e-05 -2.756831236e-06 
-3.214983735e-06 -7.292837836e-06 
-7.816706784e-07 6.359769031e-07 
7.796177670e-06 -6.749625754e-06 
-2.155837137e-06 1.101884118e-05 
1.246912871e-05 6.392579962e-06 
6.968468369e-06 1.214968506e-05 
2.542452421e-06 -1.639773836e-05 
-9.450945072e-06 -2.156652045e-06 
-4.522444215e-06 -7.413327694e-07 
2.876040526e-07 7.797381841e-06 
1.641875133e-05 -1.251895446e-05 
3.724358976e-06 2.338405466e-05 
2.471733751e-06 1.815613359e-06 
2.359354403e-05 1.571097528e-05 
-1.456399696e-05 8.399889339e-06 
4.391011316e-06 3.266613930e-07 
-2.064800356e-05 -6.891961675e-06 
7.890979759e-06 4.355679266e-06 
-1.492048614e-05 -2.294837032e-06 
-3.440567525e-06 -1.691875514e-05 
1.078534115e-05 -3.599910997e-06 
1.241215796e-05 6.858608685e-06 
-2.472050255e-06 2.545071766e-06 
2.073247742e-06 -5.533627700e-06 
-1.023255754e-05 -3.244247637e-06 
7.836068107e-06 -9.873183444e-07 
7.918715710e-07 1.159147359e-05 
7.717695553e-06 5.311449058e-06 
-1.257423719e-06 -1.738452556e-05 
5.816691555e-06 5.969079211e-06 
2.415908966e-06 -3.517314326e-06 
-1.343953772e-05 1.815418364e-05 
1.163309207e-05 1.179403625e-06 
-2.912849595e-06 2.080021659e-06 
4.177389201e-06 -4.946268746e-06 
-5.880952813e-06 -2.860907989e-05 
2.207589569e-05 3.929017112e-07 
-2.184780897e-05 -1.601176336e-06 
-7.715425454e-06 -2.248276724e-05 
-2.952350769e-06 -1.418869942e-06 
5.600159056e-07 1.312198583e-05 
-2.235174179e-06 -1.162104309e-05 
1.395912841e-05 2.742744982e-06 
1.261709258e-05 -1.043640077e-05 
2.014636993e-05 1.652166247e-06 
1.094862819e-05 -1.142546535e-05 
-2.873130143e-06 -1.875683665e-06 
-4.827044904e-06 -6.985384971e-06 
-5.598412827e-06 7.350463420e-06 
-2.706656232e-06 -2.030283213e-07 
8.431903552e-06 8.667819202e-06 
1.166341826e-05 -2.571381629e-06 
9.343028069e-06 -1.394527499e-05 
-4.374422133e-06 -6.208196282e-06 
3.104098141e-06 2.107117325e-07 
-4.669651389e-06 -9.626150131e-06 
2.032611519e-06 8.186325431e-06 
9.957235307e-06 1.801527105e-06 
6.045214832e-06 9.227544069e-06 
-5.152891390e-06 -2.455897629e-06 
-8.068978786e-06 -2.899090759e-05 
-5.512963980e-06 1.634517685e-05 
3.148801625e-06 -3.918539733e-07 
-2.598389983e-06 -2.040062100e-06 
-3.417953849e-06 -1.249928027e-05 
2.791639417e-07 -3.054470289e-05 
4.510395229e-06 8.540228009e-07 
-1.708045602e-05 9.282492101e-06 
1.735286787e-06 -1.929700375e-06 
-1.517636701e-05 8.158385754e-07 
6.301328540e-06 4.157423973e-06 
-1.026736572e-05 1.075910404e-06 
-7.431488484e-06 1.938315108e-05 
-1.598009840e-05 2.319109626e-06 
4.184897989e-06 6.048940122e-06 
3.137392923e-06 -3.656605259e-06 
-8.475035429e-07 -2.242624760e-06 
-1.027109101e-05 1.898361370e-05 
-2.344604582e-06 -1.102499664e-05 
4.125060514e-06 -2.423767000e-06 
2.796645276e-06 -2.106023021e-05 
2.782791853e-06 1.348555088e-06 
1.114048064e-05 8.233822882e-06 
-1.292512752e-05 1.693563536e-05 
-1.497566700e-06 -6.201909855e-06 
-1.107191201e-05 1.333653927e-05 
7.022521459e-06 -3.016320989e-06 
-6.850808859e-06 1.182965934e-05 
1.084012911e-05 4.571047612e-06 
7.507391274e-06 -1.123640686e-05 
4.259753041e-06 -1.155072823e-05 
-8.465256542e-06 5.041423719e-06 
3.269640729e-06 -7.217749953e-07 
-1.553387847e-06 -3.394670784e-07 
-2.531101927e-06 -4.038796760e-06 
7.899943739e-06 -1.594284549e-05 
8.268281817e-06 1.021544449e-05 
-4.060566425e-07 2.180226147e-06 
-9.745825082e-06 1.501734369e-05 
-3.724824637e-06 8.802919183e-06 
1.195294317e-05 5.168840289e-07 
-1.385156065e-05 -3.710389137e-06 
-2.455004142e-05 -1.361273462e-06 
-1.269858330e-06 -8.222647011e-06 
2.710847184e-06 -5.923211575e-07 
2.253346611e-05 8.757924661e-06 
5.129259080e-07 -8.387258276e-06 
-5.735084414e-06 -1.548917498e-05 
5.702488124e-06 1.667300239e-06 
-9.373179637e-06 8.703209460e-07 
3.930181265e-07 -9.027775377e-06 
-2.269633114e-06 2.217642032e-05 
-8.221482858e-06 1.982785761e-06 
-1.084990799e-05 4.205037840e-06 
-4.223664291e-06 -3.723078407e-06 
-1.119711669e-05 1.083198003e-05 
-3.050314263e-06 1.458567567e-06 
1.190695912e-05 -1.659430563e-05 
1.227867324e-05 5.533918738e-06 
-7.953378372e-06 -2.022628905e-06 
-9.712530300e-06 -1.013203291e-05 
-6.302027032e-06 1.989165321e-05 
1.068459824e-06 -1.596886432e-05 
1.428590622e-06 -1.239299309e-05 
6.512389518e-06 -1.322641037e-05 
3.108056262e-06 8.282018825e-06 
-1.085363328e-05 -5.242880434e-06 
-8.520437405e-07 -5.596666597e-06 
1.437158789e-05 2.150889486e-06 
-9.923242033e-07 1.035851892e-05 
-2.509914339e-06 7.259193808e-06 
5.645444617e-06 -2.668239176e-07 
-4.173256457e-06 -4.457775503e-06 
2.181623131e-07 -9.869923815e-06 
2.966029570e-06 -1.950538717e-06 
1.057039481e-05 8.888717275e-06 
9.131734259e-06 -1.558801159e-06 
1.580896787e-05 1.586938743e-05 
-2.096872777e-06 1.424062066e-05 
-1.427478855e-05 -2.870801836e-06 
6.043119356e-07 -1.992564648e-06 
6.702379324e-06 -2.028420568e-06 
-6.029382348e-06 -3.461289452e-06 
6.718561053e-06 -8.740695193e-06 
4.141998943e-06 -5.720066838e-06 
-2.556946129e-06 1.973850885e-05 
1.780100865e-05 2.582604066e-05 
-1.416308805e-05 1.868244726e-05 
-1.172558405e-05 -5.565350875e-06 
-1.235771924e-05 -5.391659215e-06 
2.671714174e-05 -1.505389810e-05 
-6.095040590e-06 -8.719507605e-06 
2.089218469e-06 7.064605597e-06 
-1.739492291e-05 -6.365356967e-06 
9.854265954e-06 -2.826223499e-05 
-7.686205208e-06 -6.019836292e-07 
-1.145224087e-05 -1.226551831e-06 
5.655339919e-06 3.915978596e-06 
-8.743139915e-06 -4.215282388e-06 
8.921895642e-06 5.659880117e-06 
7.929309504e-06 -1.217049430e-05 
-2.245418727e-06 -2.817600034e-06 
9.943265468e-06 3.639783245e-06 
9.557697922e-07 9.611481801e-06 
-8.465722203e-07 2.118933480e-06 
-1.204258297e-06 4.885660019e-06 
-4.572793841e-06 -4.007248208e-06 
-1.202058047e-05 -1.190893818e-05 
2.887099981e-08 -1.825240906e-05 
4.468543921e-06 2.749788109e-06 
1.618388342e-05 -1.036911272e-06 
2.276734449e-06 3.166962415e-06 
-1.214107033e-05 1.056236215e-05 
-6.693997420e-06 -2.187327482e-06 
-4.317262210e-06 -3.320747055e-06 
4.140892997e-06 -9.955605492e-06 
-1.727160998e-05 -1.557520591e-06 
6.765592843e-06 1.658522524e-05 
-4.150788300e-06 -5.126232281e-06 
-7.615308277e-06 7.385504432e-06 
4.906905815e-07 4.841334885e-06 
6.807793397e-06 -5.038455129e-07 
1.246796455e-05 -1.187826274e-05 
5.170237273e-06 -1.863687066e-05 
9.748851880e-06 -6.358604878e-06 
-1.173547935e-05 1.336913556e-06 
-2.341461368e-06 -9.364157449e-06 
-2.023769775e-05 -1.580710523e-05 
-1.499080099e-05 1.586027793e-05 
1.240626443e-05 -4.597357474e-06 
-6.221584044e-06 -3.913184628e-06 
-1.221895218e-05 -7.949129213e-06 
1.175131183e-05 -1.116772182e-06 
1.946842531e-05 5.832407624e-07 
-8.009956218e-06 9.132781997e-06 
6.250746083e-06 1.176958904e-06 
-7.552327588e-06 1.132604666e-05 
-8.285627700e-06 -6.454065442e-06 
-7.484515663e-06 -4.980189260e-06 
1.144420821e-05 -9.954674169e-06 
1.697830157e-05 -1.387507655e-05 
-1.703854650e-05 6.446673069e-06 
-2.162065357e-06 -9.293537005e-06 
-1.770147355e-05 -1.332897227e-05 
6.139511243e-06 -2.326059621e-05 
-1.561632962e-05 1.545855775e-05 
1.376424916e-05 -9.976443835e-06 
