-1.859385967e+00 -6.418857574e-01
2.088508606e-01 1.899510026e+00
7.769964337e-01 -8.334247470e-01
2.254340887e+00 -1.924996972e+00
-1.439939022e+00 -1.938051105e+00
-1.283793092e+00 1.815573692e+00
3.024217486e-02 5.251860619e-02
6.033688784e-01 5.146306753e-01
1.496418715e-01 -2.944809496e-01
-1.645489931e-01 -2.346794307e-01
-1.543369532e+00 -1.606152058e-01
-7.186750770e-01 -2.169474959e-01
-3.685352206e-01 1.208947182e+00
1.866142154e+00 -1.960670054e-01
-1.169981360e-01 8.591693640e-02
1.613303900e+00 1.303588748e+00
-5.893628597e-01 1.933507323e-01
-6.172071695e-01 5.522993207e-02
6.065658331e-01 2.293667942e-02
-1.405404687e+00 1.965008020e+00
-1.501679420e+00 7.741373777e-02
-1.358233094e+00 -2.707347393e+00
1.240764022e+00 -1.221423864e+00
-1.209542394e+00 -1.621446252e+00
5.211330652e-01 -2.025957555e-01
1.723909259e+00 -2.133797407e+00
-8.006989360e-01 -4.768983424e-01
-2.658610642e-01 1.199186802e+00
-8.893132210e-01 3.363507688e-01
-8.039871454e-01 -3.485901356e-01
-1.846749783e+00 -7.071116567e-01
5.978643894e-03 -1.373356938e+00
1.519321561e+00 -1.164200306e+00
-1.765981913e+00 6.425941586e-01
-1.792436987e-01 -1.244260073e+00
2.474434972e-01 -1.620758474e-01
-1.963610649e+00 -2.471013069e-01
5.045699477e-01 2.280127525e+00
-1.283276081e+00 -4.949489236e-01
2.973499596e-01 -5.893790722e-02
-2.474929333e+00 -3.090683222e+00
1.006638885e+00 -1.958590150e-01
1.102317095e+00 -1.093796730e+00
-7.631281614e-01 1.125752211e+00
-7.121269107e-01 -1.271927059e-01
5.943601727e-01 2.030772567e-01
2.148703337e-01 -4.158154130e-01
-7.229733467e-01 5.629798770e-01
-1.257850647e+00 6.156497002e-01
-1.437906504e+00 4.396303892e-01
-1.051440597e+00 7.137428522e-01
4.568811059e-01 3.945673704e-01
7.001724243e+00 2.153198242e+00
2.220981598e+00 7.222086430e+00
-7.644697189e+00 8.449694633e+00
5.407497406e+00 3.914151192e-01
-6.690079689e+00 -1.754737377e+00
1.437158585e+00 -8.525381088e-01
-1.603225708e+00 -3.353431702e+00
9.673490524e-01 2.717984915e+00
3.305419922e+00 -1.141319275e-01
3.214088678e-01 -4.322552681e-01
5.251996517e-01 2.423262596e-02
-3.550070763e+00 9.982147217e-01
-3.296127319e-01 1.024821281e+00
2.192826271e-01 2.309644699e+00
2.844199181e+00 8.064603806e-02
-1.666708350e+00 2.755903721e+00
7.770156860e-02 1.123359203e-01
1.375278115e+00 1.798588634e+00
1.653136969e+00 6.708972454e-01
1.254610300e+00 -3.794842482e+00
-7.736349106e-02 -3.837319613e+00
5.064109564e-01 -4.258552194e-01
-1.756446958e-01 -1.787316799e-01
2.833961010e+00 1.194452524e+00
3.699687123e-02 3.104160309e+00
4.361160755e+00 1.609187722e+00
-1.031516790e+00 6.109192371e-01
-2.375853062e-01 -9.048489332e-01
-1.159385443e+00 2.342662573e+00
9.043394327e-01 6.579052210e-01
-7.499961853e-01 -4.840163887e-01
-6.661782265e-01 -2.097041011e-01
1.039947271e+00 -1.244527102e+00
1.869137526e+00 -8.857440352e-01
-6.198429465e-01 -4.335241318e-01
6.702952385e-01 1.298023462e+00
-1.603843212e+00 -2.852126122e+00
-1.439611793e+00 1.508498549e+00
-2.406115294e+00 1.370084047e+00
5.817949772e-01 -1.332633495e+00
-2.791167259e+00 1.254708052e+00
4.361591339e-01 -1.902159572e+00
7.426924706e-01 -1.628113270e+00
1.977772832e+00 -2.309470654e+00
-2.705426812e-01 -1.595117927e+00
1.681318164e+00 -2.277211428e+00
3.018190861e-01 1.935783625e-01
2.932498693e+00 1.801556349e+00
-1.391752958e+00 -7.854587436e-01
-7.438257933e-01 -3.188645244e-01
-2.257903218e-01 -2.164721489e-02
1.687780380e+00 1.155059576e+00
6.333689690e-01 -3.947841823e-01
-1.513190866e+00 6.053863764e-01
1.298429966e+00 -2.159300447e-01
1.775227785e-01 -1.096343994e-02
-6.361944675e-01 -2.211610079e-01
2.245791674e+00 -4.784389734e-01
-3.691454232e-01 -1.745417356e+00
8.657410145e-01 3.788257837e-01
3.010012150e+00 4.347778857e-01
-4.447577298e-01 -2.274756908e+00
-1.422303796e+00 -4.458752275e-01
4.267059863e-01 -2.586513042e+00
-3.577473164e-01 -8.130084276e-01
8.186243773e-01 -2.949190617e+00
4.874491692e-02 -3.117379546e-01
-9.962381124e-01 -8.181542158e-01
8.943437934e-01 -2.830704749e-01
7.562357783e-01 1.223020107e-01
-8.633291721e-02 1.413895369e+00
3.004798174e+00 2.122493982e-01
-4.935586452e-02 -1.133819699e+00
1.072746277e+00 1.473434329e+00
-2.241909027e+00 -9.171206355e-01
6.649019122e-01 2.105212808e-01
-1.066235065e+00 8.445655107e-01
-1.150691748e+00 -8.720122576e-01
-1.394914865e+00 -2.112917006e-01
9.253069758e-02 2.696588278e+00
-4.054788947e-01 -2.840518355e-01
1.917522073e+00 -1.153286219e+00
8.099961281e-01 -4.391540289e-01
-2.172299147e+00 3.636771739e-01
1.771200895e-01 -4.932979643e-01
2.210615873e+00 -4.058685005e-01
-1.439106107e+00 1.870191097e+00
8.297503591e-01 1.303795815e+00
-1.740374088e+00 -2.670395374e-01
8.638742566e-02 -1.296871662e+00
-1.308050632e+00 1.769473553e-01
-1.292069674e+00 1.883769274e+00
2.844103813e+00 1.417839646e+00
5.553936362e-01 1.034825087e+00
-1.071743727e+00 -2.291342020e-01
-4.190496206e-01 3.726361990e-01
-3.924377263e-01 -1.849051595e+00
2.300508022e+00 6.782733798e-01
1.651814818e+00 7.176047564e-02
6.636832952e-01 -1.986210465e+00
-2.159763098e+00 -4.435320199e-01
-1.552513003e+00 1.914906859e+00
-1.434853077e+00 -1.082600951e+00
-6.020200253e-01 -1.782669306e+00
2.175581217e+00 2.161420822e+00
1.679214239e+00 -8.341692090e-01
3.006235659e-01 -1.477594018e+00
-1.454071522e+00 3.305916309e+00
-1.251498222e+00 -2.649064064e+00
2.120413065e+00 1.424005508e+00
1.879644990e-01 1.528765321e+00
-6.360148787e-01 4.244238734e-01
-1.795908093e+00 9.218586683e-01
-6.327904463e-01 1.616010427e+00
-6.896067858e-01 6.813102961e-01
-9.645670652e-03 -8.638122678e-02
4.051869810e-01 1.407833219e+00
-9.032145739e-01 -4.122510552e-01
2.614808083e+00 -1.146659851e+00
-8.981767893e-01 -1.009238482e+00
2.183743715e+00 1.112815380e+00
7.184271812e-01 -1.483415127e+00
1.051947355e+00 8.193492889e-01
-1.213153601e+00 4.967608750e-01
-1.880934477e+00 9.476423264e-01
-2.885483503e-01 -1.182849407e-01
1.349371791e+00 -1.195351839e+00
-5.441274047e-01 6.123185158e-02
1.492844820e+00 -4.451958537e-01
3.648667336e-01 -1.303180575e+00
9.894542098e-01 -1.154262781e+00
2.194625139e+00 3.647652864e-01
-1.675859213e+00 5.970365405e-01
-1.268435240e+00 4.698866606e-01
1.168114066e+00 -9.220374823e-01
-2.426941872e+00 -5.761964321e-01
1.058542728e-02 -7.670660019e-01
-1.186951876e+00 -4.022481143e-01
2.110842168e-01 -6.544003487e-01
-4.200267196e-01 -6.433418393e-01
1.005642653e+00 -1.367721438e+00
-2.131177425e+00 -4.679365456e-01
-8.173128366e-01 -1.128974795e+00
-1.117488503e+00 1.065142870e+00
1.804636121e-01 -8.429815769e-01
-2.726274729e-02 -1.394133806e+00
7.810191512e-01 -1.276914477e-01
2.034079790e+00 8.559378386e-01
-1.228591442e+00 -3.088903427e-01
-4.164612591e-01 -4.091846943e-01
-7.980410755e-02 1.516291857e+00
2.289229393e+00 -1.991810799e-01
1.251227260e+00 2.266546726e+00
4.665885270e-01 -1.221748471e+00
-5.407344699e-01 3.912585378e-01
-6.837842464e-01 -1.202610731e+00
5.594484806e-01 3.361478448e-01
-5.907208323e-01 2.894280553e-01
1.661888123e+00 1.297884107e+00
-2.196801603e-01 -2.002996922e+00
-3.396004438e-01 2.325982809e+00
-1.876008987e+00 5.076450109e-01
-7.545956969e-02 -7.640153170e-02
-3.453472614e+00 6.064262986e-01
-8.337339163e-01 -4.759767056e-01
1.458381563e-01 1.107771158e+00
-2.019126117e-01 6.598152518e-01
-8.649497032e-01 3.622973561e-01
-9.688941240e-01 4.450893402e-02
-1.349954247e+00 1.679011583e-01
-2.700266838e+00 3.996020257e-01
1.875290275e-02 3.957647383e-01
2.403768063e+00 3.562273383e-01
-9.239702821e-01 2.143711329e+00
7.154470682e-01 -1.776240915e-01
5.739964247e-01 -9.267261028e-01
-1.363298893e+00 9.252064228e-01
6.248838902e-01 -8.942540884e-01
-1.310217857e+00 1.299991846e+00
3.076255918e-01 -1.830899000e+00
-9.329035282e-01 5.453178883e-01
3.893101215e-01 -5.583698750e-01
-1.638153791e-01 -8.933084011e-01
-3.194586039e+00 -1.217397213e+00
1.348747462e-01 9.545877576e-02
6.359664202e-01 -1.519718170e+00
8.509516716e-03 1.328194141e-02
5.051258206e-02 3.045185208e-01
9.305918217e-02 1.673118472e+00
2.854278088e-01 1.449548721e+00
3.566739261e-01 5.674246550e-01
-3.585577011e-03 -1.907831430e-01
-6.022518873e-02 2.272287607e-01
1.671589136e+00 6.005738974e-01
7.988144159e-01 2.715002537e+00
-6.209796667e-01 -1.831497431e+00
-9.902010560e-01 -3.386785388e-01
-1.423874378e+00 -4.200287461e-01
