6.945077330e-04 2.390773967e-03
1.608473182e+00 1.259247065e+00
-1.127392530e+00 8.525159359e-01
-1.708716154e-01 -1.235827446e+00
-2.057287693e+00 4.438706040e-01
-5.900350213e-02 1.225654125e+00
-1.026003957e-01 -3.469987869e+00
-1.179420352e-01 1.635506630e+00
5.813760757e-01 8.476670980e-01
-9.661914706e-01 1.018924713e+00
1.480418086e+00 -3.392712474e-01
-2.093840122e+00 -1.120204031e-01
4.767803550e-01 -5.838099718e-01
7.116669416e-02 -9.270295501e-02
1.036668122e-01 -7.246292233e-01
1.282328367e-01 -1.222763777e+00
1.448459387e+00 -9.805558920e-01
-1.512796164e+00 3.896491528e-01
7.731440663e-01 -3.947781563e+00
-5.320519209e-03 -1.136026382e+00
1.570399523e+00 -9.062466621e-01
9.312292337e-01 6.072914600e-01
-1.889613867e-01 -4.193499386e-01
-8.492439985e-02 -9.057015181e-01
-1.880745769e+00 -6.130330563e-01
-3.702532351e-01 1.814345121e+00
-2.156894445e+00 9.328269958e-02
-1.289968491e+00 1.147705317e-02
2.029751688e-01 1.824653029e+00
9.641494155e-01 1.635881662e-01
1.000546575e+00 -3.944891691e-01
1.759581447e+00 -4.655714631e-01
1.307961702e+00 6.315575838e-01
9.029610753e-01 -1.055347681e+00
1.092671156e-01 1.251664042e+00
-2.871421576e+00 1.682219982e+00
6.940023899e-01 2.391879112e-01
-1.577577591e-01 -1.985857934e-01
4.748049974e-01 -2.483503520e-01
-2.936065912e+00 -2.066865683e+00
1.268771529e+00 1.352282763e+00
-1.192323804e+00 5.473976731e-01
1.326057673e+00 1.074853241e-01
-9.436402321e-01 -9.773318768e-01
6.236462593e-01 -3.959224820e-01
1.741489470e-01 1.723007917e+00
-6.708207130e-01 -1.529213339e-01
-6.033102274e-01 4.254184961e-01
-7.567088604e-01 1.366462469e+00
-2.166179866e-01 -2.193208694e+00
-3.374469876e-01 8.746435046e-01
4.983660877e-01 -3.078120351e-01
-1.209923863e+00 -1.226085901e+00
-3.528282166e+00 -3.347570038e+01
1.840592384e+00 -5.216471195e+00
6.153896332e+00 -5.324930668e+00
5.704158306e+00 7.064069748e+00
-1.702117920e-01 7.177613974e-01
3.415099621e+00 -2.615615845e+00
7.821388245e-01 2.906593323e+00
3.402037621e-01 2.511539698e+00
-5.879629135e+00 -9.560209513e-01
-2.232051849e+00 7.302236557e-01
7.664413452e-01 -2.911664486e+00
1.152783632e+00 1.501623392e+00
-7.788875103e-01 2.891969204e+00
-1.401659489e+00 6.684747934e-01
2.766900539e+00 -9.327821732e-01
-2.454532623e+00 3.017153263e+00
5.899960995e-01 -8.194541931e-02
2.357346058e+00 8.014833927e-01
1.808092833e+00 -4.988702297e+00
-1.340682030e+00 1.351703882e+00
3.916459560e+00 3.002624273e+00
-1.987482548e+00 4.867568016e-01
1.324772835e+00 -1.291391850e-01
-2.887702942e+00 4.088504791e+00
1.221143723e+00 -2.639330149e+00
3.772379756e-01 -2.309250116e+00
1.657977819e+00 7.039088011e-01
3.967325687e-01 -1.536967278e+00
-2.194157362e+00 1.466122985e+00
2.186676264e-01 -3.538268089e+00
2.457544804e-01 -7.878928781e-01
-1.973900557e+00 8.842446804e-01
-5.703480840e-01 -1.531392336e+00
-6.157431006e-01 -3.261547089e-01
3.631733656e+00 -7.857444286e-01
-2.372886181e+00 -1.133138657e+00
5.177830458e-01 -9.315427542e-01
-3.224247932e+00 -2.219808340e+00
-2.182029784e-01 -2.156673074e-01
6.078191400e-01 9.191134572e-02
-2.243658781e+00 1.793246150e+00
-1.757762551e+00 3.163385391e-01
5.109872222e-01 -1.814795256e+00
6.741362214e-01 4.765713215e-01
1.446627736e+00 2.661930323e+00
3.298865795e+00 -2.586920500e+00
7.175999880e-01 -1.260406494e+00
3.212070465e-02 1.646891117e+00
-2.645605326e+00 2.791953564e+00
1.809763193e+00 8.886919022e-01
5.434572697e-01 4.485692382e-01
2.886016846e+00 3.339850903e-01
9.574583173e-01 5.065488815e-02
1.357835293e+00 1.096259832e+00
1.186197042e+00 -1.862838387e+00
9.767027944e-02 6.320602894e-01
1.994004250e-01 -1.149256229e+00
4.878453016e-01 3.841159344e-01
2.301749587e-02 -9.729638100e-01
-7.602798939e-01 -1.925157666e+00
1.276228428e-01 -1.104514360e+00
-5.839408040e-01 6.593289375e-01
1.551333189e+00 9.993681908e-01
8.626916409e-01 -1.384528875e+00
9.596172571e-01 -1.030355334e+00
2.324596405e+00 7.665821314e-01
-1.228643417e+00 -3.742582798e-01
-8.543873429e-01 6.442527175e-01
-1.750533104e+00 1.171338320e+00
4.945758581e-01 1.110631943e+00
6.004357338e-01 1.336994052e+00
-1.836565733e-01 1.565280199e+00
6.559190750e-01 1.283030510e-01
-2.143950701e+00 1.533201694e+00
7.732294798e-01 5.500169396e-01
-2.806164622e-01 1.928374648e+00
5.900002718e-01 -8.245801926e-02
-1.505889773e+00 9.640485048e-01
-1.437752724e+00 7.708363533e-01
-1.355992794e+00 -9.511572719e-01
-1.427641392e+00 -1.633821368e+00
1.208161116e+00 3.698143363e-01
6.117999554e-01 7.094584703e-01
5.847316980e-01 1.607317030e-01
-1.028591871e+00 8.805781603e-02
2.596121430e-01 -3.044701815e-01
-2.419013023e+00 -1.195282936e+00
-8.815742731e-01 5.932945013e-01
-5.856252909e-01 -4.956857562e-01
3.479737639e-01 2.790474892e-01
-6.126120090e-01 -2.241472721e+00
-4.806266427e-01 9.359493256e-01
1.027006865e+00 -7.093459964e-01
1.089614034e-01 1.608942986e+00
6.736074686e-01 -2.254406691e+00
4.702549577e-01 1.631096125e+00
-1.572737694e-01 2.605543852e+00
-1.009795666e-01 -1.389710307e+00
-6.702468395e-01 -1.556265473e+00
-8.044290543e-02 1.252776146e+00
-7.064483166e-01 9.030966759e-01
1.258462429e+00 -3.282362223e-02
2.215732336e-01 -4.327239990e-01
-9.998220205e-01 5.555438995e-01
1.128554106e+00 -1.285058022e+00
-9.483294487e-01 -2.074105024e+00
1.463952780e+00 -2.633013725e-01
-2.231698036e-01 3.880872726e-01
4.755423069e-01 -2.515820265e-01
-3.790543079e-01 -8.658329248e-01
6.522377729e-01 1.745383501e+00
-1.648703933e+00 -2.935374260e+00
-1.608338594e+00 -2.321925402e+00
-1.306152344e+00 1.192660570e+00
-7.324334979e-01 6.171172857e-01
-7.625496387e-02 -1.979016662e-01
-7.049760818e-01 1.329231977e+00
-1.917622983e-01 -1.278139472e+00
5.232400894e-01 2.420546770e+00
-3.524051905e-01 -6.391856074e-01
9.595359564e-01 -9.158286452e-02
-9.743322730e-01 -1.591948271e-01
2.491312921e-01 1.086452305e-01
-1.940157056e+00 2.119339108e-01
-2.007463455e+00 -8.406484127e-02
8.391577005e-01 1.803660393e-02
8.877757788e-01 -1.148051023e+00
8.285582066e-03 1.359906673e+00
1.359101295e+00 -3.261391521e-01
1.138918757e+00 1.319370747e+00
9.937083721e-01 7.786049247e-01
2.675905824e-01 -2.487063408e+00
-1.041195154e+00 -9.902554750e-01
-1.737008333e+00 -1.266612709e-01
-9.213337898e-01 -1.895999908e-01
-6.611884832e-01 -3.291165829e-01
2.208402634e+00 1.185745716e+00
7.535455227e-01 -1.325452209e+00
2.239148140e+00 -3.344798088e-02
7.793504000e-01 -9.067363739e-01
-1.681468964e+00 -1.783318639e+00
6.357250810e-01 -7.567356825e-01
1.064821720e+00 -7.824908495e-01
-3.752048314e-02 2.756428719e-01
-8.784229755e-01 -7.452980876e-01
-2.152107716e+00 -1.227212995e-01
-1.373168230e-01 5.517132282e-01
-1.581538320e+00 1.297856808e+00
-1.080893040e+00 1.201123476e+00
4.062159359e-02 -4.935624003e-01
2.997895777e-01 4.364823997e-01
1.058790088e+00 -1.114061117e+00
-8.167718053e-01 -4.334158897e-01
-1.202829123e+00 5.470840931e-01
-4.308605194e-01 -2.101874590e+00
-6.341438293e-01 1.684479415e-01
-1.653051376e+00 3.209834993e-01
-1.839486361e+00 1.233582139e+00
8.890732527e-01 -1.255138397e+00
1.084583998e-02 -1.690409184e-01
-3.873260021e-01 1.294342995e+00
-1.398623943e+00 -4.161278009e-01
-8.179765940e-01 4.919133484e-01
1.051727057e+00 1.001679301e+00
2.165857553e-01 2.847233534e+00
2.068894386e+00 1.202040911e+00
2.671384811e-02 1.759922385e+00
-2.721823454e-01 1.529478669e+00
1.466008902e+00 -8.962125778e-01
1.276970387e+00 6.674200296e-01
-1.298008442e+00 -1.370327830e+00
1.837415576e+00 2.666351795e-01
-1.784930229e+00 -1.274495482e+00
-1.868600249e-01 3.304854631e-01
-1.433510065e+00 -8.754894137e-02
4.047204256e-01 2.207184136e-01
-3.562533557e-01 -2.311147213e+00
1.386252880e+00 7.942891717e-01
-1.171207428e+00 -8.637114167e-01
7.099015713e-01 1.394438863e+00
3.982353210e-02 1.427330375e-01
1.372577906e+00 2.532068253e+00
-1.848223656e-01 5.339863896e-01
1.049711704e+00 7.012022138e-01
6.107947230e-02 8.047509193e-01
6.645892262e-01 3.280365467e-01
6.426894665e-01 6.788871288e-01
-5.506501198e-01 -1.930928469e+00
-1.735084355e-01 -9.660717845e-01
-7.934819460e-01 1.017258048e+00
-6.885964274e-01 -1.736784339e+00
2.126240432e-01 -7.088912129e-01
-1.020502329e+00 -7.844743729e-01
-7.488770485e-01 1.126627684e+00
2.858498991e-01 5.639086962e-01
9.285253882e-01 -1.788699627e+00
-1.036269665e+00 -7.708865404e-01
