-1.443064451e+00 -1.668383479e+00
2.439066768e-01 1.637573838e+00
6.418841481e-01 -1.025799990e+00
4.467214346e-01 -1.004091024e+00
-5.630737543e-02 2.463254929e+00
-5.892406106e-01 -2.033273935e+00
-4.307407439e-01 -2.771462202e-01
9.284245968e-01 1.853838086e+00
-1.301417112e+00 1.009382844e+00
-2.755496502e-01 7.165613174e-01
-1.261308789e+00 -8.526445627e-01
1.440600991e+00 1.061886400e-01
5.017934442e-01 -7.483745813e-01
3.101078749e+00 7.404338121e-01
4.086377919e-01 -8.052818775e-01
-1.411675215e-01 -1.022543907e+00
8.221704960e-01 1.399903655e+00
-1.489841938e-01 5.544626713e-02
-3.186855316e-01 -1.023397207e+00
8.311879635e-01 2.386339903e+00
-1.226682663e+00 4.809533656e-01
8.821277618e-01 1.462964296e+00
-7.199091911e-01 -1.988873959e+00
-3.048065901e-01 -1.626117706e+00
9.171344042e-01 1.931005597e+00
1.583981633e+00 3.524259627e-01
-7.908858657e-01 2.565255761e-01
3.335160494e+00 -1.929239511e+00
7.072055340e-01 -1.766377985e-01
-1.087411880e+00 1.461385936e-02
-1.407831550e+00 4.604203701e-01
-1.243814230e-01 1.627460957e+00
9.586377144e-01 4.574092627e-01
6.538842916e-01 -5.197819471e-01
1.320077300e+00 -8.402017355e-01
2.876024246e-01 -3.319411874e-01
-2.991182804e-01 -2.107135296e+00
-2.432647943e-01 2.180415392e-02
7.976127863e-01 -9.129748344e-01
7.192245126e-01 2.151874602e-01
-1.987069607e+00 8.672352433e-01
-3.038751781e-01 -1.401062608e+00
1.169453382e+00 -9.486736059e-01
-9.527385235e-01 1.371576786e+00
-8.449699879e-01 8.963419199e-01
6.075016856e-01 9.882384539e-02
-8.051472902e-02 4.152476192e-01
-1.372711897e+00 1.421197653e+00
-5.945169330e-01 8.765131831e-01
-1.383794248e-01 1.271603584e+00
-2.861340046e-01 -2.064911842e+00
-3.529704809e-01 1.499041319e+00
3.305179596e+00 -1.507888412e+01
1.372129250e+01 -1.310677338e+01
-7.337974548e+00 -1.971161842e+00
1.153671265e+00 -3.396520138e+00
5.687996864e+00 8.783292770e-01
1.710098267e+00 1.981800556e+00
9.199619293e-03 1.289815664e+00
-1.961512566e-01 -2.188743353e-01
5.221376419e-01 7.258360386e-01
-1.826262951e+00 -2.497165680e+00
7.116394043e-01 5.190112591e-01
-1.156587601e+00 -1.771747589e+00
-1.089299202e+00 -7.535703182e-01
-2.362860680e+00 4.931011200e-01
2.651986122e+00 -1.429092288e-01
1.194542170e+00 -4.387580395e+00
-1.802729130e+00 -1.365062714e+00
9.298399687e-01 -1.151909351e+00
1.993683338e+00 8.840098381e-01
-1.539575577e+00 2.582377911e+00
1.759484529e+00 -1.500924587e+00
-3.226577044e+00 2.274814129e+00
-7.665450573e-01 2.676080227e+00
1.239324093e+00 -8.212396502e-02
-3.083300591e-02 -2.633929729e+00
-2.557282448e-01 1.863579988e+00
2.566210032e-01 -1.374229789e-01
2.286052465e+00 2.212870598e+00
-2.296414375e+00 -1.104686260e-01
-2.457767010e+00 -6.475083828e-01
3.288054466e-02 -6.005825996e-01
7.958314419e-01 -1.469612360e+00
5.164510012e-01 -1.840416789e+00
5.709778070e-01 8.679348230e-02
-2.061632156e+00 -4.559446573e-01
-6.884803772e-01 3.472584486e-01
-1.704437852e+00 -3.341362000e+00
-1.466557026e+00 -2.233140469e-01
-4.950253963e-01 -1.276863456e+00
4.379271269e-01 2.189266205e+00
-2.227061689e-01 1.480897427e+00
-1.433019638e-01 -2.083272457e+00
7.836748958e-01 -4.822675586e-01
5.894042253e-01 2.378540635e-01
-7.849815488e-01 -1.384628296e+00
-2.201107740e-01 6.838715672e-01
1.415141225e+00 -1.971127629e+00
1.328346729e+00 -1.690565825e+00
9.474220276e-01 -1.089789867e+00
2.687141418e+00 -1.747654080e-01
-3.825488091e-01 -1.049260259e+00
-1.880290627e+00 -1.799651980e-02
-3.054672480e-01 1.295169115e+00
3.995317221e+00 -8.361686468e-01
-3.880719543e-01 3.580492139e-01
-1.148552001e-01 1.888973355e+00
-2.428575754e-01 1.088746786e+00
3.091214895e-01 6.402606964e-01
-2.207926273e+00 4.338742256e+00
-1.152806044e+00 9.143446088e-01
4.558183551e-01 -6.941152811e-01
-6.196391582e-01 1.485149622e+00
-2.043445587e+00 -9.270509481e-01
-8.342877626e-01 3.890057802e-01
-6.053899527e-01 2.119429588e+00
1.140174150e+00 1.658612370e+00
4.551666975e-01 3.014948964e-02
-1.837996483e+00 -1.358998060e+00
1.854079247e+00 -1.277185917e+00
-8.152370453e-01 1.081753969e+00
2.622036934e-01 1.544389606e+00
6.328526735e-01 1.370946646e+00
1.399755001e+00 -2.489811778e-01
-4.392679036e-01 -1.176837444e+00
-3.879996538e-01 8.280657530e-01
-1.375988245e+00 -1.067059040e+00
-9.354956746e-01 -2.107211113e+00
4.656361341e-01 2.342208862e+00
1.054049253e+00 1.017156363e+00
-7.256032825e-01 1.444182873e+00
1.644936919e+00 6.114383936e-01
-1.346922517e-01 2.539474964e+00
8.711700439e-01 -1.124009848e+00
5.243902206e-01 1.320056558e+00
2.152034640e-01 -1.035496950e+00
3.744944334e-01 -1.251839161e+00
2.302069187e+00 7.591588497e-01
-3.287292123e-01 7.516732812e-02
8.104022741e-01 -2.147951365e+00
4.629544616e-01 -5.878369808e-01
-8.476517797e-01 3.208202124e-01
8.574596047e-02 -2.135434866e+00
-5.482462645e-01 -1.124753237e+00
1.318644524e+00 2.251358986e+00
5.635454655e-01 -1.168138981e-01
1.465482593e+00 3.085073948e+00
-1.516002893e+00 1.229269028e+00
6.909364462e-01 -4.752038717e-01
-7.096898556e-01 -3.384469151e-01
1.237435222e+00 8.449077606e-01
-4.429987669e-01 8.116172552e-01
7.079252005e-01 1.952911139e+00
5.574961305e-01 1.169131279e+00
6.791514158e-01 6.701519489e-01
-2.045652866e+00 2.555716038e-01
1.179752707e+00 -3.128284216e-02
-5.503792167e-01 -1.228923798e+00
1.241428256e+00 6.836706400e-01
1.341665030e+00 6.651526093e-01
9.570878744e-02 8.727098703e-01
7.263392210e-03 -3.086932003e-01
1.011328459e+00 2.266377211e+00
1.551933527e+00 5.242007375e-01
-1.539965630e+00 1.547343016e+00
-3.802541494e-01 -9.895278215e-01
-1.017719269e+00 -4.707751274e-01
1.569664955e+00 3.271267191e-02
-3.187473297e+00 1.904092550e+00
3.795803189e-01 -7.528188825e-01
2.515801787e-02 1.250000000e+00
-1.395246506e+00 -2.543944836e+00
7.772610784e-01 8.212090731e-01
9.589583874e-01 4.238472581e-01
2.251737595e+00 -1.074368954e+00
6.585338116e-01 -6.964879036e-01
2.088058472e+00 -6.304826736e-01
-1.260099113e-01 2.027362585e+00
6.401758194e-01 9.581223726e-01
2.747286260e-01 -9.290341139e-01
2.637410760e-01 -6.835409999e-01
2.089605808e+00 2.647048950e+00
2.759056091e-01 -9.241163731e-01
-2.394373417e-01 -1.476095319e-01
-1.444191039e-01 2.313271523e+00
-9.763851166e-01 -1.422730327e+00
-7.323529720e-01 -1.306074858e-01
-4.295330644e-01 7.456949949e-01
2.937529564e+00 8.764334023e-02
4.332922399e-01 -5.873533487e-01
-1.851107955e+00 -1.596622467e-01
-1.148375869e-01 1.089211583e+00
2.436822653e-01 1.060490131e+00
-2.525925636e-01 -2.051073611e-01
-1.919837236e+00 7.105230093e-01
-9.985548854e-01 -1.493919134e+00
1.472553253e+00 -1.636160851e+00
-5.883767009e-01 -1.065974474e+00
2.083318233e+00 -1.170590639e+00
2.722872198e-01 1.035382152e+00
3.999069333e-01 -1.989164829e+00
-1.009085178e+00 -4.340912402e-02
-5.059787035e-01 -1.216762066e+00
-6.094558239e-01 1.467838049e+00
1.095826507e+00 1.582905531e+00
1.257782936e+00 -5.735537410e-02
1.621691734e-01 -1.083703518e+00
1.274741888e+00 -5.931292772e-01
6.336022019e-01 -1.046927691e+00
-8.514350653e-02 -1.567860097e-01
1.007815838e+00 -6.888369322e-01
-4.766746163e-01 -4.085536599e-01
6.161048412e-01 6.031293273e-01
4.298131466e-01 4.875428677e-01
8.436083794e-02 -7.805474997e-01
-6.211544871e-01 3.016333580e-01
1.162323952e+00 -1.805954576e+00
-1.033020377e+00 -1.774486542e+00
1.048414588e+00 -1.591816425e+00
-5.066755414e-01 8.146750331e-01
-8.170122504e-01 3.927772045e-01
-8.740090728e-01 8.371853828e-01
-1.151669979e+00 6.962393522e-01
1.409064531e+00 -3.669723868e-01
5.095641017e-01 2.824540615e+00
1.410486221e+00 3.150161743e+00
4.831761718e-01 -8.657549024e-01
-1.556343913e+00 4.222647548e-01
3.599631786e-01 -4.121724963e-01
-9.736934900e-01 -2.319692612e+00
6.339850426e-01 5.527476668e-01
-8.636472821e-01 7.673856020e-01
-1.206217527e+00 -2.291195393e+00
-1.665245056e+00 -4.240801334e-01
-1.170885801e+00 1.865010023e+00
-2.880647182e+00 -1.831236601e+00
-1.949882507e+00 -1.201349974e+00
1.323233843e-01 5.016238689e-01
5.117730498e-01 2.156624317e+00
-8.753564954e-01 1.330573320e+00
-1.656743169e+00 -5.463507175e-01
3.054973483e-02 2.284634113e-01
9.728307128e-01 -1.220307708e+00
-7.585175037e-01 -2.968987226e-01
1.985176355e-01 -2.281441689e+00
-4.489058852e-01 8.327720761e-01
9.395439625e-01 1.508894444e+00
7.166785598e-01 7.407167554e-01
1.248038769e+00 5.885264874e-01
