-1.752065122e-01 -1.243764162e+00
-2.116601765e-01 -3.658224940e-01
-3.848795295e-01 -7.053543925e-01
1.698233604e+00 1.172532797e+00
-3.619044423e-01 -8.926554322e-01
4.445914626e-01 5.092989802e-01
1.283466220e-01 9.387900829e-01
-1.080340147e+00 -9.301489592e-01
-1.646434665e+00 8.124448061e-01
1.551283598e+00 2.190534592e+00
-1.322084308e+00 3.252462745e-01
1.022024393e+00 -1.818893850e-01
-9.614746571e-01 -1.426154613e+00
5.913127661e-01 2.266054153e+00
-1.050726056e+00 -1.011935592e+00
1.251098216e-01 -3.942025304e-01
1.669868529e-01 -3.278875351e-02
-2.094399929e-02 9.461158514e-01
2.176904678e+00 1.371887445e+00
5.831109285e-01 -2.388853431e-01
-1.948107779e-01 2.170418978e+00
1.967319727e+00 -1.511549473e+00
1.131042600e+00 3.429749906e-01
5.179176927e-01 -5.668599010e-01
2.176240683e+00 1.403979540e+00
-2.176104069e+00 -2.383100688e-01
-5.637747049e-02 1.534125090e+00
-1.817957610e-01 2.148663759e+00
1.127751768e-01 -9.931665659e-02
7.769926786e-01 -9.223179817e-01
1.161790848e+00 -2.632063627e-02
1.688274384e+00 1.476781845e+00
-8.027149439e-01 1.231359482e+00
-1.457924008e+00 -4.784369469e-01
5.206077099e-01 -5.062046051e-01
6.288009882e-02 -9.980320930e-01
5.877264738e-01 -6.600826979e-01
9.862995148e-01 -1.858134270e-01
-9.106366634e-01 9.292797446e-01
-4.688813686e-01 -2.637570500e-01
-2.355231524e+00 1.174302220e+00
2.244013309e+00 5.564377308e-01
-1.105465770e+00 -8.118904233e-01
-4.013729692e-01 -6.861640215e-01
-2.731814981e-01 2.345962524e+00
-1.049801826e+00 -1.375549555e+00
1.598911285e-01 2.744072676e-01
6.091310978e-01 -1.751390576e+00
7.779169679e-01 -1.311904192e+00
1.566895723e+00 5.806024373e-02
-3.636000752e-01 1.026521206e+00
-8.312903345e-02 -1.506519794e+00
-1.056577301e+01 -1.253495598e+01
2.552920341e+01 6.231300354e+00
-8.187707663e-01 -3.338573456e+00
5.138599396e+00 3.863414764e+00
4.585430145e+00 -3.195392609e+00
-1.976948738e+00 4.744645119e+00
2.702147484e+00 -2.677165985e+00
1.123217821e+00 -1.670096874e+00
-1.071448326e+00 3.603570461e-01
-1.434143543e+00 9.885644913e-02
-1.034377813e+00 3.092727184e+00
2.336742878e+00 -4.063222408e-01
-4.588751793e-01 -2.901924610e+00
1.350132227e+00 -3.678431988e+00
-7.310957909e-01 3.305748940e+00
1.749693513e+00 -3.693802834e+00
2.097551823e-01 -4.897212982e-02
-1.415249228e+00 2.681292772e+00
1.607762456e+00 2.171889544e-01
9.891676903e-02 -3.644997478e-01
6.128686070e-01 -2.481141686e-01
-1.250539541e+00 1.678509712e-01
5.200137496e-01 6.757963896e-01
6.762706041e-01 3.455485106e-01
2.123100758e+00 2.529853344e+00
-1.974815845e+00 -1.676121354e+00
-1.595979571e+00 1.464794874e-01
1.416930795e+00 -1.043363333e+00
4.077937603e-01 -2.727031708e-02
4.959963560e-01 8.913278580e-01
-1.104585171e+00 -1.563341916e-01
-2.731823921e-01 -3.639295578e+00
-2.148649693e+00 6.487523317e-01
-1.043606162e+00 -2.866423130e-02
5.306427479e-01 2.388131618e-02
1.375307798e+00 8.158649206e-01
-2.023485184e+00 -9.896979332e-01
-1.690168738e+00 3.038176894e-01
1.268132091e+00 -9.031679630e-01
2.817306995e+00 -1.412560940e+00
3.885089159e-01 4.102914333e-01
7.126140594e-01 2.641679645e-01
5.568834543e-01 -5.441234112e-01
6.108308434e-01 -1.210692883e+00
-3.260767460e-01 -6.823033094e-02
1.371499300e+00 -2.870829105e-01
3.791534901e-01 2.261529565e-01
4.290862083e-01 8.712327480e-02
3.919186592e-01 8.359332681e-01
8.054720163e-01 -1.514816880e+00
1.005217671e+00 -4.909809232e-01
2.479846954e+00 -3.389755487e-01
3.663306236e-01 -1.075795412e+00
-4.612958431e-02 -2.023023367e-02
-2.664157629e+00 6.894290447e-01
3.861375153e-01 -1.112855673e+00
-4.190618396e-01 -2.055217266e+00
1.061566830e+00 7.108035088e-01
-1.897450328e+00 6.184018850e-01
-4.213204384e-01 -2.645247698e+00
-2.644060850e-01 8.622025847e-01
-1.075982332e+00 1.200945377e+00
2.107241392e+00 -4.749217033e-01
-1.411967278e-01 5.751720071e-01
-1.383702040e+00 -3.307679176e+00
-9.292951822e-01 3.126926422e+00
-1.424816132e+00 -1.904376388e+00
-7.749927044e-01 1.505038500e+00
1.224835753e+00 7.620953321e-01
1.878375530e+00 9.353024960e-01
1.022172451e+00 -2.378254414e+00
1.891202033e-01 -1.695458651e+00
3.188410997e-01 1.918346167e+00
-1.534466505e+00 5.762931705e-01
-1.244774342e+00 1.298016429e+00
-3.144493699e-02 2.344572097e-01
-1.114889860e+00 -1.936409473e+00
-2.361789644e-01 -1.209443450e+00
1.054778814e+00 -1.012238503e+00
-7.885760069e-01 -3.502623439e-01
-2.129500628e+00 6.430835128e-01
1.619286537e+00 -2.486343861e+00
-3.216696978e-01 1.030836105e+00
7.980029583e-01 -1.388323188e+00
-1.777289271e+00 2.754086971e+00
-1.169178009e+00 1.059749842e+00
4.240794778e-01 -1.371968031e+00
-7.678427696e-01 4.564304054e-01
4.411397576e-01 1.055606008e+00
8.076596856e-01 -1.076724052e+00
1.723229885e-01 -2.243683577e+00
-9.929833412e-01 4.723137617e-01
1.433485448e-01 1.056279242e-01
1.380622864e+00 -9.912956953e-01
-5.193504691e-02 2.035079002e+00
9.171018600e-01 2.003445029e-01
1.107528806e+00 1.901276588e+00
1.921489239e+00 -6.266034842e-01
1.476523280e+00 -1.789910793e-01
-2.936287403e+00 4.828310013e-01
-1.341361046e+00 5.335503817e-01
-2.927824855e-01 1.073147178e+00
2.565564871e+00 -1.212551355e+00
1.942105591e-01 6.672824621e-01
-3.072559834e-01 1.130673289e+00
-1.453740001e+00 -7.728027701e-01
-4.759147167e-01 1.053278208e+00
-1.287937284e+00 1.219009399e+00
-3.707858920e-01 1.074743271e+00
-1.453789175e-01 -5.473687053e-01
1.261819899e-01 5.599058867e-01
8.844756484e-01 5.676584840e-01
-1.616931081e+00 -4.629594684e-01
-1.833858013e+00 1.519103169e+00
-3.215222359e-01 2.850545049e-01
-1.282440662e+00 1.858422458e-01
-6.068586111e-01 -2.240714550e+00
1.159429431e+00 1.712042093e-02
-1.096695185e+00 1.185640454e+00
-6.560570002e-02 -9.861756563e-01
-1.200868487e-01 -1.761090636e+00
1.906581640e+00 5.161973834e-02
1.251360178e+00 -5.805537105e-03
-1.718431234e+00 -4.833995104e-01
1.487138510e+00 -2.932856083e-01
-7.853506804e-01 2.807554603e-01
1.474451303e+00 -5.441347361e-01
3.318540752e-01 -1.926722765e+00
2.252674997e-01 -1.864525080e+00
1.051728725e+00 -1.128742218e+00
1.128891349e+00 8.611392379e-01
-1.213961363e+00 8.089804649e-02
-7.079145908e-01 -5.430786610e-01
-1.717738152e+00 -1.168063879e+00
2.501876593e+00 -2.890912890e-01
-9.133117199e-01 -8.456555605e-01
5.471199751e-03 8.046177030e-01
1.261411786e+00 -1.548804045e+00
8.256934881e-01 -9.434151053e-01
1.799577951e+00 5.420036316e-01
-5.153274536e-01 7.313709259e-01
1.670002580e+00 -4.867464304e-02
3.960568905e-01 -1.419428229e+00
-3.527511060e-01 4.965353906e-01
3.506276608e-01 -3.703559041e-01
1.375202894e+00 3.193283081e-01
-1.020704985e+00 -4.301796854e-01
1.662686586e+00 -6.699112654e-01
-2.053246260e+00 7.625601888e-01
-2.411042690e+00 -1.001647234e+00
-2.441477060e+00 -3.709992170e-01
1.770648956e+00 -1.621248841e+00
-5.332370996e-01 -1.093886852e+00
2.246893644e+00 -3.188087940e-01
2.510900497e-01 3.640799522e-01
1.176322818e+00 -1.983127475e+00
-1.239358425e+00 -2.365767956e-02
-6.368293166e-01 -6.124680638e-01
-1.470703125e+00 -7.504513264e-01
3.481814384e+00 7.911236882e-01
-5.252214670e-01 -1.451412201e+00
-1.329760551e+00 1.012758970e+00
5.695914030e-01 -1.794735193e-01
-9.369832277e-02 -1.296147585e+00
4.967590570e-01 6.772850752e-01
1.567996264e+00 -1.836789131e+00
-2.614026070e-01 1.104995489e+00
9.088441730e-01 -1.156418443e+00
2.320790291e-01 5.614693761e-01
-9.121204615e-01 -3.675649166e-01
3.826670647e-01 -2.910738587e-01
-7.259521484e-01 -6.502676010e-01
1.929702520e+00 9.778555036e-01
-3.797282875e-01 -1.053565025e+00
-2.578532219e+00 9.163240790e-01
1.162345290e+00 7.789890766e-01
4.187244475e-01 -2.337750793e-01
-2.812976241e-01 -1.323364675e-01
-3.511496484e-01 8.510176539e-01
1.940658092e-01 3.831366301e-01
1.935331821e+00 -5.421488285e-01
4.361693859e-01 -7.748159766e-01
-1.893614292e+00 1.100629807e+00
1.021863699e+00 2.093371391e+00
-4.979689717e-01 1.886577904e-01
-2.286679506e+00 9.571003914e-02
-4.695007801e-01 -3.778453350e+00
-2.861174941e-01 9.835518599e-01
-3.126990199e-01 -3.059486747e-01
-1.352009654e+00 -1.492781401e+00
-7.950696945e-01 1.472997904e+00
-3.361699581e+00 1.947116256e-01
2.266292095e+00 4.241064787e-01
2.266970634e+00 -6.722554564e-03
2.234829664e-01 -8.834812641e-01
-1.228853464e+00 6.377696991e-01
1.175668120e+00 -1.218959689e+00
2.091861010e+00 -4.580864310e-02
