-1.029176950e+00 -1.153661132e+00
1.812732697e+00 4.566370845e-01
-8.039488792e-01 1.545399666e+00
2.027374029e+00 -1.206712365e+00
1.082490683e+00 -1.144554496e+00
-1.464383602e+00 -6.060453653e-01
1.642647982e+00 3.213705540e+00
-5.344938040e-01 5.764767528e-01
9.729397297e-02 -6.185555458e-01
-1.076218367e+00 3.194480538e-01
-9.407515526e-01 1.661978006e+00
-3.971886635e-02 5.062677860e-01
1.374461651e-01 3.318934143e-01
1.079240561e+00 1.893844604e+00
9.700113535e-01 1.501913309e+00
6.824640632e-01 6.231414676e-01
-4.023391604e-01 -1.137036920e+00
1.174839973e+00 -8.279452324e-01
9.645791054e-01 8.081937432e-01
9.531885982e-01 2.139637232e+00
-1.974222064e-02 1.760795236e+00
2.316820860e+00 1.005274653e+00
-2.041915953e-01 -7.829337120e-01
-1.168019652e+00 6.208692789e-01
4.514232874e-01 -2.223248959e+00
5.863505602e-02 1.514683247e+00
1.281921864e+00 -7.296136618e-01
-1.156284690e+00 2.674678087e+00
2.946602106e-01 -1.076493263e+00
1.556947827e-01 3.704927921e+00
-4.450631142e-01 -1.408208370e+00
-9.884589911e-01 2.702153921e-01
1.883854270e-01 1.208832502e+00
-1.368708014e-01 1.105485916e+00
2.631735802e-01 9.803017974e-02
1.718622446e+00 -1.385287881e+00
1.999144435e+00 -8.182812929e-01
8.107641935e-01 4.123162329e-01
1.735487938e+00 1.587628126e-01
-8.240824342e-01 7.806921005e-01
-7.381377220e-01 5.069429874e-01
-2.448314905e+00 -1.295446157e+00
-5.961180925e-01 -1.851963401e-01
5.082433224e-01 5.746297836e-01
1.279436946e-01 -1.407697797e-01
-1.884074211e-01 -4.982999563e-01
2.887008488e-01 3.228494227e-01
1.584972143e+00 -6.488972306e-01
2.871583104e-01 1.829460144e+00
4.271752536e-01 2.313946187e-01
3.622807562e-01 1.513063431e+00
1.294488311e+00 1.295270205e+00
-1.360552597e+01 2.600662231e+00
4.967407227e+00 -7.473280907e+00
-1.968628407e+00 -4.550795555e+00
1.209224224e+00 -2.274737358e-01
-4.526148319e+00 -1.381723285e+00
-3.676605940e+00 -1.590652466e-01
6.012332916e+00 -1.340236187e+00
-1.753191948e+00 2.903776169e+00
-1.394103050e+00 -2.088613749e+00
1.089007854e-01 -2.050092220e+00
-8.013674617e-01 -1.187985897e+00
-2.469549179e-01 1.684343338e+00
1.632899046e-02 -5.391268730e-01
7.364414930e-01 -2.856449842e+00
1.334024429e+00 -4.455089569e-02
1.713119507e+00 1.194808602e+00
-9.551642537e-01 1.254371881e+00
1.813411713e-03 1.901912212e+00
-2.576787472e+00 -2.807682991e+00
1.549694538e+00 -3.625333905e-01
7.671853304e-01 -2.381636381e+00
1.055132985e+00 -1.785393238e+00
-1.021317005e+00 -2.038474560e+00
-2.646286011e+00 -6.943714023e-01
1.569695950e+00 -1.951584339e+00
7.970417738e-01 -2.114960670e+00
-3.588652372e+00 -8.159971833e-01
-1.455610752e+00 5.889592171e-01
1.301705122e+00 -6.466329098e-02
7.895375490e-01 -6.311486959e-01
9.289205074e-02 2.940782905e-02
7.802147269e-01 -7.420173883e-01
4.290516376e+00 -3.289903641e+00
4.707624912e-01 -1.005789638e+00
-3.193842173e-01 1.149010062e+00
1.364488959e+00 2.967823744e-01
8.614455462e-01 1.913537264e+00
3.091480255e+00 2.606976032e-01
1.345888972e+00 9.589729309e-01
-3.724141717e-01 -1.353111863e+00
1.330033064e+00 -8.207482696e-01
-2.743900299e+00 -2.033340454e+00
-5.976986885e-02 3.508994579e-01
8.863437176e-01 -7.589795589e-01
3.466725349e-02 -1.186969280e-01
-1.431719303e+00 6.411924958e-01
1.393158436e+00 -1.968460321e+00
-1.246400476e-01 -1.122768521e-01
2.933602571e+00 1.829828322e-01
-7.140878439e-01 -4.850607514e-01
-2.910275459e-01 -5.109730959e-01
1.343457937e+00 3.737737536e-01
-1.316686749e+00 -1.198100805e+00
-3.254449069e-01 -2.684704363e-01
-1.330710411e+00 8.024027348e-01
-1.168278813e+00 6.312801838e-01
7.686524391e-01 1.413871050e+00
7.640157938e-01 -5.077034831e-01
6.384255886e-01 5.149734020e-02
-2.166610718e+00 2.138716221e+00
-2.456450462e-01 -4.363203049e-01
1.029377580e-01 4.464493990e-01
9.826199412e-01 -2.929262519e-01
-1.001942635e+00 -4.253336191e-01
1.812916756e+00 2.573122501e+00
-2.138924003e-01 5.569229126e-01
4.224119782e-01 6.580384970e-01
-2.039384544e-01 -2.920128822e+00
-1.451045513e+00 1.234434128e+00
-3.178229332e+00 8.441992998e-01
1.138212562e+00 1.515156269e+00
5.688292384e-01 -4.978478551e-01
2.514933944e-01 -2.495431602e-01
1.679872394e+00 5.946990103e-02
-3.743866682e-01 7.491198182e-01
4.954229593e-01 1.538681626e+00
2.958376706e-02 1.263765097e+00
-1.760874391e+00 7.555591464e-01
-4.799402952e-01 1.275969148e-01
8.921595812e-01 1.171194553e+00
-1.486513615e+00 1.276406050e-01
-1.055627227e+00 -8.577695489e-01
-1.084657192e+00 -1.026883125e+00
8.801591396e-01 7.094302773e-01
2.587434053e-01 7.577974200e-01
1.808699608e+00 -1.164278865e+00
-2.580124378e+00 1.853436232e-01
5.787873268e-02 1.453963995e+00
1.205683589e+00 8.792874813e-01
-9.115337133e-01 5.094106197e-01
-1.516079307e+00 5.817687511e-01
-1.093591809e+00 -1.359900236e-01
-1.972420454e+00 -6.198979616e-01
1.576058120e-01 2.006476641e+00
2.940477729e-01 -4.613645077e-01
1.166423559e+00 -1.989893794e+00
7.077741027e-01 -1.011407018e+00
1.971182227e-02 -1.003110170e+00
-1.473268270e+00 9.364792109e-01
-1.246451616e+00 9.937242270e-01
-1.485154629e-01 -9.007419348e-01
-9.498727322e-01 6.966018081e-01
-8.491202593e-01 2.957171798e-01
-1.615296960e+00 -1.387079000e+00
1.758592486e+00 6.032932997e-01
1.338511705e+00 1.387614846e+00
8.962160349e-01 -5.027425885e-01
-1.082588434e+00 3.078639507e-03
1.664774895e+00 1.392394066e+00
-2.214492559e+00 1.190619469e+00
-7.728226185e-01 -9.256355166e-01
5.866031647e-01 1.663320065e+00
1.782194078e-01 -7.590281963e-01
1.188614607e+00 -4.857507050e-01
-7.542467117e-02 -5.579838753e-01
1.809426546e-01 -1.284491777e+00
4.329224229e-01 -2.035202265e+00
4.490399957e-01 2.768951654e-01
-1.471887827e+00 -4.239475727e-01
-1.723276854e+00 -1.902889013e+00
-2.171361923e+00 -4.078105092e-01
-6.695729494e-01 -7.129942179e-01
1.187534928e+00 -4.087085128e-01
-5.422841311e-01 -7.875006795e-01
7.863733172e-02 -1.231488705e+00
-5.358444452e-01 -1.785836458e+00
-1.835315585e+00 1.489434719e+00
2.948199511e-01 8.774556518e-01
-4.462188482e-01 -4.540541172e-01
-2.944949865e-01 3.310813427e+00
-5.127310753e-03 -1.597305536e+00
1.643990040e+00 2.317408085e+00
-7.047004700e-01 -1.768259048e+00
1.038291812e+00 3.414612412e-01
-5.183674097e-01 -1.019954681e-03
-1.248116493e+00 -1.731416941e+00
2.431627750e+00 -1.066270471e+00
-4.824758768e-01 2.284925938e+00
2.615624905e+00 -1.350364208e+00
-6.159342527e-01 -9.446949363e-01
-7.684268355e-01 6.439075470e-01
-8.219734430e-01 -4.614606798e-01
-8.791604042e-01 4.289126396e-02
-3.689678907e-01 4.896807969e-01
3.971471637e-02 1.078770876e+00
-1.330215931e+00 -7.721042633e-01
7.546164840e-02 2.367605686e+00
4.431046247e-01 -9.277369976e-01
-4.745483398e-03 1.375704885e+00
-7.138842344e-01 -8.966684341e-01
1.173212051e+00 1.224351168e+00
2.771674871e+00 -2.326682806e-01
4.061799049e-01 -2.409619570e+00
2.544412017e-02 -9.455530047e-01
3.069482446e-01 9.713660479e-01
1.030350208e+00 -4.803629220e-01
1.180936098e-01 -2.140449286e-01
1.769041181e+00 -3.920931220e-01
-1.186822534e+00 -1.352368474e+00
-1.378255367e+00 7.957488298e-03
1.161225557e+00 -3.138405681e-01
4.801640511e-01 -3.328747451e-01
-1.690546989e+00 8.917134404e-01
-3.995376825e-02 -6.821821928e-01
9.069368839e-01 -8.596433699e-02
4.959124029e-01 -9.697915316e-01
2.025127888e+00 -2.518572807e+00
8.781275749e-01 5.584149361e-01
1.402382135e+00 2.884761095e-01
-9.685934782e-01 -1.567832828e-01
2.398600101e+00 -4.829931259e-01
1.181076884e+00 -2.678925395e-01
-7.527409792e-01 2.595018387e+00
-8.726878166e-01 8.378704786e-01
-1.517048717e+00 -6.496003270e-02
-1.099376440e+00 -2.629780769e+00
-1.035490870e+00 -5.312505364e-01
1.111052930e-01 -2.643248439e-01
-5.387088060e-01 -1.955723763e-02
-1.720821738e+00 -6.195166111e-01
8.415006399e-01 -1.328324556e+00
3.420931101e-01 -2.073893070e+00
1.208818674e+00 -1.548490405e+00
5.739474893e-01 -1.423115730e+00
3.545345068e-01 1.050977826e+00
1.026165366e+00 9.805345535e-01
2.107349873e+00 5.417017341e-01
7.769196033e-01 4.040709734e-01
1.946227074e+00 7.323805094e-01
4.614218175e-01 1.379505873e+00
4.900003076e-01 9.023957253e-01
1.013510466e+00 3.353875875e-01
-1.837678909e+00 -4.654784203e-01
2.082832009e-01 -1.992276549e+00
-6.413379908e-01 -1.052787185e+00
1.674155354e+00 -4.676170349e-01
-1.081815362e-01 -7.733558416e-01
7.424296141e-01 -1.254285336e+00
