-1.800310612e+00 1.689306498e+00
-7.652485967e-01 1.106862783e+00
-5.703206360e-02 7.585246563e-01
-1.784371138e-01 1.573180437e+00
-2.324327528e-01 -4.118659019e+00
2.671414018e-01 3.148242831e-01
1.726019502e+00 1.548403978e+00
2.886299193e-01 -7.838620245e-02
-1.252542019e+00 1.755935431e+00
1.731755018e+00 -6.070339680e-01
-2.147948265e+00 2.447143644e-01
1.012925029e+00 1.142469168e+00
1.801191688e+00 -1.120007634e+00
7.262036800e-01 2.241442919e+00
-5.672272444e-01 7.787775397e-01
-1.057239056e+00 -2.353883028e+00
-1.067039490e+00 -2.679103911e-01
-1.407426119e+00 1.508498490e-01
1.013103724e+00 6.838744283e-01
1.080369473e+00 -2.995065153e-01
9.758040309e-01 2.360632896e+00
8.910920620e-01 -1.074618816e+00
-1.677551866e+00 -1.776759982e+00
7.209261656e-01 -2.717570782e+00
2.490578294e-01 6.546513438e-01
-4.037714005e-02 1.097390056e-01
-7.208108902e-02 5.848007202e-01
4.455828965e-01 1.301239133e+00
2.255334139e+00 -5.741850734e-01
-1.416178942e+00 -1.515508771e+00
7.844294310e-01 8.155452609e-01
6.561259031e-01 2.170362949e+00
-1.077428222e+00 2.594814062e+00
-2.034026623e+00 -5.397410989e-01
-2.010785580e+00 -5.193303823e-01
-1.833076000e+00 -1.414164782e+00
-2.921273708e-01 -9.829664230e-01
1.595684290e+00 -1.224671125e+00
-6.010839939e-01 5.497499108e-01
-1.016761184e+00 -1.387339830e-02
-2.214306831e+00 -1.091860056e+00
1.399085045e+00 1.188821077e+00
-2.125360668e-01 -1.600795984e-02
-5.580918193e-01 -8.260139823e-01
4.588522315e-01 8.308239579e-01
8.596968651e-01 1.850641072e-01
1.488548279e+00 -4.083265662e-01
2.695851803e+00 -1.584218144e-01
6.591437459e-01 1.668850422e+00
1.427368641e+00 -1.657107353e+00
6.689468622e-01 -2.224586725e+00
-1.989039779e-02 -2.065317154e+00
3.195426941e+00 -1.110677338e+01
1.479871750e+01 7.369827271e+00
-1.197642994e+01 4.110696793e+00
-1.015341187e+01 8.306877136e+00
5.394192696e+00 -1.198660469e+01
1.828256607e+00 -9.432098866e-01
1.967335701e+00 -1.616363525e+00
2.054663658e+00 2.162927151e+00
-1.726048470e+00 -8.694610596e-01
5.133991241e-01 5.622721910e-01
1.449077606e+00 -2.439895868e+00
4.025377274e+00 5.798223019e-01
6.071305275e-01 2.638878822e-01
-1.561629295e+00 -2.883338451e+00
1.682579994e+00 4.770781994e-01
-4.664404392e+00 -5.701926947e-01
-1.311160207e+00 2.725349665e+00
1.712163448e+00 -1.730394006e+00
-4.463791847e-01 1.518851995e+00
9.373688698e-02 -1.190654516e+00
-3.230617046e+00 -1.043610334e+00
-1.035465121e+00 2.290653706e+00
-3.451054096e-01 7.339441776e-01
4.658063650e-01 1.355561495e+00
-2.659847975e+00 -1.420005202e+00
-2.366941452e+00 -1.138173819e+00
-1.870483875e+00 1.695423245e+00
3.759867847e-01 -1.978354454e+00
1.257342577e+00 -1.975865215e-01
3.307591081e-01 -1.416506171e+00
-9.652280807e-01 3.073495626e-01
-2.600653470e-01 -1.598791242e+00
2.073265910e-01 3.237349391e-01
1.742453337e+00 2.163614035e+00
2.570703983e+00 3.693258762e-02
-9.240812063e-02 -8.162208796e-01
8.534577489e-01 2.810583115e-01
-5.958874226e-01 1.429188728e+00
4.611096382e-01 -2.908980250e-01
-4.284234047e-01 -2.258800268e-01
4.709013700e-01 1.911184043e-01
1.973506808e-02 -6.158076525e-01
7.384431362e-01 -5.406880379e-01
-6.812202930e-02 -3.612483978e+00
-9.954298735e-01 -3.587729931e-01
2.611532211e+00 1.103500962e+00
1.166398168e+00 2.612171412e+00
-2.576205134e-01 -5.983847380e-01
-9.991693497e-02 -3.878012896e-01
-7.496637702e-01 5.643898249e-02
2.676603794e+00 -2.660855770e+00
1.690339088e+00 2.742643118e+00
7.414466143e-01 7.520081997e-01
9.464522600e-01 -7.154304981e-01
1.133297920e+00 1.094130516e+00
1.076599360e+00 -1.067576170e+00
8.912048340e-01 -1.066326618e+00
1.359320641e+00 -2.124248981e+00
-9.836290479e-01 1.263198853e+00
-5.087164640e-01 1.276777267e+00
1.462680459e+00 5.603121519e-01
-3.185175180e+00 -3.586345911e-01
1.753434539e+00 7.190303206e-01
-2.025269032e+00 6.073460579e-01
4.211014509e-02 -6.279515028e-01
1.390631914e+00 7.182077169e-01
-6.742458344e-01 -2.322883129e+00
-2.027344704e+00 1.399195194e+00
1.133044124e+00 4.767456055e-01
-2.305228561e-01 -5.054009557e-01
8.415727019e-01 7.924329042e-01
-4.179963768e-01 -1.847635984e+00
7.100127935e-01 1.659836054e+00
-1.944337487e+00 -1.465364695e+00
1.028025150e+00 1.415162086e+00
2.242287159e+00 -7.155963778e-01
1.594277024e+00 -1.026246071e+00
-7.445195317e-02 4.729707837e-01
1.832930446e+00 7.426099181e-01
-1.819007039e+00 -7.302531004e-01
-1.142622232e+00 1.385554552e+00
1.821756005e+00 -1.313445091e+00
1.570987105e-01 1.199063301e+00
1.360280514e+00 4.157214165e-01
1.755449533e+00 -2.795959115e-01
-1.406986713e+00 -1.718371511e+00
1.119789600e+00 5.113397241e-01
-1.154731631e+00 1.450453043e+00
-2.882205248e-01 1.020591974e+00
-7.908176184e-01 8.033831120e-01
-5.279382467e-01 -9.972278476e-01
5.274169445e-01 -1.503460646e+00
-2.043526173e-01 -1.066102505e+00
1.618192673e+00 -5.349369049e-01
2.121946573e+00 1.468693733e+00
-9.277715683e-01 -5.245518684e-01
1.577527046e+00 1.498251081e+00
-1.061891615e-01 2.669721603e+00
-2.066513151e-02 1.945629716e+00
-1.973291755e+00 2.130788565e-01
-1.096554995e+00 1.229180098e+00
5.735897422e-01 1.124361396e+00
-1.032966733e+00 -1.454539537e+00
1.429698467e+00 1.831546068e+00
5.921232700e-01 -4.162260592e-01
6.389547586e-01 5.166017413e-01
1.336938143e+00 6.276839972e-02
1.502961755e+00 -4.081550837e-01
-2.101593971e+00 1.201771379e+00
-8.965355158e-02 5.066379309e-01
3.785648942e-01 -9.525901079e-02
-3.750416636e-01 2.386113405e-01
-1.004062414e+00 -7.523945570e-01
-5.628164411e-01 7.325564623e-01
-7.160042524e-01 -1.087277174e+00
-8.308278322e-01 -2.820553780e+00
5.059317350e-01 -1.019400835e+00
-7.156316638e-01 2.240469456e+00
-3.359188437e-01 5.818307400e-04
6.079890728e-01 -3.009160519e+00
2.658126056e-01 -1.390285492e+00
1.585128784e+00 -6.030837893e-01
1.634237766e-01 -1.937042713e+00
3.500410318e-01 1.812762499e+00
1.201630592e+00 -4.447800219e-01
9.693433642e-01 4.887496829e-01
-6.559081078e-01 -6.845552325e-01
-1.101957560e-01 5.916178226e-01
-1.677237749e+00 -6.489435434e-01
1.934303045e+00 -2.606214046e+00
1.012531042e+00 1.589381576e+00
-5.526100397e-01 -1.213413000e+00
-7.466167808e-01 -1.118654251e+00
-2.379884243e+00 -3.475083709e-01
2.880830169e-01 4.216533899e-02
-3.915859461e-01 -1.397487164e+00
-7.179922462e-01 4.887072742e-01
1.566979051e+00 3.410612941e-01
-3.575939536e-01 -1.408620924e-01
-3.387305439e-01 -4.306075573e-01
5.844106078e-01 8.510106802e-01
3.118910789e-01 7.003307343e-03
-2.100916624e+00 -3.367001414e-01
1.397865534e+00 -1.932644129e+00
1.590344787e+00 -1.471227884e+00
4.439953864e-01 5.617645979e-01
-1.516818404e+00 -5.213234425e-01
8.485572934e-01 1.325905323e-01
-8.098858595e-01 3.859345019e-01
-2.494671106e+00 -1.230197787e+00
-7.650655508e-01 -4.272955060e-01
1.393836260e+00 -5.513462424e-01
-6.911101937e-01 -1.265884280e+00
3.605173528e-01 1.040357828e+00
4.102616906e-01 -2.303767502e-01
-6.699064970e-01 9.228520989e-01
1.692686558e+00 -1.220920801e+00
2.353752136e+00 -1.142018795e+00
-8.263040781e-01 -9.779731035e-01
1.352081537e+00 3.569579124e+00
-1.756374598e+00 -1.146722794e+00
-1.310270548e+00 -1.624168634e+00
9.025986195e-01 1.081602573e+00
-1.452484369e+00 -6.514124870e-01
1.498035789e+00 1.554394126e+00
7.483067513e-01 -1.485418200e+00
3.827218711e-01 1.220586300e-01
-8.279010653e-01 9.424712062e-01
-1.643916249e+00 1.379657030e+00
6.165953279e-01 -6.272363663e-02
-4.857687950e-01 -3.098568916e-01
-6.469458342e-01 -1.655128121e+00
1.333565593e+00 -2.799588442e-02
1.163163781e+00 2.971580029e-01
-2.197462082e+00 1.157851338e+00
-5.596292019e-02 3.412403464e-01
-1.046123981e+00 7.014907002e-01
8.205064535e-01 -6.892158389e-01
-1.023279428e+00 1.821813583e-01
1.266080856e+00 -4.958629608e-01
1.008880615e+00 4.404341280e-01
-6.766664982e-02 -5.033353567e-01
-1.999628544e+00 -3.917288780e-02
2.447928786e-01 6.326714158e-01
2.963435054e-01 5.702374578e-01
-1.192324996e+00 6.317119598e-01
-1.377219200e+00 -3.065210819e+00
-1.544505358e+00 4.551118612e-02
1.208490729e+00 -4.030389786e-01
1.866587996e-02 -1.494185805e+00
-1.057500720e+00 -6.720241308e-01
-1.072347164e+00 -1.776862741e-01
-6.009895802e-01 1.293161988e+00
7.134207487e-01 -2.354143381e+00
-9.344289303e-01 -9.404232502e-01
9.870131612e-01 8.287006617e-01
8.621124029e-01 6.997632980e-02
9.037705660e-01 8.725845814e-02
