2.304926515e-02 1.159772158e+00
-1.440397143e+00 1.615650654e+00
-6.907598674e-02 4.631997645e-01
7.579984665e-01 -2.427008152e+00
3.180518448e-01 -1.119592935e-01
8.760903776e-02 6.911033392e-01
1.433738112e+00 5.060110688e-01
1.401101589e+00 6.049233079e-01
-4.987714589e-01 -3.836314380e-01
-6.595354080e-01 -3.384256959e-01
2.509999275e-02 1.107480407e+00
-9.433914423e-01 6.157277822e-01
6.614607573e-01 1.950570941e-01
2.291930020e-01 -2.214565873e-03
-1.308108211e+00 2.320351362e+00
2.801453173e-01 -4.088519812e-01
1.154203653e+00 -2.445352376e-01
-4.800783992e-01 4.268954396e-01
2.248827457e+00 -1.280082345e+00
-3.349583745e-01 6.470218301e-01
1.508762687e-01 1.247077465e+00
1.217065096e+00 2.307861447e-01
-1.296154976e+00 -2.481729984e-01
5.590801835e-01 5.262348652e-01
-3.115124702e-01 -2.334467471e-01
5.987380743e-01 -2.367777348e+00
-7.902709842e-01 4.605128616e-02
-1.899592638e+00 -8.243290782e-01
-8.137419820e-02 1.688879728e+00
-2.499470711e+00 -1.314250708e+00
-5.611700416e-01 -8.411545753e-01
6.879448295e-01 -1.248719811e+00
1.580000162e+00 -1.221067071e+00
-2.903774738e+00 1.844694257e+00
1.239998698e+00 8.335530758e-01
-4.333330393e-01 1.502431035e+00
-1.259617567e+00 1.341451406e+00
-1.711368799e+00 2.009235620e+00
-7.544786930e-01 4.558501542e-01
-5.792143345e-01 4.378741980e-01
-2.478067875e+00 -2.486065626e+00
6.207126379e-01 -1.603763402e-01
1.221793056e+00 -6.466248631e-01
8.884035349e-01 -2.891024828e+00
-1.669413328e+00 8.264727592e-01
-2.087809801e+00 2.854071259e-01
1.104338408e+00 -1.203909636e+00
-1.435299635e+00 1.786109328e+00
6.073800921e-01 -2.902464271e-01
-3.387712240e-01 -5.786193609e-01
-1.479666233e+00 -1.101541877e+00
9.619419575e-01 4.088449478e-01
-7.282760620e+00 2.698862076e+00
-1.031467438e+00 -7.506427765e+00
-1.135497284e+01 1.432457161e+01
-1.878994942e+00 2.182353258e+00
2.357587814e+00 -7.922387123e-01
2.838542461e+00 -4.495625019e+00
1.663415909e+00 -2.624744892e+00
-8.483757973e-01 -7.383743525e-01
-2.064375877e-01 -4.895412922e-02
2.219475746e+00 5.599718094e-01
1.920961857e+00 1.165322304e+00
-1.282058954e+00 3.122045279e+00
8.797518015e-01 -9.656572342e-01
-2.410992146e+00 -6.565173864e-01
-9.221982956e-01 -1.022453308e+00
-1.485963583e+00 5.872143507e-01
-7.505290508e-01 1.522135735e-01
-1.743676305e+00 -2.142085075e+00
3.386172295e+00 -7.086342573e-01
-9.916675687e-01 7.351148129e-01
1.738330841e+00 -1.353437662e+00
-3.176895380e-01 -2.033854485e+00
5.986260176e-01 1.293228865e+00
1.361200452e+00 3.432008266e+00
1.133286834e+00 -1.337672949e+00
2.084386110e+00 -2.117914200e+00
-2.204498291e+00 -1.507014036e+00
-5.836074352e-01 2.129220486e+00
-1.767153740e+00 3.967355967e+00
1.834074020e+00 -2.961574554e+00
2.928496301e-01 -4.601118863e-01
1.716110706e-01 1.272321105e+00
4.588323832e-01 -5.430613756e-01
2.646387100e+00 -2.686209440e+00
2.648966312e-01 -2.656282902e+00
3.449231982e-01 -2.453548670e+00
2.135989666e+00 -8.630460501e-02
1.461718798e+00 3.565530777e-01
-9.435529709e-01 6.028957963e-01
2.211328506e+00 -1.335067868e+00
-1.547624111e+00 -1.048856497e+00
1.296949863e+00 -1.686779261e+00
-1.858751416e+00 -8.737232685e-01
3.596318066e-01 -5.359034538e-01
-1.741200089e+00 1.542852759e+00
1.600534916e+00 -7.107059956e-01
-9.704947472e-02 -3.078180850e-01
9.214630723e-01 -2.279578596e-01
3.178443909e-01 2.331813574e-01
3.747433424e-01 -2.011873722e+00
-4.520839453e-01 2.514777184e+00
1.116803169e+00 1.074828029e+00
1.394208550e+00 5.926950574e-01
7.369542122e-01 4.975424409e-01
-1.457105041e+00 -1.912730336e-01
-8.374727368e-01 5.639296770e-01
1.206587076e+00 -2.043229818e+00
2.119414568e+00 2.472006083e-01
6.505796909e-01 -8.918955326e-01
1.821557045e+00 -1.306602478e+00
2.140206575e+00 -6.615518332e-01
-3.821046352e-01 -1.690725327e+00
-5.416389704e-01 -6.432341337e-01
9.265493155e-01 1.551141858e+00
1.313919723e-01 -1.854074001e+00
-1.080365181e-01 -9.671093225e-01
5.267001987e-01 6.827597022e-01
2.754693031e-01 -2.660154104e+00
-6.024102569e-01 2.829099298e-01
1.485134363e-01 -6.012998819e-01
-1.315161467e+00 2.323029518e+00
1.933747649e+00 -9.417765737e-01
-1.463981986e+00 -1.103138566e+00
1.292269349e+00 -5.223382711e-01
-1.439183116e+00 4.501403570e-01
-3.997514248e-01 7.147166729e-01
-7.692334652e-01 -5.178308487e-01
-2.277390957e-01 5.859321356e-01
4.393080473e-01 -2.088872194e-01
1.724635363e+00 2.578619123e-01
2.432424545e+00 -6.932556629e-03
1.457474351e+00 6.074512005e-01
1.833528996e+00 -8.069366217e-01
-2.231357098e+00 1.279466748e+00
1.094698906e-02 -4.369133711e-02
9.532418251e-01 8.192880154e-01
-4.828742743e-01 3.263886571e-01
-1.114143729e+00 -1.787294269e+00
-4.324021935e-01 9.312086701e-01
-2.748359442e-01 -7.198908925e-01
3.984781504e-01 -1.360230803e+00
-3.708195686e-01 1.880193949e-01
-3.269995451e-01 9.863203764e-01
2.103877068e+00 1.824132442e+00
9.903919697e-02 -2.423858643e-02
-2.148067802e-01 1.704113364e+00
-6.027449369e-01 4.673338234e-01
-7.013111711e-01 -1.037001371e+00
2.219139338e+00 5.031108856e-02
1.047122836e+00 -6.832795143e-01
-8.676356077e-02 -3.415604532e-01
-8.062747717e-01 -7.353300452e-01
1.493677855e+00 -1.207300663e+00
6.232911348e-02 -8.708305359e-01
1.404555202e+00 6.747686863e-02
4.376446605e-01 -2.326562107e-01
1.178868532e+00 -5.318210721e-01
2.738574147e-01 7.507512569e-01
5.200699568e-01 -5.705572367e-01
2.141091108e+00 -3.864260614e-01
1.168953180e-01 2.227256298e-01
-1.153027058e+00 -6.110969186e-01
1.689005494e-01 -1.576362371e+00
-2.482059956e+00 1.208378077e-01
7.108110189e-02 6.769602299e-01
-5.507540703e-01 -1.807142138e+00
-6.771880388e-02 2.274377823e+00
1.371853828e+00 -1.425299764e+00
2.946299016e-01 -5.574718714e-01
6.709393859e-01 1.948235035e-01
-6.416392326e-02 -1.304942608e+00
4.476077855e-01 -2.345949411e+00
-5.901058912e-01 9.909475446e-01
-1.087228775e+00 3.644548655e-01
-8.915798068e-01 -8.388917148e-02
4.427034855e-01 3.102187514e-01
2.802474976e+00 1.600557715e-01
-7.050586939e-01 1.828738332e+00
1.595324516e+00 4.123315811e-01
1.550210714e+00 1.052685678e-01
1.186384320e+00 1.180530787e+00
1.193866491e+00 6.243750453e-02
6.109228134e-01 4.921544790e-01
4.731257558e-01 4.686567485e-01
-9.933605194e-01 -1.414808989e+00
-3.459980488e-01 -4.009772539e-01
-6.041399240e-01 4.941451550e-02
-1.854883432e-01 1.423697233e+00
-6.129119396e-01 4.350518286e-01
2.121472836e+00 -1.468411207e+00
5.060834885e-01 5.735725164e-02
-4.954371452e-01 -1.373657733e-01
9.316326976e-01 6.291964650e-01
1.186053514e+00 1.022725940e+00
1.298994303e+00 -8.083918691e-01
-1.692595601e+00 4.604422450e-01
-7.163498402e-01 -2.494024277e+00
1.756350040e+00 1.086169481e+00
-1.129040241e+00 -1.259512067e+00
-1.526677847e+00 4.355525970e-01
-9.840316772e-01 2.100496292e-01
1.870388508e+00 -5.934519172e-01
1.425551772e+00 -2.530950308e-01
1.419999957e+00 1.726830006e-01
-1.015334129e+00 -5.230337381e-01
1.786288261e+00 -1.149418116e+00
8.342100382e-01 -3.567538261e-01
8.479060531e-01 3.679751158e-01
9.206939936e-01 -4.948886037e-01
1.806190968e+00 1.875426173e+00
-1.512223721e+00 3.006828547e+00
3.655808568e-01 6.504523754e-01
-2.552717209e+00 -1.211351871e+00
-5.738698244e-01 2.707113624e-01
1.721086264e+00 1.785133719e+00
-1.539658755e-01 1.951822042e+00
-8.622729778e-01 6.200509667e-01
-2.011911869e+00 2.443513274e-01
-2.530192852e+00 -4.680619240e-01
-1.208896399e+00 9.153126478e-01
5.797868967e-02 4.560529590e-01
-4.648739100e-01 1.108379364e+00
3.220298767e+00 9.852228165e-01
-2.595965862e+00 1.034218907e+00
3.973572850e-01 2.256183147e+00
-1.105979562e+00 -4.152142406e-01
1.658310890e+00 3.140593171e-01
5.209948421e-01 -7.690969706e-01
1.352261305e-01 1.214332938e+00
6.836160421e-01 -1.685280085e+00
-4.967684746e-01 1.493103623e+00
6.571934223e-01 -1.269212246e+00
-7.491601110e-01 -1.322353840e+00
-2.080197096e+00 -1.079223037e+00
5.707612634e-01 1.095277429e+00
-8.954551220e-01 3.669607639e-01
-8.514735699e-01 1.165971637e+00
1.220222712e-01 -1.105351090e+00
5.341468453e-01 1.224469423e+00
-8.808869123e-01 2.095880508e-01
-1.874175072e-01 -8.300404549e-01
-9.404752254e-01 1.520573854e+00
1.794049740e-01 -1.496490121e+00
1.726753950e+00 -1.202937603e+00
1.410714388e+00 1.702723980e+00
8.732106686e-01 3.801667690e-01
1.290777445e+00 1.330520511e+00
-6.728236675e-01 2.018333673e+00
