-2.518038034e+00 2.848117590e+00
-1.301242113e+00 2.911881924e+00
7.061315775e-01 7.170842886e-01
-1.691019535e-02 -4.982113838e-02
-9.840332866e-01 -3.459355235e-01
1.019544840e+00 1.264279246e+00
1.500409245e+00 6.204514503e-01
2.027487278e+00 3.749088049e-01
1.531115294e+00 -7.270311117e-01
1.028408527e+00 5.771095157e-01
6.479731202e-01 2.881511211e+00
1.942726672e-01 1.076032996e+00
2.015827179e+00 3.306809068e-01
-1.281740367e-01 4.608806074e-01
-1.107842207e+00 1.172663927e+00
-1.593049169e-01 -1.070463181e+00
-3.123415411e-01 -1.519128203e+00
2.499081194e-01 -6.242892742e-01
1.960994244e+00 -9.206768274e-01
6.058030725e-01 1.756015778e+00
8.913479447e-01 6.154376268e-02
-1.066137075e+00 -2.465826273e-01
-8.423023224e-01 -9.190431833e-01
2.019533157e+00 -1.299830914e+00
-1.057752848e+00 8.357700706e-01
2.584724426e+00 -1.040228128e+00
-1.373987436e+00 -5.809284449e-01
-1.673536062e+00 -1.354397178e+00
4.386566877e-01 -1.134787798e-01
-1.401437998e+00 -1.545280814e+00
-8.497973084e-01 -5.300920010e-01
6.323962212e-01 1.714791059e-01
2.178598791e-01 -1.607273698e+00
-2.188041210e+00 -4.521559179e-02
1.978139043e+00 -3.240975857e+00
-3.763828874e-01 1.094686985e+00
-1.502404690e+00 4.340147972e-01
-1.247732162e+00 1.544659734e+00
-5.776959658e-01 1.832392216e-01
-6.876126528e-01 -1.140630364e+00
-2.654331684e+00 6.137875319e-01
7.449859381e-02 1.402215660e-02
5.969192982e-01 9.412749410e-01
1.323119998e-01 -1.841180086e+00
-1.186573863e+00 1.255450487e+00
5.460537672e-01 5.862170458e-01
1.036203742e+00 -6.687695980e-01
-1.343871593e+00 8.273243904e-02
1.691990614e+00 5.223366022e-01
9.192550182e-01 -2.233754158e+00
1.197294116e+00 -2.354080677e+00
3.872358799e-01 -1.629676223e+00
-3.679454803e+00 1.348754883e+01
-2.270860672e+00 -8.532934189e+00
-9.409551620e+00 1.477137280e+01
-3.962615013e+00 5.174639702e+00
-3.927786350e-01 -1.559159279e+00
-2.787165403e+00 -2.098743916e+00
3.856170654e+00 -7.109503746e-01
5.718090057e+00 6.046605110e-01
-7.272458076e-01 8.448028564e-01
-2.184746265e-01 3.119871616e-01
-2.632565022e+00 -1.553619146e+00
-1.214025378e+00 -4.334797859e-01
-4.863288403e+00 1.495870352e+00
2.017642975e+00 -3.124272823e+00
1.370401382e+00 -2.391277790e+00
-1.548929930e+00 -1.497863054e+00
-1.635818481e-01 2.223389864e+00
1.455513835e+00 9.706292152e-01
8.902568817e-01 1.068048477e+00
-9.379386902e-03 -3.082549572e-02
8.151533604e-01 -1.040232420e+00
-1.902421713e+00 -9.010157585e-01
1.280005574e-01 8.010556698e-01
1.107763767e+00 -6.102164388e-01
-5.281785727e-01 -1.040087461e+00
7.798841000e-01 -9.749323726e-01
-1.308855414e+00 -7.806856632e-01
8.430466652e-01 -1.188757420e+00
-1.982891679e+00 -1.241194963e+00
9.000905156e-01 -1.100171804e+00
1.506870866e+00 1.509753764e-01
2.811126709e-01 9.369701147e-01
3.302442729e-01 2.007483959e+00
4.507437050e-01 -7.460537553e-01
6.843705177e-01 2.388528585e-01
2.051011920e-01 -9.116903543e-01
-4.503325224e-01 -1.879025221e+00
-1.778193116e+00 2.722010612e-01
2.058984280e+00 2.347069502e+00
1.828602672e+00 -1.978149414e-01
1.541603327e+00 -2.518959045e+00
1.628368020e+00 -2.501791477e+00
1.768836498e+00 3.271825314e-01
-1.910259128e+00 -7.803173065e-01
-2.734621525e+00 2.070780993e-01
-1.054102182e-01 7.604916692e-01
-1.149541140e+00 1.898645639e+00
-1.613915920e+00 4.799663723e-01
5.464590192e-01 -5.064537525e-01
-2.629614472e-01 3.129694462e-01
2.788199425e+00 -1.539302588e+00
-1.349896193e+00 2.958635330e+00
1.470458984e+00 3.602945805e-02
-1.736233354e+00 1.092509389e+00
5.831153393e-01 2.782556534e+00
-2.300749421e-01 1.157948971e+00
6.159323454e-01 -4.110206068e-01
1.576777935e+00 -3.569294214e-01
2.168335021e-01 1.278148651e+00
7.602238655e-01 -3.133189678e-02
9.017183781e-01 6.172692776e-02
2.979486585e-01 -2.618033171e+00
-1.117389441e+00 1.024651527e-01
-1.772477746e+00 -1.643255949e+00
6.997677088e-01 -2.214009285e+00
-1.345812321e+00 4.627800584e-01
1.572418213e+00 7.745584846e-01
-3.579120636e-01 -5.772840977e-02
1.068684816e+00 1.455889225e+00
-1.253468275e+00 8.040767908e-02
-3.277567625e-01 5.868304968e-01
-2.359357595e+00 4.903516173e-01
4.051173329e-01 2.129790783e+00
-1.049373150e+00 -1.250964880e+00
2.251659334e-01 9.303994179e-01
-3.401583135e-01 1.213593245e+00
5.506016612e-01 -3.543216288e-01
-1.671570241e-01 5.092308521e-01
1.678856373e+00 1.533945799e+00
-5.947433710e-01 6.577903032e-01
6.427980661e-01 1.680439353e+00
-1.008590460e+00 3.456319869e-01
-3.954160213e-02 -1.948834062e-01
-3.236886978e+00 1.773365140e+00
1.473052025e+00 -9.702376127e-01
2.307214439e-01 2.591707706e-01
1.010779619e+00 2.489366531e-01
-2.482316017e+00 -8.733581305e-01
-8.653804660e-01 1.009183407e+00
9.071463346e-02 5.090806484e-01
1.902117968e+00 -1.418554068e+00
-5.155913830e-01 -1.306695819e+00
-6.900255680e-01 -5.524829626e-01
-9.763690829e-01 8.784994483e-01
-1.517779529e-01 6.339827776e-01
-1.321455240e+00 9.018828869e-01
6.531002522e-01 1.376427054e+00
-7.298862338e-01 -5.053328276e-01
1.735341787e+00 -1.752158403e-01
-1.034795046e+00 1.602455378e+00
-5.090399981e-01 1.821261406e+00
9.556381106e-01 -2.617437243e-01
3.547030687e-02 -8.896861076e-01
9.789580107e-01 1.938422441e+00
9.511451125e-01 8.307955265e-01
1.953222901e-01 7.850681543e-01
1.573899508e+00 -9.789804816e-01
1.343845606e+00 -1.031298757e+00
-5.720047951e-01 -2.641794980e-01
1.881571412e+00 -2.727442980e-02
3.386311531e-01 -1.757208705e-01
-1.527901888e+00 -7.621011734e-01
-6.290041208e-01 -1.193501651e-01
-1.199969649e-01 -7.156854868e-02
-9.772439003e-01 -8.474571705e-01
1.702950597e-01 -1.969617367e+00
1.444979906e-01 -3.438029289e-01
-1.994508207e-01 -2.525292039e-01
1.217269823e-01 -1.367463827e+00
-3.418835402e-01 1.987830698e-01
-7.942720056e-01 -4.258186221e-01
-2.063914537e-01 -4.076447189e-01
7.075850964e-01 1.113729715e+00
2.024972439e-01 7.200127840e-01
7.990924120e-01 1.006404638e+00
4.046058655e-02 1.594857693e+00
1.855767727e+00 8.675166368e-01
9.182994366e-01 1.175437570e+00
2.894179821e-01 -1.270710230e-01
3.623153567e-01 3.218444288e-01
-4.103908241e-01 1.549382925e+00
1.618528962e-01 2.459727764e+00
-8.384039998e-01 -1.844776154e+00
-1.531791687e+00 1.139447689e-01
-6.020236015e-01 -1.959589958e+00
2.222831249e+00 -1.197422385e+00
-5.298986435e-01 7.125735283e-01
1.265140295e+00 1.131251931e+00
-9.523498416e-01 1.750145912e+00
1.233929753e+00 7.532963753e-01
-1.183731794e+00 -5.997405052e-01
-1.045065880e+00 -5.241987109e-01
-1.200039625e+00 -4.804685116e-01
2.105521202e+00 -1.396525741e+00
1.748877048e+00 -4.677295685e-03
8.373125196e-01 -6.531679630e-02
-4.578766823e-01 -1.639126539e+00
1.094449162e-01 3.155162632e-01
-1.104037642e+00 -2.280525684e+00
1.030748606e+00 7.689267397e-01
-6.433192492e-01 -5.882785320e-01
1.907050133e+00 -1.499120235e+00
-3.413196802e-01 -2.417894602e+00
-6.505452394e-01 -5.150565505e-01
-5.347416997e-01 1.593529582e-01
1.298658848e+00 6.858479977e-01
1.475634575e+00 1.486583710e+00
8.014662266e-01 -8.628730774e-01
-8.337229490e-02 1.576883495e-01
-4.031965733e-01 -2.883670032e-01
-8.694458008e-01 1.486010313e+00
-1.634982347e+00 -2.595679462e-01
-1.753789663e+00 -5.031239390e-01
-1.796705723e+00 2.209149122e+00
2.268818617e+00 3.783372641e-01
4.190288186e-01 1.113802910e+00
4.527469873e-01 6.471245885e-01
-1.531399488e+00 1.361951113e+00
-1.727072835e+00 6.111606359e-01
-2.245412350e+00 5.494420528e-01
4.475133419e-01 -8.357323408e-01
9.198237658e-01 8.277311921e-01
-3.402859569e-01 4.298895299e-01
4.601763785e-01 5.771309137e-01
-8.686707616e-01 1.005256057e+00
-2.238986254e+00 -4.486711323e-02
-7.936819792e-01 -1.351461411e-01
1.225945234e+00 -3.114327788e-01
-1.601865888e-02 -1.525975704e+00
3.283292055e-01 -1.536401749e+00
9.959402680e-01 7.756141424e-01
1.294911742e+00 -1.269297838e+00
-1.753720880e+00 1.613298297e+00
-1.352116466e-01 1.791242212e-01
-7.168482542e-01 1.389026999e+00
-9.422798753e-01 2.854180336e-02
-1.375807285e+00 7.182036042e-01
3.389619291e-01 -3.820146620e-01
2.694425583e-01 -1.884047091e-01
-5.804631710e-01 -1.397243142e+00
6.541076303e-02 -1.519440889e+00
4.541558027e-01 1.251046896e+00
-4.475881457e-01 -5.685129166e-01
2.604128838e+00 -1.321902871e+00
-2.389807701e-01 -2.898824215e-01
1.939462423e+00 7.250045538e-01
6.310388446e-01 9.280223250e-01
-1.855075359e-03 2.400283813e+00
