-1.128733635e+00 -2.399589062e+00
-1.202943921e-02 1.811006069e+00
1.748595834e-01 -3.501985669e-01
1.814443827e+00 -9.616097212e-01
1.291577518e-01 -6.539644599e-01
-5.127842426e-01 3.104991913e+00
2.403985560e-01 3.298655510e+00
6.980046630e-01 1.616892576e+00
8.511581421e-01 1.180702209e+00
3.805865049e-01 5.173548460e-01
-2.486806870e+00 -7.981139421e-02
7.425769567e-01 5.689142346e-01
-7.216445208e-01 3.479591012e-01
1.586630106e+00 8.939844370e-01
-8.852705956e-01 4.483717680e-01
1.870381713e+00 -2.418277413e-01
-9.644381404e-01 -1.520012319e-01
-1.270993114e+00 -3.099734783e+00
2.149691343e+00 1.547451496e+00
1.886036277e+00 1.993284225e+00
-1.297261596e+00 -2.227538109e+00
-3.803963065e-01 -2.092478991e+00
-2.745736241e-01 -4.734003842e-01
-1.846381068e+00 -1.760343790e+00
1.026532650e+00 1.934913993e-01
8.632076979e-01 -6.450878978e-01
1.871872544e-01 1.343334317e+00
5.008883476e-01 7.155122757e-01
-5.413842201e-01 -5.798766613e-01
8.543733358e-01 1.673021078e+00
-4.095712304e-01 -1.567111015e+00
2.405571938e-02 -2.716008425e-01
1.372106075e+00 1.371102929e-01
3.439786434e-01 -2.891745269e-01
4.610925317e-01 -2.142370701e+00
-5.300936699e-01 -1.028384209e+00
1.515316844e+00 -1.144077778e+00
3.788783550e-01 1.172192097e+00
1.385342002e+00 6.723971963e-01
6.531391144e-01 -3.804973364e-01
9.244454503e-01 -2.507564068e+00
-5.838730335e-01 -8.970386982e-01
-3.174881637e-02 -1.554358721e+00
8.099381924e-01 3.580925941e+00
1.419316530e+00 7.857138515e-01
-3.523488939e-01 7.531836629e-01
-2.515561104e+00 -6.658059359e-02
-1.256110430e+00 1.329546690e+00
-1.193365097e+00 1.380048692e-02
-7.587232590e-01 -2.396930456e-01
1.740788460e+00 1.211004496e+00
3.613182902e-01 1.592895508e+00
-1.188980103e+01 6.968677521e+00
-3.224820137e+00 -8.399574280e+00
1.851327515e+01 1.013560295e+00
2.141731262e+00 1.074433708e+01
-9.706883430e-01 -4.470070362e+00
-5.716329098e+00 -3.016962051e+00
-1.930842876e+00 3.882325649e+00
2.582901001e+00 5.226979256e+00
-2.444645166e-01 -2.467606783e+00
7.473871708e-01 -1.088485718e+00
4.056975842e-01 -3.271617889e+00
-3.681202888e+00 1.533420801e+00
-1.290817499e+00 -1.808763027e+00
8.763790131e-03 9.811878204e-01
-4.846019745e-01 -3.733634949e-02
1.349021912e+00 2.122797966e+00
-2.093870640e+00 2.104811668e-01
-1.652581543e-01 1.658574224e+00
-1.234624624e+00 -4.169859886e-01
4.107982159e+00 -1.488654256e+00
5.370182991e-01 -2.733533680e-01
-2.136072516e-02 2.478255033e-01
-1.230648279e+00 -3.822901249e-01
1.101135731e+00 6.373715401e-02
2.730920792e+00 1.964919567e+00
2.650258303e+00 2.053501606e-01
-3.005974531e+00 9.998238087e-01
-1.194894552e+00 -9.903964996e-01
1.938407183e+00 1.023065329e+00
1.488119006e+00 -4.122439384e+00
1.942053795e+00 -1.521817803e+00
-1.263601780e-01 -3.910832405e-01
2.674006939e+00 -2.303969860e+00
-1.381825447e+00 -6.062442064e-01
-9.179193974e-01 5.892941356e-01
1.209809065e+00 2.123703957e-01
2.777326107e-01 -6.135833263e-01
-7.253080010e-01 1.361383319e+00
-1.515660763e+00 1.359152436e+00
-1.081667662e+00 -5.039454699e-01
-1.954290271e+00 -1.555464506e+00
-1.080601096e+00 -2.359747171e+00
1.663536668e+00 1.510854721e+00
1.666155934e+00 -1.143031359e+00
-1.790651917e+00 5.228997469e-01
2.837010324e-01 5.236476660e-01
-1.189311743e-01 2.880173922e-01
5.313462019e-01 9.213550091e-01
1.096361160e+00 -5.627389550e-01
-2.021825314e+00 -1.270469427e+00
-5.697662234e-01 1.018303633e-01
-8.983721733e-01 -6.400095224e-01
9.583839774e-01 -2.126936436e+00
-1.247121334e+00 3.334519267e-01
-1.084254622e+00 2.521776915e+00
-1.142737746e+00 -9.663653374e-02
6.694304943e-01 -1.085680246e+00
3.371856213e-01 -4.329068661e-01
-1.483016968e+00 7.083019018e-01
-5.715925097e-01 -6.230298281e-01
1.055762529e+00 1.780761719e+00
-3.200587630e-01 7.256422043e-01
-1.419774771e+00 -6.338106394e-01
3.095448017e-03 -7.892152071e-01
1.350859404e+00 1.334216952e+00
-4.903268814e-02 -2.126500607e+00
-7.566085458e-01 3.412017107e+00
1.516387939e+00 -8.216787577e-01
-6.389209032e-01 -6.594995856e-01
-3.055524826e-02 1.430883050e+00
9.874854088e-01 1.756675005e+00
1.634858608e+00 1.731070757e+00
1.428491950e+00 -1.226734400e+00
7.239263058e-01 1.997872233e+00
-1.562920332e+00 -5.987994075e-01
9.225150943e-01 -3.496381640e-01
-1.336793303e+00 4.654049873e-03
-1.585337162e+00 -1.174808264e+00
7.582342625e-02 2.511454821e-01
8.013897538e-01 2.059170246e+00
2.441630363e-01 2.988556921e-01
2.412267923e+00 -6.039857864e-03
-5.339856744e-01 -9.760945439e-01
-5.711480379e-01 1.155537605e+00
-1.272744894e+00 -4.468818307e-01
1.328365207e+00 -1.049709558e+00
-1.306138515e+00 1.082019567e+00
1.070324421e+00 8.677554131e-01
-1.439841270e+00 9.535588026e-01
-3.052453995e+00 3.152418733e-01
-1.944314837e+00 -2.636513114e-02
1.123118401e-01 3.266271949e-01
1.216518402e+00 1.540901661e-01
2.769578397e-01 3.453764439e+00
5.762734413e-01 1.873214841e+00
-1.310349464e+00 -2.597211599e-01
1.500268579e-01 -1.080787182e+00
2.426098824e+00 1.044434309e-01
-1.052128077e-01 -1.018243551e+00
3.592949510e-01 -2.602717876e-01
-7.934857011e-01 -1.811603069e+00
-8.478927612e-01 1.858377337e+00
-5.156910419e-01 -1.153995752e+00
-5.584889650e-01 7.278320193e-01
1.380807996e+00 -4.759125113e-01
2.537852526e-02 2.238008678e-01
9.138669968e-01 -3.543211520e-01
-3.169615030e+00 2.486178875e+00
3.901064396e-01 4.960538447e-01
3.391428888e-01 2.750459671e+00
-2.011500359e+00 7.282977700e-01
-7.686491609e-01 1.866123915e+00
1.190782040e-01 9.545322657e-01
2.435862780e+00 8.988456130e-01
1.947268248e-01 -8.549688458e-01
-2.370873451e+00 4.434525967e-03
1.663646936e+00 -2.272550583e+00
1.225220203e+00 1.183708429e+00
4.513567686e-01 9.357047081e-01
-2.861740112e+00 2.710324526e-01
8.613719344e-01 8.842661381e-01
-6.757549644e-01 -1.024053574e+00
4.521316886e-01 6.953954697e-01
-2.088620067e-01 4.044902325e-01
-1.599945068e+00 -2.931286097e-01
-1.369604468e+00 2.715773284e-01
1.486520410e+00 2.914453149e-01
1.051716566e+00 1.005406141e+00
-1.919430733e+00 9.123247862e-02
-6.554760933e-01 -4.917694330e-01
3.919837475e-01 -1.468573809e+00
2.032265902e+00 9.328358769e-01
5.572922230e-01 -4.398093224e-01
-3.530296087e-01 -4.803377986e-01
9.984871745e-02 -3.190284491e+00
-1.358085632e+00 -1.679822087e+00
1.035330296e+00 -3.449959755e-01
-4.045718908e-01 -3.633098602e-01
1.670920491e+00 3.124330342e-01
2.605195642e-01 -1.824898124e+00
9.376746416e-01 -7.969136238e-01
-6.199541688e-01 -8.893930912e-01
-1.527393579e+00 -9.304364920e-01
-2.468666315e+00 9.751341343e-01
-9.771363735e-01 -8.713905215e-01
-5.196570754e-01 -1.443655491e+00
1.824413180e+00 -1.030847430e-01
9.301960468e-02 -1.765008211e+00
-1.593878508e+00 -3.870397806e-03
-1.087605834e+00 1.959563494e-01
-8.896127939e-01 1.210389256e+00
1.932975054e-01 -9.319418669e-01
2.129501104e-01 -2.074540615e+00
1.059437513e+00 8.133773804e-01
1.676032841e-01 8.390768766e-01
1.276019096e+00 1.657496929e+00
-5.640130639e-01 1.542555809e+00
3.724145889e-01 1.070078611e-01
2.717874944e-02 -7.672622800e-01
-2.101939678e+00 -1.546664476e+00
7.792762518e-01 -9.397525787e-01
-1.763577461e+00 6.215204000e-01
-2.762704492e-01 2.496907234e+00
1.852757335e-01 7.461507320e-01
8.460623026e-01 5.439282060e-01
-1.084933043e+00 -3.530971110e-01
3.324962258e-01 4.934412241e-02
3.643962741e-01 4.251006544e-01
5.474019647e-01 -9.254238009e-02
-1.348293066e+00 7.440586686e-01
3.995423317e-01 1.797668576e+00
7.898585796e-01 1.907001138e-01
-1.269949317e+00 2.822621107e+00
1.368947923e-01 1.569317102e+00
-1.919082522e+00 -5.448693037e-01
5.459270477e-01 -1.905978799e+00
4.254887104e-01 -3.579989076e-02
7.293969393e-01 -4.853282273e-01
-2.285382271e+00 3.445723653e-01
-3.710447550e-01 -1.916356087e+00
-1.458673954e+00 4.094296694e-01
-4.106679261e-01 -1.369832754e+00
-1.618262529e-01 -2.631965876e-01
-8.074404001e-01 -2.406654358e+00
3.395445347e-01 1.462316275e+00
5.773076415e-01 2.981294394e-01
2.447983474e-01 -3.668138981e-01
8.728454113e-01 -2.388068199e+00
1.077018499e+00 1.778236866e+00
1.958867013e-01 1.580491304e+00
-8.047227263e-01 3.487227559e-01
1.336568594e+00 1.524906874e+00
5.819753408e-01 -1.021188378e+00
-2.499335557e-01 -2.964197099e-01
-1.656255126e+00 6.148540974e-02
-6.836416125e-01 -5.874803066e-01
-2.728650331e+00 -1.058977723e+00
2.810709476e-01 -1.566935658e+00
