-2.583903313e+00 -1.840978384e+00
1.068381071e-01 -1.220308542e+00
-1.425412059e+00 -2.634793282e+00
7.334008813e-02 -5.045951009e-01
-1.213581085e+00 8.712024093e-01
1.048744202e+00 8.571264148e-01
-5.966910124e-01 -2.382948995e-01
3.858156800e-01 -1.075340390e+00
-3.683950901e-01 6.562609673e-01
9.867941141e-01 5.672615767e-01
-5.149668455e-01 2.094772339e+00
1.117547750e+00 -1.131047368e+00
1.864096165e+00 -5.739917159e-01
9.989976883e-01 -2.819540501e-01
5.985078812e-01 -1.459153652e+00
9.608886242e-01 2.234518766e+00
3.810904026e-01 7.050566673e-01
1.837700605e+00 4.363908768e-01
-3.682833016e-01 9.751025438e-01
6.181743145e-01 -8.487021923e-02
-9.315379858e-01 2.108861208e+00
1.986655474e+00 6.055235267e-01
2.496488810e+00 3.950362802e-01
2.444517314e-01 -4.682288468e-01
-8.976687193e-01 -1.727577686e+00
-2.050687075e+00 8.334039450e-01
6.796302795e-01 4.504903257e-01
3.675037622e-01 4.521345496e-01
-2.134037018e-02 2.843582153e+00
-9.119741917e-01 1.455148816e+00
-5.846095681e-01 6.798992157e-01
1.459037542e+00 1.437790871e+00
1.445563555e+00 1.047980785e-01
1.211532950e+00 1.097163200e+00
5.093390942e-01 -2.075800002e-01
-1.102926493e+00 1.011080146e+00
-8.761814237e-01 -4.814620614e-01
3.045542836e-01 -5.019608736e-01
-3.067952633e+00 7.145516872e-01
2.089854479e+00 9.139231443e-01
-2.188905478e+00 -2.101256251e-01
1.029387236e+00 1.390473127e+00
4.644873142e-01 1.350189209e+00
-1.673053741e+00 -9.396049380e-01
-1.257954359e+00 1.878287554e+00
-1.137172222e+00 -5.388610363e-01
1.817670465e-01 8.644881248e-01
2.157381535e+00 -9.927697778e-01
1.403593779e+00 -7.512526512e-01
1.231807590e+00 1.661947966e-01
1.175796032e+00 2.944794655e+00
6.474049091e-01 -2.168603897e+00
-1.914426041e+01 5.105186462e+00
4.291397095e+00 1.832598686e+00
1.864923096e+01 3.348361969e+00
2.998452663e+00 2.912012100e+00
9.400434494e-01 -4.587919235e+00
3.910777092e+00 -7.947995663e-01
-6.840133667e-01 -2.852616787e+00
1.116537809e+00 -9.965891838e-01
3.912552595e-01 -3.172467947e-01
-1.273670912e+00 -1.419214725e+00
4.011474848e-01 -7.877545357e-01
3.402662277e-02 -1.478026867e+00
-3.779706955e-01 -7.592415810e-02
5.142154694e-01 -5.057106972e+00
4.766829014e-01 -2.374936342e+00
5.917167664e-01 -1.353175044e+00
-2.162935734e-01 2.961239219e-01
1.118441582e+00 -6.053022146e-01
3.497250080e+00 2.678630829e+00
8.477997780e-01 1.051838160e+00
-4.279434204e+00 6.331493855e-01
-1.230791926e+00 1.492042542e-01
-2.114130974e+00 -1.965792537e+00
1.232188463e+00 3.648730278e+00
-3.959497452e+00 6.297724247e-01
-3.467032313e-01 -8.298572302e-01
1.082167983e+00 2.832855463e+00
2.542762280e+00 1.545649290e+00
-8.612051010e-01 7.369267941e-02
1.005286217e+00 1.663317323e+00
-1.209334612e+00 9.658410549e-01
6.918113232e-01 -2.136467934e+00
-2.217529774e+00 -5.591666102e-01
4.297614098e-02 4.506599903e-01
9.169512987e-01 6.799197197e-02
-9.498046637e-01 2.898579836e-01
8.868792057e-01 2.047016382e+00
-1.107503176e-01 8.236748576e-01
2.325582981e+00 -1.860820651e+00
-6.136373281e-01 -1.145632863e+00
6.220879555e-01 -1.577067494e+00
-1.868255287e-01 9.095805883e-01
-1.829582691e+00 4.891324043e-01
-1.975859404e-01 -7.467417717e-01
-5.681496859e-01 1.015749454e+00
-7.422161698e-01 3.089689493e+00
-1.290393710e+00 1.416051388e-02
3.246840239e-01 3.513526320e-01
-5.260925293e-01 3.437690139e-01
7.483289242e-01 -1.686586142e+00
-1.154375076e-02 -8.320628405e-01
1.971627116e+00 -6.543616652e-01
-9.424465895e-01 -3.418827057e-01
2.358386517e-01 2.701710463e-01
-1.502132177e+00 -9.373074174e-01
-9.819946885e-01 -1.977596879e+00
5.118706822e-01 -2.137882233e+00
-1.187645197e-01 8.220319748e-01
1.916549683e+00 7.883277535e-01
-2.821414769e-01 -8.262168169e-01
4.532032013e-01 8.765223026e-01
-1.525729179e+00 9.207359552e-01
-4.996102452e-01 4.615229368e-01
-9.059095383e-01 -3.992159367e-01
-1.910154343e+00 -2.098902702e+00
1.812909245e-01 1.582283735e+00
-1.052297473e+00 -1.636792183e+00
9.862944484e-03 9.747558236e-01
3.644247651e-01 4.852045774e-01
6.841728091e-01 -1.686013341e-01
-6.036351323e-01 1.317553282e+00
3.201987982e+00 2.318655550e-01
4.117373228e-01 -9.304382801e-01
-4.511818588e-01 -1.129988790e+00
-3.097969770e+00 -1.573463976e-01
1.122320890e-01 1.132784128e+00
3.070718050e-01 7.952359915e-01
-8.328979015e-01 -3.996868730e-01
-1.994427919e+00 -1.725938082e+00
-8.251504302e-01 1.541933417e+00
-1.414370060e+00 6.557570100e-01
1.118226171e+00 -1.971560955e+00
-8.761212826e-01 3.547784686e-01
1.282901049e+00 -1.070491433e+00
-1.079116225e+00 3.597146273e+00
7.237587124e-02 -6.183667183e-01
6.545943618e-01 -1.868590117e+00
-1.745204687e+00 -8.276021481e-01
-1.080409169e+00 -3.838124275e-01
-5.183624029e-01 -2.608110309e-01
1.167828679e+00 -1.015334725e-01
-1.229785204e+00 1.690912247e+00
-1.752641678e+00 -2.185816765e-01
-1.136977434e+00 -6.870806217e-02
1.884301424e+00 1.686542273e+00
-9.415815473e-01 8.374158740e-01
7.827931643e-01 1.052329779e+00
5.241631269e-01 -5.145747066e-01
-3.961145282e-01 -1.948971272e+00
-1.033993959e+00 1.347384572e+00
8.502862453e-01 -2.360048771e+00
-1.765434146e-01 -1.004621506e+00
2.618575573e+00 8.211371899e-01
2.198053002e-01 4.672441185e-01
-2.035472870e+00 2.131099939e+00
-1.073163986e+00 8.356853127e-01
-1.035652280e+00 1.967821836e+00
-1.917223334e-01 1.539250851e+00
-2.917612791e+00 1.017749310e-01
1.212698698e+00 -2.413311005e-01
6.517719030e-01 -1.439327002e-01
2.190565348e+00 1.831281185e-01
-3.535453975e-01 1.502085567e+00
-3.450070620e-01 2.232508183e+00
-9.445034862e-01 -3.935553432e-01
-7.486335039e-01 -1.773530245e-02
-1.428332806e+00 -1.912297487e+00
4.050730467e-01 6.229770780e-01
-1.496739149e+00 -9.485122561e-01
-6.769257784e-01 2.061910868e+00
-1.449169874e+00 -9.203871489e-01
4.172638357e-01 3.270369768e-01
1.392193794e+00 4.112987816e-01
-9.027612805e-01 1.000831127e+00
1.969836950e-01 1.109561682e+00
6.987731457e-01 7.201732993e-01
1.817342997e+00 1.694905043e+00
8.330154419e-01 1.517586559e-01
-9.863435626e-01 -1.671687007e+00
1.427830219e+00 3.286331892e-02
-6.761440039e-01 -1.056175232e+00
-4.355839491e-01 1.807137728e+00
-1.136044979e+00 2.683243752e+00
2.489185333e-02 7.904322147e-01
6.304901838e-01 3.887052238e-01
7.453848720e-01 -1.002681136e+00
5.592931509e-01 -3.440618515e-02
-3.170955181e-02 -2.548500061e+00
8.090182543e-01 -1.565946102e+00
7.199878693e-01 1.141073227e+00
-4.672782421e-01 9.415509701e-01
-1.182590842e+00 -5.158048868e-01
1.815869212e-01 1.243439436e+00
-1.401358366e+00 9.698749781e-01
9.757841825e-01 6.161593199e-01
-1.486726522e+00 4.200067520e-01
-1.021465063e+00 -1.031359196e+00
1.225856245e-01 -1.029116631e+00
1.016746759e+00 -2.715533257e+00
-1.144477963e+00 1.159780025e+00
-6.001355648e-01 4.899144173e-02
1.596963882e+00 -2.339835644e+00
-1.315516353e+00 -1.503584146e+00
3.358090401e+00 -2.704936266e-02
-7.332246900e-01 -1.556212753e-01
6.572847366e-01 -2.580712795e+00
-1.873126745e+00 1.546274424e+00
-7.316688299e-01 1.052508116e+00
-2.629597425e+00 1.397680402e+00
4.047238827e-01 -1.057522416e+00
-1.405098796e+00 -5.464473367e-01
2.262900472e-01 1.566875219e+00
2.649403811e-01 3.954860568e-02
3.975005150e-01 -1.480407715e-01
-1.215267181e-01 -4.180442393e-01
2.591577291e+00 -4.603863657e-01
5.052108765e-01 -8.925907612e-01
-3.860065937e-01 -2.866239548e+00
-1.129137278e+00 -5.843177438e-01
-4.720658064e-01 1.571376175e-01
-1.188168824e-01 -4.442603588e-01
3.614246845e-01 1.745570004e-01
3.377129436e-01 1.408791542e+00
8.143265843e-01 -3.227749765e-01
-1.929777741e+00 1.050472260e-03
7.832796574e-01 4.386528730e-01
7.951366305e-01 -2.163380861e+00
-8.969660997e-01 1.006931543e+00
2.960081697e-01 -1.005465746e+00
-1.704743624e+00 2.621209621e-02
8.028566837e-02 1.022247910e+00
-6.746578217e-01 4.856108427e-01
-5.124577880e-01 2.427985519e-01
-5.961327553e-01 4.034098387e-01
2.368007421e+00 -1.497858524e+00
-4.954477549e-01 1.422203541e+00
-5.461141467e-01 4.323732853e-02
6.191735268e-01 1.115417242e+00
-1.147851944e+00 1.520259023e+00
4.049900174e-01 8.304740191e-01
-3.493991494e-01 2.236139178e-01
-1.407012105e+00 2.164965153e+00
2.353167534e+00 -2.181688786e+00
1.634054899e+00 1.200897574e+00
-2.426928282e-01 1.514517665e+00
7.185432911e-01 7.033153772e-01
-2.523122430e-01 -3.856760859e-01
1.938282847e-01 3.348952234e-01
