4.722481966e-01 -6.932636499e-01
1.118326783e+00 1.576298028e-01
-2.282523155e+00 1.565063715e+00
6.227834225e-01 -2.731853724e-01
-1.491263986e+00 5.226580501e-01
-5.648750663e-01 6.693812013e-01
1.103216290e+00 -1.710355997e+00
1.995674610e+00 1.856956244e+00
9.278930724e-02 -2.966596127e+00
7.609333992e-01 5.505818129e-01
2.174797535e+00 3.697360039e+00
2.701691866e+00 -8.980107903e-01
-1.248402596e-01 2.529678941e-01
1.354628086e+00 1.542776346e+00
1.097606421e-01 4.234800339e-01
5.448729992e-01 -3.789265156e-01
-2.093356848e-01 -1.357466936e+00
-1.042058706e+00 5.942135453e-01
4.137684107e-01 -1.099421501e+00
1.825397015e+00 6.568875909e-02
2.866321802e-01 7.881349325e-01
1.479040384e+00 -7.793786526e-01
2.265451908e+00 -5.015542507e-01
-2.662575960e+00 1.526693344e+00
-6.360644698e-01 -1.413900256e+00
-1.389612794e+00 8.084107637e-01
-6.326330900e-01 -1.792772412e+00
1.783026457e+00 2.253011227e+00
5.631170273e-01 -9.053207636e-01
-8.801845312e-01 2.201514244e+00
-3.519475460e+00 -1.588644147e+00
7.690938711e-01 1.663281918e+00
-6.949152350e-01 -1.484436750e+00
1.212888956e+00 7.912161350e-01
-1.374670267e+00 1.235065222e+00
2.361147881e+00 1.218164444e+00
-2.366132736e-01 1.051834583e+00
3.741089106e-01 3.731108427e+00
5.510222912e-01 -7.207428217e-01
-3.893855214e-01 2.290561199e+00
-8.420464993e-01 6.974493265e-01
-2.484580994e+00 3.062606752e-01
-9.924523830e-01 1.794705391e-01
-8.980129361e-01 -3.072784841e-01
-1.821527481e-01 -1.016277790e+00
-5.493013859e-01 -3.874000907e-01
-7.607041001e-01 1.396416128e-01
1.239761591e+00 -9.227088690e-01
8.990178704e-01 1.573721170e+00
-2.276028693e-01 8.939337730e-01
-1.598708272e+00 2.193947077e+00
-1.342808008e-01 5.887920260e-01
8.513031006e-01 1.495708084e+01
-9.833793640e-01 5.322189331e+00
-1.811340332e+00 1.028311348e+01
-3.022679806e+00 -1.406730652e+00
-2.229532242e+00 7.989397049e+00
-4.871438503e+00 -2.746846676e+00
-1.038337708e+00 1.244292259e-01
-3.053458929e-01 -1.899315596e+00
-5.368494987e-01 3.107129097e+00
2.088872433e+00 -1.706394672e+00
-2.746665478e-01 1.660251617e-01
3.898998260e+00 3.667910099e-01
1.274561882e-01 -2.255941629e+00
7.185107470e-01 1.884774923e+00
1.929637909e+00 -5.265381336e-01
1.241443753e+00 -1.232635975e-01
-1.620143414e+00 -1.685186625e+00
-1.183220863e+00 2.122235775e+00
-2.725977898e+00 -4.364356041e+00
1.304774046e+00 9.246349335e-03
-1.343920708e+00 5.188204050e-01
-1.706255198e+00 9.717594385e-01
-2.341519833e+00 -3.602208614e+00
1.279653549e+00 1.199336052e+00
1.020180464e+00 -1.293187380e+00
2.354161978e+00 -1.602033615e+00
6.926376224e-01 6.205479503e-01
2.089223146e+00 2.581759691e-01
-8.378279805e-01 6.021753550e-01
-1.362701654e+00 2.079572439e+00
4.978394508e-02 -1.568597078e+00
-9.786632061e-01 2.691347599e-01
-2.126848698e-02 -2.519551754e+00
-8.073284030e-01 1.575976610e-03
-7.203078270e-01 -4.978789687e-01
3.791699409e-01 -1.480620980e+00
1.525221705e+00 2.720915318e+00
-2.005446553e-01 6.609475613e-01
5.317535400e-01 2.315823317e+00
-4.249684811e-01 1.649685621e+00
-8.603859544e-01 -1.329577804e+00
-2.092366695e+00 3.419852257e-02
-8.375999928e-01 -8.780088425e-01
2.353377581e+00 1.326842308e-01
-2.386817932e+00 -3.393015265e-01
-1.377431393e+00 8.643290997e-01
1.323608518e+00 -7.886953354e-01
1.085096598e-01 -8.249157667e-01
-7.802709341e-01 5.565504432e-01
-9.084051847e-02 -2.970002174e+00
-8.288151026e-01 -6.548990607e-01
1.335675836e+00 1.583697796e+00
-1.174408078e+00 7.763086557e-01
-1.325194120e+00 -5.310049653e-02
-3.489605427e+00 -1.659579277e-01
2.690532684e+00 -2.925282478e+00
2.563365698e+00 1.270428658e+00
1.742092371e+00 2.858607173e-01
-8.403369188e-01 1.660664678e-01
-1.253818393e+00 1.763997316e+00
1.087678313e+00 2.212934494e+00
-8.293378353e-01 -3.305225372e-01
9.753291011e-01 -1.046129227e+00
-1.189063787e+00 1.103165150e+00
6.351716518e-01 1.271991968e+00
1.155758381e+00 1.049727917e+00
1.456000805e+00 -1.459917307e+00
4.371302128e-01 -2.370262384e+00
2.204807758e+00 -4.942169040e-02
-1.795290470e+00 9.237825871e-03
-1.201312542e+00 1.139484167e+00
9.093846083e-01 -1.235174656e+00
5.014303923e-01 2.842172861e+00
5.036896467e-02 3.325068951e-02
-1.069000125e+00 2.743893147e+00
1.094518781e+00 -2.680233717e-01
4.805565476e-01 1.142329812e+00
4.856190085e-01 -4.835820496e-01
-1.076569200e+00 -8.059156537e-01
2.630536556e-01 -4.636219740e-01
-2.081390142e+00 1.222679317e-01
-5.865141153e-01 -1.474175930e+00
-6.043434143e-03 -1.596030235e+00
-6.674420834e-02 1.556755543e+00
2.349524498e+00 -2.858560979e-01
1.948581100e+00 -4.947924018e-01
-3.962387085e+00 -7.538644671e-01
4.958844781e-01 4.126659632e-01
4.305432141e-01 -2.708537579e-01
-3.607654274e-01 -4.459806681e-01
-5.926501155e-01 1.312227726e+00
-8.597373962e-01 6.431719661e-01
-1.602944851e+00 -1.192769527e+00
-2.682196498e-01 -1.576419830e+00
-3.344856501e-01 1.055250883e+00
7.769354582e-01 -4.983282387e-01
9.588032961e-03 1.749052525e+00
1.521185398e+00 -1.148126841e+00
7.834960818e-01 -1.143422961e+00
2.384324670e-01 5.700298548e-01
9.677675962e-01 -2.035345078e+00
-3.512692451e-01 6.586011052e-01
9.723234773e-01 3.736898601e-01
-1.130045772e+00 -1.287877083e+00
4.964376688e-01 1.549343109e+00
-1.198383808e+00 2.314465761e+00
5.375376940e-01 1.163804531e-02
1.860779285e+00 -1.826743484e+00
-8.631663322e-01 1.225877523e+00
-1.457602382e+00 2.371578932e+00
-1.240869284e+00 -7.032060623e-01
-1.165273070e+00 1.117489696e+00
3.185687661e-01 -7.563339472e-01
-1.214884996e+00 -6.194903255e-01
-1.824713230e+00 9.126773477e-01
1.948056102e+00 -6.221916080e-01
-5.165571570e-01 -2.765552759e+00
-1.886485696e+00 -7.309023738e-01
-7.348542809e-01 -1.631476402e+00
3.681621552e-01 -1.171520948e+00
-7.303928733e-01 -2.640748978e+00
1.536272764e-01 6.360002756e-01
1.382951736e+00 -4.623447359e-01
1.378968000e+00 -1.172826767e+00
-5.199885368e-01 -1.442485571e+00
-1.525594473e+00 -3.032265663e+00
-7.150213718e-01 -6.535771489e-02
-1.060818911e+00 2.223326206e+00
6.426647902e-01 -1.717688322e+00
6.949831247e-01 1.611225367e+00
1.715874434e+00 -3.071013093e-01
1.784390688e+00 4.571001530e-01
-9.902416468e-01 1.031885147e+00
-1.297533989e+00 1.531404257e-02
2.130866528e+00 8.897883296e-01
-1.618488312e+00 1.304825425e+00
8.892338276e-01 -1.268009901e+00
-7.411341667e-01 2.811841488e+00
2.686713219e+00 1.482003927e-02
5.647122860e-02 -1.331457138e+00
-1.091941595e+00 -1.278346062e+00
-1.683063030e+00 -7.214225531e-01
7.314120531e-01 -6.414901018e-01
1.013837934e+00 -8.609352708e-01
-4.569774866e-02 2.269990444e+00
-3.830671310e-01 1.877280176e-01
7.109719515e-02 1.959970832e+00
-2.615396976e-01 -6.047697663e-01
3.254340887e-01 -1.225204468e-01
-1.562012434e+00 -5.546517968e-01
6.311164498e-01 1.129385710e+00
1.795474529e+00 -2.170741558e+00
1.636214614e+00 -1.392466426e-01
-2.846885622e-01 -2.568099499e+00
9.325983524e-01 2.922482193e-01
-8.358263969e-01 -2.620155811e+00
1.375150383e-01 1.448691010e+00
1.731842756e+00 9.841924906e-02
-2.087126970e-01 -6.366683245e-01
-7.974022627e-02 -3.579393625e-01
2.475748658e-01 2.383606136e-01
8.350744247e-01 -5.893406272e-02
-5.841587186e-01 -2.308511019e+00
-1.910349727e+00 -6.938917637e-01
-1.387199998e+00 -2.151644826e-01
4.581087232e-01 9.239706993e-01
1.305520773e+00 -2.640680552e+00
2.137084246e+00 -2.903401852e-02
7.651060224e-01 8.692936301e-01
-1.706078053e+00 -3.858670294e-01
-2.342080772e-01 -1.470504403e+00
-7.855918407e-01 -5.318827033e-01
-1.161349297e+00 1.096261978e+00
5.014585257e-01 -4.163743854e-01
1.839768171e+00 6.753138900e-01
1.439700603e+00 -1.708459258e+00
-6.579103470e-01 2.202498913e-01
1.134545654e-01 8.838522434e-02
3.169608116e-01 -1.749940872e+00
-9.520657659e-01 -4.701621532e-01
4.796714187e-01 -5.320936441e-02
-3.908900023e-01 -1.752816081e+00
3.143830001e-01 -1.997108221e+00
-3.767589629e-01 -1.226194859e+00
-9.405066371e-01 3.087943792e-02
-7.586097717e-02 1.014194250e+00
2.703854561e+00 1.619720936e+00
-2.434371710e+00 1.884051561e+00
-5.890569687e-01 -1.131961346e+00
-4.742442667e-01 -3.430160582e-01
-1.010087252e+00 6.859608889e-01
-7.716993988e-02 -8.442834020e-02
-1.838168800e-01 -2.645187378e-01
3.323226571e-01 -2.638482571e+00
7.990930229e-02 1.046811700e+00
9.556903839e-01 1.209929436e-01
1.466304541e+00 7.039959431e-01
-1.746461987e+00 -6.665872931e-01
