-1.512292385e+00 -2.473313659e-01
2.387181520e-01 2.302172899e+00
-3.817323446e-01 -8.472869396e-01
-1.058354855e+00 1.188186169e+00
2.710981965e-01 2.444842756e-01
2.172318935e+00 -3.811022997e+00
-2.867799401e-01 1.450752616e-01
-1.442433119e+00 1.294057846e+00
-2.263680547e-01 1.129220963e+00
2.040124416e+00 -1.263718009e+00
-1.556818604e+00 6.656819582e-01
8.150398731e-02 -1.159440994e+00
6.495932341e-01 -8.877389431e-01
1.863997817e+00 -1.371926665e+00
1.628934503e+00 -1.709305525e+00
6.714704037e-01 -1.146987915e+00
5.139188766e-01 3.789948821e-01
4.714626074e-01 -1.385694504e+00
2.865799069e-01 2.596668303e-01
2.573564351e-01 1.322678089e+00
1.657294631e-01 -1.929397285e-01
5.236746669e-01 -9.058122039e-01
-1.760493279e+00 -1.881129503e+00
-1.342534721e-01 -9.234074950e-01
-9.289266467e-01 1.913664341e-01
8.329784870e-01 -1.863837004e+00
-2.300997734e+00 -2.974528074e-01
2.240135431e+00 1.331970215e+00
-3.864903450e-01 2.243579388e+00
-9.390012622e-01 1.417516232e+00
1.877067387e-01 3.062869310e-01
6.757981181e-01 9.095594883e-01
3.598592281e-01 -1.913573861e+00
2.359060526e+00 7.083245516e-01
-7.978516817e-01 6.516784430e-01
1.071742177e+00 1.155056477e+00
-1.047489405e+00 -2.193975747e-01
-1.942304969e-01 -1.890659451e+00
2.350406945e-01 -2.540543079e+00
2.196433783e+00 -2.455051541e-01
-1.343416214e+00 2.810731888e+00
1.970427036e+00 -7.895963192e-01
-2.076709747e+00 -2.609422922e+00
-7.612796426e-01 7.439379096e-01
1.197640300e+00 -3.815062642e-01
7.055355310e-01 -6.742786169e-01
3.762614131e-01 1.131197572e+00
6.691158414e-01 1.033211946e+00
-1.099940658e+00 -2.440485954e-01
-1.520848274e+00 1.968673825e+00
6.891354918e-01 -2.933821678e+00
-2.153700590e+00 1.957623363e-01
-1.388699532e+00 1.174615765e+01
8.540332794e+00 -2.446151733e+00
-1.130388260e+00 -3.060853958e+00
1.011804581e+00 -3.287770271e+00
-2.185553551e+00 -5.272497177e+00
2.384458065e+00 4.715079069e-01
3.332169533e+00 2.522603273e-01
-2.139693737e+00 3.379282475e+00
-1.772343636e+00 -1.055513144e+00
-2.438198924e-01 -1.753257036e+00
3.161909580e-01 -4.032797813e-01
7.946248055e-01 -2.050982714e+00
5.138933659e-01 -1.512104154e+00
-4.302464962e+00 -1.381259918e+00
1.079643965e+00 -2.372641563e-01
-1.778254032e+00 -1.333568215e+00
2.296749353e+00 -2.889454365e+00
1.068969846e+00 1.037830830e+00
-7.470595837e-02 1.961284876e-01
-5.321978569e+00 1.022110343e+00
2.758804321e+00 2.830186367e+00
-1.284456134e+00 1.871458769e+00
-9.010437131e-01 3.172415972e+00
4.801276922e-01 1.474408150e+00
-9.764664173e-01 -6.654655933e-01
2.338641405e+00 6.981896162e-01
6.348298788e-01 2.580510378e-01
-4.747781754e-01 -1.075801492e+00
-1.180258512e+00 -6.289848685e-01
-1.006343484e+00 -1.318135142e+00
-4.376424551e-01 -2.901335001e+00
1.409757137e-02 -2.120019794e-01
3.545186520e-01 -7.799911499e-02
1.010233760e-01 -9.121048450e-02
-1.108029604e+00 -1.378136873e+00
-2.877552748e+00 -1.559845209e+00
-1.766449332e+00 1.356819868e-01
-3.120221198e-01 -1.105056524e+00
1.496028304e-01 -7.270981669e-01
-9.276069403e-01 -4.609747827e-01
1.100308418e+00 1.318648219e+00
1.158986688e+00 -1.421240568e-01
-3.989682794e-01 -2.181262016e+00
-9.552607536e-01 8.569993973e-01
-7.542123199e-01 1.352069378e+00
3.546907902e-01 1.813296378e-01
5.967773199e-01 -3.229281187e+00
-8.376211524e-01 2.658438087e-01
8.097130060e-01 -1.669111550e-01
8.036434650e-01 -9.574083686e-01
1.408324480e+00 -1.396482944e+00
9.434756041e-01 2.006850004e+00
2.316302538e+00 3.274637461e-01
1.297758579e+00 1.703019738e+00
-1.652768016e+00 -2.026327133e+00
8.518534303e-01 1.167202592e+00
3.347442746e-01 6.147130132e-01
-9.726325870e-01 1.065686345e+00
4.376244545e-02 1.016132355e+00
-4.315765500e-01 -6.911472082e-01
-1.210630536e-01 -1.116160870e+00
4.088306427e-01 1.946564555e+00
-7.925224304e-01 -2.699064016e-01
2.279982567e-01 -7.440003157e-01
-6.904764175e-01 -1.579424977e+00
1.853053272e-02 2.435188890e-01
-2.518639565e+00 -1.234982610e+00
-2.890613079e+00 -1.414970905e-01
-1.115352511e+00 1.716156483e+00
1.035406947e+00 4.278602600e-01
2.021666050e+00 7.547831535e-02
4.907615781e-01 -3.808349371e-03
-1.841056585e+00 -3.307162225e-01
4.289034009e-01 -1.664553642e+00
-2.700089216e+00 -8.457047343e-01
6.543093920e-02 -1.004819870e+00
-1.780846119e-01 -5.261784792e-01
-2.142656088e+00 3.823821545e-01
1.419815123e-01 1.342936039e+00
-3.119368553e-01 -8.468629122e-01
1.224463224e+00 -6.720357537e-01
-5.473331213e-01 -1.103532076e+00
1.667332530e+00 8.175937533e-01
-3.434674740e-01 1.268301964e+00
-4.985148311e-01 -5.462436676e-01
2.623183250e+00 -2.082077265e+00
5.086332560e-02 2.646541595e-01
-1.107218266e+00 1.868779659e-01
1.873210430e+00 -2.539988756e-01
-1.195687056e-01 -1.665936589e+00
-8.910672665e-01 -1.055341721e+00
5.421662331e-01 -1.471853971e+00
-1.017989397e+00 -1.665732384e+00
-1.618302763e-01 2.316725731e+00
1.393890023e+00 2.081584930e-01
1.709120750e+00 1.635270596e+00
-1.421026468e+00 7.309527397e-01
3.672761023e-01 -1.536634445e+00
8.131806850e-01 3.249705434e-01
-1.679162621e+00 3.167131186e+00
-1.106150746e+00 9.867471457e-01
8.897999525e-01 1.947951198e+00
-2.524885178e+00 -4.207692146e-01
-6.058200598e-01 4.997195601e-01
-2.352854729e+00 2.240051329e-02
3.023575544e-01 -1.497695208e+00
6.715258360e-01 4.314461350e-01
2.502890825e+00 -6.037482619e-01
-8.721514940e-01 -1.880100608e+00
6.455450058e-01 -1.764825940e+00
3.922858238e-01 4.044156075e-01
-1.702045918e+00 -7.073979378e-01
4.483914375e-01 -2.126345336e-01
-9.862605333e-01 -1.058930159e-01
-5.464239120e-01 9.670805931e-01
-2.648148835e-01 7.857960463e-01
1.022446871e+00 1.384310722e+00
-6.095574498e-01 6.379252672e-01
-2.147576809e-01 3.278157711e-01
-1.728265882e-01 -2.024063587e+00
-1.674299240e+00 -4.026125431e+00
-7.094967365e-02 1.214343309e+00
1.104336232e-01 9.180802703e-01
1.429551601e+00 2.825911045e-01
-8.268395662e-01 -1.301880002e+00
1.509101629e+00 -1.439672410e-01
8.502998948e-01 2.278435230e-01
-1.513560116e-01 2.179071426e+00
-1.030012846e+00 1.731692553e-01
1.063384056e+00 5.784647465e-01
2.143611431e+00 1.396843195e+00
-1.495190263e-01 -1.384016991e+00
-7.156682014e-01 -1.741128862e-01
-6.225320101e-01 2.869078875e+00
-1.333716869e+00 -1.557866573e+00
-1.596854806e+00 -1.754780293e+00
1.638393760e+00 1.307455063e+00
1.109987378e+00 -1.993200541e+00
9.825010300e-01 -1.435594916e+00
-2.511578083e+00 3.313038647e-01
-3.070161045e-01 1.699088812e-01
2.374632597e+00 -1.642892480e+00
2.924322128e+00 -7.742582560e-01
2.047258615e-02 2.292755842e-01
2.192564011e-01 -2.639722824e-02
-1.243081808e+00 -1.249123216e+00
2.480621338e-01 -5.487864614e-01
-4.182219803e-01 -9.983893037e-01
-2.129651308e+00 2.231139183e+00
-5.344955921e-01 -1.290867448e+00
-1.567318320e+00 1.541763783e+00
8.814988136e-01 -4.290978611e-01
-1.380113482e+00 -8.493280411e-01
-1.376080513e-01 1.851779103e+00
-5.251933336e-01 -1.125856996e+00
3.432494998e-01 -1.610632539e+00
3.929573894e-01 9.680130482e-01
-1.727440000e+00 -6.366044283e-01
1.521651268e+00 -9.677095413e-01
1.568814754e+00 9.902456999e-01
1.681042016e-01 2.565805316e-01
-1.149618268e+00 2.268222570e-01
-5.999714136e-01 2.039080620e+00
5.906952620e-01 2.121325731e-01
-1.434495568e+00 -9.111812115e-01
-4.292947650e-01 -4.574802816e-01
-1.848467439e-01 -1.336503506e+00
1.971245527e+00 -5.041595101e-01
-1.915087104e-01 2.519993067e+00
8.809385300e-01 1.960641623e+00
-5.039862394e-01 4.818820357e-01
-6.518124342e-01 3.640746176e-01
-5.579856634e-01 1.112068176e+00
8.069324493e-02 2.928169966e-01
-2.464743376e+00 1.192294836e+00
1.499810934e+00 -9.035893679e-01
-1.514720440e+00 -1.155894399e-01
2.202078104e+00 -1.001759052e+00
-8.186243176e-01 -9.324970245e-01
3.745407164e-01 5.442804098e-01
-1.233007193e+00 1.517209649e+00
1.718515992e+00 2.764548957e-01
4.483668208e-01 8.653979897e-01
1.076976776e+00 3.786675036e-01
-2.012702227e+00 -1.062278867e+00
-2.615754128e+00 4.021791518e-01
-2.232859731e-01 -6.115397811e-02
9.850623012e-01 -1.012376308e+00
-1.514624000e+00 -1.058683157e+00
-5.994687080e-01 1.851915717e-01
-1.542743683e+00 1.428479910e+00
-9.647763968e-01 -1.278331518e+00
-1.881996393e+00 6.071674824e-01
2.205239534e-01 -6.634118557e-01
6.841050386e-01 -1.323976994e+00
2.026018620e+00 1.821185589e+00
2.821377516e-01 1.095618725e+00
-1.587366819e+00 -4.901307225e-01
