1.342987537e+00 -2.157901764e+00
4.623716474e-01 -6.251094341e-01
2.423741966e-01 1.458943486e+00
-1.070787907e-01 -3.976425231e-01
1.190594196e+00 -1.098515749e+00
1.925041199e+00 3.217073441e+00
2.525513768e-01 1.930628300e+00
8.538839817e-01 1.882479191e-01
6.771667004e-01 -1.658692718e+00
2.439300060e+00 -1.322838783e+00
-1.086384296e+00 -1.325475812e+00
1.237946033e+00 2.373721123e+00
-5.850085020e-01 -7.393949032e-01
-7.360731363e-01 1.207956672e+00
-1.390133023e+00 2.121750563e-01
2.104799271e+00 -8.127365112e-01
-7.337300181e-01 2.292113602e-01
-4.044606388e-01 -2.973690033e-01
7.307316363e-02 3.247064650e-01
8.355030417e-01 1.149728298e-01
4.976397157e-01 7.873593569e-01
9.527571797e-01 2.326164722e+00
2.123256922e+00 -3.229820132e-01
8.979061842e-01 2.862768173e-01
2.361839533e+00 4.930002689e-01
-1.415282488e-01 -2.374046147e-01
1.362706423e+00 -1.492676139e-02
-1.006321311e-01 7.301901579e-01
-2.014697790e-01 -7.066296339e-01
9.520281553e-01 -1.420934439e+00
1.665070415e+00 -6.451636553e-02
-1.893737316e-01 -2.207023799e-01
-1.317717791e+00 -2.006164193e-01
1.519927025e+00 1.205138862e-01
1.701236486e+00 1.408997416e+00
8.622768521e-01 -6.453162432e-01
1.305801272e+00 -1.359767199e+00
7.212523222e-01 -2.771539390e-01
-9.386520386e-01 -2.396230221e+00
3.894641399e-01 -1.518507600e+00
-1.899370909e+00 -5.036845207e-01
8.907637596e-01 1.020850182e+00
2.568086147e+00 4.643135667e-01
-1.002300143e+00 -1.283164978e+00
-3.767271042e-01 -1.966829449e-01
-1.131119251e+00 1.350240231e+00
4.584707022e-01 2.048496604e-01
1.644544959e+00 -2.998476028e+00
-4.936122894e-01 -4.676881433e-01
-6.452348232e-01 -8.785880804e-01
1.062802315e+00 1.561739892e-01
-1.984193027e-01 -1.166772723e+00
8.267173767e+00 2.684616852e+01
-2.179382324e+00 -1.430122375e+00
-6.488725662e+00 -3.126339912e-01
6.466156960e+00 6.677943707e+00
-1.487271905e+00 6.648816109e+00
-7.929416656e+00 5.312313557e+00
1.304621458e+00 -1.226582527e-01
-3.565906763e+00 -8.287941217e-01
-3.972363949e+00 -2.811075926e+00
1.622822285e-01 2.931293011e+00
-4.275614738e+00 -2.383238316e+00
-2.279375076e+00 2.316547871e+00
-1.438965797e+00 4.195639133e+00
-1.733006001e+00 3.036298752e+00
1.124145269e+00 9.055773616e-01
1.451494455e+00 1.358183980e+00
-8.530163765e-01 2.605519295e+00
-2.407460213e-01 8.637872338e-02
-7.891281247e-01 1.359763145e+00
-9.163463116e-01 -1.123949289e+00
-1.206440806e+00 -7.437193394e-01
1.819500208e+00 1.065106392e+00
1.307662725e+00 1.695861101e+00
-5.592745543e-01 4.506097436e-01
-3.641811013e-01 -1.783350468e+00
9.778013229e-01 3.772909939e-01
-8.456952572e-01 7.341053486e-01
-9.131731987e-01 -4.967304468e-01
2.306763649e+00 -8.422052860e-01
-1.164514422e+00 6.838345528e-02
-1.428172827e+00 2.448925018e+00
-1.084007859e+00 4.768105745e-01
-1.691167831e+00 -6.325187683e-01
-3.031414151e-01 -2.713276744e-01
2.730379105e-01 2.835230589e+00
1.561891079e+00 1.537260294e+00
-1.761195064e+00 2.379038334e-01
7.429619431e-01 6.053619385e-01
-1.993001461e+00 2.381260395e-01
-1.350908041e+00 -1.647387981e+00
-8.567452431e-02 5.332748890e-01
1.885977268e+00 -2.211673975e+00
-1.032697201e+00 2.435102224e+00
-1.126367092e+00 -3.338868618e+00
1.304633975e+00 8.041505814e-01
-9.095132351e-01 1.194745421e+00
-2.210512757e-01 -1.624558270e-01
-4.399141788e+00 -1.655570030e+00
6.233318448e-01 -8.486546874e-01
4.604700804e-01 1.291399240e+00
3.856773138e+00 -1.150080681e+00
1.653243005e-01 -5.283627510e-01
1.332273483e+00 -4.664607644e-01
-1.211298823e+00 -1.085859060e+00
1.506144762e+00 4.022671580e-01
-8.829798698e-01 3.608602285e-02
2.625457287e+00 1.219594240e+00
-2.909296751e-01 7.103369236e-01
-2.147846699e+00 -1.262058616e+00
-8.918786049e-01 1.002755165e+00
1.097745299e-01 1.294667125e-01
-1.056402206e+00 -2.864730358e+00
-6.176086068e-01 1.966773272e-01
4.597807527e-01 -1.644419551e+00
3.633422256e-01 2.115925550e+00
1.207733154e+00 1.564574361e+00
9.876829386e-01 4.489391744e-01
-1.227859735e+00 2.610066891e+00
7.301795483e-01 -1.935917735e+00
-2.054181099e+00 -1.284675479e+00
-1.920569658e+00 -1.960989237e+00
-3.203575611e-01 -1.175925732e+00
6.123408079e-01 5.912899971e-01
2.933433652e-01 -4.017481804e-01
1.749247789e+00 1.063348055e+00
-3.065652251e-01 -4.992286563e-01
-2.729520321e+00 -1.347968340e+00
-1.744903564e+00 3.447722793e-01
-7.346186638e-01 -6.565917730e-01
-4.522801042e-01 3.985631764e-01
-1.991704226e+00 5.794653296e-01
3.260487318e-02 8.312214613e-01
5.835461617e-02 -1.554751396e-02
2.153299809e+00 -1.564940453e+00
1.492079258e+00 -1.188921928e+00
1.468853712e+00 -1.776479244e+00
-1.579092622e+00 1.922331452e-01
4.413887858e-01 1.046694994e+00
1.075516820e+00 5.776599646e-01
7.553485632e-01 -1.361880541e+00
4.142929614e-01 -1.510994315e+00
-9.793602228e-01 -2.280434370e-01
7.722603083e-01 -4.694248140e-01
5.324532986e-01 -1.142723799e+00
6.762334108e-01 6.589080095e-01
-1.001198530e+00 -9.978650212e-01
2.147843838e-01 4.240880013e-01
1.845303178e-01 -1.619659662e-01
1.774561405e-02 1.340841293e+00
1.010289431e+00 2.298100233e+00
-8.157126307e-01 -1.949440122e+00
6.225601435e-01 1.014927030e-01
1.029306889e+00 3.133947849e-01
-1.951032639e+00 -4.643064141e-01
1.327321172e+00 -1.326604486e+00
1.758575439e+00 -1.504999995e-01
-3.775807858e+00 -1.900393486e+00
-3.152278662e-01 -8.093125820e-01
5.307363272e-01 1.238517761e-01
1.398704648e+00 -7.157260180e-02
-1.761609674e+00 2.171299458e+00
-1.517225742e+00 1.186169386e+00
4.272598624e-01 8.135772943e-01
1.128568053e-01 -7.170891166e-01
2.574156821e-01 -2.243169397e-01
1.631968975e+00 7.375526428e-01
1.934496641e+00 -2.974336147e-01
7.549284101e-01 8.215184808e-01
-1.052733421e+00 -9.463210106e-01
4.675982594e-01 1.424761772e+00
-7.608838081e-01 8.534761667e-01
1.720500588e-01 -2.378202677e+00
-2.396267653e-01 4.800749421e-01
9.622183442e-01 1.372631192e-01
-1.624795198e+00 -2.483945370e+00
-3.654848337e-01 -8.014631271e-02
1.161119223e+00 -8.510727882e-01
-1.382467747e+00 -1.591855586e-01
-7.456457615e-01 -7.806398273e-01
7.856146097e-01 6.306248903e-02
2.651090622e+00 1.052361488e+00
1.451332808e+00 3.986059129e-02
3.805154800e+00 1.096160412e+00
2.213770151e+00 1.962823272e-01
-3.822152853e+00 1.651903272e+00
2.598581314e-01 -1.272472382e+00
6.754409075e-01 1.019033074e+00
1.138036609e+00 -8.814461231e-01
1.219630241e-02 -2.522623062e+00
-1.107040167e+00 4.769448042e-01
-1.237478733e+00 1.925873041e+00
2.600518763e-01 -2.904647350e+00
6.804603338e-01 -3.693666756e-01
-3.558561206e-01 1.057686210e+00
6.106394529e-01 -4.626432061e-02
5.478354692e-01 -3.669291735e-01
2.207925558e+00 1.533704758e+00
1.174883604e+00 2.340701222e-01
-1.373745918e+00 -4.809319973e-01
3.372196555e-01 1.344728231e+00
-2.357046902e-01 -1.164204597e+00
-9.972379208e-01 -8.453798294e-02
3.064141750e+00 -1.748694897e+00
-9.087673426e-01 -2.168234825e+00
1.028856516e+00 2.395558357e-01
1.749483228e+00 -5.117752552e-01
-4.152038991e-01 -4.036947191e-01
-2.232195139e+00 -1.400774598e+00
-5.988382697e-01 1.876489639e+00
1.524791002e+00 8.286952376e-01
-9.347563982e-02 -1.572950482e-01
-4.286782742e-01 3.955616355e-01
-1.385377169e+00 1.420795918e-01
5.095828772e-01 3.216328919e-01
-2.017763615e+00 -8.192254305e-01
-1.405160189e+00 -3.614794254e+00
9.162825346e-02 -4.536708593e-01
-9.531395435e-01 -3.977475166e-01
-7.909949422e-01 -8.556455374e-02
4.341440797e-01 9.579118490e-01
-2.204447687e-01 3.109090090e+00
1.248722553e+00 4.811399877e-01
1.401206493e+00 2.511794865e-01
2.874404192e-02 1.118353486e+00
9.385232329e-01 -8.865984678e-01
7.329279184e-02 -1.397192478e-02
6.676176786e-01 -1.250034332e+00
1.553956985e+00 5.820889473e-01
1.573962420e-01 4.478997290e-01
-1.631928682e-01 2.356102228e+00
1.212624788e+00 7.543325424e-03
-1.423172116e+00 -4.266903996e-01
9.360741079e-02 1.578919291e-01
2.486793995e+00 5.070092678e-01
-9.296718836e-01 -8.040935397e-01
-2.529098034e+00 -6.656783819e-01
1.589835882e-01 4.513263702e-02
1.725398302e+00 2.847670317e-01
-3.379167616e-01 1.386539698e+00
-3.692427278e-01 -5.477869511e-01
1.053959846e+00 -1.883912563e+00
5.333361626e-01 -3.427832723e-01
1.047753692e+00 2.351901233e-01
1.782115698e+00 -2.658869326e-01
2.586225271e-01 4.059255123e-02
-9.506571293e-02 -2.531556606e+00
-5.182331800e-01 2.275048971e+00
2.448808551e-01 -4.003074765e-01
