-2.236623764e-01 -6.353584528e-01
1.894617379e-01 -5.281548500e-01
-3.177019954e-02 -6.034698486e-01
3.565234840e-01 -2.296120405e+00
3.223692775e-01 9.175246954e-01
5.223798752e-02 -5.365365744e-02
-9.952999353e-01 1.006865263e+00
4.556350410e-01 -8.679205179e-02
1.029779017e-02 8.302196860e-02
-6.531163454e-01 -3.525409102e-01
-1.118909121e+00 4.403204918e-01
2.123321056e+00 6.138436794e-01
-8.142566681e-02 -8.881936073e-01
-4.255951345e-01 1.140846968e+00
-7.869853377e-01 -4.323345423e-01
1.403440237e+00 -9.585173130e-01
1.754092574e-01 1.338653326e+00
1.253122091e+00 4.140484333e-02
1.675703883e+00 -1.242324591e+00
7.122118473e-01 1.108830929e+00
-4.072995484e-01 2.818506956e-01
-8.345913887e-02 -3.908926547e-01
8.956727982e-01 -1.844501734e+00
-1.286445379e+00 -2.834699750e-01
2.020633221e+00 1.759563446e+00
-7.755982876e-01 6.988939047e-01
1.362640738e+00 -2.765801907e+00
2.165868998e+00 -1.406247497e+00
8.557466269e-01 5.837320089e-01
-2.041280270e-02 -1.900514245e+00
-3.152214885e-01 1.949555755e+00
-9.552186728e-02 1.556174517e+00
-1.072873354e+00 -2.976863980e-01
1.056390643e+00 -1.100745797e+00
2.349500954e-01 5.569474697e-01
-1.530708909e+00 -1.845355749e+00
2.354905605e-01 -2.341653347e+00
-1.763076782e+00 -1.124152660e+00
9.683889151e-02 7.177436352e-01
-1.658596039e+00 -4.167888165e-01
-6.476854086e-01 -1.142453551e+00
-1.476058841e+00 1.155870080e+00
1.162122488e+00 6.138114929e-01
-2.026463032e+00 -4.806573987e-01
-1.998202801e+00 -1.181266069e+00
-4.899553359e-01 -5.777347088e-01
4.279192090e-01 -9.759733677e-01
-8.068548441e-01 6.668345332e-01
-1.950872540e+00 3.548229337e-01
-1.091084719e+00 -1.470659733e+00
-1.019690514e+00 -8.534836769e-02
-1.469676495e-01 -1.227551460e+00
9.544396400e+00 2.980377197e+00
-5.113275528e+00 -5.068927765e+00
-8.870168686e+00 3.342964649e+00
7.946581364e+00 -4.422671318e+00
5.381370544e+00 2.405486345e+00
1.658794880e+00 -2.309410810e+00
-7.354650497e-01 -4.342455864e-01
-3.303026915e+00 -2.005449772e+00
-2.786224842e+00 -1.848081470e+00
-1.866114616e+00 -1.708334208e+00
4.398183823e-01 -1.680802107e+00
-1.110358834e-01 1.176300049e+00
-3.114170134e-01 1.491857648e+00
-2.966341257e+00 -1.223202944e+00
7.337117195e-01 1.576057911e+00
-2.022168159e+00 -1.134488344e+00
-6.182422638e-01 1.432605624e+00
-1.186941624e+00 -1.462629914e+00
1.983008862e+00 3.000676930e-01
1.976961493e-01 1.043401718e+00
7.281182408e-01 8.180222511e-01
-1.036429405e-02 1.747946501e+00
1.163961887e-01 -8.767746687e-01
2.603118420e-01 2.064317226e+00
1.241571903e-01 -7.487547398e-02
5.407310128e-01 1.142930865e+00
-2.185421944e+00 -1.335393429e+00
1.443806291e+00 -9.885895252e-02
1.406167984e+00 1.852538586e+00
-8.170108795e-01 -2.504144907e+00
-1.868232250e+00 3.185342550e+00
4.458498955e-01 8.779287338e-03
1.491994858e+00 -2.028259277e+00
5.678827167e-01 3.427806497e-01
-3.676670790e-02 1.781349659e+00
2.110272646e-02 2.009478807e+00
-5.162189007e-01 -9.083510637e-01
-1.011401415e-01 2.526277900e-01
-5.667143464e-01 -1.276502609e-01
-2.501614571e+00 -1.487754107e+00
-2.787922621e+00 1.995706320e+00
2.022683620e+00 7.715672255e-01
-2.690253258e-01 1.837274909e+00
-1.019321203e+00 -1.801353812e+00
1.190765262e+00 -1.339135885e+00
-7.538007498e-01 -1.085422754e+00
5.138497353e-01 -5.451620817e-01
-1.192345142e+00 -4.038389623e-01
-7.645845413e-02 -8.650712371e-01
7.560907602e-01 1.321397424e+00
-1.830276489e+00 -1.865282059e+00
1.058561325e+00 8.870551586e-01
2.078844607e-01 1.461460948e+00
7.855593562e-01 -9.784508348e-01
-4.568524659e-01 -1.111506104e+00
1.176498413e+00 2.200745344e+00
9.314075112e-01 -2.283168793e+00
-1.374106646e+00 -5.262510777e-01
-2.016515732e+00 4.025741220e-01
-1.055625439e+00 1.623409033e+00
-2.260103941e+00 -2.068856657e-01
-1.336674333e+00 -2.664269686e+00
-2.855842590e+00 -1.874897838e+00
-7.273316383e-02 1.403123975e+00
-1.306358099e+00 1.879444480e+00
3.433623075e+00 3.951714039e-01
2.302542925e+00 8.064610958e-01
-1.292640448e+00 -2.456868649e+00
2.607985973e+00 -8.759003878e-01
-1.163215160e+00 5.747030973e-01
-4.033690691e-01 -1.853609800e+00
-4.307721853e-01 -5.947738886e-02
7.815387845e-01 1.806881666e+00
-1.227586150e+00 7.595055103e-01
1.348418713e+00 9.066554904e-01
-3.217104673e-01 -1.946175694e-01
-2.178244829e+00 -2.338541150e-01
-3.211411238e-01 2.729073048e+00
8.020218611e-01 1.061344266e+00
3.214117289e-01 2.699252605e+00
1.315587282e+00 8.660351038e-01
1.111571074e+00 -9.743803740e-02
3.188367784e-01 -5.127286315e-01
4.064760208e-01 -6.381221414e-01
2.381275654e+00 -7.142283916e-01
5.573357344e-01 1.781654835e+00
-6.389330029e-01 6.510839462e-01
1.267724633e+00 1.490975976e+00
1.755332112e+00 5.375421047e-02
4.550094903e-02 2.926508904e+00
3.249108195e-01 4.250538349e-01
-1.471280694e+00 -1.969124913e+00
3.123298287e-02 7.397130132e-01
-2.923369408e-01 -2.430565059e-01
-2.369938642e-01 -1.961098909e-01
5.356081128e-01 9.226850271e-01
-1.387983084e+00 -6.215068698e-01
-5.906514823e-02 -3.236870289e+00
1.822856307e+00 -7.392728329e-01
2.480114460e+00 -1.386286318e-01
-9.808645248e-01 -1.880403906e-01
-1.005086005e-01 4.784736037e-01
2.644691944e+00 1.678882599e+00
-1.077621579e-01 1.204986691e+00
-5.598385334e-01 -1.727671325e-01
5.606206656e-01 -5.927214026e-01
-1.305036426e+00 1.560315043e-01
6.494708061e-01 1.338124514e+00
-4.495349526e-01 2.240154982e+00
8.249983191e-01 6.193392277e-01
2.379852533e-01 -7.382366657e-01
5.930636525e-01 6.520019770e-01
-1.064037561e+00 1.625496745e-01
-5.681742430e-01 1.761269212e+00
-1.397919059e+00 -1.578929186e+00
3.513584435e-01 3.759162426e-01
2.463073730e+00 -1.063492000e-01
-1.125397563e+00 5.700358152e-01
8.349904418e-02 -1.310306072e+00
-1.576061726e+00 1.123330832e+00
5.064069033e-01 -1.401963234e+00
-9.668718576e-01 4.978525639e-01
-5.121193826e-04 5.415395498e-01
9.456855655e-01 -8.350524902e-01
1.320827603e+00 -1.007750750e+00
1.093199492e+00 -1.619505763e+00
4.895336330e-01 -6.859616041e-01
-1.483061075e+00 2.614049911e-01
-5.401308537e-01 -5.612457395e-01
4.649161696e-01 7.136862874e-01
2.019392490e+00 1.628440619e-02
1.328261375e+00 3.017635047e-01
1.301934838e+00 -6.519391537e-01
-5.592522621e-01 6.131365299e-01
-2.051219702e+00 3.011650145e-01
-1.058682203e-01 -3.223204613e-01
1.664658904e+00 1.143744349e+00
2.386008978e+00 7.531709075e-01
1.394090414e+00 -1.686769128e+00
-1.195352077e-01 -8.176141977e-01
-2.419820070e+00 9.356652498e-01
6.929304004e-01 2.636175752e-01
-7.983522415e-01 -1.500607371e+00
-7.939893007e-01 -3.231962919e-01
-2.514174581e-02 -3.200792670e-01
6.983724833e-01 -8.695122004e-01
1.931758642e+00 2.736747265e-01
-6.276626587e-01 -5.595360398e-01
-1.459126353e+00 -7.247358561e-02
2.752230167e+00 2.262549102e-01
1.050849676e+00 -2.968658924e+00
-7.880517244e-01 5.474356413e-01
8.643977642e-01 1.993912101e+00
-2.675721049e-01 -1.760057211e-01
1.869184732e+00 -1.294107676e+00
1.118903160e+00 9.978730679e-01
-9.605397284e-02 1.147120953e+00
1.548844457e+00 -6.993690133e-02
7.112751603e-01 1.714967489e+00
1.134158850e+00 -1.882429242e+00
-2.800884247e+00 -3.699040413e-02
1.774720430e+00 1.556870937e+00
-1.845669627e+00 9.911755323e-01
1.275482893e+00 2.390660644e-01
5.196870565e-01 6.787326932e-01
-4.620471597e-01 -8.340741992e-01
8.927773237e-01 -1.514032841e+00
-1.753834248e+00 -1.802487016e+00
1.335963964e+00 -7.915753126e-01
-6.250697374e-02 7.698547840e-01
2.728301287e-01 1.484773636e+00
1.070833564e+00 2.804512382e-01
-3.395833373e-01 -1.387219310e+00
-1.261403322e+00 3.610012770e+00
1.291082501e+00 2.397797823e+00
9.369168282e-01 2.504542112e+00
-1.577060938e+00 -4.700056911e-01
2.053946853e-01 6.605566144e-01
-2.507762909e-01 -1.818213582e+00
-1.361232996e+00 1.273893833e+00
1.335218787e+00 3.102113605e-01
-2.202177525e+00 -1.614265680e+00
4.752895236e-01 7.575070858e-01
1.412404060e+00 -2.054671645e-01
4.716941714e-01 1.238081455e+00
-3.067315817e+00 -2.885958195e+00
4.631574750e-01 -6.972616911e-01
4.005721509e-01 2.146668911e+00
7.849663496e-02 5.385957360e-01
-2.572431564e+00 5.115072131e-01
2.232374698e-01 -1.845299363e+00
6.923658252e-01 1.010400653e+00
-4.295544326e-01 -2.494020939e+00
-1.835733056e-01 -2.399638176e+00
4.565800726e-01 1.154315233e+00
-3.038739264e-01 -3.889499903e-01
-3.892685175e-01 1.234881282e+00
1.843292594e+00 1.490544677e-01
