7.761892863e-03 3.537325561e-02
2.475581169e+00 1.473404288e+00
-1.115972042e+00 2.097696364e-01
-2.329672277e-01 1.465737820e-01
-1.842717409e+00 6.901143193e-01
-6.675764322e-01 2.727366686e-01
-1.231785059e+00 -2.224750996e+00
1.225696564e+00 4.097305775e+00
1.152752161e+00 -1.514847517e+00
5.242265463e-01 -1.252352595e-01
2.303006411e+00 1.556391478e+00
2.930115163e-02 -3.013805747e-01
-1.069349051e+00 1.568397880e-02
1.131221056e-01 2.737284899e-01
-7.394158840e-02 4.289674759e-01
-1.177255630e+00 -7.981370687e-01
1.664219379e+00 -1.469613910e-01
-1.349880934e+00 -7.742008567e-01
1.096630931e+00 -3.494991541e+00
2.464378476e-01 -1.025119781e+00
1.926934719e-01 -2.023168564e+00
1.221378803e+00 1.552535534e+00
7.654650807e-01 2.794375122e-01
-1.667629957e+00 2.099472046e+00
-2.818584919e+00 -2.091016293e+00
-2.101370335e+00 9.475289583e-01
-1.184240818e+00 -1.489727616e+00
2.181865454e+00 8.122701049e-01
-1.131176949e-03 6.109474301e-01
-8.524480462e-01 1.355117559e-01
-2.563692093e+00 2.766337991e-01
1.643941879e+00 -1.108816862e+00
7.356345654e-02 -7.254728675e-02
2.854724884e+00 -7.628638744e-01
-4.777782261e-01 -4.642163515e-01
-4.293123186e-01 1.113344431e+00
-1.053924441e+00 2.400633335e+00
-6.313533783e-01 -1.045134306e+00
1.089513063e+00 -1.160452962e+00
6.107922792e-01 -1.280851603e+00
-9.252860546e-01 7.320100069e-01
-7.973768711e-01 -1.260504007e+00
1.131887436e+00 8.403718472e-02
-2.584112644e+00 2.193213940e+00
1.330584139e-01 8.392725885e-02
-1.963847876e-01 1.080240846e+00
-1.468463063e+00 5.027948618e-01
-1.891221523e+00 -2.126502514e+00
6.141135693e-01 1.811367750e+00
1.276701689e+00 1.533388019e+00
-9.930315018e-01 2.525969148e-01
5.741698742e-01 -1.640848875e+00
-5.862567425e-01 -7.058137655e-01
7.997821331e+00 -5.681472778e+00
3.354209423e+00 -7.578385353e+00
1.778095245e+00 4.093489647e+00
-9.211502075e+00 -7.032938957e+00
5.859375000e-01 1.955605507e+00
6.047651291e+00 -3.722085953e-01
-3.609538078e-01 1.550185204e+00
-2.724707127e-02 -2.287817001e+00
-2.058401108e+00 -1.298941612e+00
1.028430820e+00 1.689715385e-01
2.494622707e+00 -3.399648666e-01
-1.072185040e+00 1.706683397e+00
-1.981498241e+00 -7.317618132e-01
2.917682886e+00 2.442701101e+00
3.519457579e-01 -5.205011368e-02
1.596710682e-01 1.991123676e+00
-5.452760458e-01 -8.570553064e-01
-8.153915405e-01 1.222905755e+00
-1.821873546e+00 -5.362921953e-01
-1.779130936e+00 2.236543894e-01
-2.250616550e+00 2.697175741e+00
2.652045190e-01 -5.245454311e-01
1.716902733e+00 7.931613922e-02
-2.037645340e+00 -6.565487385e-01
3.108812094e+00 8.748817444e-01
2.414084435e+00 -1.473944664e+00
7.033380270e-01 1.611912370e+00
4.038201571e-01 4.340072572e-01
1.371378899e-01 6.089662313e-01
1.416357160e+00 -1.362038732e+00
7.016582489e-01 1.236264586e+00
-1.524077058e+00 -1.345634937e+00
-1.342046380e+00 2.091110945e-01
1.696120352e-01 8.914113045e-03
1.524417400e-01 -1.564390182e+00
2.734444141e-01 3.030149460e+00
-2.730984092e-01 -1.858296156e+00
-2.527834773e-01 9.773552418e-02
-2.827727497e-01 3.453756332e+00
5.270538330e-01 3.405925632e-01
-2.120486498e+00 2.030548811e+00
4.549335241e-01 -8.797045350e-01
-9.011462331e-02 -3.416871727e-01
-1.107314944e+00 -1.120905876e-01
-2.044457197e-01 -9.132856727e-01
9.959236383e-01 -5.157774091e-01
7.597889900e-01 8.977701664e-01
-8.165475726e-02 -2.582775652e-01
-5.454831123e-01 -4.214559197e-01
1.642218828e+00 2.084044218e-01
1.184677362e+00 -1.871728897e-01
9.410209060e-01 5.833415985e-01
7.100803852e-01 7.474157810e-01
-2.463307381e+00 2.119441926e-01
1.797486782e+00 -2.164556265e+00
1.949874759e-01 -2.363424599e-01
9.929300547e-01 -2.279836178e+00
-1.472261906e+00 -3.631831408e-01
-1.895084143e+00 4.830040932e-01
-3.195187449e-02 -5.856050849e-01
9.224207401e-01 1.298163652e+00
-1.638870478e+00 -1.319756746e+00
1.274721026e+00 1.453073025e+00
-1.985312939e+00 -6.224632263e-02
3.685679138e-01 -1.345465899e+00
1.963400602e+00 6.559925079e-01
-6.282850504e-01 4.494634867e-01
2.745630503e+00 -5.835731030e-01
-1.028537631e+00 -1.524046421e+00
-1.596127272e+00 1.763903856e+00
-5.869927406e-01 1.218214035e+00
2.699018478e+00 1.295854568e+00
9.713700414e-01 -1.519386292e+00
-8.244513273e-01 1.285773277e+00
2.001370430e+00 1.088648558e+00
-1.597728848e+00 7.101194859e-01
-2.106151730e-01 1.861511946e+00
-9.752039313e-01 8.234841824e-01
-9.612240791e-01 7.635951042e-02
8.929371834e-04 -9.266560674e-01
-1.840845823e+00 -1.713102937e+00
1.582700253e+00 1.353417635e-01
-7.898197174e-01 2.058978319e+00
8.873257041e-01 2.482527494e-02
8.527541161e-01 -1.260709763e+00
-8.996697664e-01 1.360885620e+00
-1.019839644e+00 -8.624711633e-01
-9.851578474e-01 -5.424572229e-01
-2.652829409e+00 1.216228485e+00
-8.658123016e-01 2.670539856e+00
1.693073988e+00 -2.013395786e+00
-3.140904009e-01 -2.485348880e-01
2.598177671e+00 2.733987570e-01
-1.442174911e-01 2.564463377e+00
-1.124697328e-01 1.708682775e+00
5.465793610e-02 5.950090885e-01
2.276889086e-01 2.039187908e+00
6.807272434e-01 7.890176773e-01
9.843891263e-01 -2.804299831e+00
-2.392118692e+00 5.791770220e-01
1.036799669e+00 1.602510452e+00
2.248424292e-01 1.061695576e+00
5.626676083e-01 -2.382360101e-01
-1.224067926e+00 1.251939774e+00
6.815583110e-01 -2.300679684e-02
-4.363227189e-01 2.564091980e-01
1.685685873e+00 4.231536686e-01
-1.144228935e+00 -1.109983921e+00
-8.366672397e-01 2.902891636e-01
1.403269291e+00 2.152724028e+00
-3.244119585e-01 7.364522219e-01
-1.119204283e+00 -1.526372671e+00
-2.197890282e+00 3.182297945e-01
-3.342400074e+00 1.224523187e+00
6.759968996e-01 -4.065405428e-01
-1.827994585e+00 -1.625215769e+00
-2.393269062e+00 1.445447445e+00
-1.563345909e+00 -1.466290474e+00
2.428046763e-01 6.874440908e-01
-6.271233559e-01 -8.586475849e-01
7.522224784e-01 1.152318239e+00
-5.939185619e-01 -8.189785480e-02
1.802011728e+00 -9.262562394e-01
-2.603534222e+00 -1.841411471e+00
-1.138658285e+00 -3.178637326e-01
-5.888782144e-01 -5.400550365e-02
-3.348890245e-01 2.096300125e-01
2.143903077e-01 -5.512057543e-01
3.193554282e-02 -9.383986592e-01
4.251039624e-01 -2.507005036e-01
1.106004238e+00 7.029702067e-01
4.896721840e-01 -6.362540722e-01
-7.171571255e-03 -1.860508919e-01
2.002279520e+00 -1.800310850e+00
-1.252024412e+00 8.824290037e-01
-2.980371118e-01 1.702513099e-01
3.930699527e-01 1.684244156e+00
1.397754788e+00 4.715324938e-01
5.637428164e-01 7.765941620e-01
-7.479646206e-01 1.733081341e-01
-2.130170345e+00 -1.134272456e+00
1.135848522e+00 -7.390916348e-01
3.702940345e-01 -5.499597788e-01
1.283097982e+00 1.395146608e+00
-1.270376205e+00 -1.214302778e-01
-8.999174237e-01 5.448073149e-01
-6.893646717e-01 -4.574853182e-01
5.270568132e-01 2.883344293e-01
-5.186988115e-01 -1.119369268e-02
3.003841639e-02 -4.200494885e-01
7.050182223e-01 -8.047337532e-01
9.515536427e-01 -8.777269125e-01
6.197123528e-01 -1.028193355e+00
-1.229052424e+00 1.069308758e+00
-8.294776678e-01 -6.755928993e-01
-1.128307939e+00 1.156926632e+00
1.052202463e+00 8.420613408e-01
-1.395831466e+00 4.176475406e-01
-3.972804546e-01 -4.718448222e-02
1.063506961e+00 -2.743303776e-03
-2.036909163e-01 8.287298679e-01
1.496013105e-01 -1.540956497e+00
-1.370493412e+00 -3.286579251e-01
-1.461711764e+00 -1.049299479e+00
1.265629768e+00 2.911412239e+00
2.350936174e+00 -9.735380411e-01
4.979863167e-01 2.701134682e+00
4.846462011e-01 1.296974182e+00
-6.103048325e-01 6.210792065e-01
-1.588630199e+00 -4.402662814e-01
-4.130671322e-01 4.363461137e-01
1.507008791e+00 1.337467909e+00
-6.177425981e-01 -1.266546488e+00
1.174198627e+00 2.265735865e+00
1.241588593e-02 3.693103194e-01
7.550197840e-02 1.577975750e-01
-5.556216240e-01 2.206480503e-01
1.619258881e+00 -1.209267139e+00
-1.601325512e+00 -2.150659561e-01
-6.215168238e-01 1.580877602e-01
-1.567375779e+00 -2.208341599e+00
-7.384068370e-01 -1.004875422e+00
-2.918403745e-01 -9.769833684e-01
-4.009534121e-01 -4.321862757e-01
9.352743626e-03 1.357711554e+00
2.455712318e+00 6.792614460e-01
-5.897334218e-02 -6.187924743e-01
-6.265716553e-01 -3.783550858e-01
-5.045814812e-02 -4.363421500e-01
-1.348109484e+00 -5.310183764e-01
-1.356070280e+00 -1.493580818e+00
1.554311514e+00 -1.399696827e+00
1.678164959e+00 -8.962577581e-01
1.215371847e+00 1.284085274e+00
-8.514292240e-01 5.750104785e-03
1.446325421e+00 -3.062176108e-01
1.229932904e+00 -1.850326657e-01
