-7.986181974e-01 -6.110283136e-01
-1.543975770e-01 1.898453951e+00
-1.277533531e+00 2.370669246e-01
-8.975850940e-01 1.316229939e+00
1.624969691e-01 1.049239516e+00
2.208022594e+00 3.027939796e-02
1.516863257e-01 -1.799910188e+00
5.036126375e-01 1.024356961e+00
8.586767912e-01 -4.213349223e-01
1.076256990e+00 -8.508905172e-01
-2.022693306e-01 -3.982946277e-01
4.147183299e-01 6.400986910e-01
8.632148504e-01 -9.025886059e-01
6.974774003e-01 2.145415843e-01
5.971535444e-01 -9.273462296e-01
3.007649899e+00 5.112919211e-01
-7.828386426e-01 1.813895226e+00
2.160924911e+00 -8.950897455e-01
-3.655456066e+00 -2.291921377e-01
-6.741444468e-01 9.204372168e-01
1.262029529e+00 5.627837777e-01
1.351290107e+00 3.180329323e+00
3.719181776e+00 -2.118462324e-02
3.957560360e-01 -1.222631216e+00
-4.279592633e-01 -8.083011508e-01
-7.634133101e-02 1.089226484e+00
1.601875067e+00 4.290842414e-01
-8.924099207e-01 6.315575242e-01
-1.878796518e-01 5.305577517e-01
3.337104917e-01 5.131660700e-01
-1.538760185e+00 2.636939526e+00
1.560659707e-01 7.570117712e-02
6.443400383e-01 4.036763310e-02
1.876634359e+00 -4.940947294e-01
-1.683571637e-01 -4.996657372e-02
5.934964418e-01 -3.886865973e-01
-2.961328030e-01 -9.310079813e-01
1.940401077e+00 6.499929428e-01
-2.031974077e+00 -2.904324532e-01
2.920819759e+00 1.143623114e+00
-2.725479603e+00 -7.921856642e-01
2.249359131e+00 1.227392435e+00
2.849300861e+00 5.255893469e-01
-8.363739848e-01 3.751420379e-01
-1.666563272e+00 5.505700707e-01
-1.783734560e-02 1.265721202e+00
1.248506308e+00 -1.813750863e-01
2.572087646e-01 -1.564198256e+00
4.229726791e-01 -6.639500856e-01
1.369456172e+00 1.035564184e+00
1.767133117e+00 1.807716250e+00
3.010759950e-01 -1.804289579e+00
-1.781534958e+01 -2.484893799e+00
5.103755951e+00 8.147871017e+00
1.192100525e+00 6.832863331e+00
1.234307289e+00 1.234582305e+00
5.638764381e+00 -2.503090143e+00
-5.697567940e+00 5.529208183e+00
3.023891687e+00 6.432596207e+00
8.992158175e-01 1.349968910e-01
1.644923210e+00 -2.706596136e+00
-1.518006325e+00 -4.239449501e-01
9.402067661e-01 7.867953777e-01
9.088138342e-01 -1.079416513e+00
-7.446608543e-01 6.523272991e-01
3.233369827e+00 -2.037404537e+00
3.211659431e+00 -8.826591969e-01
-2.945406139e-01 -4.342123270e-01
-4.247339725e+00 7.980842590e-01
-3.206381798e-01 -7.148573399e-01
9.372679591e-01 1.171937943e+00
-1.773402929e+00 3.013026118e-01
-6.320118904e-01 -1.452403903e+00
-1.623117924e-01 6.706047058e-01
-1.734026194e+00 1.296825647e+00
-6.171101332e-02 -1.183873415e+00
-6.250125170e-01 2.046544552e-01
2.981876731e-01 -2.455060244e+00
1.100420117e+00 -3.101116419e-02
4.707753658e-02 -9.978482127e-02
4.234629869e-02 3.601799607e-01
-1.558332443e-01 1.325987339e+00
-1.243247390e+00 1.485740781e+00
-2.650563717e-01 7.085472345e-01
-1.535477400e+00 4.081606269e-01
8.659297228e-01 4.475829005e-01
1.214400053e+00 4.414998293e-01
-1.445163250e+00 1.435353279e+00
9.967504740e-01 1.828237057e+00
7.362127304e-01 -1.430834234e-01
-2.071204424e+00 -1.273216367e+00
-2.938409328e+00 -1.715968966e+00
2.376750708e-01 -1.047281504e+00
7.593734264e-01 -9.251683354e-01
2.874740660e-01 2.091450214e+00
9.785686731e-01 -2.567076921e+00
-5.005646944e-01 1.930899262e+00
-1.941682816e+00 3.436457872e+00
-5.477541685e-02 1.158429265e+00
-7.689090371e-01 -2.360591292e-01
7.007448673e-01 -5.472791195e-01
-6.493425369e-01 -6.897342205e-01
2.572575331e+00 -1.295993209e+00
-1.527607441e-02 -2.883073092e-01
1.810121894e+00 -2.788767219e-01
-1.174466133e+00 -1.501841784e+00
-1.605342746e+00 -1.332063437e+00
-1.381765366e+00 -9.681416750e-01
3.332291842e+00 -1.296163678e+00
-1.318791747e+00 2.110555887e+00
-1.888370037e+00 -1.537983894e+00
-1.496422887e+00 -1.237873316e+00
1.208961487e+00 2.979439974e+00
-2.919334173e-02 1.583989620e+00
2.421187162e-01 5.538903475e-01
-7.908321619e-01 1.902911544e+00
9.230606556e-01 9.106688499e-01
4.229971170e-01 -1.954257488e-02
1.943086147e+00 -1.314058423e+00
-6.702938676e-01 1.502704620e+00
7.205609083e-01 7.341735363e-01
1.018111944e+00 -1.865571260e+00
5.841523409e-03 1.868803024e+00
1.239634037e+00 -6.926983595e-03
6.302851439e-02 -2.316047192e+00
-5.036782622e-01 4.700288773e-01
-1.267384291e-01 -1.184474349e+00
9.620951414e-01 5.043280721e-01
-1.135191202e+00 -1.111618757e+00
-1.299350023e+00 1.050738096e-01
-1.412066698e+00 3.722071648e-01
1.201622725e+00 2.111582279e+00
9.457868338e-01 -2.387806177e+00
-2.048224211e-02 -8.380146623e-01
3.102406263e-01 -1.714446545e-01
5.260535479e-01 -5.608837008e-01
-1.589712620e+00 9.750343561e-01
-1.259362698e-02 -1.787002683e-01
1.593333840e+00 1.335036755e-01
-4.383891225e-01 -1.561748147e+00
5.392466784e-01 5.766400099e-01
-9.822126627e-01 1.824754477e-01
1.476900339e+00 -4.724250436e-01
-1.715258658e-01 6.304837465e-01
-4.179446697e-01 2.273591518e+00
-1.724589348e+00 -1.773967028e+00
1.595557570e+00 2.769657373e-01
3.570179641e-01 -1.707589388e+00
1.416937113e+00 1.164449930e+00
-7.015255690e-01 4.105824232e-02
1.263190508e-01 -1.263859272e+00
1.024469018e+00 2.246187210e+00
1.193415642e+00 -1.841618299e+00
1.395027280e+00 -1.625814557e+00
-8.309900761e-02 1.108323574e+00
-1.404216766e+00 -1.330683708e+00
5.451597571e-01 1.138889432e+00
-1.067103624e+00 2.285066605e+00
-3.075553179e-01 6.200230122e-01
-1.131488919e+00 -1.265780568e+00
-1.314039230e+00 -2.181088924e-02
-3.226368129e-02 -2.447310686e-01
-1.597212791e+00 3.154527664e+00
4.633681476e-01 -3.680337071e-01
1.811329722e-01 6.156569719e-01
-3.636191189e-01 -3.430244327e-01
3.329437077e-01 -7.944452167e-01
1.489998698e+00 9.584678411e-01
3.339357376e-01 5.277075768e-01
3.110149801e-01 -5.857729316e-01
9.799623489e-02 -1.515804052e+00
4.536330700e-03 1.100566149e+00
1.078446388e+00 -1.038634777e+00
-7.884545326e-01 8.141607046e-02
-8.408340216e-01 1.130387783e+00
-2.960434258e-01 3.393191814e+00
-2.422098637e+00 -5.511661768e-01
7.281724215e-01 3.093666434e-01
9.117629528e-01 1.747076392e+00
-1.028116822e+00 -1.015642643e+00
-4.669753015e-01 5.465626717e-01
5.850436687e-01 -4.790357649e-01
2.066751122e-01 6.849026084e-01
3.674698472e-01 6.205108762e-01
8.731102943e-01 -6.081728935e-01
3.318657875e-01 1.662744284e-01
-3.338021636e-01 -8.184900880e-02
1.704985023e+00 -1.679679155e+00
1.182099581e-01 -2.318528295e-01
6.030282378e-01 -2.420789242e+00
-2.675262928e+00 -1.056441903e+00
9.319155216e-01 1.576627254e+00
2.352275550e-01 1.843337536e+00
-3.468055129e-01 -8.133393526e-01
2.213933468e-01 2.515772104e+00
-4.347995818e-01 -9.262549281e-01
1.522398949e+00 1.156906605e+00
2.213321328e-01 -1.898869872e+00
-3.021761775e-03 -6.364912987e-01
1.582505465e+00 -7.946707606e-01
-2.096671164e-01 -2.454414845e+00
-1.503185034e+00 2.127821445e+00
2.161746472e-01 -9.474869967e-01
-4.121007621e-01 -1.513550282e+00
2.551332712e-01 -1.592462063e+00
4.658183157e-01 1.930358410e-01
1.731177330e+00 -2.140235662e+00
9.703985453e-01 -1.431702971e-01
-1.247898579e+00 4.923281074e-02
-7.048929930e-01 6.354005337e-01
4.028008580e-01 1.689718485e+00
8.857926130e-01 8.717846870e-01
-1.304866374e-01 1.768545389e+00
-5.126852989e-01 -1.210024118e+00
-1.118048310e+00 5.335549116e-01
2.737323999e+00 -2.036394179e-01
-1.508758664e+00 -9.829316735e-01
2.135864735e+00 -6.062443256e-01
3.635768294e-01 -6.418317556e-01
-1.562801003e+00 -7.156849504e-01
-1.046218157e+00 -1.871479988e+00
1.945447326e-01 -1.211750746e+00
-5.152562857e-01 5.486580133e-01
6.713103056e-01 3.246422410e-01
-1.028951526e+00 -5.824639797e-01
1.478278399e+00 6.110704541e-01
-2.352471352e-01 -2.062944889e+00
9.181774855e-01 -2.168803215e-01
-3.400326967e-01 -1.711921453e+00
1.391661912e-01 1.164009809e+00
2.529267311e+00 -5.694954991e-01
-1.419245005e+00 1.978129148e+00
-2.500742435e+00 -7.563390136e-01
4.888205975e-02 1.519975901e+00
7.161748409e-01 8.227830529e-01
-1.406623721e-01 9.429626465e-01
1.548302889e+00 1.736252904e-01
-1.629670620e+00 3.249255657e+00
-1.119713068e+00 4.998239875e-02
2.887771726e-01 5.090698600e-01
-1.090227365e-01 1.752232313e+00
1.840531111e+00 -5.562341213e-02
9.503982067e-01 4.302522242e-01
2.836403847e-01 -4.726524353e-01
2.043738365e+00 -1.314091444e+00
1.119755387e+00 -7.402590513e-01
-1.102892280e+00 8.148667812e-01
2.224282742e+00 1.455220222e+00
-1.146861196e+00 1.394589782e+00
4.549134672e-01 4.244316220e-01
