-5.706376396e-03 -5.322328070e-04
-1.393822022e-03 -6.792202475e-05
4.027356859e-03 -1.117969630e-03
2.191688633e-03 2.724355552e-03
-3.442640718e-06 1.041790674e-04
6.170822307e-03 8.930962533e-03
4.351592623e-03 -2.540184185e-03
-3.119164612e-03 -4.379083111e-04
-7.742126007e-03 -2.175203292e-03
1.416501496e-02 9.601459606e-04
-8.614388295e-03 -1.518893754e-03
-1.377661433e-02 1.099862903e-02
1.331469230e-02 4.720507190e-03
-3.387828358e-03 -1.789087430e-03
-6.556094158e-03 2.352723386e-03
6.048204377e-03 -9.319772013e-03
-9.539635852e-03 5.660908762e-03
1.892337459e-03 -1.027117576e-02
8.972741198e-04 7.089744904e-04
1.003419794e-02 1.851312444e-02
4.377966281e-03 5.346081452e-04
5.672547559e-05 2.778932452e-03
-8.009928279e-04 -3.112370148e-03
-1.110148034e-03 -9.019948542e-03
-4.130473826e-03 -5.020631361e-04
4.559571389e-03 -4.273816012e-03
8.521337295e-04 1.830422319e-03
1.548583969e-04 9.331948124e-03
1.197406324e-03 6.797861308e-03
-3.263188992e-03 -1.116352854e-03
-1.927389298e-03 1.811144291e-03
1.152944937e-02 -2.937520330e-04
5.488358904e-03 -7.511893287e-03
1.229917863e-03 -2.044405264e-04
-2.693204908e-03 2.161076758e-03
-8.568661287e-03 -3.607559949e-03
-7.039764314e-04 2.117810072e-03
-2.076412085e-03 -1.959107118e-03
1.481362502e-03 3.619474359e-03
7.905518636e-03 1.280744909e-04
